%YAML:1.0
my_boost_tree: !!opencv-ml-boost-tree
   boosting_type: DiscreteAdaboost
   splitting_criteria: 3
   ntrees: 100
   weight_trimming_rate: 9.4999999999999996e-01
   is_classifier: 1
   var_all: 40
   var_count: 40
   ord_var_count: 40
   cat_var_count: 0
   training_params:
      use_surrogates: 1
      max_categories: 10
      max_depth: 1
      min_sample_count: 10
      cross_validation_folds: 0
      priors: !!opencv-matrix
         rows: 1
         cols: 2
         dt: d
         data: [ 1., 1. ]
   var_type: [ 0, 0, 0, 0, 0, 0, 0, 0, 0, 0, 0, 0, 0, 0, 0, 0, 0, 0, 0,
       0, 0, 0, 0, 0, 0, 0, 0, 0, 0, 0, 0, 0, 0, 0, 0, 0, 0, 0, 0, 0 ]
   cat_count: !!opencv-matrix
      rows: 1
      cols: 1
      dt: i
      data: [ 2 ]
   cat_map: !!opencv-matrix
      rows: 1
      cols: 2
      dt: i
      data: [ -1, 1 ]
   trees:
      -
         best_tree_idx: -1
         nodes:
            -
               depth: 0
               sample_count: 410
               value: -2.0442552325547925e+00
               norm_class_idx: 0
               Tn: 0
               complexity: 0
               alpha: 0.
               node_risk: 0.
               tree_risk: 0.
               tree_error: 0.
               splits:
                  - { var:7, quality:8.8536584377288818e-01,
                      le:1.7280215397477150e-02 }
            -
               depth: 1
               sample_count: 7
               value: 2.0442552325547925e+00
               norm_class_idx: 1
               Tn: 0
               complexity: 0
               alpha: 0.
               node_risk: 0.
               tree_risk: 0.
               tree_error: 0.
            -
               depth: 1
               sample_count: 403
               value: -2.0442552325547925e+00
               norm_class_idx: 0
               Tn: 0
               complexity: 0
               alpha: 0.
               node_risk: 0.
               tree_risk: 0.
               tree_error: 0.
      -
         best_tree_idx: -1
         nodes:
            -
               depth: 0
               sample_count: 410
               value: -1.0105820832429477e+00
               norm_class_idx: 0
               Tn: 0
               complexity: 0
               alpha: 0.
               node_risk: 0.
               tree_risk: 0.
               tree_error: 0.
               splits:
                  - { var:37, quality:7.3313403129577637e-01,
                      le:3.8476128131151199e-02 }
                  - { var:36, quality:6.9329959154129028e-01,
                      le:4.4512510299682617e-02 }
                  - { var:31, quality:6.7439222335815430e-01,
                      le:6.1640772968530655e-02 }
                  - { var:35, quality:6.6788202524185181e-01,
                      le:2.7595147490501404e-01 }
                  - { var:33, quality:6.6199499368667603e-01,
                      le:4.9376275390386581e-02 }
                  - { var:34, quality:6.5750449895858765e-01,
                      le:3.1620305776596069e-01 }
                  - { var:32, quality:6.2400829792022705e-01,
                      le:4.1437752544879913e-02 }
                  - { var:17, quality:5.6185024976730347e-01,
                      gt:7.2650516033172607e-01 }
                  - { var:13, quality:5.5057024955749512e-01,
                      gt:9.9989324808120728e-01 }
                  - { var:21, quality:5.4844319820404053e-01,
                      gt:6.5300631523132324e-01 }
                  - { var:22, quality:5.4322218894958496e-01,
                      gt:7.3818761110305786e-01 }
                  - { var:24, quality:5.4120254516601562e-01,
                      gt:7.7562600374221802e-01 }
                  - { var:16, quality:5.4036462306976318e-01,
                      gt:6.2625205516815186e-01 }
                  - { var:20, quality:5.3643274307250977e-01,
                      gt:7.3425424098968506e-01 }
                  - { var:38, quality:5.3288757801055908e-01,
                      le:1.0230150073766708e-03 }
                  - { var:39, quality:5.2856898307800293e-01,
                      le:1.2088057119399309e-03 }
                  - { var:30, quality:5.1599985361099243e-01,
                      le:9.3618677929043770e-03 }
                  - { var:2, quality:5.1022017002105713e-01,
                      le:5.4885864257812500e-02 }
                  - { var:15, quality:5.0540739297866821e-01,
                      gt:7.5439417362213135e-01 }
                  - { var:9, quality:5.0371003150939941e-01,
                      le:2.6362944394350052e-02 }
                  - { var:10, quality:5.0123924016952515e-01,
                      le:1.0352561250329018e-02 }
                  - { var:14, quality:5.0080949068069458e-01,
                      le:9.6680265665054321e-01 }
                  - { var:11, quality:4.9848902225494385e-01,
                      le:1.0683572851121426e-02 }
                  - { var:0, quality:4.9591073393821716e-01,
                      gt:2.1408383548259735e-01 }
                  - { var:4, quality:4.9343991279602051e-01,
                      gt:3.2597771286964417e-01 }
                  - { var:1, quality:4.9270936846733093e-01,
                      le:1.9277606159448624e-02 }
                  - { var:3, quality:4.9142023921012878e-01,
                      le:2.2182360291481018e-02 }
                  - { var:5, quality:4.8867008090019226e-01,
                      gt:2.1912822127342224e-01 }
                  - { var:18, quality:4.8750984668731689e-01,
                      gt:8.0826687812805176e-01 }
                  - { var:6, quality:4.8692974448204041e-01,
                      le:1.8322022631764412e-02 }
                  - { var:7, quality:4.8637112975120544e-01,
                      le:2.7665756642818451e-02 }
                  - { var:28, quality:4.8564061522483826e-01,
                      gt:9.4999998807907104e-01 }
                  - { var:8, quality:4.8188060522079468e-01,
                      le:1.2435298413038254e-02 }
                  - { var:19, quality:4.7998988628387451e-01,
                      gt:8.0433434247970581e-01 }
                  - { var:23, quality:4.7870072722434998e-01,
                      gt:8.0488222837448120e-01 }
            -
               depth: 1
               sample_count: 78
               value: 1.0105820832429477e+00
               norm_class_idx: 1
               Tn: 0
               complexity: 0
               alpha: 0.
               node_risk: 0.
               tree_risk: 0.
               tree_error: 0.
            -
               depth: 1
               sample_count: 332
               value: -1.0105820832429477e+00
               norm_class_idx: 0
               Tn: 0
               complexity: 0
               alpha: 0.
               node_risk: 0.
               tree_risk: 0.
               tree_error: 0.
      -
         best_tree_idx: -1
         nodes:
            -
               depth: 0
               sample_count: 410
               value: 8.7462777127155666e-01
               norm_class_idx: 1
               Tn: 0
               complexity: 0
               alpha: 0.
               node_risk: 0.
               tree_risk: 0.
               tree_error: 0.
               splits:
                  - { var:37, quality:7.0570772886276245e-01,
                      le:1.1399054527282715e-01 }
                  - { var:36, quality:6.7852717638015747e-01,
                      le:1.2923252582550049e-01 }
                  - { var:33, quality:6.3251125812530518e-01,
                      le:8.9086189866065979e-02 }
                  - { var:31, quality:6.2041074037551880e-01,
                      le:1.3571479916572571e-01 }
                  - { var:13, quality:6.1672931909561157e-01,
                      gt:1.4533042907714844e-01 }
                  - { var:34, quality:6.1445176601409912e-01,
                      le:4.6818894147872925e-01 }
                  - { var:18, quality:6.1341458559036255e-01,
                      gt:5.9297144412994385e-01 }
                  - { var:35, quality:6.0635215044021606e-01,
                      le:4.5332303643226624e-01 }
                  - { var:12, quality:6.0497969388961792e-01,
                      le:7.4469530582427979e-01 }
                  - { var:23, quality:6.0067433118820190e-01,
                      gt:6.2362456321716309e-01 }
                  - { var:15, quality:6.0033911466598511e-01,
                      gt:4.9216693639755249e-01 }
                  - { var:32, quality:6.0019481182098389e-01,
                      le:1.0271939635276794e-01 }
                  - { var:19, quality:5.9820598363876343e-01,
                      gt:6.4225649833679199e-01 }
                  - { var:17, quality:5.9820598363876343e-01,
                      gt:3.6391296982765198e-01 }
                  - { var:14, quality:5.9356534481048584e-01,
                      gt:7.8059911727905273e-01 }
                  - { var:22, quality:5.9209519624710083e-01,
                      gt:5.8691698312759399e-01 }
                  - { var:30, quality:5.8675259351730347e-01,
                      le:4.4002853333950043e-02 }
                  - { var:24, quality:5.8295834064483643e-01,
                      gt:4.2368197441101074e-01 }
                  - { var:39, quality:5.8196765184402466e-01,
                      le:2.3391845170408487e-03 }
                  - { var:20, quality:5.8148813247680664e-01,
                      gt:4.6804186701774597e-01 }
                  - { var:16, quality:5.8016222715377808e-01,
                      gt:3.6657518148422241e-01 }
                  - { var:21, quality:5.7618457078933716e-01,
                      gt:3.6150324344635010e-01 }
                  - { var:38, quality:5.6605708599090576e-01,
                      le:2.7955721598118544e-03 }
                  - { var:8, quality:5.6255894899368286e-01,
                      gt:1.3832873664796352e-02 }
                  - { var:11, quality:5.5727118253707886e-01,
                      le:1.5012493729591370e-01 }
                  - { var:6, quality:5.5644065141677856e-01,
                      le:2.0225915312767029e-01 }
                  - { var:7, quality:5.5577772855758667e-01,
                      le:2.7601635456085205e-01 }
                  - { var:0, quality:5.5577772855758667e-01,
                      le:3.7013956904411316e-01 }
            -
               depth: 1
               sample_count: 230
               value: 8.7462777127155666e-01
               norm_class_idx: 1
               Tn: 0
               complexity: 0
               alpha: 0.
               node_risk: 0.
               tree_risk: 0.
               tree_error: 0.
            -
               depth: 1
               sample_count: 180
               value: -8.7462777127155666e-01
               norm_class_idx: 0
               Tn: 0
               complexity: 0
               alpha: 0.
               node_risk: 0.
               tree_risk: 0.
               tree_error: 0.
      -
         best_tree_idx: -1
         nodes:
            -
               depth: 0
               sample_count: 410
               value: -7.8511305763678896e-01
               norm_class_idx: 0
               Tn: 0
               complexity: 0
               alpha: 0.
               node_risk: 0.
               tree_risk: 0.
               tree_error: 0.
               splits:
                  - { var:16, quality:6.8678104877471924e-01,
                      le:6.3029134273529053e-01 }
                  - { var:21, quality:6.6602325439453125e-01,
                      le:6.5639114379882812e-01 }
                  - { var:17, quality:6.5252989530563354e-01,
                      le:6.9166696071624756e-01 }
                  - { var:20, quality:6.2407749891281128e-01,
                      le:6.8745464086532593e-01 }
                  - { var:22, quality:6.1724489927291870e-01,
                      le:7.2541576623916626e-01 }
                  - { var:13, quality:5.8169990777969360e-01,
                      le:9.5934998989105225e-01 }
                  - { var:36, quality:5.7197481393814087e-01,
                      gt:7.2023212909698486e-02 }
                  - { var:31, quality:5.7036286592483521e-01,
                      gt:9.4166234135627747e-02 }
                  - { var:24, quality:5.6688010692596436e-01,
                      le:7.4316120147705078e-01 }
                  - { var:38, quality:5.5729478597640991e-01,
                      gt:1.3987274141982198e-03 }
                  - { var:32, quality:5.4724669456481934e-01,
                      gt:7.9689353704452515e-02 }
                  - { var:34, quality:5.4603582620620728e-01,
                      gt:3.9109963178634644e-01 }
                  - { var:37, quality:5.4422235488891602e-01,
                      gt:6.6702619194984436e-02 }
                  - { var:33, quality:5.4194527864456177e-01,
                      gt:6.4326658844947815e-02 }
                  - { var:14, quality:5.3826969861984253e-01,
                      gt:9.8529493808746338e-01 }
                  - { var:35, quality:5.3542292118072510e-01,
                      gt:3.9567863941192627e-01 }
                  - { var:18, quality:5.3004461526870728e-01,
                      le:7.5393676757812500e-01 }
                  - { var:39, quality:5.2160954475402832e-01,
                      gt:1.5222164802253246e-03 }
                  - { var:30, quality:5.0108391046524048e-01,
                      gt:1.0591080412268639e-02 }
                  - { var:23, quality:4.9571740627288818e-01,
                      le:7.2832345962524414e-01 }
                  - { var:15, quality:4.9296388030052185e-01,
                      le:6.5019792318344116e-01 }
                  - { var:19, quality:4.7973835468292236e-01,
                      le:7.5111019611358643e-01 }
                  - { var:12, quality:4.4312554597854614e-01,
                      gt:2.1435004472732544e-01 }
                  - { var:10, quality:4.2749139666557312e-01,
                      gt:7.1020603179931641e-02 }
                  - { var:8, quality:4.2339262366294861e-01,
                      le:2.7631964534521103e-02 }
                  - { var:3, quality:4.2319789528846741e-01,
                      gt:7.7821440994739532e-02 }
                  - { var:11, quality:4.2066654562950134e-01,
                      le:2.1569734439253807e-02 }
                  - { var:5, quality:4.1919633746147156e-01,
                      gt:1.3599237799644470e-01 }
                  - { var:4, quality:4.1633185744285583e-01,
                      le:4.0950000286102295e-02 }
                  - { var:6, quality:4.0772765874862671e-01,
                      le:5.0314076244831085e-02 }
                  - { var:0, quality:4.0181365609169006e-01,
                      gt:2.2322469949722290e-01 }
                  - { var:1, quality:3.9385777711868286e-01,
                      gt:1.9099856913089752e-01 }
                  - { var:29, quality:3.9116027951240540e-01,
                      gt:7.5000000000000000e-01 }
                  - { var:7, quality:3.8931685686111450e-01,
                      le:3.6286778748035431e-02 }
                  - { var:25, quality:3.8897371292114258e-01,
                      gt:5.5000001192092896e-01 }
                  - { var:2, quality:3.8595989346504211e-01,
                      gt:1.1819364875555038e-01 }
                  - { var:27, quality:3.8504666090011597e-01,
                      gt:7.5000000000000000e-01 }
                  - { var:9, quality:3.8284692168235779e-01,
                      le:7.6226696372032166e-02 }
            -
               depth: 1
               sample_count: 178
               value: 7.8511305763678896e-01
               norm_class_idx: 1
               Tn: 0
               complexity: 0
               alpha: 0.
               node_risk: 0.
               tree_risk: 0.
               tree_error: 0.
            -
               depth: 1
               sample_count: 232
               value: -7.8511305763678896e-01
               norm_class_idx: 0
               Tn: 0
               complexity: 0
               alpha: 0.
               node_risk: 0.
               tree_risk: 0.
               tree_error: 0.
      -
         best_tree_idx: -1
         nodes:
            -
               depth: 0
               sample_count: 345
               value: -6.3960269740348419e-01
               norm_class_idx: 0
               Tn: 0
               complexity: 0
               alpha: 0.
               node_risk: 0.
               tree_risk: 0.
               tree_error: 0.
               splits:
                  - { var:15, quality:6.3770407438278198e-01,
                      le:7.6516985893249512e-01 }
                  - { var:19, quality:5.3753435611724854e-01,
                      le:8.3201360702514648e-01 }
                  - { var:23, quality:5.3264623880386353e-01,
                      le:8.1514787673950195e-01 }
                  - { var:24, quality:5.2189737558364868e-01,
                      le:8.0012166500091553e-01 }
                  - { var:18, quality:4.9553927779197693e-01,
                      le:8.2601904869079590e-01 }
                  - { var:20, quality:4.9463960528373718e-01,
                      le:7.4607771635055542e-01 }
                  - { var:22, quality:4.8713865876197815e-01,
                      le:7.5470268726348877e-01 }
                  - { var:17, quality:4.6586838364601135e-01,
                      le:7.5036978721618652e-01 }
                  - { var:21, quality:4.5259100198745728e-01,
                      le:7.0212268829345703e-01 }
                  - { var:16, quality:4.5114260911941528e-01,
                      le:7.1017521619796753e-01 }
                  - { var:32, quality:4.4734087586402893e-01,
                      gt:4.6561926603317261e-02 }
                  - { var:33, quality:4.2629641294479370e-01,
                      gt:5.4568551480770111e-02 }
                  - { var:31, quality:4.2097783088684082e-01,
                      gt:7.5885400176048279e-02 }
                  - { var:36, quality:4.1444277763366699e-01,
                      gt:7.2891950607299805e-02 }
                  - { var:37, quality:4.0834012627601624e-01,
                      gt:6.1824597418308258e-02 }
                  - { var:13, quality:4.0742427110671997e-01,
                      le:7.7730751037597656e-01 }
                  - { var:5, quality:4.0155157446861267e-01,
                      gt:4.0582917630672455e-02 }
                  - { var:2, quality:3.9550501108169556e-01,
                      le:1.7952099442481995e-01 }
                  - { var:34, quality:3.9292532205581665e-01,
                      gt:3.4388798475265503e-01 }
                  - { var:7, quality:3.8776382803916931e-01,
                      gt:2.8545107692480087e-02 }
                  - { var:9, quality:3.8420021533966064e-01,
                      le:1.2901136279106140e-01 }
                  - { var:4, quality:3.8363334536552429e-01,
                      le:2.1295870840549469e-01 }
                  - { var:8, quality:3.8223928213119507e-01,
                      gt:2.0123492926359177e-02 }
                  - { var:11, quality:3.8164409995079041e-01,
                      gt:1.8438458442687988e-02 }
                  - { var:6, quality:3.8108721375465393e-01,
                      le:6.9757238030433655e-02 }
                  - { var:1, quality:3.7780347466468811e-01,
                      le:6.5736934542655945e-02 }
                  - { var:14, quality:3.7728267908096313e-01,
                      le:8.6875772476196289e-01 }
                  - { var:26, quality:3.7309855222702026e-01,
                      le:2.5000000000000000e-01 }
                  - { var:35, quality:3.7249413132667542e-01,
                      gt:3.7611716985702515e-01 }
                  - { var:10, quality:3.7145441770553589e-01,
                      gt:2.0571239292621613e-02 }
                  - { var:3, quality:3.7116289138793945e-01,
                      gt:2.9984537512063980e-02 }
                  - { var:38, quality:3.7023359537124634e-01,
                      gt:1.4005135744810104e-03 }
                  - { var:25, quality:3.7021872401237488e-01,
                      le:6.4999997615814209e-01 }
                  - { var:0, quality:3.7005183100700378e-01,
                      le:2.6406478881835938e-01 }
                  - { var:28, quality:3.6527442932128906e-01,
                      le:8.5000002384185791e-01 }
            -
               depth: 1
               sample_count: 218
               value: -6.3960269740348419e-01
               norm_class_idx: 0
               Tn: 0
               complexity: 0
               alpha: 0.
               node_risk: 0.
               tree_risk: 0.
               tree_error: 0.
            -
               depth: 1
               sample_count: 127
               value: 6.3960269740348419e-01
               norm_class_idx: 1
               Tn: 0
               complexity: 0
               alpha: 0.
               node_risk: 0.
               tree_risk: 0.
               tree_error: 0.
      -
         best_tree_idx: -1
         nodes:
            -
               depth: 0
               sample_count: 345
               value: -4.7105262457979663e-01
               norm_class_idx: 0
               Tn: 0
               complexity: 0
               alpha: 0.
               node_risk: 0.
               tree_risk: 0.
               tree_error: 0.
               splits:
                  - { var:0, quality:5.9840917587280273e-01,
                      le:1.2320880591869354e-01 }
                  - { var:8, quality:3.9724591374397278e-01,
                      gt:6.9761157035827637e-02 }
                  - { var:4, quality:3.9020976424217224e-01,
                      gt:1.5298615396022797e-01 }
                  - { var:10, quality:3.8982820510864258e-01,
                      gt:7.4677824974060059e-02 }
                  - { var:6, quality:3.8659960031509399e-01,
                      gt:6.7151717841625214e-02 }
                  - { var:2, quality:3.8205358386039734e-01,
                      le:7.3110118508338928e-02 }
                  - { var:11, quality:3.8025081157684326e-01,
                      gt:9.2770427465438843e-02 }
                  - { var:38, quality:3.7406471371650696e-01,
                      gt:2.4005486629903316e-03 }
                  - { var:9, quality:3.7182155251502991e-01,
                      gt:1.0524575412273407e-01 }
                  - { var:39, quality:3.6770960688591003e-01,
                      gt:1.6660570399835706e-03 }
                  - { var:20, quality:3.6707797646522522e-01,
                      le:3.7457129359245300e-01 }
                  - { var:26, quality:3.6595118045806885e-01,
                      gt:2.5000000000000000e-01 }
                  - { var:21, quality:3.6587253212928772e-01,
                      le:2.8902548551559448e-01 }
                  - { var:24, quality:3.6562234163284302e-01,
                      le:5.3878521919250488e-01 }
                  - { var:22, quality:3.6562234163284302e-01,
                      le:3.9500713348388672e-01 }
                  - { var:17, quality:3.6481478810310364e-01,
                      le:2.4175135791301727e-01 }
                  - { var:30, quality:3.6473459005355835e-01,
                      gt:2.3732904344797134e-02 }
                  - { var:16, quality:3.6260399222373962e-01,
                      le:2.5726395845413208e-01 }
                  - { var:5, quality:3.6250546574592590e-01,
                      le:3.7554189562797546e-02 }
                  - { var:19, quality:3.5950022935867310e-01,
                      le:5.7926619052886963e-01 }
                  - { var:7, quality:3.5810980200767517e-01,
                      le:2.2622540593147278e-02 }
                  - { var:23, quality:3.5769155621528625e-01,
                      le:5.5989640951156616e-01 }
                  - { var:35, quality:3.5604295134544373e-01,
                      gt:5.0859403610229492e-01 }
                  - { var:12, quality:3.5427111387252808e-01,
                      gt:6.6885419189929962e-02 }
                  - { var:18, quality:3.5381907224655151e-01,
                      gt:8.8641238212585449e-01 }
                  - { var:37, quality:3.5370647907257080e-01,
                      gt:1.6782557964324951e-01 }
                  - { var:13, quality:3.5170528292655945e-01,
                      le:3.7197351455688477e-01 }
                  - { var:3, quality:3.5084199905395508e-01,
                      le:2.6359226554632187e-02 }
                  - { var:14, quality:3.5079461336135864e-01,
                      le:8.1292372941970825e-01 }
                  - { var:36, quality:3.5057923197746277e-01,
                      gt:1.5881764888763428e-01 }
                  - { var:1, quality:3.5046106576919556e-01,
                      gt:1.8507468700408936e-01 }
                  - { var:31, quality:3.4943255782127380e-01,
                      gt:1.5260356664657593e-01 }
                  - { var:33, quality:3.4804069995880127e-01,
                      gt:1.4121273159980774e-01 }
                  - { var:28, quality:3.4606581926345825e-01,
                      gt:3.5000002384185791e-01 }
                  - { var:15, quality:3.4540709853172302e-01,
                      le:1.8003252148628235e-01 }
                  - { var:29, quality:3.4509301185607910e-01,
                      gt:9.4999998807907104e-01 }
                  - { var:32, quality:3.4334591031074524e-01,
                      le:1.7679305747151375e-02 }
                  - { var:34, quality:3.4301376342773438e-01,
                      gt:5.2436101436614990e-01 }
                  - { var:27, quality:3.4198781847953796e-01,
                      gt:7.5000000000000000e-01 }
            -
               depth: 1
               sample_count: 173
               value: -4.7105262457979663e-01
               norm_class_idx: 0
               Tn: 0
               complexity: 0
               alpha: 0.
               node_risk: 0.
               tree_risk: 0.
               tree_error: 0.
            -
               depth: 1
               sample_count: 172
               value: 4.7105262457979663e-01
               norm_class_idx: 1
               Tn: 0
               complexity: 0
               alpha: 0.
               node_risk: 0.
               tree_risk: 0.
               tree_error: 0.
      -
         best_tree_idx: -1
         nodes:
            -
               depth: 0
               sample_count: 361
               value: -4.7938720603212798e-01
               norm_class_idx: 0
               Tn: 0
               complexity: 0
               alpha: 0.
               node_risk: 0.
               tree_risk: 0.
               tree_error: 0.
               splits:
                  - { var:1, quality:6.0149985551834106e-01,
                      le:6.6034838557243347e-02 }
                  - { var:6, quality:3.9065891504287720e-01,
                      le:6.8963527679443359e-02 }
                  - { var:7, quality:3.8963329792022705e-01,
                      gt:4.9521408975124359e-02 }
                  - { var:15, quality:3.8018178939819336e-01,
                      le:7.3361182212829590e-01 }
                  - { var:5, quality:3.6776876449584961e-01,
                      gt:8.7188735604286194e-02 }
                  - { var:20, quality:3.6705949902534485e-01,
                      le:7.4457859992980957e-01 }
                  - { var:23, quality:3.6666062474250793e-01,
                      le:8.0683195590972900e-01 }
                  - { var:17, quality:3.6626026034355164e-01,
                      le:7.4229133129119873e-01 }
                  - { var:24, quality:3.6199277639389038e-01,
                      le:7.6770520210266113e-01 }
                  - { var:18, quality:3.5965424776077271e-01,
                      le:8.2113456726074219e-01 }
                  - { var:22, quality:3.5957574844360352e-01,
                      le:7.5381958484649658e-01 }
                  - { var:33, quality:3.5779234766960144e-01,
                      gt:3.6018241196870804e-02 }
                  - { var:16, quality:3.5580176115036011e-01,
                      le:6.8146395683288574e-01 }
                  - { var:21, quality:3.5459420084953308e-01,
                      le:7.2338932752609253e-01 }
                  - { var:36, quality:3.5443964600563049e-01,
                      gt:1.7330264672636986e-02 }
                  - { var:39, quality:3.5251954197883606e-01,
                      gt:1.3836090220138431e-03 }
                  - { var:19, quality:3.4950223565101624e-01,
                      le:8.0493783950805664e-01 }
                  - { var:32, quality:3.4835690259933472e-01,
                      gt:3.2878816127777100e-02 }
                  - { var:9, quality:3.4764569997787476e-01,
                      gt:2.1759387105703354e-02 }
                  - { var:35, quality:3.4750342369079590e-01,
                      le:5.0859403610229492e-01 }
                  - { var:27, quality:3.4738802909851074e-01,
                      le:5.5000001192092896e-01 }
                  - { var:4, quality:3.4411039948463440e-01,
                      gt:3.6225080490112305e-02 }
                  - { var:8, quality:3.4325015544891357e-01,
                      le:4.5735713094472885e-02 }
                  - { var:31, quality:3.4202802181243896e-01,
                      gt:5.2588116377592087e-02 }
                  - { var:34, quality:3.4192228317260742e-01,
                      le:4.7011172771453857e-01 }
                  - { var:25, quality:3.4057751297950745e-01,
                      gt:2.5000000000000000e-01 }
                  - { var:37, quality:3.4006032347679138e-01,
                      gt:1.6906265169382095e-02 }
                  - { var:30, quality:3.3989527821540833e-01,
                      gt:1.0909430682659149e-02 }
                  - { var:38, quality:3.3908125758171082e-01,
                      le:2.4372586049139500e-03 }
                  - { var:14, quality:3.3801591396331787e-01,
                      gt:9.0142232179641724e-01 }
                  - { var:2, quality:3.3633470535278320e-01,
                      le:1.9251596927642822e-01 }
                  - { var:3, quality:3.3339086174964905e-01,
                      gt:4.4205605983734131e-02 }
                  - { var:29, quality:3.3077120780944824e-01,
                      le:4.4999998807907104e-01 }
                  - { var:28, quality:3.3010119199752808e-01,
                      le:2.5000000000000000e-01 }
                  - { var:10, quality:3.2959502935409546e-01,
                      gt:3.8962215185165405e-02 }
                  - { var:12, quality:3.2568874955177307e-01,
                      le:8.9270395040512085e-01 }
                  - { var:13, quality:3.2565492391586304e-01,
                      gt:3.8619893789291382e-01 }
                  - { var:11, quality:3.2487925887107849e-01,
                      gt:3.9816800504922867e-02 }
                  - { var:0, quality:3.2337123155593872e-01,
                      gt:1.1587828397750854e-01 }
                  - { var:26, quality:3.1774824857711792e-01,
                      gt:5.5000001192092896e-01 }
            -
               depth: 1
               sample_count: 144
               value: 4.7938720603212798e-01
               norm_class_idx: 1
               Tn: 0
               complexity: 0
               alpha: 0.
               node_risk: 0.
               tree_risk: 0.
               tree_error: 0.
            -
               depth: 1
               sample_count: 217
               value: -4.7938720603212798e-01
               norm_class_idx: 0
               Tn: 0
               complexity: 0
               alpha: 0.
               node_risk: 0.
               tree_risk: 0.
               tree_error: 0.
      -
         best_tree_idx: -1
         nodes:
            -
               depth: 0
               sample_count: 318
               value: -4.5327243952385188e-01
               norm_class_idx: 0
               Tn: 0
               complexity: 0
               alpha: 0.
               node_risk: 0.
               tree_risk: 0.
               tree_error: 0.
               splits:
                  - { var:7, quality:5.9749382734298706e-01,
                      le:1.0018643736839294e-01 }
                  - { var:8, quality:4.4388282299041748e-01,
                      gt:2.6678364723920822e-02 }
                  - { var:39, quality:4.3464073538780212e-01,
                      gt:4.2041379492729902e-04 }
                  - { var:1, quality:4.3350932002067566e-01,
                      gt:4.5907907187938690e-02 }
                  - { var:30, quality:4.3271499872207642e-01,
                      gt:2.2657355293631554e-03 }
                  - { var:38, quality:4.3209272623062134e-01,
                      gt:2.4547218345105648e-04 }
                  - { var:6, quality:4.2989557981491089e-01,
                      gt:1.7594221979379654e-02 }
                  - { var:3, quality:4.2756518721580505e-01,
                      gt:2.4119321256875992e-02 }
                  - { var:5, quality:4.2638850212097168e-01,
                      gt:2.6970500126481056e-02 }
                  - { var:14, quality:4.2576423287391663e-01,
                      gt:7.9743218421936035e-01 }
                  - { var:2, quality:4.2269802093505859e-01,
                      le:2.2120153903961182e-01 }
                  - { var:34, quality:4.2207661271095276e-01,
                      le:5.1975572109222412e-01 }
                  - { var:9, quality:4.2008975148200989e-01,
                      le:1.9534650444984436e-01 }
                  - { var:0, quality:4.2001804709434509e-01,
                      gt:5.2493311464786530e-02 }
                  - { var:10, quality:4.1945129632949829e-01,
                      le:2.1520066261291504e-01 }
                  - { var:15, quality:4.1788625717163086e-01,
                      gt:8.8718488812446594e-02 }
                  - { var:24, quality:4.1756278276443481e-01,
                      gt:1.4393258094787598e-01 }
                  - { var:16, quality:4.1736820340156555e-01,
                      le:8.0625259876251221e-01 }
                  - { var:12, quality:4.1732567548751831e-01,
                      le:7.4565732479095459e-01 }
                  - { var:17, quality:4.1723644733428955e-01,
                      gt:9.7603112459182739e-02 }
                  - { var:36, quality:4.1723439097404480e-01,
                      gt:6.6796308383345604e-03 }
                  - { var:21, quality:4.1659694910049438e-01,
                      gt:5.1860142499208450e-02 }
                  - { var:19, quality:4.1622674465179443e-01,
                      gt:9.3968749046325684e-02 }
                  - { var:20, quality:4.1573572158813477e-01,
                      gt:9.2387542128562927e-02 }
                  - { var:23, quality:4.1567119956016541e-01,
                      le:9.6695876121520996e-01 }
                  - { var:35, quality:4.1563233733177185e-01,
                      gt:8.7134771049022675e-02 }
                  - { var:22, quality:4.1520696878433228e-01,
                      gt:1.0247771441936493e-01 }
                  - { var:11, quality:4.1519805788993835e-01,
                      le:2.2157910466194153e-01 }
                  - { var:37, quality:4.1519358754158020e-01,
                      le:3.0711627006530762e-01 }
                  - { var:32, quality:4.1512134671211243e-01,
                      le:1.8766565620899200e-01 }
                  - { var:31, quality:4.1512134671211243e-01,
                      le:2.0270021259784698e-01 }
                  - { var:18, quality:4.1494187712669373e-01,
                      gt:9.1045849025249481e-02 }
            -
               depth: 1
               sample_count: 205
               value: 4.5327243952385188e-01
               norm_class_idx: 1
               Tn: 0
               complexity: 0
               alpha: 0.
               node_risk: 0.
               tree_risk: 0.
               tree_error: 0.
            -
               depth: 1
               sample_count: 113
               value: -4.5327243952385188e-01
               norm_class_idx: 0
               Tn: 0
               complexity: 0
               alpha: 0.
               node_risk: 0.
               tree_risk: 0.
               tree_error: 0.
      -
         best_tree_idx: -1
         nodes:
            -
               depth: 0
               sample_count: 315
               value: -5.9042382460732001e-01
               norm_class_idx: 0
               Tn: 0
               complexity: 0
               alpha: 0.
               node_risk: 0.
               tree_risk: 0.
               tree_error: 0.
               splits:
                  - { var:9, quality:6.0983878374099731e-01,
                      le:4.8577398061752319e-02 }
                  - { var:3, quality:4.4598633050918579e-01,
                      gt:1.0751976072788239e-01 }
                  - { var:11, quality:4.0624067187309265e-01,
                      le:1.8438458442687988e-02 }
                  - { var:6, quality:4.0274682641029358e-01,
                      gt:1.1367403715848923e-01 }
                  - { var:1, quality:3.9400517940521240e-01,
                      gt:1.6723376512527466e-01 }
                  - { var:4, quality:3.8837626576423645e-01,
                      gt:1.9248515367507935e-01 }
                  - { var:8, quality:3.8780203461647034e-01,
                      gt:9.2706039547920227e-02 }
                  - { var:10, quality:3.8767546415328979e-01,
                      gt:1.5726792812347412e-01 }
                  - { var:15, quality:3.8755720853805542e-01,
                      gt:8.6884969472885132e-01 }
                  - { var:21, quality:3.8667973875999451e-01,
                      le:9.1820783913135529e-02 }
                  - { var:7, quality:3.8606023788452148e-01,
                      gt:9.8075360059738159e-02 }
                  - { var:12, quality:3.8581949472427368e-01,
                      gt:2.0321787893772125e-01 }
                  - { var:0, quality:3.8345509767532349e-01,
                      gt:2.7353557944297791e-01 }
                  - { var:16, quality:3.8212874531745911e-01,
                      le:2.5884311646223068e-02 }
                  - { var:38, quality:3.8038989901542664e-01,
                      le:2.5774305686354637e-04 }
                  - { var:36, quality:3.8033714890480042e-01,
                      le:8.6780628189444542e-03 }
                  - { var:17, quality:3.7913453578948975e-01,
                      le:2.1528193354606628e-01 }
                  - { var:13, quality:3.7912613153457642e-01,
                      le:3.8192504644393921e-01 }
                  - { var:20, quality:3.7848711013793945e-01,
                      le:3.3445173501968384e-01 }
                  - { var:25, quality:3.7818703055381775e-01,
                      gt:9.4999998807907104e-01 }
                  - { var:35, quality:3.7814989686012268e-01,
                      le:1.0312862694263458e-01 }
                  - { var:34, quality:3.7814989686012268e-01,
                      le:1.1565896868705750e-01 }
                  - { var:39, quality:3.7695971131324768e-01,
                      le:1.3071793364360929e-04 }
                  - { var:37, quality:3.7680339813232422e-01,
                      le:4.7034444287419319e-03 }
                  - { var:2, quality:3.7678942084312439e-01,
                      le:6.2020704150199890e-02 }
                  - { var:33, quality:3.7678056955337524e-01,
                      le:3.1621992588043213e-02 }
                  - { var:22, quality:3.7581151723861694e-01,
                      le:3.6233502626419067e-01 }
                  - { var:31, quality:3.7518525123596191e-01,
                      le:4.8377588391304016e-02 }
                  - { var:30, quality:3.7458488345146179e-01,
                      gt:5.2321195602416992e-02 }
                  - { var:5, quality:3.7253469228744507e-01,
                      gt:3.4250646829605103e-01 }
                  - { var:26, quality:3.7202179431915283e-01,
                      gt:9.4999998807907104e-01 }
                  - { var:32, quality:3.7139445543289185e-01,
                      gt:1.1362142860889435e-01 }
                  - { var:24, quality:3.7127742171287537e-01,
                      le:3.3189371228218079e-02 }
                  - { var:23, quality:3.7107875943183899e-01,
                      le:1.8246004357933998e-02 }
                  - { var:18, quality:3.7047490477561951e-01,
                      le:9.1045849025249481e-02 }
            -
               depth: 1
               sample_count: 101
               value: 5.9042382460732001e-01
               norm_class_idx: 1
               Tn: 0
               complexity: 0
               alpha: 0.
               node_risk: 0.
               tree_risk: 0.
               tree_error: 0.
            -
               depth: 1
               sample_count: 214
               value: -5.9042382460732001e-01
               norm_class_idx: 0
               Tn: 0
               complexity: 0
               alpha: 0.
               node_risk: 0.
               tree_risk: 0.
               tree_error: 0.
      -
         best_tree_idx: -1
         nodes:
            -
               depth: 0
               sample_count: 306
               value: -5.1297838445516208e-01
               norm_class_idx: 0
               Tn: 0
               complexity: 0
               alpha: 0.
               node_risk: 0.
               tree_risk: 0.
               tree_error: 0.
               splits:
                  - { var:2, quality:5.9674751758575439e-01,
                      le:1.2931400537490845e-01 }
                  - { var:8, quality:4.5791202783584595e-01,
                      gt:4.6943187713623047e-02 }
                  - { var:5, quality:4.5268583297729492e-01,
                      gt:2.5284036993980408e-02 }
                  - { var:4, quality:4.4636052846908569e-01,
                      gt:4.0950000286102295e-02 }
                  - { var:3, quality:4.3685546517372131e-01,
                      gt:3.5487350076436996e-02 }
                  - { var:0, quality:4.2972758412361145e-01,
                      gt:6.1900366097688675e-02 }
                  - { var:1, quality:4.2538902163505554e-01,
                      le:1.9099856913089752e-01 }
                  - { var:32, quality:4.2531478404998779e-01,
                      le:9.0527221560478210e-02 }
                  - { var:15, quality:4.2457875609397888e-01,
                      gt:4.6429818868637085e-01 }
                  - { var:10, quality:4.2324787378311157e-01,
                      gt:2.1504497155547142e-02 }
                  - { var:9, quality:4.2120093107223511e-01,
                      le:2.1806803345680237e-01 }
                  - { var:11, quality:4.1964307427406311e-01,
                      gt:4.2099305428564548e-03 }
                  - { var:17, quality:4.1926640272140503e-01,
                      le:8.5527944564819336e-01 }
                  - { var:21, quality:4.1908800601959229e-01,
                      le:7.9863780736923218e-01 }
                  - { var:7, quality:4.1889920830726624e-01,
                      le:2.5941520929336548e-01 }
                  - { var:20, quality:4.1833117604255676e-01,
                      le:8.4514904022216797e-01 }
                  - { var:18, quality:4.1829875111579895e-01,
                      gt:5.1389628648757935e-01 }
                  - { var:6, quality:4.1814434528350830e-01,
                      gt:2.1814595907926559e-02 }
                  - { var:23, quality:4.1800388693809509e-01,
                      le:9.4727867841720581e-01 }
                  - { var:19, quality:4.1779139637947083e-01,
                      gt:6.4448609948158264e-02 }
                  - { var:39, quality:4.1752475500106812e-01,
                      le:4.8791505396366119e-03 }
                  - { var:38, quality:4.1752475500106812e-01,
                      le:4.5720553025603294e-03 }
                  - { var:30, quality:4.1752475500106812e-01,
                      le:1.1040723323822021e-01 }
                  - { var:31, quality:4.1699287295341492e-01,
                      le:1.9778704643249512e-01 }
            -
               depth: 1
               sample_count: 229
               value: -5.1297838445516208e-01
               norm_class_idx: 0
               Tn: 0
               complexity: 0
               alpha: 0.
               node_risk: 0.
               tree_risk: 0.
               tree_error: 0.
            -
               depth: 1
               sample_count: 77
               value: 5.1297838445516208e-01
               norm_class_idx: 1
               Tn: 0
               complexity: 0
               alpha: 0.
               node_risk: 0.
               tree_risk: 0.
               tree_error: 0.
      -
         best_tree_idx: -1
         nodes:
            -
               depth: 0
               sample_count: 302
               value: 3.6416560337361203e-01
               norm_class_idx: 1
               Tn: 0
               complexity: 0
               alpha: 0.
               node_risk: 0.
               tree_risk: 0.
               tree_error: 0.
               splits:
                  - { var:30, quality:5.8207923173904419e-01,
                      le:9.1380095109343529e-03 }
                  - { var:38, quality:5.6334811449050903e-01,
                      le:9.5084367785602808e-04 }
                  - { var:39, quality:5.6135255098342896e-01,
                      le:9.5271476311609149e-04 }
                  - { var:21, quality:4.9616399407386780e-01,
                      gt:7.2921347618103027e-01 }
                  - { var:34, quality:4.9206823110580444e-01,
                      le:1.5828955173492432e-01 }
                  - { var:35, quality:4.7805994749069214e-01,
                      le:1.6715393960475922e-01 }
                  - { var:16, quality:4.7532805800437927e-01,
                      gt:6.8949896097183228e-01 }
                  - { var:37, quality:4.7026622295379639e-01,
                      le:1.5800783410668373e-02 }
                  - { var:36, quality:4.6833482384681702e-01,
                      le:1.5684049576520920e-02 }
                  - { var:1, quality:4.6390318870544434e-01,
                      le:2.0323820412158966e-02 }
                  - { var:2, quality:4.6382534503936768e-01,
                      le:3.9203085005283356e-02 }
                  - { var:4, quality:4.6112051606178284e-01,
                      gt:3.1145039200782776e-01 }
                  - { var:10, quality:4.6082225441932678e-01,
                      le:7.0452815853059292e-03 }
                  - { var:6, quality:4.5803052186965942e-01,
                      le:1.7594221979379654e-02 }
                  - { var:31, quality:4.5753714442253113e-01,
                      le:3.2856144011020660e-02 }
                  - { var:5, quality:4.5404815673828125e-01,
                      gt:2.2084251046180725e-01 }
                  - { var:32, quality:4.5373594760894775e-01,
                      le:2.1550502628087997e-02 }
                  - { var:9, quality:4.5350742340087891e-01,
                      le:8.7990481406450272e-03 }
                  - { var:3, quality:4.5238113403320312e-01,
                      le:1.4809887856245041e-02 }
                  - { var:20, quality:4.5201915502548218e-01,
                      gt:8.1316566467285156e-01 }
                  - { var:22, quality:4.5135617256164551e-01,
                      gt:8.0502438545227051e-01 }
                  - { var:33, quality:4.5044937729835510e-01,
                      le:3.2108172774314880e-02 }
                  - { var:8, quality:4.5039731264114380e-01,
                      gt:1.3976491987705231e-01 }
                  - { var:24, quality:4.5025765895843506e-01,
                      gt:8.6396616697311401e-01 }
                  - { var:0, quality:4.5021685957908630e-01,
                      le:3.9944656193256378e-02 }
                  - { var:18, quality:4.4900900125503540e-01,
                      gt:9.3390440940856934e-01 }
                  - { var:19, quality:4.4807249307632446e-01,
                      gt:9.3037581443786621e-01 }
                  - { var:11, quality:4.4760465621948242e-01,
                      gt:1.4355558156967163e-01 }
                  - { var:17, quality:4.4723188877105713e-01,
                      gt:7.3970580101013184e-01 }
                  - { var:7, quality:4.4718763232231140e-01,
                      le:9.7677391022443771e-03 }
                  - { var:23, quality:4.4663378596305847e-01,
                      gt:9.1697704792022705e-01 }
            -
               depth: 1
               sample_count: 83
               value: -3.6416560337361203e-01
               norm_class_idx: 0
               Tn: 0
               complexity: 0
               alpha: 0.
               node_risk: 0.
               tree_risk: 0.
               tree_error: 0.
            -
               depth: 1
               sample_count: 219
               value: 3.6416560337361203e-01
               norm_class_idx: 1
               Tn: 0
               complexity: 0
               alpha: 0.
               node_risk: 0.
               tree_risk: 0.
               tree_error: 0.
      -
         best_tree_idx: -1
         nodes:
            -
               depth: 0
               sample_count: 309
               value: -6.3393784577744883e-01
               norm_class_idx: 0
               Tn: 0
               complexity: 0
               alpha: 0.
               node_risk: 0.
               tree_risk: 0.
               tree_error: 0.
               splits:
                  - { var:33, quality:6.0470819473266602e-01,
                      le:3.6018241196870804e-02 }
                  - { var:31, quality:5.6991046667098999e-01,
                      le:5.1206268370151520e-02 }
                  - { var:32, quality:5.4827576875686646e-01,
                      le:3.5548835992813110e-02 }
                  - { var:37, quality:5.3615599870681763e-01,
                      le:1.6785606741905212e-02 }
                  - { var:36, quality:5.3260725736618042e-01,
                      le:1.4574558474123478e-02 }
                  - { var:35, quality:5.3251212835311890e-01,
                      le:2.1763436496257782e-01 }
                  - { var:34, quality:5.1911425590515137e-01,
                      le:2.1178668737411499e-01 }
                  - { var:4, quality:5.0290745496749878e-01,
                      gt:3.2597771286964417e-01 }
                  - { var:9, quality:4.9855855107307434e-01,
                      le:8.7990481406450272e-03 }
                  - { var:10, quality:4.9211534857749939e-01,
                      le:7.0452815853059292e-03 }
                  - { var:5, quality:4.9165645241737366e-01,
                      le:2.0220451056957245e-02 }
                  - { var:6, quality:4.8793902993202209e-01,
                      gt:1.9756519794464111e-01 }
                  - { var:11, quality:4.8786878585815430e-01,
                      le:4.2099305428564548e-03 }
                  - { var:39, quality:4.8651328682899475e-01,
                      le:6.2860155594535172e-05 }
                  - { var:30, quality:4.8651328682899475e-01,
                      le:7.2709997766651213e-05 }
            -
               depth: 1
               sample_count: 38
               value: 6.3393784577744883e-01
               norm_class_idx: 1
               Tn: 0
               complexity: 0
               alpha: 0.
               node_risk: 0.
               tree_risk: 0.
               tree_error: 0.
            -
               depth: 1
               sample_count: 271
               value: -6.3393784577744883e-01
               norm_class_idx: 0
               Tn: 0
               complexity: 0
               alpha: 0.
               node_risk: 0.
               tree_risk: 0.
               tree_error: 0.
      -
         best_tree_idx: -1
         nodes:
            -
               depth: 0
               sample_count: 300
               value: 5.4889844815989308e-01
               norm_class_idx: 1
               Tn: 0
               complexity: 0
               alpha: 0.
               node_risk: 0.
               tree_risk: 0.
               tree_error: 0.
               splits:
                  - { var:14, quality:6.1127102375030518e-01,
                      le:8.6221837997436523e-01 }
                  - { var:23, quality:5.5516302585601807e-01,
                      le:5.2938878536224365e-01 }
                  - { var:19, quality:5.5382561683654785e-01,
                      le:5.4302209615707397e-01 }
                  - { var:18, quality:5.5212819576263428e-01,
                      le:5.1168686151504517e-01 }
                  - { var:12, quality:5.5201160907745361e-01,
                      gt:8.1378114223480225e-01 }
                  - { var:35, quality:5.4936969280242920e-01,
                      le:1.4052371680736542e-01 }
                  - { var:36, quality:5.4922682046890259e-01,
                      le:8.4595102816820145e-03 }
                  - { var:24, quality:5.4879200458526611e-01,
                      le:4.2368197441101074e-01 }
                  - { var:15, quality:5.4657769203186035e-01,
                      le:4.3808239698410034e-01 }
                  - { var:10, quality:5.4591566324234009e-01,
                      gt:1.7691572010517120e-01 }
                  - { var:34, quality:5.4583084583282471e-01,
                      le:1.1847795546054840e-01 }
                  - { var:17, quality:5.4579073190689087e-01,
                      le:1.9123864173889160e-01 }
                  - { var:22, quality:5.4464811086654663e-01,
                      le:3.6233502626419067e-01 }
                  - { var:21, quality:5.4316598176956177e-01,
                      le:7.6097503304481506e-02 }
                  - { var:37, quality:5.4311740398406982e-01,
                      le:4.7034444287419319e-03 }
                  - { var:38, quality:5.4104685783386230e-01,
                      le:2.3120103287510574e-04 }
                  - { var:39, quality:5.4047715663909912e-01,
                      le:2.2275431547313929e-04 }
                  - { var:30, quality:5.4047715663909912e-01,
                      le:1.2381132692098618e-03 }
                  - { var:20, quality:5.3985410928726196e-01,
                      le:1.9320781528949738e-01 }
                  - { var:6, quality:5.3923141956329346e-01,
                      le:1.6110595315694809e-02 }
                  - { var:3, quality:5.3843230009078979e-01,
                      le:9.4411112368106842e-03 }
                  - { var:8, quality:5.3805905580520630e-01,
                      le:9.0102870017290115e-03 }
                  - { var:32, quality:5.3713762760162354e-01,
                      gt:1.3588666915893555e-01 }
                  - { var:31, quality:5.3709560632705688e-01,
                      gt:1.7157590389251709e-01 }
                  - { var:16, quality:5.3707134723663330e-01,
                      gt:9.6830385923385620e-01 }
                  - { var:25, quality:5.3623896837234497e-01,
                      gt:9.4999998807907104e-01 }
                  - { var:11, quality:5.3619813919067383e-01,
                      gt:2.2157910466194153e-01 }
            -
               depth: 1
               sample_count: 75
               value: -5.4889844815989308e-01
               norm_class_idx: 0
               Tn: 0
               complexity: 0
               alpha: 0.
               node_risk: 0.
               tree_risk: 0.
               tree_error: 0.
            -
               depth: 1
               sample_count: 225
               value: 5.4889844815989308e-01
               norm_class_idx: 1
               Tn: 0
               complexity: 0
               alpha: 0.
               node_risk: 0.
               tree_risk: 0.
               tree_error: 0.
      -
         best_tree_idx: -1
         nodes:
            -
               depth: 0
               sample_count: 287
               value: -4.8828166140384915e-01
               norm_class_idx: 0
               Tn: 0
               complexity: 0
               alpha: 0.
               node_risk: 0.
               tree_risk: 0.
               tree_error: 0.
               splits:
                  - { var:32, quality:5.9951043128967285e-01,
                      le:7.9822361469268799e-02 }
                  - { var:31, quality:5.3869760036468506e-01,
                      le:1.0140088945627213e-01 }
                  - { var:33, quality:5.3255385160446167e-01,
                      le:7.3102042078971863e-02 }
                  - { var:36, quality:5.1076775789260864e-01,
                      le:1.0028541088104248e-01 }
                  - { var:34, quality:5.0388300418853760e-01,
                      le:4.2985731363296509e-01 }
                  - { var:16, quality:4.8687538504600525e-01,
                      gt:5.1879376173019409e-01 }
                  - { var:21, quality:4.8414197564125061e-01,
                      gt:5.1137804985046387e-01 }
                  - { var:35, quality:4.8339092731475830e-01,
                      le:4.2341846227645874e-01 }
                  - { var:37, quality:4.8198387026786804e-01,
                      le:9.6207484602928162e-02 }
                  - { var:17, quality:4.8183134198188782e-01,
                      gt:5.4234683513641357e-01 }
                  - { var:13, quality:4.8123735189437866e-01,
                      gt:7.7730751037597656e-01 }
                  - { var:22, quality:4.7095045447349548e-01,
                      gt:6.2852537631988525e-01 }
                  - { var:24, quality:4.6448618173599243e-01,
                      gt:6.7820066213607788e-01 }
                  - { var:20, quality:4.6125319600105286e-01,
                      gt:6.8614935874938965e-01 }
                  - { var:18, quality:4.5916920900344849e-01,
                      gt:7.5374126434326172e-01 }
                  - { var:23, quality:4.5746606588363647e-01,
                      gt:7.4387383460998535e-01 }
                  - { var:19, quality:4.4841617345809937e-01,
                      gt:7.5286197662353516e-01 }
                  - { var:15, quality:4.4169944524765015e-01,
                      gt:6.2737244367599487e-01 }
                  - { var:8, quality:4.2595648765563965e-01,
                      gt:2.7631964534521103e-02 }
                  - { var:5, quality:4.2329978942871094e-01,
                      le:1.3599237799644470e-01 }
                  - { var:10, quality:4.2279529571533203e-01,
                      le:1.0004092752933502e-01 }
                  - { var:4, quality:4.2207828164100647e-01,
                      gt:4.6476200222969055e-02 }
                  - { var:11, quality:4.2190992832183838e-01,
                      gt:2.0543958991765976e-02 }
                  - { var:12, quality:4.1971406340599060e-01,
                      le:8.8781174272298813e-03 }
                  - { var:25, quality:4.1688781976699829e-01,
                      le:9.4999998807907104e-01 }
                  - { var:7, quality:4.1622027754783630e-01,
                      le:2.3081496357917786e-01 }
                  - { var:2, quality:4.1594707965850830e-01,
                      le:2.3332971334457397e-01 }
                  - { var:0, quality:4.1517844796180725e-01,
                      le:3.0762827396392822e-01 }
                  - { var:14, quality:4.1424325108528137e-01,
                      gt:8.1292372941970825e-01 }
                  - { var:1, quality:4.1389909386634827e-01,
                      le:2.3677904903888702e-01 }
                  - { var:3, quality:4.1241165995597839e-01,
                      le:2.2551998496055603e-01 }
                  - { var:26, quality:4.1112762689590454e-01,
                      le:7.5000000000000000e-01 }
                  - { var:9, quality:4.0969252586364746e-01,
                      le:3.5553002357482910e-01 }
                  - { var:6, quality:4.0901678800582886e-01,
                      le:2.4152043461799622e-01 }
                  - { var:39, quality:4.0889358520507812e-01,
                      le:4.8664533533155918e-03 }
                  - { var:38, quality:4.0889358520507812e-01,
                      le:4.5720553025603294e-03 }
                  - { var:30, quality:4.0889358520507812e-01,
                      le:1.1040723323822021e-01 }
            -
               depth: 1
               sample_count: 207
               value: -4.8828166140384915e-01
               norm_class_idx: 0
               Tn: 0
               complexity: 0
               alpha: 0.
               node_risk: 0.
               tree_risk: 0.
               tree_error: 0.
            -
               depth: 1
               sample_count: 80
               value: 4.8828166140384915e-01
               norm_class_idx: 1
               Tn: 0
               complexity: 0
               alpha: 0.
               node_risk: 0.
               tree_risk: 0.
               tree_error: 0.
      -
         best_tree_idx: -1
         nodes:
            -
               depth: 0
               sample_count: 292
               value: -5.7161585936066117e-01
               norm_class_idx: 0
               Tn: 0
               complexity: 0
               alpha: 0.
               node_risk: 0.
               tree_risk: 0.
               tree_error: 0.
               splits:
                  - { var:36, quality:5.9148108959197998e-01,
                      le:3.6284998059272766e-02 }
                  - { var:37, quality:5.5243623256683350e-01,
                      le:3.3585075289011002e-02 }
                  - { var:31, quality:5.1537936925888062e-01,
                      le:6.2254264950752258e-02 }
                  - { var:34, quality:5.1062488555908203e-01,
                      le:2.7388635277748108e-01 }
                  - { var:32, quality:4.9622508883476257e-01,
                      le:4.9586214125156403e-02 }
                  - { var:35, quality:4.9291798472404480e-01,
                      le:2.7595147490501404e-01 }
                  - { var:33, quality:4.9075105786323547e-01,
                      le:5.1209904253482819e-02 }
                  - { var:16, quality:4.7643718123435974e-01,
                      gt:6.4019203186035156e-01 }
                  - { var:21, quality:4.7350692749023438e-01,
                      gt:6.6733765602111816e-01 }
                  - { var:38, quality:4.7205048799514771e-01,
                      le:1.3251896016299725e-03 }
                  - { var:17, quality:4.6424564719200134e-01,
                      gt:6.9812107086181641e-01 }
                  - { var:39, quality:4.5838442444801331e-01,
                      le:1.1648534564301372e-03 }
                  - { var:14, quality:4.4377082586288452e-01,
                      le:8.9440321922302246e-01 }
                  - { var:20, quality:4.4305950403213501e-01,
                      gt:7.0249998569488525e-01 }
                  - { var:22, quality:4.4101595878601074e-01,
                      gt:7.5470268726348877e-01 }
                  - { var:30, quality:4.3996521830558777e-01,
                      le:9.3618677929043770e-03 }
                  - { var:13, quality:4.3694642186164856e-01,
                      gt:9.9989324808120728e-01 }
                  - { var:2, quality:4.2177239060401917e-01,
                      le:6.2642976641654968e-02 }
                  - { var:24, quality:4.1928577423095703e-01,
                      gt:7.7332150936126709e-01 }
                  - { var:9, quality:4.1198489069938660e-01,
                      gt:1.2806500494480133e-01 }
                  - { var:10, quality:4.1034168004989624e-01,
                      le:1.0352561250329018e-02 }
                  - { var:6, quality:4.1003623604774475e-01,
                      gt:1.2488095462322235e-01 }
                  - { var:11, quality:4.0909042954444885e-01,
                      le:1.0683572851121426e-02 }
                  - { var:5, quality:4.0271934866905212e-01,
                      gt:2.1912822127342224e-01 }
                  - { var:4, quality:4.0047430992126465e-01,
                      gt:3.2597771286964417e-01 }
                  - { var:3, quality:3.9926704764366150e-01,
                      le:1.9399078562855721e-02 }
                  - { var:8, quality:3.9881160855293274e-01,
                      le:1.2644553557038307e-02 }
                  - { var:1, quality:3.9707052707672119e-01,
                      le:1.9277606159448624e-02 }
                  - { var:0, quality:3.9623245596885681e-01,
                      le:2.1548226475715637e-02 }
                  - { var:28, quality:3.9358338713645935e-01,
                      gt:9.4999998807907104e-01 }
            -
               depth: 1
               sample_count: 74
               value: 5.7161585936066117e-01
               norm_class_idx: 1
               Tn: 0
               complexity: 0
               alpha: 0.
               node_risk: 0.
               tree_risk: 0.
               tree_error: 0.
            -
               depth: 1
               sample_count: 218
               value: -5.7161585936066117e-01
               norm_class_idx: 0
               Tn: 0
               complexity: 0
               alpha: 0.
               node_risk: 0.
               tree_risk: 0.
               tree_error: 0.
      -
         best_tree_idx: -1
         nodes:
            -
               depth: 0
               sample_count: 278
               value: 4.9613339136037715e-01
               norm_class_idx: 1
               Tn: 0
               complexity: 0
               alpha: 0.
               node_risk: 0.
               tree_risk: 0.
               tree_error: 0.
               splits:
                  - { var:16, quality:5.9496319293975830e-01,
                      le:5.1620769500732422e-01 }
                  - { var:21, quality:5.8521330356597900e-01,
                      le:5.6902933120727539e-01 }
                  - { var:17, quality:5.7517063617706299e-01,
                      le:6.4190828800201416e-01 }
                  - { var:22, quality:5.6838715076446533e-01,
                      le:7.0168638229370117e-01 }
                  - { var:20, quality:5.5223351716995239e-01,
                      le:6.7318230867385864e-01 }
                  - { var:24, quality:5.3816920518875122e-01,
                      le:7.5048065185546875e-01 }
                  - { var:13, quality:5.3629851341247559e-01,
                      le:7.7730751037597656e-01 }
                  - { var:31, quality:5.0912529230117798e-01,
                      gt:9.7170725464820862e-02 }
                  - { var:36, quality:5.0334405899047852e-01,
                      gt:9.7914107143878937e-02 }
                  - { var:35, quality:5.0049138069152832e-01,
                      gt:3.9637249708175659e-01 }
                  - { var:34, quality:4.9316355586051941e-01,
                      gt:3.9471930265426636e-01 }
                  - { var:37, quality:4.9241527915000916e-01,
                      gt:7.7463477849960327e-02 }
                  - { var:33, quality:4.9034345149993896e-01,
                      gt:6.4326658844947815e-02 }
                  - { var:32, quality:4.8721542954444885e-01,
                      gt:5.4438844323158264e-02 }
                  - { var:18, quality:4.7985211014747620e-01,
                      le:7.8693747520446777e-01 }
                  - { var:15, quality:4.7608178853988647e-01,
                      le:6.8563914299011230e-01 }
                  - { var:23, quality:4.6667814254760742e-01,
                      le:7.6618492603302002e-01 }
                  - { var:19, quality:4.5868030190467834e-01,
                      le:7.5304019451141357e-01 }
                  - { var:14, quality:4.5594078302383423e-01,
                      gt:9.9857479333877563e-01 }
                  - { var:38, quality:4.5518389344215393e-01,
                      gt:1.4529626350849867e-03 }
                  - { var:39, quality:4.3807449936866760e-01,
                      gt:1.9948570989072323e-03 }
                  - { var:30, quality:4.3454217910766602e-01,
                      gt:2.6992883533239365e-02 }
                  - { var:12, quality:4.0924894809722900e-01,
                      gt:2.1435004472732544e-01 }
                  - { var:3, quality:4.0047281980514526e-01,
                      gt:7.7821440994739532e-02 }
                  - { var:25, quality:3.8935184478759766e-01,
                      gt:5.5000001192092896e-01 }
                  - { var:11, quality:3.8562077283859253e-01,
                      le:2.1569734439253807e-02 }
                  - { var:5, quality:3.7983712553977966e-01,
                      gt:1.4542274177074432e-01 }
                  - { var:10, quality:3.7539950013160706e-01,
                      gt:1.0527268052101135e-01 }
                  - { var:8, quality:3.7293177843093872e-01,
                      le:2.7576267719268799e-02 }
                  - { var:7, quality:3.7130439281463623e-01,
                      gt:2.3081496357917786e-01 }
                  - { var:27, quality:3.6729022860527039e-01,
                      gt:7.5000000000000000e-01 }
                  - { var:2, quality:3.6663958430290222e-01,
                      gt:2.7422302961349487e-01 }
                  - { var:0, quality:3.6614584922790527e-01,
                      gt:3.0762827396392822e-01 }
                  - { var:26, quality:3.6382937431335449e-01,
                      gt:7.5000000000000000e-01 }
                  - { var:9, quality:3.5940900444984436e-01,
                      gt:3.5553002357482910e-01 }
            -
               depth: 1
               sample_count: 88
               value: 4.9613339136037715e-01
               norm_class_idx: 1
               Tn: 0
               complexity: 0
               alpha: 0.
               node_risk: 0.
               tree_risk: 0.
               tree_error: 0.
            -
               depth: 1
               sample_count: 190
               value: -4.9613339136037715e-01
               norm_class_idx: 0
               Tn: 0
               complexity: 0
               alpha: 0.
               node_risk: 0.
               tree_risk: 0.
               tree_error: 0.
      -
         best_tree_idx: -1
         nodes:
            -
               depth: 0
               sample_count: 270
               value: 7.1515518230153985e-01
               norm_class_idx: 1
               Tn: 0
               complexity: 0
               alpha: 0.
               node_risk: 0.
               tree_risk: 0.
               tree_error: 0.
               splits:
                  - { var:36, quality:6.5155762434005737e-01,
                      le:1.3392385840415955e-01 }
                  - { var:37, quality:6.2904036045074463e-01,
                      le:1.3817226886749268e-01 }
                  - { var:13, quality:6.0236394405364990e-01,
                      gt:1.4533042907714844e-01 }
                  - { var:32, quality:5.9608888626098633e-01,
                      le:1.0342702269554138e-01 }
                  - { var:31, quality:5.9130966663360596e-01,
                      le:1.4770384132862091e-01 }
                  - { var:33, quality:5.8650827407836914e-01,
                      le:8.9150428771972656e-02 }
                  - { var:12, quality:5.8355087041854858e-01,
                      le:3.5162714123725891e-01 }
                  - { var:34, quality:5.7899665832519531e-01,
                      le:5.2073073387145996e-01 }
                  - { var:35, quality:5.7844930887222290e-01,
                      le:5.3546595573425293e-01 }
                  - { var:15, quality:5.7389038801193237e-01,
                      gt:4.5179837942123413e-01 }
                  - { var:19, quality:5.7361310720443726e-01,
                      gt:4.8274871706962585e-01 }
                  - { var:23, quality:5.7338052988052368e-01,
                      gt:5.1199173927307129e-01 }
                  - { var:14, quality:5.7282555103302002e-01,
                      gt:7.0030695199966431e-01 }
                  - { var:18, quality:5.7280659675598145e-01,
                      gt:4.3699640035629272e-01 }
                  - { var:24, quality:5.7132989168167114e-01,
                      gt:4.2368197441101074e-01 }
                  - { var:17, quality:5.6866741180419922e-01,
                      gt:1.8879634141921997e-01 }
                  - { var:22, quality:5.6791955232620239e-01,
                      gt:2.5739189982414246e-01 }
                  - { var:30, quality:5.6629931926727295e-01,
                      le:8.6995728313922882e-02 }
                  - { var:21, quality:5.6592744588851929e-01,
                      gt:6.7368179559707642e-02 }
                  - { var:39, quality:5.6575167179107666e-01,
                      le:3.4448872320353985e-03 }
                  - { var:20, quality:5.6537836790084839e-01,
                      gt:1.9320781528949738e-01 }
                  - { var:38, quality:5.6524109840393066e-01,
                      le:4.1827736422419548e-03 }
                  - { var:8, quality:5.6316989660263062e-01,
                      le:2.0701983571052551e-01 }
                  - { var:16, quality:5.6247597932815552e-01,
                      le:9.4032883644104004e-01 }
            -
               depth: 1
               sample_count: 186
               value: 7.1515518230153985e-01
               norm_class_idx: 1
               Tn: 0
               complexity: 0
               alpha: 0.
               node_risk: 0.
               tree_risk: 0.
               tree_error: 0.
            -
               depth: 1
               sample_count: 84
               value: -7.1515518230153985e-01
               norm_class_idx: 0
               Tn: 0
               complexity: 0
               alpha: 0.
               node_risk: 0.
               tree_risk: 0.
               tree_error: 0.
      -
         best_tree_idx: -1
         nodes:
            -
               depth: 0
               sample_count: 270
               value: -5.3853863628925902e-01
               norm_class_idx: 0
               Tn: 0
               complexity: 0
               alpha: 0.
               node_risk: 0.
               tree_risk: 0.
               tree_error: 0.
               splits:
                  - { var:1, quality:5.8442777395248413e-01,
                      le:1.7385137081146240e-01 }
                  - { var:11, quality:5.3806954622268677e-01,
                      gt:6.9807292893528938e-03 }
                  - { var:4, quality:5.3551685810089111e-01,
                      gt:1.4198683202266693e-02 }
                  - { var:33, quality:5.3192156553268433e-01,
                      gt:1.8920514732599258e-02 }
                  - { var:36, quality:5.3179466724395752e-01,
                      le:2.3011505603790283e-01 }
                  - { var:19, quality:5.3162235021591187e-01,
                      le:9.3660062551498413e-01 }
                  - { var:9, quality:5.3151166439056396e-01,
                      gt:1.9915534183382988e-02 }
            -
               depth: 1
               sample_count: 254
               value: -5.3853863628925902e-01
               norm_class_idx: 0
               Tn: 0
               complexity: 0
               alpha: 0.
               node_risk: 0.
               tree_risk: 0.
               tree_error: 0.
            -
               depth: 1
               sample_count: 16
               value: 5.3853863628925902e-01
               norm_class_idx: 1
               Tn: 0
               complexity: 0
               alpha: 0.
               node_risk: 0.
               tree_risk: 0.
               tree_error: 0.
      -
         best_tree_idx: -1
         nodes:
            -
               depth: 0
               sample_count: 255
               value: 4.1930108397568711e-01
               norm_class_idx: 1
               Tn: 0
               complexity: 0
               alpha: 0.
               node_risk: 0.
               tree_risk: 0.
               tree_error: 0.
               splits:
                  - { var:39, quality:6.0148036479949951e-01,
                      le:5.6752737145870924e-04 }
                  - { var:30, quality:5.8345854282379150e-01,
                      le:2.3700292222201824e-03 }
                  - { var:38, quality:5.7491040229797363e-01,
                      le:5.1252503180876374e-04 }
                  - { var:35, quality:5.6242495775222778e-01,
                      le:1.4052371680736542e-01 }
                  - { var:36, quality:5.6227344274520874e-01,
                      le:8.4595102816820145e-03 }
                  - { var:6, quality:5.5874329805374146e-01,
                      le:1.7594221979379654e-02 }
                  - { var:34, quality:5.5764961242675781e-01,
                      le:1.1847795546054840e-01 }
                  - { var:37, quality:5.5535238981246948e-01,
                      le:4.7034444287419319e-03 }
                  - { var:8, quality:5.5458211898803711e-01,
                      le:1.2644553557038307e-02 }
                  - { var:1, quality:5.5327934026718140e-01,
                      le:1.7289064824581146e-02 }
                  - { var:3, quality:5.5235153436660767e-01,
                      gt:2.7283298969268799e-01 }
                  - { var:0, quality:5.5105924606323242e-01,
                      le:2.1548226475715637e-02 }
                  - { var:10, quality:5.5012387037277222e-01,
                      gt:2.1705089509487152e-01 }
                  - { var:5, quality:5.4864734411239624e-01,
                      le:1.2789853848516941e-02 }
                  - { var:2, quality:5.4864734411239624e-01,
                      gt:3.9671826362609863e-01 }
                  - { var:33, quality:5.4813849925994873e-01,
                      gt:1.7826388776302338e-01 }
            -
               depth: 1
               sample_count: 36
               value: -4.1930108397568711e-01
               norm_class_idx: 0
               Tn: 0
               complexity: 0
               alpha: 0.
               node_risk: 0.
               tree_risk: 0.
               tree_error: 0.
            -
               depth: 1
               sample_count: 219
               value: 4.1930108397568711e-01
               norm_class_idx: 1
               Tn: 0
               complexity: 0
               alpha: 0.
               node_risk: 0.
               tree_risk: 0.
               tree_error: 0.
      -
         best_tree_idx: -1
         nodes:
            -
               depth: 0
               sample_count: 270
               value: -4.5215974598109343e-01
               norm_class_idx: 0
               Tn: 0
               complexity: 0
               alpha: 0.
               node_risk: 0.
               tree_risk: 0.
               tree_error: 0.
               splits:
                  - { var:4, quality:5.6525266170501709e-01,
                      le:1.7274788022041321e-01 }
                  - { var:10, quality:4.8127448558807373e-01,
                      gt:9.9819842725992203e-03 }
                  - { var:2, quality:4.8030966520309448e-01,
                      gt:3.2937176525592804e-02 }
                  - { var:7, quality:4.7793695330619812e-01,
                      gt:2.2622540593147278e-02 }
                  - { var:9, quality:4.7693565487861633e-01,
                      gt:8.7990481406450272e-03 }
                  - { var:33, quality:4.7390589118003845e-01,
                      le:1.4719372987747192e-01 }
                  - { var:18, quality:4.7233629226684570e-01,
                      le:9.5652914047241211e-01 }
                  - { var:23, quality:4.7102212905883789e-01,
                      le:9.3222218751907349e-01 }
                  - { var:1, quality:4.7094225883483887e-01,
                      gt:1.0563598014414310e-02 }
                  - { var:11, quality:4.7084996104240417e-01,
                      gt:6.9807292893528938e-03 }
                  - { var:19, quality:4.7046822309494019e-01,
                      le:9.3179261684417725e-01 }
                  - { var:22, quality:4.7014147043228149e-01,
                      le:8.6269509792327881e-01 }
                  - { var:0, quality:4.6965774893760681e-01,
                      gt:4.9612484872341156e-02 }
                  - { var:24, quality:4.6950387954711914e-01,
                      le:8.8656681776046753e-01 }
                  - { var:20, quality:4.6914291381835938e-01,
                      gt:1.4870078861713409e-01 }
                  - { var:17, quality:4.6895641088485718e-01,
                      le:8.5647046566009521e-01 }
            -
               depth: 1
               sample_count: 247
               value: -4.5215974598109343e-01
               norm_class_idx: 0
               Tn: 0
               complexity: 0
               alpha: 0.
               node_risk: 0.
               tree_risk: 0.
               tree_error: 0.
            -
               depth: 1
               sample_count: 23
               value: 4.5215974598109343e-01
               norm_class_idx: 1
               Tn: 0
               complexity: 0
               alpha: 0.
               node_risk: 0.
               tree_risk: 0.
               tree_error: 0.
      -
         best_tree_idx: -1
         nodes:
            -
               depth: 0
               sample_count: 258
               value: 4.3538627096967258e-01
               norm_class_idx: 1
               Tn: 0
               complexity: 0
               alpha: 0.
               node_risk: 0.
               tree_risk: 0.
               tree_error: 0.
               splits:
                  - { var:0, quality:5.9301161766052246e-01,
                      le:8.9480072259902954e-02 }
                  - { var:4, quality:5.1456916332244873e-01,
                      gt:2.2624787688255310e-01 }
                  - { var:7, quality:5.1089024543762207e-01,
                      le:2.2622540593147278e-02 }
                  - { var:2, quality:5.1060253381729126e-01,
                      gt:2.2079010307788849e-01 }
                  - { var:3, quality:5.0733065605163574e-01,
                      gt:2.2551998496055603e-01 }
                  - { var:9, quality:5.0304734706878662e-01,
                      gt:1.7815718054771423e-01 }
                  - { var:5, quality:5.0173491239547729e-01,
                      le:2.0220451056957245e-02 }
                  - { var:18, quality:4.9976181983947754e-01,
                      gt:9.5652914047241211e-01 }
                  - { var:23, quality:4.9917978048324585e-01,
                      gt:9.2634117603302002e-01 }
                  - { var:19, quality:4.9815902113914490e-01,
                      gt:9.3179261684417725e-01 }
                  - { var:24, quality:4.9733164906501770e-01,
                      gt:8.8656681776046753e-01 }
                  - { var:17, quality:4.9666240811347961e-01,
                      le:1.4976558089256287e-01 }
                  - { var:8, quality:4.9635052680969238e-01,
                      le:1.2644553557038307e-02 }
                  - { var:33, quality:4.9601593613624573e-01,
                      gt:1.4505901932716370e-01 }
                  - { var:30, quality:4.9590295553207397e-01,
                      le:4.5307050459086895e-04 }
                  - { var:38, quality:4.9568501114845276e-01,
                      le:4.9388268962502480e-05 }
                  - { var:6, quality:4.9554747343063354e-01,
                      gt:1.9287836551666260e-01 }
                  - { var:20, quality:4.9534064531326294e-01,
                      gt:8.3556640148162842e-01 }
                  - { var:11, quality:4.9512192606925964e-01,
                      le:1.3845053501427174e-02 }
                  - { var:10, quality:4.9511814117431641e-01,
                      gt:2.3385816812515259e-01 }
                  - { var:39, quality:4.9481546878814697e-01,
                      le:2.8651218599407002e-05 }
                  - { var:36, quality:4.9459430575370789e-01,
                      gt:2.3233556747436523e-01 }
                  - { var:21, quality:4.9439316987991333e-01,
                      le:5.5028308182954788e-02 }
            -
               depth: 1
               sample_count: 54
               value: -4.3538627096967258e-01
               norm_class_idx: 0
               Tn: 0
               complexity: 0
               alpha: 0.
               node_risk: 0.
               tree_risk: 0.
               tree_error: 0.
            -
               depth: 1
               sample_count: 204
               value: 4.3538627096967258e-01
               norm_class_idx: 1
               Tn: 0
               complexity: 0
               alpha: 0.
               node_risk: 0.
               tree_risk: 0.
               tree_error: 0.
      -
         best_tree_idx: -1
         nodes:
            -
               depth: 0
               sample_count: 266
               value: -4.0746711049368811e-01
               norm_class_idx: 0
               Tn: 0
               complexity: 0
               alpha: 0.
               node_risk: 0.
               tree_risk: 0.
               tree_error: 0.
               splits:
                  - { var:32, quality:5.7330596446990967e-01,
                      le:9.2823117971420288e-02 }
                  - { var:31, quality:5.3982329368591309e-01,
                      le:1.2168288230895996e-01 }
                  - { var:33, quality:5.2666366100311279e-01,
                      le:8.5085451602935791e-02 }
                  - { var:37, quality:5.0697803497314453e-01,
                      le:1.0949853807687759e-01 }
                  - { var:36, quality:4.9838957190513611e-01,
                      le:1.0910780727863312e-01 }
                  - { var:35, quality:4.8726755380630493e-01,
                      le:4.4924747943878174e-01 }
                  - { var:34, quality:4.8713153600692749e-01,
                      le:4.4534584879875183e-01 }
                  - { var:15, quality:4.7915098071098328e-01,
                      gt:4.9897056818008423e-01 }
                  - { var:18, quality:4.7244420647621155e-01,
                      gt:7.0262682437896729e-01 }
                  - { var:12, quality:4.7218796610832214e-01,
                      le:7.4565732479095459e-01 }
                  - { var:5, quality:4.7202906012535095e-01,
                      le:1.6593055427074432e-01 }
                  - { var:19, quality:4.7157391905784607e-01,
                      le:9.3179261684417725e-01 }
                  - { var:0, quality:4.7053864598274231e-01,
                      le:3.0762827396392822e-01 }
                  - { var:13, quality:4.7042992711067200e-01,
                      gt:1.4533042907714844e-01 }
                  - { var:2, quality:4.7037833929061890e-01,
                      le:3.0766385793685913e-01 }
                  - { var:8, quality:4.7031378746032715e-01,
                      gt:1.3832873664796352e-02 }
                  - { var:7, quality:4.7020986676216125e-01,
                      gt:9.7677391022443771e-03 }
                  - { var:4, quality:4.6982374787330627e-01,
                      gt:4.0950000286102295e-02 }
                  - { var:1, quality:4.6971544623374939e-01,
                      le:2.3677904903888702e-01 }
                  - { var:23, quality:4.6864897012710571e-01,
                      le:9.2634117603302002e-01 }
                  - { var:20, quality:4.6822452545166016e-01,
                      le:8.3309262990951538e-01 }
                  - { var:16, quality:4.6806722879409790e-01,
                      gt:3.6511009931564331e-01 }
                  - { var:24, quality:4.6766173839569092e-01,
                      le:8.8656681776046753e-01 }
                  - { var:21, quality:4.6651333570480347e-01,
                      le:8.7387472391128540e-01 }
                  - { var:39, quality:4.6588522195816040e-01,
                      le:4.8791505396366119e-03 }
                  - { var:38, quality:4.6588522195816040e-01,
                      le:4.5720553025603294e-03 }
                  - { var:30, quality:4.6588522195816040e-01,
                      le:1.1040723323822021e-01 }
                  - { var:22, quality:4.6587711572647095e-01,
                      le:8.8469099998474121e-01 }
                  - { var:17, quality:4.6571534872055054e-01,
                      gt:3.7862354516983032e-01 }
                  - { var:14, quality:4.6536272764205933e-01,
                      gt:1.0505120456218719e-01 }
            -
               depth: 1
               sample_count: 218
               value: -4.0746711049368811e-01
               norm_class_idx: 0
               Tn: 0
               complexity: 0
               alpha: 0.
               node_risk: 0.
               tree_risk: 0.
               tree_error: 0.
            -
               depth: 1
               sample_count: 48
               value: 4.0746711049368811e-01
               norm_class_idx: 1
               Tn: 0
               complexity: 0
               alpha: 0.
               node_risk: 0.
               tree_risk: 0.
               tree_error: 0.
      -
         best_tree_idx: -1
         nodes:
            -
               depth: 0
               sample_count: 264
               value: 4.2923020045048155e-01
               norm_class_idx: 1
               Tn: 0
               complexity: 0
               alpha: 0.
               node_risk: 0.
               tree_risk: 0.
               tree_error: 0.
               splits:
                  - { var:39, quality:5.7886278629302979e-01,
                      le:1.7648967914283276e-03 }
                  - { var:38, quality:5.4987472295761108e-01,
                      le:1.9004687201231718e-03 }
                  - { var:30, quality:5.4073685407638550e-01,
                      le:2.6463665068149567e-02 }
                  - { var:20, quality:4.8110896348953247e-01,
                      gt:5.8181828260421753e-01 }
                  - { var:22, quality:4.7433149814605713e-01,
                      gt:6.7422962188720703e-01 }
                  - { var:16, quality:4.6693581342697144e-01,
                      gt:4.6552062034606934e-01 }
                  - { var:12, quality:4.6619978547096252e-01,
                      le:4.1028289124369621e-03 }
                  - { var:24, quality:4.6379026770591736e-01,
                      gt:7.1932864189147949e-01 }
                  - { var:21, quality:4.6101883053779602e-01,
                      gt:5.2499628067016602e-01 }
                  - { var:13, quality:4.5842725038528442e-01,
                      gt:3.9412468671798706e-01 }
                  - { var:17, quality:4.5618548989295959e-01,
                      gt:5.8633327484130859e-01 }
                  - { var:11, quality:4.4641700387001038e-01,
                      gt:1.8438458442687988e-02 }
                  - { var:19, quality:4.4028511643409729e-01,
                      gt:7.1135479211807251e-01 }
                  - { var:23, quality:4.3968683481216431e-01,
                      gt:7.0455062389373779e-01 }
                  - { var:3, quality:4.3273887038230896e-01,
                      le:1.2239702790975571e-01 }
                  - { var:15, quality:4.2952173948287964e-01,
                      le:9.0657460689544678e-01 }
                  - { var:34, quality:4.2930987477302551e-01,
                      le:5.1372802257537842e-01 }
                  - { var:18, quality:4.2908191680908203e-01,
                      gt:6.9239962100982666e-01 }
                  - { var:14, quality:4.2460244894027710e-01,
                      gt:8.1510353088378906e-01 }
                  - { var:35, quality:4.2330232262611389e-01,
                      le:5.0859403610229492e-01 }
                  - { var:36, quality:4.2250269651412964e-01,
                      le:1.2850916385650635e-01 }
                  - { var:37, quality:4.2012891173362732e-01,
                      le:1.3435591757297516e-01 }
                  - { var:25, quality:4.1776302456855774e-01,
                      le:9.4999998807907104e-01 }
                  - { var:10, quality:4.1762438416481018e-01,
                      le:1.8130326271057129e-01 }
                  - { var:0, quality:4.1564622521400452e-01,
                      gt:9.6870936453342438e-02 }
                  - { var:7, quality:4.1251227259635925e-01,
                      gt:2.2622540593147278e-02 }
                  - { var:27, quality:4.1242220997810364e-01,
                      le:8.5000002384185791e-01 }
                  - { var:8, quality:4.1076767444610596e-01,
                      gt:1.8401559442281723e-02 }
                  - { var:2, quality:4.1015696525573730e-01,
                      le:2.3332971334457397e-01 }
                  - { var:32, quality:4.0717071294784546e-01,
                      le:1.3278868794441223e-01 }
                  - { var:31, quality:4.0555194020271301e-01,
                      le:1.6688230633735657e-01 }
                  - { var:6, quality:4.0538683533668518e-01,
                      le:2.4152043461799622e-01 }
            -
               depth: 1
               sample_count: 165
               value: 4.2923020045048155e-01
               norm_class_idx: 1
               Tn: 0
               complexity: 0
               alpha: 0.
               node_risk: 0.
               tree_risk: 0.
               tree_error: 0.
            -
               depth: 1
               sample_count: 99
               value: -4.2923020045048155e-01
               norm_class_idx: 0
               Tn: 0
               complexity: 0
               alpha: 0.
               node_risk: 0.
               tree_risk: 0.
               tree_error: 0.
      -
         best_tree_idx: -1
         nodes:
            -
               depth: 0
               sample_count: 263
               value: -4.6929544684170937e-01
               norm_class_idx: 0
               Tn: 0
               complexity: 0
               alpha: 0.
               node_risk: 0.
               tree_risk: 0.
               tree_error: 0.
               splits:
                  - { var:25, quality:5.8425110578536987e-01,
                      le:4.4999998807907104e-01 }
                  - { var:39, quality:4.1442421078681946e-01,
                      le:2.0998991094529629e-03 }
                  - { var:30, quality:4.0789106488227844e-01,
                      le:3.0900409445166588e-02 }
                  - { var:3, quality:4.0222382545471191e-01,
                      le:1.2545496225357056e-01 }
                  - { var:20, quality:4.0090730786323547e-01,
                      gt:6.1108148097991943e-01 }
                  - { var:38, quality:4.0050244331359863e-01,
                      le:2.2738906554877758e-03 }
                  - { var:7, quality:4.0030771493911743e-01,
                      le:7.3529332876205444e-02 }
                  - { var:17, quality:3.9118686318397522e-01,
                      gt:5.9305274486541748e-01 }
                  - { var:21, quality:3.8993784785270691e-01,
                      gt:5.1960921287536621e-01 }
                  - { var:16, quality:3.8987821340560913e-01,
                      gt:4.8418340086936951e-01 }
                  - { var:22, quality:3.8938534259796143e-01,
                      gt:6.3429528474807739e-01 }
                  - { var:12, quality:3.8874822854995728e-01,
                      le:2.1435004472732544e-01 }
                  - { var:11, quality:3.8498219847679138e-01,
                      gt:1.9123757258057594e-02 }
                  - { var:13, quality:3.8475388288497925e-01,
                      gt:3.5943874716758728e-01 }
                  - { var:24, quality:3.8252168893814087e-01,
                      gt:7.1932864189147949e-01 }
                  - { var:15, quality:3.7949070334434509e-01,
                      le:8.4997379779815674e-01 }
                  - { var:4, quality:3.7350627779960632e-01,
                      gt:5.3219951689243317e-02 }
                  - { var:10, quality:3.7218865752220154e-01,
                      le:1.3635350763797760e-01 }
                  - { var:34, quality:3.6914899945259094e-01,
                      le:5.1057994365692139e-01 }
                  - { var:5, quality:3.6775863170623779e-01,
                      gt:2.0220451056957245e-02 }
                  - { var:19, quality:3.6760044097900391e-01,
                      gt:5.7926619052886963e-01 }
                  - { var:23, quality:3.6737942695617676e-01,
                      gt:5.5989640951156616e-01 }
                  - { var:0, quality:3.6508089303970337e-01,
                      le:2.6227760314941406e-01 }
                  - { var:14, quality:3.6421811580657959e-01,
                      gt:8.1292372941970825e-01 }
                  - { var:8, quality:3.6391159892082214e-01,
                      gt:1.3832873664796352e-02 }
                  - { var:9, quality:3.6214777827262878e-01,
                      le:1.4285969734191895e-01 }
                  - { var:36, quality:3.6186045408248901e-01,
                      gt:8.7839681655168533e-03 }
                  - { var:35, quality:3.5922068357467651e-01,
                      le:4.9734997749328613e-01 }
                  - { var:18, quality:3.5865727066993713e-01,
                      gt:5.9677290916442871e-01 }
                  - { var:6, quality:3.5859763622283936e-01,
                      gt:1.6208630055189133e-02 }
                  - { var:37, quality:3.5787093639373779e-01,
                      le:2.7371603250503540e-01 }
                  - { var:31, quality:3.5787093639373779e-01,
                      le:2.0558553934097290e-01 }
                  - { var:2, quality:3.5782486200332642e-01,
                      le:3.9671826362609863e-01 }
            -
               depth: 1
               sample_count: 175
               value: -4.6929544684170937e-01
               norm_class_idx: 0
               Tn: 0
               complexity: 0
               alpha: 0.
               node_risk: 0.
               tree_risk: 0.
               tree_error: 0.
            -
               depth: 1
               sample_count: 88
               value: 4.6929544684170937e-01
               norm_class_idx: 1
               Tn: 0
               complexity: 0
               alpha: 0.
               node_risk: 0.
               tree_risk: 0.
               tree_error: 0.
      -
         best_tree_idx: -1
         nodes:
            -
               depth: 0
               sample_count: 260
               value: -3.7567279416077320e-01
               norm_class_idx: 0
               Tn: 0
               complexity: 0
               alpha: 0.
               node_risk: 0.
               tree_risk: 0.
               tree_error: 0.
               splits:
                  - { var:1, quality:5.6337553262710571e-01,
                      le:7.4821464717388153e-02 }
                  - { var:7, quality:4.0303358435630798e-01,
                      gt:4.4312529265880585e-02 }
                  - { var:36, quality:3.8221007585525513e-01,
                      gt:1.7330264672636986e-02 }
                  - { var:34, quality:3.7762162089347839e-01,
