%YAML:1.0
my_boost_tree: !!opencv-ml-boost-tree
   boosting_type: DiscreteAdaboost
   splitting_criteria: 3
   ntrees: 100
   weight_trimming_rate: 9.4999999999999996e-01
   is_classifier: 1
   var_all: 40
   var_count: 40
   ord_var_count: 40
   cat_var_count: 0
   training_params:
      use_surrogates: 1
      max_categories: 10
      max_depth: 1
      min_sample_count: 10
      cross_validation_folds: 0
      priors: !!opencv-matrix
         rows: 1
         cols: 2
         dt: d
         data: [ 1., 1. ]
   var_type: [ 0, 0, 0, 0, 0, 0, 0, 0, 0, 0, 0, 0, 0, 0, 0, 0, 0, 0, 0,
       0, 0, 0, 0, 0, 0, 0, 0, 0, 0, 0, 0, 0, 0, 0, 0, 0, 0, 0, 0, 0 ]
   cat_count: !!opencv-matrix
      rows: 1
      cols: 1
      dt: i
      data: [ 2 ]
   cat_map: !!opencv-matrix
      rows: 1
      cols: 2
      dt: i
      data: [ -1, 1 ]
   trees:
      -
         best_tree_idx: -1
         nodes:
            -
               depth: 0
               sample_count: 410
               value: -3.0242685808189260e+00
               norm_class_idx: 0
               Tn: 0
               complexity: 0
               alpha: 0.
               node_risk: 0.
               tree_risk: 0.
               tree_error: 0.
               splits:
                  - { var:30, quality:9.5365852117538452e-01,
                      le:2.8339703567326069e-03 }
                  - { var:38, quality:9.3970257043838501e-01,
                      le:5.1288667600601912e-04 }
                  - { var:39, quality:9.2807257175445557e-01,
                      le:5.4010259918868542e-04 }
                  - { var:34, quality:8.6294466257095337e-01,
                      le:1.5655934810638428e-01 }
                  - { var:35, quality:8.5596662759780884e-01,
                      le:1.5286679565906525e-01 }
                  - { var:1, quality:8.5596662759780884e-01,
                      le:2.5210253894329071e-02 }
                  - { var:10, quality:8.5364067554473877e-01,
                      gt:2.1520066261291504e-01 }
                  - { var:0, quality:8.5364067554473877e-01,
                      le:2.4813111871480942e-02 }
                  - { var:11, quality:8.5131466388702393e-01,
                      le:1.0040296241641045e-02 }
                  - { var:7, quality:8.5131466388702393e-01,
                      le:1.1564610525965691e-02 }
                  - { var:3, quality:8.5131466388702393e-01,
                      le:1.0713554918766022e-02 }
                  - { var:8, quality:8.4898865222930908e-01,
                      gt:1.9238795340061188e-01 }
                  - { var:5, quality:8.4898865222930908e-01,
                      le:1.0068476200103760e-02 }
                  - { var:37, quality:8.4666270017623901e-01,
                      le:1.1288648471236229e-02 }
                  - { var:36, quality:8.4666270017623901e-01,
                      le:5.4786978289484978e-03 }
                  - { var:6, quality:8.4666270017623901e-01,
                      gt:2.8451007604598999e-01 }
                  - { var:2, quality:8.4666270017623901e-01,
                      gt:3.9023917913436890e-01 }
            -
               depth: 1
               sample_count: 47
               value: 3.0242685808189260e+00
               norm_class_idx: 1
               Tn: 0
               complexity: 0
               alpha: 0.
               node_risk: 0.
               tree_risk: 0.
               tree_error: 0.
            -
               depth: 1
               sample_count: 363
               value: -3.0242685808189260e+00
               norm_class_idx: 0
               Tn: 0
               complexity: 0
               alpha: 0.
               node_risk: 0.
               tree_risk: 0.
               tree_error: 0.
      -
         best_tree_idx: -1
         nodes:
            -
               depth: 0
               sample_count: 410
               value: -1.3396662549049785e+00
               norm_class_idx: 0
               Tn: 0
               complexity: 0
               alpha: 0.
               node_risk: 0.
               tree_risk: 0.
               tree_error: 0.
               splits:
                  - { var:34, quality:7.9243505001068115e-01,
                      le:3.3352035284042358e-01 }
                  - { var:35, quality:7.1366089582443237e-01,
                      le:3.4137964248657227e-01 }
                  - { var:36, quality:6.3286006450653076e-01,
                      le:5.3167521953582764e-02 }
                  - { var:37, quality:6.3243335485458374e-01,
                      le:8.1617042422294617e-02 }
                  - { var:13, quality:6.0811311006546021e-01,
                      gt:9.9584031105041504e-01 }
                  - { var:31, quality:5.8827286958694458e-01,
                      le:9.7205638885498047e-02 }
                  - { var:3, quality:5.7365936040878296e-01,
                      le:3.5136088728904724e-02 }
                  - { var:32, quality:5.5280584096908569e-01,
                      le:7.3534116148948669e-02 }
                  - { var:9, quality:5.5093920230865479e-01,
                      gt:9.3346387147903442e-02 }
                  - { var:39, quality:5.4859244823455811e-01,
                      le:1.1558004189282656e-03 }
                  - { var:17, quality:5.4064571857452393e-01,
                      gt:6.4831167459487915e-01 }
                  - { var:1, quality:5.3861904144287109e-01,
                      le:5.2732869982719421e-02 }
                  - { var:7, quality:5.3717905282974243e-01,
                      gt:1.0621330142021179e-01 }
                  - { var:14, quality:5.3109896183013916e-01,
                      le:9.7189259529113770e-01 }
                  - { var:33, quality:5.2571225166320801e-01,
                      le:6.5104514360427856e-02 }
                  - { var:38, quality:5.2469891309738159e-01,
                      le:1.0480218334123492e-03 }
                  - { var:30, quality:5.2064549922943115e-01,
                      le:9.4353463500738144e-03 }
                  - { var:21, quality:5.1835215091705322e-01,
                      gt:5.5951422452926636e-01 }
                  - { var:6, quality:5.1371210813522339e-01,
                      le:4.2582795023918152e-02 }
                  - { var:2, quality:5.1211208105087280e-01,
                      le:5.5900722742080688e-02 }
                  - { var:16, quality:5.0491201877593994e-01,
                      le:7.6041376590728760e-01 }
                  - { var:15, quality:5.0288534164428711e-01,
                      le:8.1166219711303711e-01 }
                  - { var:24, quality:5.0112527608871460e-01,
                      gt:6.4855593442916870e-01 }
                  - { var:22, quality:5.0011193752288818e-01,
                      gt:6.0010761022567749e-01 }
                  - { var:20, quality:4.9781861901283264e-01,
                      le:7.8775036334991455e-01 }
                  - { var:18, quality:4.9243187904357910e-01,
                      gt:7.4684977531433105e-01 }
                  - { var:27, quality:4.7680506110191345e-01,
                      gt:1.5000000596046448e-01 }
                  - { var:23, quality:4.7680506110191345e-01,
                      gt:6.5344882011413574e-01 }
                  - { var:5, quality:4.7504502534866333e-01,
                      gt:1.0176707804203033e-01 }
                  - { var:4, quality:4.7173830866813660e-01,
                      le:8.1686809659004211e-02 }
                  - { var:19, quality:4.6869829297065735e-01,
                      gt:5.9727060794830322e-01 }
                  - { var:0, quality:4.6624493598937988e-01,
                      le:1.4566837251186371e-01 }
                  - { var:8, quality:4.6480488777160645e-01,
                      le:7.0502169430255890e-02 }
                  - { var:10, quality:4.5867154002189636e-01,
                      le:1.3263674452900887e-02 }
                  - { var:29, quality:4.5333814620971680e-01,
                      gt:3.5000002384185791e-01 }
                  - { var:11, quality:4.5275145769119263e-01,
                      gt:9.4044610857963562e-02 }
                  - { var:25, quality:4.4885805249214172e-01,
                      gt:2.5000000000000000e-01 }
                  - { var:28, quality:4.3435126543045044e-01,
                      gt:7.5000000000000000e-01 }
                  - { var:26, quality:4.1552442312240601e-01,
                      gt:9.4999998807907104e-01 }
            -
               depth: 1
               sample_count: 128
               value: 1.3396662549049785e+00
               norm_class_idx: 1
               Tn: 0
               complexity: 0
               alpha: 0.
               node_risk: 0.
               tree_risk: 0.
               tree_error: 0.
            -
               depth: 1
               sample_count: 282
               value: -1.3396662549049785e+00
               norm_class_idx: 0
               Tn: 0
               complexity: 0
               alpha: 0.
               node_risk: 0.
               tree_risk: 0.
               tree_error: 0.
      -
         best_tree_idx: -1
         nodes:
            -
               depth: 0
               sample_count: 410
               value: -1.5549230375658956e+00
               norm_class_idx: 0
               Tn: 0
               complexity: 0
               alpha: 0.
               node_risk: 0.
               tree_risk: 0.
               tree_error: 0.
               splits:
                  - { var:14, quality:8.2562363147735596e-01,
                      le:8.6521780490875244e-01 }
                  - { var:18, quality:7.5919073820114136e-01,
                      le:8.1648498773574829e-01 }
                  - { var:23, quality:7.5797981023788452e-01,
                      le:8.0044054985046387e-01 }
                  - { var:19, quality:7.5743502378463745e-01,
                      le:7.8703522682189941e-01 }
                  - { var:24, quality:7.2661089897155762e-01,
                      le:7.7106249332427979e-01 }
                  - { var:15, quality:7.1867913007736206e-01,
                      le:7.2314369678497314e-01 }
                  - { var:22, quality:6.9493997097015381e-01,
                      le:7.5536394119262695e-01 }
                  - { var:20, quality:6.7644649744033813e-01,
                      le:7.1485507488250732e-01 }
                  - { var:17, quality:6.6161024570465088e-01,
                      le:7.4635863304138184e-01 }
                  - { var:21, quality:6.3151448965072632e-01,
                      le:7.0212268829345703e-01 }
                  - { var:16, quality:6.0813951492309570e-01,
                      le:6.8457502126693726e-01 }
                  - { var:33, quality:6.0441172122955322e-01,
                      gt:7.8377023339271545e-02 }
                  - { var:10, quality:6.0372406244277954e-01,
                      gt:8.7678149342536926e-02 }
                  - { var:37, quality:5.9344279766082764e-01,
                      gt:1.3473603129386902e-01 }
                  - { var:32, quality:5.8911442756652832e-01,
                      gt:5.9213317930698395e-02 }
                  - { var:8, quality:5.8526825904846191e-01,
                      gt:1.1043614149093628e-01 }
                  - { var:1, quality:5.8282279968261719e-01,
                      le:5.1668249070644379e-02 }
                  - { var:7, quality:5.8152812719345093e-01,
                      gt:1.1145712435245514e-01 }
                  - { var:36, quality:5.7973378896713257e-01,
                      gt:1.4945787191390991e-01 }
                  - { var:0, quality:5.7973378896713257e-01,
                      le:3.2003529369831085e-02 }
                  - { var:30, quality:5.7903879880905151e-01,
                      gt:3.2218851149082184e-02 }
                  - { var:12, quality:5.7202917337417603e-01,
                      gt:9.0042114257812500e-01 }
                  - { var:31, quality:5.7036978006362915e-01,
                      gt:1.0366302728652954e-01 }
                  - { var:25, quality:5.6943935155868530e-01,
                      gt:8.5000002384185791e-01 }
                  - { var:3, quality:5.6610119342803955e-01,
                      le:1.4541123062372208e-02 }
                  - { var:2, quality:5.6259709596633911e-01,
                      gt:2.0180058479309082e-01 }
                  - { var:38, quality:5.6199902296066284e-01,
                      gt:2.0856130868196487e-03 }
                  - { var:39, quality:5.5878955125808716e-01,
                      gt:2.1395052317529917e-03 }
                  - { var:13, quality:5.5870586633682251e-01,
                      le:8.3739392459392548e-02 }
                  - { var:6, quality:5.5747872591018677e-01,
                      le:1.3181507587432861e-02 }
                  - { var:11, quality:5.5492228269577026e-01,
                      gt:9.2181876301765442e-02 }
                  - { var:5, quality:5.5172604322433472e-01,
                      gt:1.9071255624294281e-01 }
                  - { var:35, quality:5.4609477519989014e-01,
                      le:1.9867053627967834e-01 }
                  - { var:34, quality:5.4576826095581055e-01,
                      le:2.0881757140159607e-01 }
                  - { var:26, quality:5.4177129268646240e-01,
                      gt:9.4999998807907104e-01 }
                  - { var:9, quality:5.3989416360855103e-01,
                      gt:1.9315654039382935e-01 }
                  - { var:27, quality:5.3813844919204712e-01,
                      gt:7.5000000000000000e-01 }
                  - { var:4, quality:5.3272545337677002e-01,
                      le:3.9585977792739868e-02 }
            -
               depth: 1
               sample_count: 143
               value: 1.5549230375658956e+00
               norm_class_idx: 1
               Tn: 0
               complexity: 0
               alpha: 0.
               node_risk: 0.
               tree_risk: 0.
               tree_error: 0.
            -
               depth: 1
               sample_count: 267
               value: -1.5549230375658956e+00
               norm_class_idx: 0
               Tn: 0
               complexity: 0
               alpha: 0.
               node_risk: 0.
               tree_risk: 0.
               tree_error: 0.
      -
         best_tree_idx: -1
         nodes:
            -
               depth: 0
               sample_count: 410
               value: -1.7037898493927843e+00
               norm_class_idx: 0
               Tn: 0
               complexity: 0
               alpha: 0.
               node_risk: 0.
               tree_risk: 0.
               tree_error: 0.
               splits:
                  - { var:0, quality:8.4602904319763184e-01,
                      le:4.4670425355434418e-02 }
                  - { var:2, quality:7.9139298200607300e-01,
                      gt:3.1998240947723389e-01 }
                  - { var:18, quality:7.7452170848846436e-01,
                      gt:9.1704213619232178e-01 }
                  - { var:4, quality:7.6806455850601196e-01,
                      le:3.5405546426773071e-02 }
                  - { var:19, quality:7.6410889625549316e-01,
                      gt:9.0035086870193481e-01 }
                  - { var:25, quality:7.5687688589096069e-01,
                      gt:9.4999998807907104e-01 }
                  - { var:10, quality:7.5307023525238037e-01,
                      gt:2.3903962969779968e-01 }
                  - { var:8, quality:7.5152629613876343e-01,
                      le:9.1313719749450684e-03 }
                  - { var:1, quality:7.5152629613876343e-01,
                      le:1.2498394586145878e-02 }
                  - { var:11, quality:7.5111287832260132e-01,
                      le:8.2644540816545486e-03 }
                  - { var:6, quality:7.5111287832260132e-01,
                      gt:2.8451007604598999e-01 }
                  - { var:5, quality:7.5111287832260132e-01,
                      le:8.1410035490989685e-03 }
                  - { var:3, quality:7.5111287832260132e-01,
                      gt:3.4174096584320068e-01 }
                  - { var:39, quality:7.5069946050643921e-01,
                      le:1.2621851055882871e-04 }
                  - { var:30, quality:7.5069946050643921e-01,
                      le:8.7919273937586695e-05 }
                  - { var:38, quality:7.4956893920898438e-01,
                      le:3.6527097108773887e-05 }
                  - { var:7, quality:7.4956893920898438e-01,
                      le:6.2074135057628155e-03 }
            -
               depth: 1
               sample_count: 22
               value: 1.7037898493927843e+00
               norm_class_idx: 1
               Tn: 0
               complexity: 0
               alpha: 0.
               node_risk: 0.
               tree_risk: 0.
               tree_error: 0.
            -
               depth: 1
               sample_count: 388
               value: -1.7037898493927843e+00
               norm_class_idx: 0
               Tn: 0
               complexity: 0
               alpha: 0.
               node_risk: 0.
               tree_risk: 0.
               tree_error: 0.
      -
         best_tree_idx: -1
         nodes:
            -
               depth: 0
               sample_count: 238
               value: 9.9367609647474020e-01
               norm_class_idx: 1
               Tn: 0
               complexity: 0
               alpha: 0.
               node_risk: 0.
               tree_risk: 0.
               tree_error: 0.
               splits:
                  - { var:32, quality:7.2086113691329956e-01,
                      le:5.1618177443742752e-02 }
                  - { var:31, quality:6.7992955446243286e-01,
                      le:6.6174820065498352e-02 }
                  - { var:33, quality:6.5291136503219604e-01,
                      le:5.7423248887062073e-02 }
                  - { var:36, quality:6.4434987306594849e-01,
                      le:3.0931860208511353e-02 }
                  - { var:37, quality:5.8901172876358032e-01,
                      le:2.9589068144559860e-02 }
                  - { var:34, quality:5.7461869716644287e-01,
                      le:1.9469532370567322e-01 }
                  - { var:11, quality:5.7073104381561279e-01,
                      le:2.5977026671171188e-02 }
                  - { var:38, quality:5.6234401464462280e-01,
                      le:2.2445037029683590e-04 }
                  - { var:9, quality:5.5123925209045410e-01,
                      le:2.7756005525588989e-02 }
                  - { var:39, quality:5.5066633224487305e-01,
                      le:1.9560146029107273e-04 }
                  - { var:30, quality:5.4496747255325317e-01,
                      le:6.5130053553730249e-04 }
                  - { var:35, quality:5.4465222358703613e-01,
                      le:1.8250077962875366e-01 }
                  - { var:2, quality:5.4347574710845947e-01,
                      le:3.3334877341985703e-02 }
                  - { var:15, quality:5.4227775335311890e-01,
                      gt:7.7146613597869873e-01 }
                  - { var:16, quality:5.4169189929962158e-01,
                      gt:7.4640798568725586e-01 }
                  - { var:3, quality:5.3603768348693848e-01,
                      gt:1.4705386757850647e-01 }
                  - { var:17, quality:5.3592675924301147e-01,
                      gt:8.0171757936477661e-01 }
                  - { var:6, quality:5.3361183404922485e-01,
                      gt:8.1974215805530548e-02 }
                  - { var:1, quality:5.3286778926849365e-01,
                      le:2.7491122484207153e-02 }
                  - { var:21, quality:5.3106993436813354e-01,
                      gt:7.3881816864013672e-01 }
                  - { var:10, quality:5.2977865934371948e-01,
                      le:8.0500077456235886e-03 }
                  - { var:0, quality:5.2854067087173462e-01,
                      gt:2.5073018670082092e-01 }
                  - { var:4, quality:5.2729082107543945e-01,
                      gt:2.4217265844345093e-01 }
                  - { var:8, quality:5.2723556756973267e-01,
                      gt:1.7949694395065308e-01 }
                  - { var:5, quality:5.2478188276290894e-01,
                      gt:2.3442533612251282e-01 }
                  - { var:7, quality:5.2431291341781616e-01,
                      le:8.0399541184306145e-03 }
            -
               depth: 1
               sample_count: 78
               value: -9.9367609647474020e-01
               norm_class_idx: 0
               Tn: 0
               complexity: 0
               alpha: 0.
               node_risk: 0.
               tree_risk: 0.
               tree_error: 0.
            -
               depth: 1
               sample_count: 160
               value: 9.9367609647474020e-01
               norm_class_idx: 1
               Tn: 0
               complexity: 0
               alpha: 0.
               node_risk: 0.
               tree_risk: 0.
               tree_error: 0.
      -
         best_tree_idx: -1
         nodes:
            -
               depth: 0
               sample_count: 379
               value: -1.3224444142493468e+00
               norm_class_idx: 0
               Tn: 0
               complexity: 0
               alpha: 0.
               node_risk: 0.
               tree_risk: 0.
               tree_error: 0.
               splits:
                  - { var:30, quality:7.8404837846755981e-01,
                      le:6.0740020126104355e-03 }
                  - { var:38, quality:7.5828242301940918e-01,
                      le:7.5785082299262285e-04 }
                  - { var:39, quality:7.5720995664596558e-01,
                      le:7.0105504710227251e-04 }
                  - { var:17, quality:6.6858798265457153e-01,
                      gt:7.3025745153427124e-01 }
                  - { var:21, quality:6.6392481327056885e-01,
                      gt:6.9521844387054443e-01 }
                  - { var:22, quality:6.5614736080169678e-01,
                      gt:7.3456168174743652e-01 }
                  - { var:24, quality:6.4167016744613647e-01,
                      gt:7.3982274532318115e-01 }
                  - { var:20, quality:6.3966161012649536e-01,
                      gt:7.0421838760375977e-01 }
                  - { var:18, quality:6.2688177824020386e-01,
                      gt:7.7982473373413086e-01 }
                  - { var:16, quality:6.1989158391952515e-01,
                      gt:6.5586864948272705e-01 }
                  - { var:23, quality:6.1698591709136963e-01,
                      gt:7.5249934196472168e-01 }
                  - { var:19, quality:6.1246788501739502e-01,
                      gt:7.4820601940155029e-01 }
                  - { var:34, quality:5.9882748126983643e-01,
                      le:2.6475307345390320e-01 }
                  - { var:14, quality:5.9565901756286621e-01,
                      gt:8.4845989942550659e-01 }
                  - { var:37, quality:5.8630025386810303e-01,
                      le:8.0744400620460510e-02 }
                  - { var:15, quality:5.8275681734085083e-01,
                      gt:6.7520880699157715e-01 }
                  - { var:35, quality:5.7956147193908691e-01,
                      le:3.0058169364929199e-01 }
                  - { var:36, quality:5.7934254407882690e-01,
                      le:4.6118091791868210e-02 }
                  - { var:31, quality:5.3976273536682129e-01,
                      le:9.3409046530723572e-02 }
                  - { var:6, quality:5.3325527906417847e-01,
                      le:4.5756295323371887e-02 }
                  - { var:32, quality:5.2217656373977661e-01,
                      le:5.2352763712406158e-02 }
                  - { var:13, quality:5.1900029182434082e-01,
                      gt:9.4932812452316284e-01 }
                  - { var:4, quality:5.1318883895874023e-01,
                      le:4.7049641609191895e-02 }
                  - { var:9, quality:5.0404924154281616e-01,
                      gt:1.3377577066421509e-01 }
                  - { var:2, quality:5.0325566530227661e-01,
                      le:3.4877993166446686e-02 }
                  - { var:33, quality:5.0194710493087769e-01,
                      le:6.5104514360427856e-02 }
                  - { var:8, quality:5.0109767913818359e-01,
                      gt:1.5129958093166351e-01 }
                  - { var:1, quality:4.9936684966087341e-01,
                      le:4.0059491991996765e-02 }
                  - { var:5, quality:4.9015164375305176e-01,
                      gt:1.9199427962303162e-01 }
                  - { var:10, quality:4.8969084024429321e-01,
                      gt:8.1361874938011169e-02 }
                  - { var:3, quality:4.8951813578605652e-01,
                      le:1.3029078952968121e-02 }
                  - { var:0, quality:4.8712253570556641e-01,
                      le:8.0936461687088013e-02 }
                  - { var:7, quality:4.8143547773361206e-01,
                      gt:1.0718937218189240e-01 }
                  - { var:28, quality:4.7743031382560730e-01,
                      gt:6.4999997615814209e-01 }
                  - { var:11, quality:4.7460356354713440e-01,
                      gt:1.4815166592597961e-01 }
                  - { var:26, quality:4.6882629394531250e-01,
                      gt:9.4999998807907104e-01 }
            -
               depth: 1
               sample_count: 64
               value: 1.3224444142493468e+00
               norm_class_idx: 1
               Tn: 0
               complexity: 0
               alpha: 0.
               node_risk: 0.
               tree_risk: 0.
               tree_error: 0.
            -
               depth: 1
               sample_count: 315
               value: -1.3224444142493468e+00
               norm_class_idx: 0
               Tn: 0
               complexity: 0
               alpha: 0.
               node_risk: 0.
               tree_risk: 0.
               tree_error: 0.
      -
         best_tree_idx: -1
         nodes:
            -
               depth: 0
               sample_count: 245
               value: -1.0457632172414009e+00
               norm_class_idx: 0
               Tn: 0
               complexity: 0
               alpha: 0.
               node_risk: 0.
               tree_risk: 0.
               tree_error: 0.
               splits:
                  - { var:1, quality:7.0073050260543823e-01,
                      le:5.1776289939880371e-02 }
                  - { var:7, quality:5.7115495204925537e-01,
                      gt:1.1125282943248749e-01 }
                  - { var:3, quality:5.5100935697555542e-01,
                      le:1.7752438783645630e-02 }
                  - { var:11, quality:5.3765481710433960e-01,
                      gt:6.7031107842922211e-02 }
                  - { var:10, quality:5.3361642360687256e-01,
                      le:1.2954016216099262e-02 }
                  - { var:26, quality:5.1885098218917847e-01,
                      gt:5.5000001192092896e-01 }
                  - { var:2, quality:5.0453788042068481e-01,
                      le:5.6354224681854248e-02 }
                  - { var:9, quality:5.0126832723617554e-01,
                      gt:1.9256843626499176e-01 }
                  - { var:29, quality:4.9796169996261597e-01,
                      gt:6.4999997615814209e-01 }
                  - { var:6, quality:4.9789491295814514e-01,
                      le:1.1296071112155914e-02 }
                  - { var:4, quality:4.9582022428512573e-01,
                      gt:1.6719996929168701e-01 }
                  - { var:35, quality:4.9475136399269104e-01,
                      le:2.0904332399368286e-01 }
                  - { var:5, quality:4.8945322632789612e-01,
                      gt:1.1390818655490875e-01 }
                  - { var:15, quality:4.8831605911254883e-01,
                      le:6.8135130405426025e-01 }
                  - { var:8, quality:4.8417380452156067e-01,
                      le:3.9003279060125351e-02 }
                  - { var:34, quality:4.7927859425544739e-01,
                      le:2.0881757140159607e-01 }
                  - { var:37, quality:4.7138446569442749e-01,
                      gt:2.2545436024665833e-01 }
                  - { var:28, quality:4.6698778867721558e-01,
                      gt:9.4999998807907104e-01 }
                  - { var:27, quality:4.6506586670875549e-01,
                      gt:8.5000002384185791e-01 }
                  - { var:33, quality:4.6302232146263123e-01,
                      le:2.7786048129200935e-02 }
                  - { var:0, quality:4.6284520626068115e-01,
                      le:2.4813111871480942e-02 }
                  - { var:24, quality:4.6122536063194275e-01,
                      le:6.9077983498573303e-02 }
                  - { var:20, quality:4.6122536063194275e-01,
                      le:7.2731412947177887e-02 }
                  - { var:17, quality:4.6047812700271606e-01,
                      gt:9.0169101953506470e-01 }
            -
               depth: 1
               sample_count: 57
               value: 1.0457632172414009e+00
               norm_class_idx: 1
               Tn: 0
               complexity: 0
               alpha: 0.
               node_risk: 0.
               tree_risk: 0.
               tree_error: 0.
            -
               depth: 1
               sample_count: 188
               value: -1.0457632172414009e+00
               norm_class_idx: 0
               Tn: 0
               complexity: 0
               alpha: 0.
               node_risk: 0.
               tree_risk: 0.
               tree_error: 0.
      -
         best_tree_idx: -1
         nodes:
            -
               depth: 0
               sample_count: 239
               value: 1.2031276192310918e+00
               norm_class_idx: 1
               Tn: 0
               complexity: 0
               alpha: 0.
               node_risk: 0.
               tree_risk: 0.
               tree_error: 0.
               splits:
                  - { var:34, quality:7.4252629280090332e-01,
                      le:3.8276398181915283e-01 }
                  - { var:35, quality:7.0239800214767456e-01,
                      le:4.0164941549301147e-01 }
                  - { var:13, quality:6.6709983348846436e-01,
                      gt:9.2848038673400879e-01 }
                  - { var:36, quality:6.4726269245147705e-01,
                      le:1.5267485380172729e-01 }
                  - { var:24, quality:6.4172494411468506e-01,
                      gt:5.8471524715423584e-01 }
                  - { var:23, quality:6.4105224609375000e-01,
                      gt:6.5128844976425171e-01 }
                  - { var:14, quality:6.4075368642807007e-01,
                      gt:6.9201993942260742e-01 }
                  - { var:18, quality:6.3913720846176147e-01,
                      gt:6.1316239833831787e-01 }
                  - { var:17, quality:6.3901907205581665e-01,
                      gt:6.0615944862365723e-01 }
                  - { var:31, quality:6.3855946063995361e-01,
                      le:1.1841489374637604e-01 }
                  - { var:22, quality:6.3815718889236450e-01,
                      gt:5.9992891550064087e-01 }
                  - { var:39, quality:6.3769149780273438e-01,
                      le:2.2755302488803864e-03 }
                  - { var:19, quality:6.3565188646316528e-01,
                      gt:5.9283912181854248e-01 }
                  - { var:38, quality:6.3459748029708862e-01,
                      le:2.2304099984467030e-03 }
                  - { var:15, quality:6.3146758079528809e-01,
                      gt:5.4738426208496094e-01 }
                  - { var:16, quality:6.3022553920745850e-01,
                      le:7.6041376590728760e-01 }
                  - { var:20, quality:6.2927663326263428e-01,
                      gt:5.3056132793426514e-01 }
                  - { var:21, quality:6.2811678647994995e-01,
                      gt:4.4256979227066040e-01 }
                  - { var:37, quality:6.2663829326629639e-01,
                      le:1.3526730239391327e-01 }
                  - { var:30, quality:6.2406575679779053e-01,
                      le:3.9786558598279953e-02 }
                  - { var:32, quality:6.0444235801696777e-01,
                      le:8.9418977499008179e-02 }
                  - { var:1, quality:5.9878534078598022e-01,
                      le:1.7672768235206604e-01 }
                  - { var:0, quality:5.8685952425003052e-01,
                      le:1.6753631830215454e-01 }
                  - { var:9, quality:5.8330720663070679e-01,
                      le:2.0613013207912445e-01 }
                  - { var:11, quality:5.8059763908386230e-01,
                      gt:1.3614566996693611e-02 }
                  - { var:33, quality:5.7923650741577148e-01,
                      le:1.5929666161537170e-01 }
                  - { var:4, quality:5.7880008220672607e-01,
                      le:1.9594696164131165e-01 }
                  - { var:6, quality:5.7791370153427124e-01,
                      le:1.1045320332050323e-01 }
            -
               depth: 1
               sample_count: 109
               value: 1.2031276192310918e+00
               norm_class_idx: 1
               Tn: 0
               complexity: 0
               alpha: 0.
               node_risk: 0.
               tree_risk: 0.
               tree_error: 0.
            -
               depth: 1
               sample_count: 130
               value: -1.2031276192310918e+00
               norm_class_idx: 0
               Tn: 0
               complexity: 0
               alpha: 0.
               node_risk: 0.
               tree_risk: 0.
               tree_error: 0.
      -
         best_tree_idx: -1
         nodes:
            -
               depth: 0
               sample_count: 238
               value: -1.4175607065519684e+00
               norm_class_idx: 0
               Tn: 0
               complexity: 0
               alpha: 0.
               node_risk: 0.
               tree_risk: 0.
               tree_error: 0.
               splits:
                  - { var:33, quality:7.8701293468475342e-01,
                      le:7.8465014696121216e-02 }
                  - { var:31, quality:7.4394840002059937e-01,
                      le:9.3254849314689636e-02 }
                  - { var:32, quality:7.1780556440353394e-01,
                      le:6.5375663340091705e-02 }
                  - { var:37, quality:6.8279147148132324e-01,
                      le:7.3826715350151062e-02 }
                  - { var:19, quality:6.7149507999420166e-01,
                      gt:7.1929115056991577e-01 }
                  - { var:24, quality:6.6449886560440063e-01,
                      gt:6.7736959457397461e-01 }
                  - { var:22, quality:6.6228240728378296e-01,
                      gt:6.2845826148986816e-01 }
                  - { var:23, quality:6.5927088260650635e-01,
                      gt:7.3517704010009766e-01 }
                  - { var:20, quality:6.5383058786392212e-01,
                      gt:6.0456174612045288e-01 }
                  - { var:36, quality:6.5224486589431763e-01,
                      le:5.2252486348152161e-02 }
                  - { var:18, quality:6.5103173255920410e-01,
                      gt:7.4691951274871826e-01 }
                  - { var:21, quality:6.4557665586471558e-01,
                      gt:6.3221943378448486e-01 }
                  - { var:17, quality:6.4411431550979614e-01,
                      gt:6.6168487071990967e-01 }
                  - { var:16, quality:6.4019995927810669e-01,
                      gt:5.5167609453201294e-01 }
                  - { var:14, quality:6.2185674905776978e-01,
                      gt:8.4736597537994385e-01 }
                  - { var:15, quality:6.1107724905014038e-01,
                      gt:5.6656944751739502e-01 }
                  - { var:38, quality:5.9522056579589844e-01,
                      le:1.2814213987439871e-03 }
                  - { var:30, quality:5.9251552820205688e-01,
                      le:1.9324138760566711e-02 }
                  - { var:39, quality:5.8851462602615356e-01,
                      le:2.1754398476332426e-03 }
                  - { var:34, quality:5.8139473199844360e-01,
                      le:3.4998545050621033e-01 }
                  - { var:2, quality:5.6863284111022949e-01,
                      le:2.0113348960876465e-01 }
                  - { var:35, quality:5.6564909219741821e-01,
                      le:4.4307717680931091e-01 }
                  - { var:0, quality:5.6417584419250488e-01,
                      gt:3.5813234746456146e-02 }
                  - { var:13, quality:5.6316089630126953e-01,
                      gt:9.9042642116546631e-01 }
                  - { var:11, quality:5.6216776371002197e-01,
                      le:9.7132802009582520e-02 }
                  - { var:25, quality:5.5870747566223145e-01,
                      le:8.5000002384185791e-01 }
                  - { var:27, quality:5.4947507381439209e-01,
                      le:7.5000000000000000e-01 }
                  - { var:5, quality:5.4660320281982422e-01,
                      gt:1.8199153244495392e-02 }
                  - { var:12, quality:5.4127758741378784e-01,
                      le:3.3062243461608887e-01 }
                  - { var:7, quality:5.3796297311782837e-01,
                      le:2.0807629823684692e-01 }
                  - { var:9, quality:5.3648138046264648e-01,
                      le:1.8223947286605835e-01 }
                  - { var:10, quality:5.3406614065170288e-01,
                      gt:1.2019470334053040e-02 }
                  - { var:6, quality:5.3185129165649414e-01,
                      gt:1.1296071112155914e-02 }
                  - { var:3, quality:5.3184998035430908e-01,
                      gt:1.4541123062372208e-02 }
                  - { var:1, quality:5.2846354246139526e-01,
                      le:1.6439640522003174e-01 }
                  - { var:26, quality:5.2164220809936523e-01,
                      le:8.5000002384185791e-01 }
                  - { var:29, quality:5.1956140995025635e-01,
                      le:8.5000002384185791e-01 }
                  - { var:4, quality:5.1790481805801392e-01,
                      le:1.8425780534744263e-01 }
            -
               depth: 1
               sample_count: 150
               value: -1.4175607065519684e+00
               norm_class_idx: 0
               Tn: 0
               complexity: 0
               alpha: 0.
               node_risk: 0.
               tree_risk: 0.
               tree_error: 0.
            -
               depth: 1
               sample_count: 88
               value: 1.4175607065519684e+00
               norm_class_idx: 1
               Tn: 0
               complexity: 0
               alpha: 0.
               node_risk: 0.
               tree_risk: 0.
               tree_error: 0.
      -
         best_tree_idx: -1
         nodes:
            -
               depth: 0
               sample_count: 239
               value: -1.3162925788495496e+00
               norm_class_idx: 0
               Tn: 0
               complexity: 0
               alpha: 0.
               node_risk: 0.
               tree_risk: 0.
               tree_error: 0.
               splits:
                  - { var:34, quality:7.4675941467285156e-01,
                      le:2.7059710025787354e-01 }
                  - { var:35, quality:6.7847776412963867e-01,
                      le:2.9193323850631714e-01 }
                  - { var:36, quality:6.1881291866302490e-01,
                      le:5.2725914865732193e-02 }
                  - { var:39, quality:5.7835048437118530e-01,
                      le:4.3281394755467772e-04 }
                  - { var:37, quality:5.7572025060653687e-01,
                      le:9.8442971706390381e-02 }
                  - { var:31, quality:5.7166141271591187e-01,
                      le:9.7205638885498047e-02 }
                  - { var:33, quality:5.4682946205139160e-01,
                      le:8.1018514931201935e-02 }
                  - { var:38, quality:5.4312676191329956e-01,
                      le:3.4857337595894933e-04 }
                  - { var:30, quality:5.3969389200210571e-01,
                      le:1.7190605867654085e-03 }
                  - { var:13, quality:5.3236472606658936e-01,
                      gt:9.9950075149536133e-01 }
                  - { var:6, quality:5.1957076787948608e-01,
                      le:3.7661384791135788e-02 }
                  - { var:32, quality:5.1435184478759766e-01,
                      le:6.5603032708168030e-02 }
                  - { var:2, quality:4.9802437424659729e-01,
                      le:9.3304201960563660e-02 }
                  - { var:3, quality:4.9361515045166016e-01,
                      le:3.1080719083547592e-02 }
                  - { var:15, quality:4.9293869733810425e-01,
                      gt:6.7520880699157715e-01 }
                  - { var:7, quality:4.9246329069137573e-01,
                      gt:1.0815718770027161e-01 }
                  - { var:11, quality:4.8996123671531677e-01,
                      le:4.6660665422677994e-02 }
                  - { var:9, quality:4.8994863033294678e-01,
                      le:3.0359540134668350e-02 }
                  - { var:17, quality:4.8662486672401428e-01,
                      gt:6.4799833297729492e-01 }
                  - { var:14, quality:4.8173797130584717e-01,
                      gt:8.2550477981567383e-01 }
                  - { var:22, quality:4.8029723763465881e-01,
                      gt:7.0512020587921143e-01 }
                  - { var:27, quality:4.7977304458618164e-01,
                      gt:1.5000000596046448e-01 }
                  - { var:21, quality:4.7234654426574707e-01,
                      gt:6.9674491882324219e-01 }
                  - { var:24, quality:4.6925958991050720e-01,
                      gt:7.3604303598403931e-01 }
                  - { var:18, quality:4.6711468696594238e-01,
                      gt:7.4684977531433105e-01 }
                  - { var:10, quality:4.6267142891883850e-01,
                      le:1.3915881514549255e-02 }
                  - { var:5, quality:4.6172621846199036e-01,
                      gt:1.0279694199562073e-01 }
                  - { var:23, quality:4.6172073483467102e-01,
                      gt:7.5481897592544556e-01 }
                  - { var:20, quality:4.5958352088928223e-01,
                      gt:7.0491218566894531e-01 }
                  - { var:4, quality:4.5771783590316772e-01,
                      le:4.2446464300155640e-02 }
                  - { var:19, quality:4.5661139488220215e-01,
                      gt:7.2413635253906250e-01 }
                  - { var:16, quality:4.5595481991767883e-01,
                      gt:6.5942466259002686e-01 }
                  - { var:8, quality:4.4864416122436523e-01,
                      gt:6.4608931541442871e-02 }
                  - { var:1, quality:4.3586570024490356e-01,
                      le:3.1363382935523987e-02 }
                  - { var:28, quality:4.2567899823188782e-01,
                      gt:8.5000002384185791e-01 }
                  - { var:0, quality:4.1620138287544250e-01,
                      gt:7.5052544474601746e-02 }
                  - { var:29, quality:4.0976953506469727e-01,
                      gt:8.5000002384185791e-01 }
                  - { var:26, quality:4.0436375141143799e-01,
                      gt:6.4999997615814209e-01 }
            -
               depth: 1
               sample_count: 59
               value: 1.3162925788495496e+00
               norm_class_idx: 1
               Tn: 0
               complexity: 0
               alpha: 0.
               node_risk: 0.
               tree_risk: 0.
               tree_error: 0.
            -
               depth: 1
               sample_count: 180
               value: -1.3162925788495496e+00
               norm_class_idx: 0
               Tn: 0
               complexity: 0
               alpha: 0.
               node_risk: 0.
               tree_risk: 0.
               tree_error: 0.
      -
         best_tree_idx: -1
         nodes:
            -
               depth: 0
               sample_count: 218
               value: -9.4906291071121152e-01
               norm_class_idx: 0
               Tn: 0
               complexity: 0
               alpha: 0.
               node_risk: 0.
               tree_risk: 0.
               tree_error: 0.
               splits:
                  - { var:5, quality:6.9554680585861206e-01,
                      le:5.5523924529552460e-02 }
                  - { var:2, quality:5.8926355838775635e-01,
                      gt:1.7631494998931885e-01 }
                  - { var:0, quality:5.5862015485763550e-01,
                      le:3.6000303924083710e-02 }
                  - { var:23, quality:5.3391081094741821e-01,
                      gt:8.8271141052246094e-01 }
                  - { var:19, quality:5.3342205286026001e-01,
                      gt:8.7879580259323120e-01 }
                  - { var:18, quality:5.3341317176818848e-01,
                      gt:8.9860272407531738e-01 }
                  - { var:25, quality:5.3126645088195801e-01,
                      gt:9.4999998807907104e-01 }
                  - { var:8, quality:5.2256441116333008e-01,
                      gt:1.1562976241111755e-01 }
                  - { var:21, quality:5.2168536186218262e-01,
                      le:5.5951422452926636e-01 }
                  - { var:24, quality:5.2003997564315796e-01,
                      gt:8.4440982341766357e-01 }
                  - { var:32, quality:5.1838922500610352e-01,
                      gt:1.1742073297500610e-01 }
                  - { var:22, quality:5.1796251535415649e-01,
                      gt:8.3093178272247314e-01 }
                  - { var:1, quality:5.1672321557998657e-01,
                      gt:1.2265513837337494e-01 }
                  - { var:30, quality:5.1669603586196899e-01,
                      le:3.1142600346356630e-04 }
                  - { var:33, quality:5.1623541116714478e-01,
                      gt:1.2806674838066101e-01 }
                  - { var:39, quality:5.1597255468368530e-01,
                      le:1.1509026808198541e-04 }
                  - { var:20, quality:5.1535958051681519e-01,
                      gt:8.0321705341339111e-01 }
                  - { var:11, quality:5.1512479782104492e-01,
                      gt:1.4815166592597961e-01 }
                  - { var:15, quality:5.1457494497299194e-01,
                      le:6.2754249572753906e-01 }
                  - { var:7, quality:5.1447159051895142e-01,
                      le:1.2549223378300667e-02 }
                  - { var:31, quality:5.1394343376159668e-01,
                      gt:1.1143986880779266e-01 }
                  - { var:3, quality:5.0909262895584106e-01,
                      gt:2.0654186606407166e-01 }
                  - { var:16, quality:5.0815731287002563e-01,
                      le:5.0057256221771240e-01 }
                  - { var:34, quality:5.0706839561462402e-01,
                      le:1.4485576748847961e-01 }
                  - { var:36, quality:5.0648564100265503e-01,
                      le:9.4092814251780510e-03 }
                  - { var:9, quality:5.0482237339019775e-01,
                      gt:1.8473450839519501e-01 }
                  - { var:10, quality:5.0454682111740112e-01,
                      le:1.1386158876121044e-02 }
                  - { var:17, quality:5.0443840026855469e-01,
                      le:6.5474641323089600e-01 }
                  - { var:38, quality:5.0388163328170776e-01,
                      le:1.2530507228802890e-04 }
                  - { var:14, quality:5.0369966030120850e-01,
                      gt:9.7028219699859619e-01 }
                  - { var:4, quality:5.0092327594757080e-01,
                      le:3.5926140844821930e-02 }
                  - { var:6, quality:4.9935084581375122e-01,
                      gt:1.1797213554382324e-01 }
                  - { var:35, quality:4.9830353260040283e-01,
                      gt:7.3182779550552368e-01 }
                  - { var:37, quality:4.9730369448661804e-01,
                      gt:6.6022258996963501e-01 }
            -
               depth: 1
               sample_count: 60
               value: 9.4906291071121152e-01
               norm_class_idx: 1
               Tn: 0
               complexity: 0
               alpha: 0.
               node_risk: 0.
               tree_risk: 0.
               tree_error: 0.
            -
               depth: 1
               sample_count: 158
               value: -9.4906291071121152e-01
               norm_class_idx: 0
               Tn: 0
               complexity: 0
               alpha: 0.
               node_risk: 0.
               tree_risk: 0.
               tree_error: 0.
      -
         best_tree_idx: -1
         nodes:
            -
               depth: 0
               sample_count: 197
               value: 8.6817392193662768e-01
               norm_class_idx: 1
               Tn: 0
               complexity: 0
               alpha: 0.
               node_risk: 0.
               tree_risk: 0.
               tree_error: 0.
               splits:
                  - { var:31, quality:6.9650495052337646e-01,
                      le:6.8336218595504761e-02 }
                  - { var:32, quality:6.7118453979492188e-01,
                      le:4.8762086778879166e-02 }
                  - { var:33, quality:6.6227775812149048e-01,
                      le:5.7746335864067078e-02 }
                  - { var:36, quality:6.4198672771453857e-01,
                      le:4.0019556879997253e-02 }
                  - { var:37, quality:6.3801401853561401e-01,
                      le:4.1496403515338898e-02 }
                  - { var:35, quality:5.6955796480178833e-01,
                      le:2.3766750097274780e-01 }
                  - { var:34, quality:5.5570554733276367e-01,
                      le:2.1064484119415283e-01 }
                  - { var:38, quality:5.3234630823135376e-01,
                      le:2.2703768627252430e-04 }
                  - { var:21, quality:5.3013962507247925e-01,
                      gt:7.4095332622528076e-01 }
                  - { var:30, quality:5.2820277214050293e-01,
                      le:1.1904824059456587e-03 }
                  - { var:16, quality:5.2533578872680664e-01,
                      gt:7.2177481651306152e-01 }
                  - { var:17, quality:5.2199411392211914e-01,
                      gt:7.8017938137054443e-01 }
                  - { var:15, quality:5.2110505104064941e-01,
                      gt:7.3268705606460571e-01 }
                  - { var:39, quality:5.1893407106399536e-01,
                      le:3.5624622250907123e-04 }
                  - { var:24, quality:5.1438695192337036e-01,
                      gt:7.7207386493682861e-01 }
                  - { var:22, quality:5.1328253746032715e-01,
                      gt:7.6385509967803955e-01 }
                  - { var:23, quality:5.1084512472152710e-01,
                      gt:7.9480957984924316e-01 }
                  - { var:20, quality:5.1068079471588135e-01,
                      gt:7.6245832443237305e-01 }
                  - { var:4, quality:5.0856554508209229e-01,
                      gt:7.8999429941177368e-02 }
                  - { var:19, quality:5.0818961858749390e-01,
                      gt:7.9199755191802979e-01 }
                  - { var:18, quality:5.0549650192260742e-01,
                      gt:8.2436978816986084e-01 }
                  - { var:9, quality:4.9259594082832336e-01,
                      gt:1.4859397709369659e-01 }
                  - { var:14, quality:4.9209588766098022e-01,
                      gt:8.8318121433258057e-01 }
                  - { var:11, quality:4.8450931906700134e-01,
                      le:2.6541367173194885e-02 }
                  - { var:6, quality:4.7707518935203552e-01,
                      gt:8.1130564212799072e-02 }
                  - { var:10, quality:4.7002112865447998e-01,
                      le:4.3515831232070923e-02 }
                  - { var:3, quality:4.6258345246315002e-01,
                      gt:1.4705386757850647e-01 }
                  - { var:2, quality:4.5861703157424927e-01,
                      le:3.3334877341985703e-02 }
                  - { var:28, quality:4.5843413472175598e-01,
                      gt:3.5000002384185791e-01 }
                  - { var:7, quality:4.5117545127868652e-01,
                      le:4.2247701436281204e-02 }
                  - { var:1, quality:4.4950595498085022e-01,
                      gt:9.1794505715370178e-02 }
                  - { var:26, quality:4.3321043252944946e-01,
                      gt:1.5000000596046448e-01 }
                  - { var:25, quality:4.3149730563163757e-01,
                      le:3.5000002384185791e-01 }
                  - { var:8, quality:4.2666801810264587e-01,
                      gt:1.7949694395065308e-01 }
                  - { var:5, quality:4.2662587761878967e-01,
                      gt:9.7850576043128967e-02 }
                  - { var:0, quality:4.2101013660430908e-01,
                      gt:2.5978761911392212e-01 }
                  - { var:29, quality:4.1988244652748108e-01,
                      le:1.5000000596046448e-01 }
            -
               depth: 1
               sample_count: 63
               value: -8.6817392193662768e-01
               norm_class_idx: 0
               Tn: 0
               complexity: 0
               alpha: 0.
               node_risk: 0.
               tree_risk: 0.
               tree_error: 0.
            -
               depth: 1
               sample_count: 134
               value: 8.6817392193662768e-01
               norm_class_idx: 1
               Tn: 0
               complexity: 0
               alpha: 0.
               node_risk: 0.
               tree_risk: 0.
               tree_error: 0.
      -
         best_tree_idx: -1
         nodes:
            -
               depth: 0
               sample_count: 228
               value: -9.3305035741423759e-01
               norm_class_idx: 0
               Tn: 0
               complexity: 0
               alpha: 0.
               node_risk: 0.
               tree_risk: 0.
               tree_error: 0.
               splits:
                  - { var:39, quality:6.7920774221420288e-01,
                      le:1.1643019970506430e-03 }
                  - { var:30, quality:6.1484050750732422e-01,
                      le:1.3667585328221321e-02 }
                  - { var:38, quality:6.1206793785095215e-01,
                      le:1.0428063105791807e-03 }
                  - { var:17, quality:5.8458298444747925e-01,
                      gt:6.9026052951812744e-01 }
                  - { var:21, quality:5.7052683830261230e-01,
                      gt:6.5198886394500732e-01 }
                  - { var:16, quality:5.6888914108276367e-01,
                      gt:6.3632845878601074e-01 }
                  - { var:24, quality:5.6507420539855957e-01,
                      gt:7.1122121810913086e-01 }
                  - { var:20, quality:5.6273198127746582e-01,
                      gt:6.7010331153869629e-01 }
                  - { var:23, quality:5.6127613782882690e-01,
                      gt:7.0332109928131104e-01 }
                  - { var:22, quality:5.5530607700347900e-01,
                      gt:6.8456673622131348e-01 }
                  - { var:19, quality:5.5003702640533447e-01,
                      gt:6.5040987730026245e-01 }
                  - { var:18, quality:5.4501563310623169e-01,
                      gt:7.6903152465820312e-01 }
                  - { var:32, quality:5.3808265924453735e-01,
                      le:8.5616588592529297e-02 }
                  - { var:13, quality:5.3414517641067505e-01,
                      gt:8.1816130876541138e-01 }
                  - { var:14, quality:5.3243118524551392e-01,
                      gt:7.5737529993057251e-01 }
                  - { var:15, quality:5.2224063873291016e-01,
                      gt:6.5347599983215332e-01 }
                  - { var:34, quality:5.2053982019424438e-01,
                      le:4.2676085233688354e-01 }
                  - { var:31, quality:5.1749044656753540e-01,
                      le:1.1371897161006927e-01 }
                  - { var:12, quality:5.1418912410736084e-01,
                      le:4.7752889804542065e-03 }
                  - { var:36, quality:5.1024472713470459e-01,
                      le:1.5267485380172729e-01 }
                  - { var:33, quality:5.0861340761184692e-01,
                      le:8.3440959453582764e-02 }
                  - { var:37, quality:5.0646489858627319e-01,
                      le:1.3901115953922272e-01 }
                  - { var:35, quality:5.0083112716674805e-01,
                      le:3.0564895272254944e-01 }
                  - { var:10, quality:4.6757999062538147e-01,
                      gt:3.3317215740680695e-02 }
                  - { var:27, quality:4.5885300636291504e-01,
                      le:7.5000000000000000e-01 }
                  - { var:2, quality:4.5637562870979309e-01,
                      le:8.5654750466346741e-02 }
                  - { var:6, quality:4.4918256998062134e-01,
                      le:8.3142563700675964e-02 }
                  - { var:26, quality:4.4678890705108643e-01,
                      le:7.5000000000000000e-01 }
                  - { var:5, quality:4.4464242458343506e-01,
                      gt:5.4113045334815979e-02 }
                  - { var:11, quality:4.4329118728637695e-01,
                      le:1.0823094099760056e-01 }
                  - { var:0, quality:4.4162887334823608e-01,
                      le:1.7725236713886261e-01 }
                  - { var:8, quality:4.3757182359695435e-01,
                      gt:3.6638513207435608e-02 }
                  - { var:7, quality:4.3128442764282227e-01,
                      le:2.1357244253158569e-01 }
                  - { var:3, quality:4.3006914854049683e-01,
                      gt:1.6391305252909660e-02 }
                  - { var:9, quality:4.2991787195205688e-01,
                      le:1.9759538769721985e-01 }
                  - { var:4, quality:4.2949503660202026e-01,
                      le:1.7186549305915833e-01 }
                  - { var:1, quality:4.2556914687156677e-01,
                      le:2.2597083449363708e-01 }
            -
               depth: 1
               sample_count: 75
               value: 9.3305035741423759e-01
               norm_class_idx: 1
               Tn: 0
               complexity: 0
               alpha: 0.
               node_risk: 0.
               tree_risk: 0.
               tree_error: 0.
            -
               depth: 1
               sample_count: 153
               value: -9.3305035741423759e-01
               norm_class_idx: 0
               Tn: 0
               complexity: 0
               alpha: 0.
               node_risk: 0.
               tree_risk: 0.
               tree_error: 0.
      -
         best_tree_idx: -1
         nodes:
            -
               depth: 0
               sample_count: 205
               value: -9.7333900774594428e-01
               norm_class_idx: 0
               Tn: 0
               complexity: 0
               alpha: 0.
               node_risk: 0.
               tree_risk: 0.
               tree_error: 0.
               splits:
                  - { var:6, quality:6.8544334173202515e-01,
                      le:3.7954725325107574e-02 }
                  - { var:3, quality:5.5814790725708008e-01,
                      gt:1.2565490603446960e-01 }
                  - { var:5, quality:5.5708938837051392e-01,
                      gt:1.2122474610805511e-01 }
                  - { var:38, quality:5.5665093660354614e-01,
                      le:8.9350549387745559e-05 }
                  - { var:30, quality:5.5462819337844849e-01,
                      le:3.3953593811020255e-04 }
                  - { var:4, quality:5.5227631330490112e-01,
                      le:4.2285069823265076e-02 }
                  - { var:1, quality:5.4307949542999268e-01,
                      le:3.1363382935523987e-02 }
                  - { var:9, quality:5.4288309812545776e-01,
                      gt:1.8473450839519501e-01 }
                  - { var:34, quality:5.4226762056350708e-01,
                      le:2.0218701660633087e-01 }
                  - { var:10, quality:5.3984171152114868e-01,
                      gt:1.1946849524974823e-01 }
                  - { var:8, quality:5.3796637058258057e-01,
                      le:2.0028505474328995e-02 }
                  - { var:28, quality:5.2993923425674438e-01,
                      gt:8.5000002384185791e-01 }
                  - { var:39, quality:5.2873402833938599e-01,
                      le:1.1218834697501734e-04 }
                  - { var:7, quality:5.2823656797409058e-01,
                      le:1.9452707841992378e-02 }
                  - { var:0, quality:5.2760326862335205e-01,
                      gt:2.1694040298461914e-01 }
                  - { var:11, quality:5.2474796772003174e-01,
                      gt:1.3781279325485229e-01 }
                  - { var:27, quality:5.2229666709899902e-01,
                      gt:8.5000002384185791e-01 }
                  - { var:35, quality:5.2126383781433105e-01,
                      gt:7.4839913845062256e-01 }
                  - { var:2, quality:5.2072113752365112e-01,
                      gt:3.1768789887428284e-01 }
                  - { var:36, quality:5.2019554376602173e-01,
                      gt:3.5787469148635864e-01 }
                  - { var:32, quality:5.2019554376602173e-01,
                      gt:2.1956670284271240e-01 }
                  - { var:31, quality:5.2019554376602173e-01,
                      gt:2.4551174044609070e-01 }
                  - { var:33, quality:5.1952081918716431e-01,
                      gt:1.9631445407867432e-01 }
                  - { var:37, quality:5.1951074600219727e-01,
                      gt:3.6272889375686646e-01 }
                  - { var:24, quality:5.1845246553421021e-01,
                      gt:9.5342445373535156e-01 }
                  - { var:22, quality:5.1845246553421021e-01,
                      gt:9.2778110504150391e-01 }
                  - { var:21, quality:5.1845246553421021e-01,
                      gt:9.2179405689239502e-01 }
                  - { var:20, quality:5.1845246553421021e-01,
                      gt:9.1898465156555176e-01 }
                  - { var:17, quality:5.1845246553421021e-01,
                      gt:9.4234436750411987e-01 }
                  - { var:16, quality:5.1845246553421021e-01,
                      gt:8.8731461763381958e-01 }
                  - { var:19, quality:5.1783895492553711e-01,
                      gt:8.9679557085037231e-01 }
                  - { var:15, quality:5.1776772737503052e-01,
                      le:9.6905911341309547e-03 }
                  - { var:18, quality:5.1750785112380981e-01,
                      gt:9.1702282428741455e-01 }
            -
               depth: 1
               sample_count: 51
               value: 9.7333900774594428e-01
               norm_class_idx: 1
               Tn: 0
               complexity: 0
               alpha: 0.
               node_risk: 0.
               tree_risk: 0.
               tree_error: 0.
            -
               depth: 1
               sample_count: 154
               value: -9.7333900774594428e-01
               norm_class_idx: 0
               Tn: 0
               complexity: 0
               alpha: 0.
               node_risk: 0.
               tree_risk: 0.
               tree_error: 0.
      -
         best_tree_idx: -1
         nodes:
            -
               depth: 0
               sample_count: 192
               value: -8.8572065772490538e-01
               norm_class_idx: 0
               Tn: 0
               complexity: 0
               alpha: 0.
               node_risk: 0.
               tree_risk: 0.
               tree_error: 0.
               splits:
                  - { var:29, quality:6.8804532289505005e-01,
                      le:1.5000000596046448e-01 }
                  - { var:25, quality:5.3896152973175049e-01,
                      le:2.5000000000000000e-01 }
                  - { var:9, quality:4.9412024021148682e-01,
                      gt:1.6945427656173706e-01 }
                  - { var:20, quality:4.8688930273056030e-01,
                      gt:7.8679704666137695e-01 }
                  - { var:15, quality:4.8366731405258179e-01,
                      gt:7.8109532594680786e-01 }
                  - { var:22, quality:4.8131597042083740e-01,
                      gt:8.0646014213562012e-01 }
                  - { var:11, quality:4.8073866963386536e-01,
                      le:3.9199300110340118e-02 }
                  - { var:14, quality:4.7475519776344299e-01,
                      gt:8.9062285423278809e-01 }
                  - { var:21, quality:4.7221234440803528e-01,
                      gt:7.6381045579910278e-01 }
                  - { var:3, quality:4.7220614552497864e-01,
                      le:3.0697606503963470e-02 }
                  - { var:30, quality:4.7087880969047546e-01,
                      le:1.8875484820455313e-03 }
                  - { var:31, quality:4.6948280930519104e-01,
                      le:4.6051338315010071e-02 }
                  - { var:1, quality:4.6772658824920654e-01,
                      gt:1.0295338928699493e-01 }
                  - { var:19, quality:4.6686971187591553e-01,
                      gt:8.4387195110321045e-01 }
                  - { var:16, quality:4.6591001749038696e-01,
                      gt:7.3682022094726562e-01 }
                  - { var:17, quality:4.6580106019973755e-01,
                      gt:8.0082595348358154e-01 }
                  - { var:24, quality:4.6544441580772400e-01,
                      gt:8.1083917617797852e-01 }
                  - { var:18, quality:4.6498325467109680e-01,
                      gt:8.5490119457244873e-01 }
                  - { var:38, quality:4.6453809738159180e-01,
                      le:3.9761656080372632e-04 }
                  - { var:23, quality:4.6328288316726685e-01,
                      gt:8.3201396465301514e-01 }
                  - { var:39, quality:4.6111282706260681e-01,
                      le:3.2536362414248288e-04 }
                  - { var:4, quality:4.6066915988922119e-01,
                      le:6.2420848757028580e-02 }
                  - { var:36, quality:4.5951983332633972e-01,
                      le:1.6046885401010513e-02 }
                  - { var:37, quality:4.5734718441963196e-01,
                      le:1.5620620921254158e-02 }
                  - { var:33, quality:4.5561224222183228e-01,
                      le:5.0321452319622040e-02 }
                  - { var:34, quality:4.5395717024803162e-01,
                      le:2.5648564100265503e-01 }
                  - { var:35, quality:4.5392921566963196e-01,
                      le:2.1983844041824341e-01 }
                  - { var:6, quality:4.5317640900611877e-01,
                      le:4.5517168939113617e-02 }
                  - { var:32, quality:4.4584950804710388e-01,
                      le:4.3654471635818481e-02 }
                  - { var:10, quality:4.4220662117004395e-01,
                      le:3.4126836806535721e-02 }
                  - { var:0, quality:4.4121038913726807e-01,
                      le:8.0286204814910889e-02 }
                  - { var:2, quality:4.3183088302612305e-01,
                      le:3.0960287898778915e-02 }
                  - { var:5, quality:4.2943766713142395e-01,
                      gt:1.0366778075695038e-01 }
                  - { var:8, quality:4.2421394586563110e-01,
                      le:2.8740245848894119e-02 }
                  - { var:7, quality:4.2228966951370239e-01,
                      le:7.2824694216251373e-02 }
                  - { var:28, quality:4.1994392871856689e-01,
                      gt:4.4999998807907104e-01 }
                  - { var:13, quality:4.1076683998107910e-01,
                      le:9.8410326242446899e-01 }
                  - { var:27, quality:4.0041247010231018e-01,
                      gt:8.5000002384185791e-01 }
            -
               depth: 1
               sample_count: 86
               value: -8.8572065772490538e-01
               norm_class_idx: 0
               Tn: 0
               complexity: 0
               alpha: 0.
               node_risk: 0.
               tree_risk: 0.
               tree_error: 0.
            -
               depth: 1
               sample_count: 106
               value: 8.8572065772490538e-01
               norm_class_idx: 1
               Tn: 0
               complexity: 0
               alpha: 0.
               node_risk: 0.
               tree_risk: 0.
               tree_error: 0.
      -
         best_tree_idx: -1
         nodes:
            -
               depth: 0
               sample_count: 200
               value: -7.4723542557384648e-01
               norm_class_idx: 0
               Tn: 0
               complexity: 0
               alpha: 0.
               node_risk: 0.
               tree_risk: 0.
               tree_error: 0.
               splits:
                  - { var:39, quality:6.2970846891403198e-01,
                      le:3.0606653308495879e-04 }
                  - { var:30, quality:5.9080827236175537e-01,
                      le:1.0152407921850681e-03 }
                  - { var:38, quality:5.8248704671859741e-01,
                      le:1.8797695520333946e-04 }
                  - { var:36, quality:5.4653620719909668e-01,
                      le:1.2731986120343208e-02 }
                  - { var:34, quality:5.4487073421478271e-01,
                      le:1.5655934810638428e-01 }
                  - { var:35, quality:5.3897142410278320e-01,
                      le:2.1477270126342773e-01 }
                  - { var:37, quality:5.3697901964187622e-01,
                      le:1.1288648471236229e-02 }
                  - { var:3, quality:5.3423517942428589e-01,
                      gt:1.5023137629032135e-01 }
                  - { var:5, quality:5.3393197059631348e-01,
                      gt:1.5971326828002930e-01 }
                  - { var:2, quality:5.3382080793380737e-01,
                      le:2.9694924131035805e-02 }
                  - { var:9, quality:5.3152036666870117e-01,
                      le:2.7447342872619629e-02 }
                  - { var:4, quality:5.2978533506393433e-01,
                      le:4.2494177818298340e-02 }
                  - { var:11, quality:5.2736794948577881e-01,
                      le:1.0330612771213055e-02 }
                  - { var:7, quality:5.2663779258728027e-01,
                      le:1.2549223378300667e-02 }
                  - { var:10, quality:5.2516722679138184e-01,
                      le:5.2057080902159214e-03 }
                  - { var:1, quality:5.2484506368637085e-01,
                      le:1.4328014105558395e-02 }
                  - { var:8, quality:5.2468758821487427e-01,
                      le:9.1313719749450684e-03 }
                  - { var:0, quality:5.2417993545532227e-01,
                      le:2.5228178128600121e-02 }
                  - { var:6, quality:5.2374225854873657e-01,
                      gt:2.1765579283237457e-01 }
                  - { var:28, quality:5.2316647768020630e-01,
                      gt:8.5000002384185791e-01 }
                  - { var:32, quality:5.1923948526382446e-01,
                      le:3.6930173635482788e-02 }
            -
               depth: 1
               sample_count: 25
               value: 7.4723542557384648e-01
               norm_class_idx: 1
               Tn: 0
               complexity: 0
               alpha: 0.
               node_risk: 0.
               tree_risk: 0.
               tree_error: 0.
            -
               depth: 1
               sample_count: 175
               value: -7.4723542557384648e-01
               norm_class_idx: 0
               Tn: 0
               complexity: 0
               alpha: 0.
               node_risk: 0.
               tree_risk: 0.
               tree_error: 0.
      -
         best_tree_idx: -1
         nodes:
            -
               depth: 0
               sample_count: 176
               value: 9.4090375749848232e-01
               norm_class_idx: 1
               Tn: 0
               complexity: 0
               alpha: 0.
               node_risk: 0.
               tree_risk: 0.
               tree_error: 0.
               splits:
                  - { var:32, quality:7.0281213521957397e-01,
                      le:6.0748491436243057e-02 }
                  - { var:36, quality:6.5846508741378784e-01,
                      le:4.4312827289104462e-02 }
                  - { var:31, quality:6.5036845207214355e-01,
                      le:7.9174935817718506e-02 }
                  - { var:33, quality:6.4256948232650757e-01,
                      le:7.1580141782760620e-02 }
                  - { var:37, quality:5.9893852472305298e-01,
                      le:4.1496403515338898e-02 }
                  - { var:34, quality:5.7277745008468628e-01,
                      le:2.4844872951507568e-01 }
                  - { var:39, quality:5.6507825851440430e-01,
                      le:4.4998413068242371e-04 }
                  - { var:35, quality:5.3250944614410400e-01,
                      le:2.4101743102073669e-01 }
                  - { var:30, quality:5.3031671047210693e-01,
                      le:1.1091170599684119e-03 }
                  - { var:38, quality:5.2840662002563477e-01,
                      le:3.8737046997994184e-04 }
                  - { var:9, quality:5.2193737030029297e-01,
                      le:3.8845501840114594e-02 }
                  - { var:22, quality:5.2125400304794312e-01,
                      gt:6.9923901557922363e-01 }
                  - { var:16, quality:5.2059209346771240e-01,
                      gt:7.2177481651306152e-01 }
                  - { var:21, quality:5.1870161294937134e-01,
                      gt:7.4095332622528076e-01 }
                  - { var:23, quality:5.1606059074401855e-01,
                      gt:7.3781216144561768e-01 }
                  - { var:19, quality:5.1564401388168335e-01,
                      gt:7.1991825103759766e-01 }
                  - { var:17, quality:5.1450377702713013e-01,
                      gt:7.5678622722625732e-01 }
                  - { var:15, quality:5.1142990589141846e-01,
                      gt:7.4098825454711914e-01 }
                  - { var:3, quality:5.0794357061386108e-01,
                      gt:8.8108316063880920e-02 }
                  - { var:14, quality:5.0710499286651611e-01,
                      gt:8.4736597537994385e-01 }
                  - { var:2, quality:5.0632017850875854e-01,
                      le:4.6519652009010315e-02 }
                  - { var:20, quality:5.0315719842910767e-01,
                      gt:6.7607390880584717e-01 }
                  - { var:24, quality:4.9920046329498291e-01,
                      gt:7.7332150936126709e-01 }
                  - { var:18, quality:4.9860045313835144e-01,
                      gt:7.8531211614608765e-01 }
                  - { var:4, quality:4.9549716711044312e-01,
                      le:4.2494177818298340e-02 }
                  - { var:6, quality:4.9178931117057800e-01,
                      gt:8.1130564212799072e-02 }
                  - { var:11, quality:4.9124798178672791e-01,
                      le:2.6541367173194885e-02 }
                  - { var:5, quality:4.8839634656906128e-01,
                      gt:9.3927636742591858e-02 }
                  - { var:8, quality:4.8340678215026855e-01,
                      gt:7.8541040420532227e-02 }
                  - { var:10, quality:4.7804406285285950e-01,
                      gt:6.9745302200317383e-02 }
                  - { var:1, quality:4.7517859935760498e-01,
                      le:2.9213339090347290e-02 }
                  - { var:25, quality:4.6811902523040771e-01,
                      le:3.5000002384185791e-01 }
                  - { var:7, quality:4.6474483609199524e-01,
                      le:3.8645859807729721e-02 }
                  - { var:29, quality:4.5470678806304932e-01,
                      gt:9.4999998807907104e-01 }
                  - { var:0, quality:4.4797998666763306e-01,
                      gt:2.5092926621437073e-01 }
                  - { var:28, quality:4.4500759243965149e-01,
                      gt:3.5000002384185791e-01 }
                  - { var:26, quality:4.4325819611549377e-01,
                      gt:7.5000000000000000e-01 }
            -
               depth: 1
               sample_count: 69
               value: -9.4090375749848232e-01
               norm_class_idx: 0
               Tn: 0
               complexity: 0
               alpha: 0.
               node_risk: 0.
               tree_risk: 0.
               tree_error: 0.
            -
               depth: 1
               sample_count: 107
               value: 9.4090375749848232e-01
               norm_class_idx: 1
               Tn: 0
               complexity: 0
               alpha: 0.
               node_risk: 0.
               tree_risk: 0.
               tree_error: 0.
      -
         best_tree_idx: -1
         nodes:
            -
               depth: 0
               sample_count: 197
               value: -1.1437410882037957e+00
               norm_class_idx: 0
               Tn: 0
               complexity: 0
               alpha: 0.
               node_risk: 0.
               tree_risk: 0.
               tree_error: 0.
               splits:
                  - { var:34, quality:7.2521436214447021e-01,
                      le:3.8544040918350220e-01 }
                  - { var:35, quality:6.8493622541427612e-01,
                      le:4.0164941549301147e-01 }
                  - { var:36, quality:6.5858072042465210e-01,
                      le:1.1478012800216675e-01 }
                  - { var:31, quality:6.5602505207061768e-01,
                      le:1.1618736386299133e-01 }
                  - { var:13, quality:6.5325433015823364e-01,
                      gt:9.2848038673400879e-01 }
                  - { var:17, quality:6.1947435140609741e-01,
                      gt:6.0615944862365723e-01 }
                  - { var:37, quality:6.1919069290161133e-01,
                      le:9.9458724260330200e-02 }
                  - { var:24, quality:6.1763864755630493e-01,
                      gt:6.0903537273406982e-01 }
                  - { var:22, quality:6.1297154426574707e-01,
                      gt:5.9992891550064087e-01 }
                  - { var:23, quality:6.0893696546554565e-01,
                      gt:6.5128844976425171e-01 }
                  - { var:18, quality:6.0583329200744629e-01,
                      gt:6.2008285522460938e-01 }
                  - { var:20, quality:6.0415709018707275e-01,
                      gt:5.3056132793426514e-01 }
                  - { var:14, quality:6.0183382034301758e-01,
                      gt:6.9201993942260742e-01 }
                  - { var:39, quality:6.0162377357482910e-01,
                      le:2.2755302488803864e-03 }
                  - { var:19, quality:6.0161894559860229e-01,
                      gt:5.9281623363494873e-01 }
                  - { var:38, quality:5.9988814592361450e-01,
                      le:2.2304099984467030e-03 }
                  - { var:21, quality:5.9965765476226807e-01,
                      gt:4.4256979227066040e-01 }
                  - { var:32, quality:5.9904414415359497e-01,
                      le:8.9835524559020996e-02 }
                  - { var:15, quality:5.9261703491210938e-01,
                      gt:5.4738426208496094e-01 }
                  - { var:16, quality:5.8870816230773926e-01,
                      gt:3.8332030177116394e-01 }
                  - { var:30, quality:5.8626973628997803e-01,
                      le:3.2780192792415619e-02 }
                  - { var:1, quality:5.5506151914596558e-01,
                      le:1.8238276243209839e-01 }
                  - { var:33, quality:5.5050629377365112e-01,
                      le:9.4683513045310974e-02 }
                  - { var:26, quality:5.2861475944519043e-01,
                      le:8.5000002384185791e-01 }
                  - { var:9, quality:5.2752500772476196e-01,
                      le:2.0613013207912445e-01 }
                  - { var:0, quality:5.2721357345581055e-01,
                      le:1.8417519330978394e-01 }
                  - { var:25, quality:5.2407604455947876e-01,
                      le:9.4999998807907104e-01 }
                  - { var:7, quality:5.2398812770843506e-01,
                      le:2.9033023118972778e-01 }
                  - { var:27, quality:5.2346718311309814e-01,
                      le:8.5000002384185791e-01 }
                  - { var:11, quality:5.2307373285293579e-01,
                      le:1.5788361430168152e-01 }
            -
               depth: 1
               sample_count: 93
               value: 1.1437410882037957e+00
               norm_class_idx: 1
               Tn: 0
               complexity: 0
               alpha: 0.
               node_risk: 0.
               tree_risk: 0.
               tree_error: 0.
            -
               depth: 1
               sample_count: 104
               value: -1.1437410882037957e+00
               norm_class_idx: 0
               Tn: 0
               complexity: 0
               alpha: 0.
               node_risk: 0.
               tree_risk: 0.
               tree_error: 0.
      -
         best_tree_idx: -1
         nodes:
            -
               depth: 0
               sample_count: 192
               value: -1.0888248046413218e+00
               norm_class_idx: 0
               Tn: 0
               complexity: 0
               alpha: 0.
               node_risk: 0.
               tree_risk: 0.
               tree_error: 0.
               splits:
                  - { var:30, quality:6.9971001148223877e-01,
                      le:6.1050662770867348e-04 }
                  - { var:38, quality:6.9431990385055542e-01,
                      le:1.3024231884628534e-04 }
                  - { var:39, quality:6.7376369237899780e-01,
                      le:1.1509026808198541e-04 }
                  - { var:3, quality:6.7342323064804077e-01,
                      gt:1.5023137629032135e-01 }
                  - { var:10, quality:6.6745698451995850e-01,
                      le:5.2057080902159214e-03 }
                  - { var:8, quality:6.6699576377868652e-01,
                      le:1.0414393618702888e-02 }
                  - { var:5, quality:6.6699576377868652e-01,
                      le:8.1410035490989685e-03 }
                  - { var:2, quality:6.6699576377868652e-01,
                      gt:3.9023917913436890e-01 }
                  - { var:11, quality:6.6650772094726562e-01,
                      le:8.2644540816545486e-03 }
                  - { var:1, quality:6.6650772094726562e-01,
                      le:1.3968641869723797e-02 }
                  - { var:0, quality:6.6650772094726562e-01,
                      le:2.0889874547719955e-02 }
                  - { var:34, quality:6.6566705703735352e-01,
                      le:1.5655934810638428e-01 }
                  - { var:6, quality:6.6382634639739990e-01,
                      gt:2.8061935305595398e-01 }
                  - { var:7, quality:6.6297799348831177e-01,
                      le:8.0399541184306145e-03 }
                  - { var:36, quality:6.6265839338302612e-01,
                      le:5.4786978289484978e-03 }
            -
               depth: 1
               sample_count: 12
               value: 1.0888248046413218e+00
               norm_class_idx: 1
               Tn: 0
               complexity: 0
               alpha: 0.
               node_risk: 0.
               tree_risk: 0.
               tree_error: 0.
            -
               depth: 1
               sample_count: 180
               value: -1.0888248046413218e+00
               norm_class_idx: 0
               Tn: 0
               complexity: 0
               alpha: 0.
               node_risk: 0.
               tree_risk: 0.
               tree_error: 0.
      -
         best_tree_idx: -1
         nodes:
            -
               depth: 0
               sample_count: 175
               value: 1.0097435915292527e+00
               norm_class_idx: 1
               Tn: 0
               complexity: 0
               alpha: 0.
               node_risk: 0.
               tree_risk: 0.
               tree_error: 0.
               splits:
                  - { var:14, quality:7.0208638906478882e-01,
                      le:8.7825578451156616e-01 }
                  - { var:18, quality:6.5597838163375854e-01,
                      le:8.2934737205505371e-01 }
                  - { var:23, quality:6.5492725372314453e-01,
                      le:8.0714201927185059e-01 }
                  - { var:19, quality:6.5195131301879883e-01,
                      le:8.1232905387878418e-01 }
                  - { var:24, quality:6.4661914110183716e-01,
                      le:7.7977812290191650e-01 }
                  - { var:15, quality:6.2099289894104004e-01,
                      le:7.3557507991790771e-01 }
                  - { var:22, quality:6.1905413866043091e-01,
                      le:7.7412593364715576e-01 }
                  - { var:17, quality:6.1099016666412354e-01,
                      le:7.4892866611480713e-01 }
                  - { var:20, quality:6.0308682918548584e-01,
                      le:7.4781173467636108e-01 }
                  - { var:21, quality:5.7862448692321777e-01,
                      le:7.2987568378448486e-01 }
                  - { var:16, quality:5.6161326169967651e-01,
                      le:6.9925546646118164e-01 }
                  - { var:30, quality:5.4360204935073853e-01,
                      gt:2.2589345462620258e-03 }
                  - { var:38, quality:5.3692340850830078e-01,
                      gt:5.8070546947419643e-04 }
                  - { var:25, quality:5.0705736875534058e-01,
                      gt:2.5000000000000000e-01 }
                  - { var:1, quality:5.0026249885559082e-01,
                      le:1.0000222921371460e-01 }
                  - { var:9, quality:4.8685294389724731e-01,
                      le:1.1927004158496857e-01 }
                  - { var:39, quality:4.8502820730209351e-01,
                      gt:5.7945866137742996e-04 }
                  - { var:5, quality:4.8055216670036316e-01,
                      gt:6.6777482628822327e-02 }
                  - { var:29, quality:4.7952425479888916e-01,
                      gt:1.5000000596046448e-01 }
                  - { var:13, quality:4.7414538264274597e-01,
                      gt:9.9950075149536133e-01 }
                  - { var:32, quality:4.7354370355606079e-01,
                      gt:3.8686510175466537e-02 }
                  - { var:8, quality:4.7105371952056885e-01,
                      le:7.0288166403770447e-02 }
                  - { var:2, quality:4.7011530399322510e-01,
                      gt:3.3334877341985703e-02 }
                  - { var:37, quality:4.6709632873535156e-01,
                      gt:7.7936097979545593e-02 }
                  - { var:0, quality:4.6685311198234558e-01,
                      gt:1.0525198280811310e-01 }
                  - { var:36, quality:4.6541956067085266e-01,
                      gt:4.2558480054140091e-02 }
                  - { var:7, quality:4.5758321881294250e-01,
                      gt:7.0067204535007477e-02 }
                  - { var:28, quality:4.5594248175621033e-01,
                      le:4.4999998807907104e-01 }
                  - { var:4, quality:4.5159390568733215e-01,
                      le:7.8814551234245300e-02 }
                  - { var:3, quality:4.5144501328468323e-01,
                      le:7.4805617332458496e-02 }
                  - { var:33, quality:4.5123800635337830e-01,
                      gt:6.2037084251642227e-02 }
                  - { var:31, quality:4.5084550976753235e-01,
                      gt:5.7891882956027985e-02 }
                  - { var:6, quality:4.4500014185905457e-01,
                      le:8.1130564212799072e-02 }
                  - { var:34, quality:4.3692207336425781e-01,
                      le:3.7404316663742065e-01 }
                  - { var:11, quality:4.3485048413276672e-01,
                      le:1.4220568537712097e-01 }
                  - { var:10, quality:4.2313551902770996e-01,
                      gt:3.4126836806535721e-02 }
                  - { var:35, quality:4.1844630241394043e-01,
                      le:7.5197279453277588e-01 }
            -
               depth: 1
               sample_count: 97
               value: 1.0097435915292527e+00
               norm_class_idx: 1
               Tn: 0
               complexity: 0
               alpha: 0.
               node_risk: 0.
               tree_risk: 0.
               tree_error: 0.
            -
               depth: 1
               sample_count: 78
               value: -1.0097435915292527e+00
               norm_class_idx: 0
               Tn: 0
               complexity: 0
               alpha: 0.
               node_risk: 0.
               tree_risk: 0.
               tree_error: 0.
      -
         best_tree_idx: -1
         nodes:
            -
               depth: 0
               sample_count: 163
               value: 8.7767874912659904e-01
               norm_class_idx: 1
               Tn: 0
               complexity: 0
               alpha: 0.
               node_risk: 0.
               tree_risk: 0.
               tree_error: 0.
               splits:
                  - { var:2, quality:6.7637050151824951e-01,
                      le:9.0740092098712921e-02 }
                  - { var:9, quality:5.0235754251480103e-01,
                      gt:8.9735582470893860e-02 }
                  - { var:8, quality:4.8836046457290649e-01,
                      gt:3.4879378974437714e-02 }
                  - { var:6, quality:4.4974410533905029e-01,
                      le:7.5353801250457764e-02 }
                  - { var:36, quality:4.4954654574394226e-01,
                      le:5.8250635862350464e-02 }
                  - { var:10, quality:4.4730252027511597e-01,
                      gt:5.1481999456882477e-02 }
                  - { var:14, quality:4.4335263967514038e-01,
                      gt:8.2550477981567383e-01 }
                  - { var:30, quality:4.3237870931625366e-01,
                      le:5.8729546144604683e-03 }
                  - { var:38, quality:4.3030613660812378e-01,
                      le:6.0516770463436842e-04 }
                  - { var:37, quality:4.2768520116806030e-01,
                      le:8.8777355849742889e-02 }
                  - { var:39, quality:4.2767038941383362e-01,
                      le:4.9174152081832290e-04 }
                  - { var:17, quality:4.2693859338760376e-01,
                      gt:7.1895599365234375e-01 }
                  - { var:11, quality:4.2371317744255066e-01,
                      gt:8.3591602742671967e-02 }
                  - { var:5, quality:4.2243653535842896e-01,
                      gt:6.5096870064735413e-02 }
                  - { var:21, quality:4.2110523581504822e-01,
                      gt:7.5625497102737427e-01 }
                  - { var:15, quality:4.2092323303222656e-01,
                      gt:7.0329779386520386e-01 }
                  - { var:35, quality:4.1556540131568909e-01,
                      gt:1.8780839443206787e-01 }
                  - { var:34, quality:4.1546970605850220e-01,
                      le:4.2130029201507568e-01 }
                  - { var:18, quality:4.1540849208831787e-01,
                      gt:8.4652298688888550e-01 }
                  - { var:0, quality:4.1342896223068237e-01,
                      le:1.7656730115413666e-01 }
                  - { var:20, quality:4.0993207693099976e-01,
                      gt:7.6188826560974121e-01 }
                  - { var:13, quality:4.0984764695167542e-01,
                      gt:9.4219815731048584e-01 }
                  - { var:28, quality:4.0959116816520691e-01,
                      gt:2.5000000000000000e-01 }
                  - { var:33, quality:4.0913695096969604e-01,
                      gt:9.1177478432655334e-02 }
                  - { var:23, quality:4.0848842263221741e-01,
                      gt:8.0336070060729980e-01 }
                  - { var:19, quality:4.0766620635986328e-01,
                      gt:8.1936287879943848e-01 }
                  - { var:3, quality:4.0494841337203979e-01,
                      gt:6.5274223685264587e-02 }
                  - { var:7, quality:4.0298116207122803e-01,
                      gt:6.2566250562667847e-02 }
                  - { var:16, quality:4.0178605914115906e-01,
                      gt:7.1906733512878418e-01 }
                  - { var:24, quality:4.0128189325332642e-01,
                      gt:6.6389584541320801e-01 }
                  - { var:26, quality:3.9778429269790649e-01,
                      gt:5.5000001192092896e-01 }
                  - { var:32, quality:3.9652496576309204e-01,
                      gt:4.6992145478725433e-02 }
                  - { var:22, quality:3.9629146456718445e-01,
                      gt:6.0278600454330444e-01 }
                  - { var:1, quality:3.9463526010513306e-01,
                      gt:8.7598294019699097e-02 }
                  - { var:25, quality:3.9120414853096008e-01,
                      le:9.4999998807907104e-01 }
                  - { var:31, quality:3.9036238193511963e-01,
                      gt:4.6051338315010071e-02 }
                  - { var:4, quality:3.9028635621070862e-01,
                      gt:6.7450240254402161e-02 }
                  - { var:27, quality:3.8576352596282959e-01,
                      gt:5.5000001192092896e-01 }
                  - { var:29, quality:3.8079321384429932e-01,
                      gt:3.5000002384185791e-01 }
            -
               depth: 1
               sample_count: 66
               value: 8.7767874912659904e-01
               norm_class_idx: 1
               Tn: 0
               complexity: 0
               alpha: 0.
               node_risk: 0.
               tree_risk: 0.
               tree_error: 0.
            -
               depth: 1
               sample_count: 97
               value: -8.7767874912659904e-01
               norm_class_idx: 0
               Tn: 0
               complexity: 0
               alpha: 0.
               node_risk: 0.
               tree_risk: 0.
               tree_error: 0.
      -
         best_tree_idx: -1
         nodes:
            -
               depth: 0
               sample_count: 170
               value: 7.1622459085117596e-01
               norm_class_idx: 1
               Tn: 0
               complexity: 0
               alpha: 0.
               node_risk: 0.
               tree_risk: 0.
               tree_error: 0.
               splits:
                  - { var:32, quality:6.6332155466079712e-01,
                      le:4.7277037054300308e-02 }
                  - { var:31, quality:6.3717746734619141e-01,
                      le:6.2510386109352112e-02 }
                  - { var:36, quality:6.2499862909317017e-01,
                      le:3.0394718050956726e-02 }
                  - { var:33, quality:6.0998249053955078e-01,
                      le:5.7423248887062073e-02 }
                  - { var:37, quality:5.7518035173416138e-01,
                      le:3.5321727395057678e-02 }
                  - { var:34, quality:5.7083237171173096e-01,
                      le:2.1800848841667175e-01 }
                  - { var:30, quality:5.3229224681854248e-01,
                      le:1.0797516442835331e-03 }
                  - { var:39, quality:5.2351284027099609e-01,
                      le:3.5624622250907123e-04 }
                  - { var:38, quality:5.2185571193695068e-01,
                      le:2.2703768627252430e-04 }
                  - { var:35, quality:5.1442152261734009e-01,
                      le:2.3766750097274780e-01 }
                  - { var:9, quality:5.0515854358673096e-01,
                      le:2.7756005525588989e-02 }
                  - { var:21, quality:5.0423544645309448e-01,
                      gt:7.4112546443939209e-01 }
                  - { var:16, quality:5.0308054685592651e-01,
                      gt:7.2177481651306152e-01 }
                  - { var:2, quality:4.9350526928901672e-01,
                      le:3.3334877341985703e-02 }
                  - { var:17, quality:4.9005186557769775e-01,
                      gt:7.8115224838256836e-01 }
                  - { var:11, quality:4.8533958196640015e-01,
                      le:2.6541367173194885e-02 }
                  - { var:20, quality:4.8352801799774170e-01,
                      gt:7.6245832443237305e-01 }
                  - { var:3, quality:4.8193973302841187e-01,
                      gt:1.4705386757850647e-01 }
                  - { var:6, quality:4.7547081112861633e-01,
                      gt:1.1933340132236481e-01 }
                  - { var:15, quality:4.7410577535629272e-01,
                      gt:7.7465140819549561e-01 }
                  - { var:1, quality:4.6623399853706360e-01,
                      le:2.7491122484207153e-02 }
                  - { var:10, quality:4.6571692824363708e-01,
                      le:8.0500077456235886e-03 }
                  - { var:4, quality:4.6544048190116882e-01,
                      gt:1.8725350499153137e-01 }
                  - { var:22, quality:4.6285066008567810e-01,
                      gt:7.9266870021820068e-01 }
                  - { var:19, quality:4.5950841903686523e-01,
                      gt:8.1936287879943848e-01 }
                  - { var:0, quality:4.5690992474555969e-01,
                      le:2.7213767170906067e-02 }
                  - { var:8, quality:4.5664215087890625e-01,
                      gt:1.7949694395065308e-01 }
                  - { var:5, quality:4.5330494642257690e-01,
                      le:8.1410035490989685e-03 }
                  - { var:23, quality:4.5081788301467896e-01,
                      gt:8.3072161674499512e-01 }
            -
               depth: 1
               sample_count: 37
               value: -7.1622459085117596e-01
               norm_class_idx: 0
               Tn: 0
               complexity: 0
               alpha: 0.
               node_risk: 0.
               tree_risk: 0.
               tree_error: 0.
            -
               depth: 1
               sample_count: 133
               value: 7.1622459085117596e-01
               norm_class_idx: 1
               Tn: 0
               complexity: 0
               alpha: 0.
               node_risk: 0.
               tree_risk: 0.
               tree_error: 0.
      -
         best_tree_idx: -1
         nodes:
