%YAML:1.0
my_boost_tree: !!opencv-ml-boost-tree
   boosting_type: DiscreteAdaboost
   splitting_criteria: 3
   ntrees: 100
   weight_trimming_rate: 9.4999999999999996e-01
   is_classifier: 1
   var_all: 40
   var_count: 40
   ord_var_count: 40
   cat_var_count: 0
   training_params:
      use_surrogates: 1
      max_categories: 10
      max_depth: 1
      min_sample_count: 10
      cross_validation_folds: 0
      priors: !!opencv-matrix
         rows: 1
         cols: 2
         dt: d
         data: [ 1., 1. ]
   var_type: [ 0, 0, 0, 0, 0, 0, 0, 0, 0, 0, 0, 0, 0, 0, 0, 0, 0, 0, 0,
       0, 0, 0, 0, 0, 0, 0, 0, 0, 0, 0, 0, 0, 0, 0, 0, 0, 0, 0, 0, 0 ]
   cat_count: !!opencv-matrix
      rows: 1
      cols: 1
      dt: i
      data: [ 2 ]
   cat_map: !!opencv-matrix
      rows: 1
      cols: 2
      dt: i
      data: [ -1, 1 ]
   trees:
      -
         best_tree_idx: -1
         nodes:
            -
               depth: 0
               sample_count: 410
               value: -1.9970576602222545e+00
               norm_class_idx: 0
               Tn: 0
               complexity: 0
               alpha: 0.
               node_risk: 0.
               tree_risk: 0.
               tree_error: 0.
               splits:
                  - { var:9, quality:8.8048779964447021e-01,
                      le:3.1892761588096619e-01 }
            -
               depth: 1
               sample_count: 409
               value: -1.9970576602222545e+00
               norm_class_idx: 0
               Tn: 0
               complexity: 0
               alpha: 0.
               node_risk: 0.
               tree_risk: 0.
               tree_error: 0.
            -
               depth: 1
               sample_count: 1
               value: 1.9970576602222545e+00
               norm_class_idx: 1
               Tn: 0
               complexity: 0
               alpha: 0.
               node_risk: 0.
               tree_risk: 0.
               tree_error: 0.
      -
         best_tree_idx: -1
         nodes:
            -
               depth: 0
               sample_count: 410
               value: 6.0902746311684730e-01
               norm_class_idx: 1
               Tn: 0
               complexity: 0
               alpha: 0.
               node_risk: 0.
               tree_risk: 0.
               tree_error: 0.
               splits:
                  - { var:10, quality:6.4771890640258789e-01,
                      le:3.3657915890216827e-02 }
                  - { var:4, quality:5.0546169281005859e-01,
                      gt:9.0722732245922089e-02 }
                  - { var:5, quality:4.4328594207763672e-01,
                      le:5.8583170175552368e-02 }
                  - { var:3, quality:4.2321979999542236e-01,
                      le:5.4767683148384094e-02 }
                  - { var:34, quality:4.0674212574958801e-01,
                      le:3.7018996477127075e-01 }
                  - { var:9, quality:4.0608301758766174e-01,
                      gt:1.2336513400077820e-01 }
                  - { var:6, quality:4.0470987558364868e-01,
                      gt:6.4541168510913849e-02 }
                  - { var:35, quality:4.0461835265159607e-01,
                      le:3.4573486447334290e-01 }
                  - { var:8, quality:4.0452679991722107e-01,
                      le:3.4529976546764374e-02 }
                  - { var:2, quality:3.9971166849136353e-01,
                      gt:1.4913180470466614e-01 }
                  - { var:36, quality:3.9890608191490173e-01,
                      le:7.2013363242149353e-02 }
                  - { var:7, quality:3.9702031016349792e-01,
                      le:3.6904931068420410e-02 }
                  - { var:38, quality:3.8870823383331299e-01,
                      le:1.3222481356933713e-03 }
                  - { var:37, quality:3.8837867975234985e-01,
                      le:7.2976402938365936e-02 }
                  - { var:33, quality:3.8715201616287231e-01,
                      le:4.8669222742319107e-02 }
                  - { var:24, quality:3.8389310240745544e-01,
                      gt:7.9983973503112793e-01 }
                  - { var:0, quality:3.8389310240745544e-01,
                      le:6.9229990243911743e-02 }
                  - { var:31, quality:3.8356351852416992e-01,
                      le:7.0055030286312103e-02 }
                  - { var:29, quality:3.8209885358810425e-01,
                      gt:5.5000001192092896e-01 }
                  - { var:20, quality:3.8153129816055298e-01,
                      gt:7.3329746723175049e-01 }
                  - { var:32, quality:3.8143974542617798e-01,
                      le:4.7021016478538513e-02 }
                  - { var:22, quality:3.8120174407958984e-01,
                      gt:7.7059096097946167e-01 }
                  - { var:39, quality:3.7818086147308350e-01,
                      le:1.3254996156319976e-03 }
                  - { var:21, quality:3.7572750449180603e-01,
                      gt:7.8041785955429077e-01 }
                  - { var:18, quality:3.7246859073638916e-01,
                      gt:8.7322574853897095e-01 }
                  - { var:11, quality:3.6944767832756042e-01,
                      gt:1.0916696488857269e-01 }
                  - { var:23, quality:3.6831253767013550e-01,
                      gt:8.4172034263610840e-01 }
                  - { var:14, quality:3.6759850382804871e-01,
                      gt:9.3257403373718262e-01 }
                  - { var:26, quality:3.6756190657615662e-01,
                      gt:7.5000000000000000e-01 }
                  - { var:1, quality:3.6699435114860535e-01,
                      gt:1.8723285198211670e-01 }
                  - { var:19, quality:3.6660984158515930e-01,
                      gt:8.0118530988693237e-01 }
                  - { var:13, quality:3.6538320779800415e-01,
                      gt:9.8609924316406250e-01 }
                  - { var:30, quality:3.6529165506362915e-01,
                      le:1.0664184577763081e-02 }
                  - { var:17, quality:3.6005541682243347e-01,
                      le:1.2754058698192239e-03 }
            -
               depth: 1
               sample_count: 137
               value: 6.0902746311684730e-01
               norm_class_idx: 1
               Tn: 0
               complexity: 0
               alpha: 0.
               node_risk: 0.
               tree_risk: 0.
               tree_error: 0.
            -
               depth: 1
               sample_count: 273
               value: -6.0902746311684730e-01
               norm_class_idx: 0
               Tn: 0
               complexity: 0
               alpha: 0.
               node_risk: 0.
               tree_risk: 0.
               tree_error: 0.
      -
         best_tree_idx: -1
         nodes:
            -
               depth: 0
               sample_count: 410
               value: 6.3354938734094990e-01
               norm_class_idx: 1
               Tn: 0
               complexity: 0
               alpha: 0.
               node_risk: 0.
               tree_risk: 0.
               tree_error: 0.
               splits:
                  - { var:32, quality:6.5329384803771973e-01,
                      le:8.4202185273170471e-02 }
                  - { var:31, quality:6.0581630468368530e-01,
                      le:1.2817440927028656e-01 }
                  - { var:33, quality:5.8702683448791504e-01,
                      le:8.9026689529418945e-02 }
                  - { var:36, quality:5.6600821018218994e-01,
                      le:1.3332466781139374e-01 }
                  - { var:37, quality:5.4792922735214233e-01,
                      le:1.4607785642147064e-01 }
                  - { var:34, quality:5.3423893451690674e-01,
                      le:5.6758928298950195e-01 }
                  - { var:35, quality:5.2373057603836060e-01,
                      le:5.9726953506469727e-01 }
                  - { var:16, quality:5.0668817758560181e-01,
                      le:8.5522729158401489e-01 }
                  - { var:20, quality:5.0632780790328979e-01,
                      le:8.3227455615997314e-01 }
                  - { var:14, quality:5.0540393590927124e-01,
                      gt:1.4295881986618042e-01 }
                  - { var:15, quality:5.0365549325942993e-01,
                      le:8.7549090385437012e-01 }
                  - { var:21, quality:5.0330847501754761e-01,
                      le:8.3185416460037231e-01 }
                  - { var:38, quality:5.0319576263427734e-01,
                      le:2.9196990653872490e-03 }
                  - { var:22, quality:5.0026690959930420e-01,
                      le:8.7201857566833496e-01 }
                  - { var:23, quality:5.0015419721603394e-01,
                      gt:2.3689663410186768e-01 }
                  - { var:17, quality:4.9909532070159912e-01,
                      le:8.7139964103698730e-01 }
                  - { var:18, quality:4.9886992573738098e-01,
                      gt:1.0791520029306412e-01 }
                  - { var:39, quality:4.9783334136009216e-01,
                      le:3.1243227422237396e-03 }
                  - { var:13, quality:4.9782216548919678e-01,
                      gt:5.9687471389770508e-01 }
                  - { var:19, quality:4.9758568406105042e-01,
                      gt:1.2244098633527756e-01 }
                  - { var:24, quality:4.9641409516334534e-01,
                      le:8.9616543054580688e-01 }
                  - { var:30, quality:4.9618870019912720e-01,
                      le:1.1040723323822021e-01 }
                  - { var:1, quality:4.9502608180046082e-01,
                      le:1.8985021114349365e-01 }
                  - { var:7, quality:4.9431866407394409e-01,
                      le:2.7595156431198120e-01 }
                  - { var:4, quality:4.9431866407394409e-01,
                      gt:1.4260744675993919e-02 }
                  - { var:6, quality:4.9420598149299622e-01,
                      le:2.3855853080749512e-01 }
            -
               depth: 1
               sample_count: 257
               value: 6.3354938734094990e-01
               norm_class_idx: 1
               Tn: 0
               complexity: 0
               alpha: 0.
               node_risk: 0.
               tree_risk: 0.
               tree_error: 0.
            -
               depth: 1
               sample_count: 153
               value: -6.3354938734094990e-01
               norm_class_idx: 0
               Tn: 0
               complexity: 0
               alpha: 0.
               node_risk: 0.
               tree_risk: 0.
               tree_error: 0.
      -
         best_tree_idx: -1
         nodes:
            -
               depth: 0
               sample_count: 410
               value: -5.1704142936270525e-01
               norm_class_idx: 0
               Tn: 0
               complexity: 0
               alpha: 0.
               node_risk: 0.
               tree_risk: 0.
               tree_error: 0.
               splits:
                  - { var:2, quality:6.2645566463470459e-01,
                      le:6.7722596228122711e-02 }
                  - { var:8, quality:4.9406227469444275e-01,
                      gt:1.1261382699012756e-01 }
                  - { var:4, quality:4.5877948403358459e-01,
                      gt:2.4242132902145386e-01 }
                  - { var:29, quality:4.5743381977081299e-01,
                      gt:9.4999998807907104e-01 }
                  - { var:1, quality:4.5145577192306519e-01,
                      le:2.3324657231569290e-02 }
                  - { var:5, quality:4.5108950138092041e-01,
                      gt:2.1217098832130432e-01 }
                  - { var:26, quality:4.5099836587905884e-01,
                      gt:7.5000000000000000e-01 }
                  - { var:3, quality:4.4961097836494446e-01,
                      gt:2.4728716909885406e-01 }
                  - { var:7, quality:4.4908908009529114e-01,
                      le:1.8238998949527740e-02 }
                  - { var:33, quality:4.4792464375495911e-01,
                      gt:1.6020819544792175e-01 }
                  - { var:10, quality:4.4789427518844604e-01,
                      gt:1.9482134282588959e-01 }
                  - { var:16, quality:4.4740504026412964e-01,
                      le:4.9489244818687439e-02 }
                  - { var:31, quality:4.4698211550712585e-01,
                      gt:2.0979565382003784e-01 }
                  - { var:17, quality:4.4691878557205200e-01,
                      le:1.0798470675945282e-01 }
                  - { var:9, quality:4.4651225209236145e-01,
                      le:2.0381074398756027e-02 }
                  - { var:37, quality:4.4552692770957947e-01,
                      gt:2.7732077240943909e-01 }
                  - { var:11, quality:4.4518032670021057e-01,
                      gt:2.6595014333724976e-01 }
                  - { var:6, quality:4.4517576694488525e-01,
                      gt:1.9260354340076447e-01 }
                  - { var:21, quality:4.4508352875709534e-01,
                      le:6.6379986703395844e-02 }
                  - { var:32, quality:4.4450169801712036e-01,
                      gt:1.4588740468025208e-01 }
                  - { var:30, quality:4.4331210851669312e-01,
                      gt:1.2485921382904053e-01 }
                  - { var:28, quality:4.4267195463180542e-01,
                      gt:9.4999998807907104e-01 }
                  - { var:39, quality:4.4236958026885986e-01,
                      gt:5.3861141204833984e-03 }
                  - { var:38, quality:4.4236958026885986e-01,
                      gt:5.5076340213418007e-03 }
                  - { var:19, quality:4.4226345419883728e-01,
                      le:1.2244098633527756e-01 }
                  - { var:35, quality:4.4183355569839478e-01,
                      gt:7.6648366451263428e-01 }
                  - { var:18, quality:4.4183355569839478e-01,
                      gt:9.6088004112243652e-01 }
                  - { var:20, quality:4.4158282876014709e-01,
                      le:2.8484982252120972e-01 }
            -
               depth: 1
               sample_count: 95
               value: 5.1704142936270525e-01
               norm_class_idx: 1
               Tn: 0
               complexity: 0
               alpha: 0.
               node_risk: 0.
               tree_risk: 0.
               tree_error: 0.
            -
               depth: 1
               sample_count: 315
               value: -5.1704142936270525e-01
               norm_class_idx: 0
               Tn: 0
               complexity: 0
               alpha: 0.
               node_risk: 0.
               tree_risk: 0.
               tree_error: 0.
      -
         best_tree_idx: -1
         nodes:
            -
               depth: 0
               sample_count: 410
               value: -4.8506489865416852e-01
               norm_class_idx: 0
               Tn: 0
               complexity: 0
               alpha: 0.
               node_risk: 0.
               tree_risk: 0.
               tree_error: 0.
               splits:
                  - { var:38, quality:6.1894315481185913e-01,
                      le:9.0157700469717383e-04 }
                  - { var:39, quality:5.9352499246597290e-01,
                      le:8.4386370144784451e-04 }
                  - { var:30, quality:5.9125328063964844e-01,
                      le:7.2719333693385124e-03 }
                  - { var:36, quality:5.3521740436553955e-01,
                      le:9.7035709768533707e-03 }
                  - { var:37, quality:5.3434193134307861e-01,
                      le:1.3744209893047810e-02 }
                  - { var:32, quality:5.3425043821334839e-01,
                      le:3.9699174463748932e-02 }
                  - { var:34, quality:5.3330135345458984e-01,
                      le:1.4358803629875183e-01 }
                  - { var:31, quality:5.3102523088455200e-01,
                      le:4.4726908206939697e-02 }
                  - { var:35, quality:5.3031384944915771e-01,
                      le:1.5128403902053833e-01 }
                  - { var:8, quality:5.2972018718719482e-01,
                      le:1.2528106570243835e-02 }
                  - { var:5, quality:5.2736008167266846e-01,
                      le:2.2625241428613663e-02 }
                  - { var:10, quality:5.2677422761917114e-01,
                      le:1.0888146236538887e-02 }
                  - { var:4, quality:5.2633154392242432e-01,
                      gt:3.1904309988021851e-01 }
                  - { var:0, quality:5.2619564533233643e-01,
                      le:4.5643292367458344e-02 }
                  - { var:3, quality:5.2498173713684082e-01,
                      le:1.0119978338479996e-02 }
                  - { var:1, quality:5.2472114562988281e-01,
                      le:2.0306315273046494e-02 }
                  - { var:7, quality:5.2466070652008057e-01,
                      le:1.0591588914394379e-02 }
                  - { var:33, quality:5.2465254068374634e-01,
                      le:2.9700942337512970e-02 }
                  - { var:2, quality:5.2398282289505005e-01,
                      le:2.2278733551502228e-02 }
                  - { var:9, quality:5.2261322736740112e-01,
                      le:1.2873335741460323e-02 }
                  - { var:24, quality:5.2229678630828857e-01,
                      gt:9.3060445785522461e-01 }
                  - { var:11, quality:5.2226847410202026e-01,
                      le:1.1778879910707474e-02 }
                  - { var:18, quality:5.2199155092239380e-01,
                      gt:9.5595920085906982e-01 }
                  - { var:22, quality:5.2184575796127319e-01,
                      gt:8.9324510097503662e-01 }
                  - { var:17, quality:5.2161669731140137e-01,
                      gt:8.7804496288299561e-01 }
                  - { var:23, quality:5.2148830890655518e-01,
                      gt:9.4938278198242188e-01 }
                  - { var:6, quality:5.2114927768707275e-01,
                      le:8.9732054620981216e-03 }
                  - { var:26, quality:5.2092933654785156e-01,
                      gt:9.4999998807907104e-01 }
            -
               depth: 1
               sample_count: 82
               value: -4.8506489865416852e-01
               norm_class_idx: 0
               Tn: 0
               complexity: 0
               alpha: 0.
               node_risk: 0.
               tree_risk: 0.
               tree_error: 0.
            -
               depth: 1
               sample_count: 328
               value: 4.8506489865416852e-01
               norm_class_idx: 1
               Tn: 0
               complexity: 0
               alpha: 0.
               node_risk: 0.
               tree_risk: 0.
               tree_error: 0.
      -
         best_tree_idx: -1
         nodes:
            -
               depth: 0
               sample_count: 405
               value: -5.8624336376528963e-01
               norm_class_idx: 0
               Tn: 0
               complexity: 0
               alpha: 0.
               node_risk: 0.
               tree_risk: 0.
               tree_error: 0.
               splits:
                  - { var:3, quality:6.4039230346679688e-01,
                      le:4.1676957160234451e-02 }
                  - { var:9, quality:4.9369364976882935e-01,
                      gt:1.0739460587501526e-01 }
                  - { var:7, quality:4.5485740900039673e-01,
                      gt:1.4532116055488586e-01 }
                  - { var:0, quality:4.5386803150177002e-01,
                      le:6.0568407177925110e-02 }
                  - { var:2, quality:4.5336213707923889e-01,
                      gt:1.4871546626091003e-01 }
                  - { var:5, quality:4.4869324564933777e-01,
                      le:3.6443535238504410e-02 }
                  - { var:10, quality:4.4590663909912109e-01,
                      le:1.2170637026429176e-02 }
                  - { var:1, quality:4.4568392634391785e-01,
                      le:4.2889043688774109e-02 }
                  - { var:11, quality:4.3708640336990356e-01,
                      gt:9.1504499316215515e-02 }
                  - { var:35, quality:4.3685686588287354e-01,
                      le:1.9381287693977356e-01 }
                  - { var:6, quality:4.3646430969238281e-01,
                      gt:2.3128253221511841e-01 }
                  - { var:8, quality:4.3442371487617493e-01,
                      le:1.2528106570243835e-02 }
                  - { var:4, quality:4.3388634920120239e-01,
                      le:2.6756253093481064e-02 }
                  - { var:30, quality:4.3336719274520874e-01,
                      gt:1.0049231350421906e-01 }
                  - { var:24, quality:4.3056643009185791e-01,
                      le:1.5933713316917419e-01 }
                  - { var:17, quality:4.3039312958717346e-01,
                      le:7.6533243060112000e-02 }
                  - { var:33, quality:4.2975479364395142e-01,
                      le:2.0101848989725113e-02 }
                  - { var:38, quality:4.2972201108932495e-01,
                      gt:4.1558821685612202e-03 }
                  - { var:39, quality:4.2958724498748779e-01,
                      gt:5.3861141204833984e-03 }
                  - { var:37, quality:4.2938366532325745e-01,
                      le:1.6063090413808823e-02 }
                  - { var:34, quality:4.2935839295387268e-01,
                      le:2.9145082831382751e-01 }
                  - { var:18, quality:4.2917943000793457e-01,
                      le:1.1919254064559937e-01 }
                  - { var:23, quality:4.2880603671073914e-01,
                      le:1.7587107419967651e-01 }
                  - { var:19, quality:4.2865428328514099e-01,
                      le:1.4492160081863403e-01 }
                  - { var:20, quality:4.2830991744995117e-01,
                      gt:9.0406006574630737e-01 }
                  - { var:22, quality:4.2827734351158142e-01,
                      le:1.7330645024776459e-01 }
                  - { var:14, quality:4.2790478467941284e-01,
                      le:1.3670504093170166e-01 }
                  - { var:32, quality:4.2784842848777771e-01,
                      gt:1.6753780841827393e-01 }
                  - { var:31, quality:4.2784842848777771e-01,
                      gt:2.1918234229087830e-01 }
            -
               depth: 1
               sample_count: 100
               value: 5.8624336376528963e-01
               norm_class_idx: 1
               Tn: 0
               complexity: 0
               alpha: 0.
               node_risk: 0.
               tree_risk: 0.
               tree_error: 0.
            -
               depth: 1
               sample_count: 305
               value: -5.8624336376528963e-01
               norm_class_idx: 0
               Tn: 0
               complexity: 0
               alpha: 0.
               node_risk: 0.
               tree_risk: 0.
               tree_error: 0.
      -
         best_tree_idx: -1
         nodes:
            -
               depth: 0
               sample_count: 333
               value: -3.5594747845801111e-01
               norm_class_idx: 0
               Tn: 0
               complexity: 0
               alpha: 0.
               node_risk: 0.
               tree_risk: 0.
               tree_error: 0.
               splits:
                  - { var:21, quality:5.7431983947753906e-01,
                      le:6.9494056701660156e-01 }
                  - { var:17, quality:5.4046469926834106e-01,
                      le:7.2743058204650879e-01 }
                  - { var:16, quality:5.2979469299316406e-01,
                      le:6.5260791778564453e-01 }
                  - { var:20, quality:5.1877671480178833e-01,
                      le:7.0495772361755371e-01 }
                  - { var:22, quality:5.1390165090560913e-01,
                      le:7.5476795434951782e-01 }
                  - { var:24, quality:4.8064151406288147e-01,
                      le:7.3982274532318115e-01 }
                  - { var:30, quality:4.4739705324172974e-01,
                      gt:1.4523640275001526e-02 }
                  - { var:15, quality:4.3812802433967590e-01,
                      le:7.1723407506942749e-01 }
                  - { var:38, quality:4.3776357173919678e-01,
                      gt:1.7115897499024868e-03 }
                  - { var:13, quality:4.3269258737564087e-01,
                      le:9.8687517642974854e-01 }
                  - { var:18, quality:4.3112930655479431e-01,
                      le:7.8685337305068970e-01 }
                  - { var:39, quality:4.3011829257011414e-01,
                      gt:1.5418410766869783e-03 }
                  - { var:23, quality:4.2576813697814941e-01,
                      le:7.5433015823364258e-01 }
                  - { var:19, quality:4.0904718637466431e-01,
                      le:7.6288247108459473e-01 }
                  - { var:37, quality:3.7861338257789612e-01,
                      gt:7.3691159486770630e-02 }
                  - { var:33, quality:3.7544646859169006e-01,
                      gt:6.4147248864173889e-02 }
                  - { var:31, quality:3.7460690736770630e-01,
                      gt:7.7943436801433563e-02 }
                  - { var:36, quality:3.7335726618766785e-01,
                      gt:7.9449310898780823e-02 }
                  - { var:32, quality:3.6905986070632935e-01,
                      gt:5.0527296960353851e-02 }
                  - { var:14, quality:3.6402079463005066e-01,
                      gt:9.9518287181854248e-01 }
                  - { var:12, quality:3.6253902316093445e-01,
                      gt:5.5786743760108948e-02 }
                  - { var:11, quality:3.5601273179054260e-01,
                      gt:7.8242309391498566e-02 }
                  - { var:0, quality:3.5228374600410461e-01,
                      le:1.3535553216934204e-01 }
                  - { var:34, quality:3.5033693909645081e-01,
                      gt:3.4531643986701965e-01 }
                  - { var:2, quality:3.5012719035148621e-01,
                      le:1.0285501182079315e-01 }
                  - { var:35, quality:3.4986129403114319e-01,
                      gt:2.7107319235801697e-01 }
                  - { var:10, quality:3.4825214743614197e-01,
                      gt:2.2347997874021530e-02 }
                  - { var:8, quality:3.3921825885772705e-01,
                      gt:1.8887490034103394e-02 }
                  - { var:3, quality:3.3721670508384705e-01,
                      gt:4.0128394961357117e-02 }
                  - { var:28, quality:3.3673483133316040e-01,
                      le:2.5000000000000000e-01 }
                  - { var:7, quality:3.3558258414268494e-01,
                      gt:3.5149127244949341e-02 }
                  - { var:9, quality:3.3437868952751160e-01,
                      le:1.7247444391250610e-01 }
                  - { var:6, quality:3.3421602845191956e-01,
                      gt:9.6433058381080627e-02 }
                  - { var:5, quality:3.3252215385437012e-01,
                      le:1.7116636037826538e-01 }
                  - { var:1, quality:3.2634866237640381e-01,
                      le:1.8177026510238647e-01 }
                  - { var:4, quality:3.2349163293838501e-01,
                      le:1.6582673788070679e-01 }
                  - { var:26, quality:3.2241693139076233e-01,
                      le:7.5000000000000000e-01 }
                  - { var:27, quality:3.1397062540054321e-01,
                      le:6.4999997615814209e-01 }
                  - { var:25, quality:3.1295824050903320e-01,
                      gt:1.5000000596046448e-01 }
            -
               depth: 1
               sample_count: 164
               value: 3.5594747845801111e-01
               norm_class_idx: 1
               Tn: 0
               complexity: 0
               alpha: 0.
               node_risk: 0.
               tree_risk: 0.
               tree_error: 0.
            -
               depth: 1
               sample_count: 169
               value: -3.5594747845801111e-01
               norm_class_idx: 0
               Tn: 0
               complexity: 0
               alpha: 0.
               node_risk: 0.
               tree_risk: 0.
               tree_error: 0.
      -
         best_tree_idx: -1
         nodes:
            -
               depth: 0
               sample_count: 364
               value: -5.6504165405989726e-01
               norm_class_idx: 0
               Tn: 0
               complexity: 0
               alpha: 0.
               node_risk: 0.
               tree_risk: 0.
               tree_error: 0.
               splits:
                  - { var:16, quality:6.2315803766250610e-01,
                      le:7.5273096561431885e-01 }
                  - { var:21, quality:5.6558674573898315e-01,
                      le:7.8438276052474976e-01 }
                  - { var:20, quality:5.5885928869247437e-01,
                      le:7.8540718555450439e-01 }
                  - { var:17, quality:5.3153491020202637e-01,
                      le:8.1043642759323120e-01 }
                  - { var:22, quality:5.3091591596603394e-01,
                      le:8.0540925264358521e-01 }
                  - { var:34, quality:5.1697337627410889e-01,
                      le:6.2621372938156128e-01 }
                  - { var:24, quality:5.0431853532791138e-01,
                      le:8.4939360618591309e-01 }
                  - { var:35, quality:5.0298583507537842e-01,
                      le:6.7809265851974487e-01 }
                  - { var:15, quality:5.0253885984420776e-01,
                      le:8.4903681278228760e-01 }
                  - { var:8, quality:5.0134295225143433e-01,
                      gt:1.9110497087240219e-02 }
                  - { var:6, quality:4.9976408481597900e-01,
                      gt:1.3447612524032593e-02 }
                  - { var:2, quality:4.9766939878463745e-01,
                      le:2.8637534379959106e-01 }
                  - { var:33, quality:4.9611440300941467e-01,
                      le:1.6676057875156403e-01 }
                  - { var:31, quality:4.9559575319290161e-01,
                      le:2.0828242599964142e-01 }
                  - { var:37, quality:4.9450781941413879e-01,
                      le:2.7732077240943909e-01 }
                  - { var:32, quality:4.9360483884811401e-01,
                      le:1.4588740468025208e-01 }
                  - { var:7, quality:4.9040877819061279e-01,
                      gt:1.8480498343706131e-02 }
                  - { var:0, quality:4.9027565121650696e-01,
                      le:3.3731651306152344e-01 }
                  - { var:18, quality:4.8978710174560547e-01,
                      le:8.9108991622924805e-01 }
                  - { var:9, quality:4.8976686596870422e-01,
                      gt:2.1338677033782005e-02 }
                  - { var:1, quality:4.8959374427795410e-01,
                      le:1.8723285198211670e-01 }
                  - { var:5, quality:4.8949083685874939e-01,
                      le:1.8922758102416992e-01 }
            -
               depth: 1
               sample_count: 311
               value: -5.6504165405989726e-01
               norm_class_idx: 0
               Tn: 0
               complexity: 0
               alpha: 0.
               node_risk: 0.
               tree_risk: 0.
               tree_error: 0.
            -
               depth: 1
               sample_count: 53
               value: 5.6504165405989726e-01
               norm_class_idx: 1
               Tn: 0
               complexity: 0
               alpha: 0.
               node_risk: 0.
               tree_risk: 0.
               tree_error: 0.
      -
         best_tree_idx: -1
         nodes:
            -
               depth: 0
               sample_count: 329
               value: 4.5196949567896788e-01
               norm_class_idx: 1
               Tn: 0
               complexity: 0
               alpha: 0.
               node_risk: 0.
               tree_risk: 0.
               tree_error: 0.
               splits:
                  - { var:39, quality:6.0173910856246948e-01,
                      le:2.4877407122403383e-03 }
                  - { var:38, quality:5.7561236619949341e-01,
                      le:2.6482716202735901e-03 }
                  - { var:30, quality:5.4958510398864746e-01,
                      le:6.2498405575752258e-02 }
                  - { var:20, quality:5.2781033515930176e-01,
                      gt:2.7837818861007690e-01 }
                  - { var:17, quality:5.2770149707794189e-01,
                      gt:1.2183901667594910e-01 }
                  - { var:15, quality:5.2725052833557129e-01,
                      gt:3.1628668308258057e-01 }
                  - { var:16, quality:5.2514803409576416e-01,
                      gt:4.9489244818687439e-02 }
                  - { var:18, quality:5.2395367622375488e-01,
                      gt:1.7886540293693542e-01 }
                  - { var:35, quality:5.2234995365142822e-01,
                      le:6.2262660264968872e-01 }
                  - { var:21, quality:5.2092033624649048e-01,
                      gt:2.0996558666229248e-01 }
                  - { var:19, quality:5.2033120393753052e-01,
                      gt:2.1497529745101929e-01 }
                  - { var:23, quality:5.2014422416687012e-01,
                      gt:2.3689663410186768e-01 }
                  - { var:24, quality:5.2012771368026733e-01,
                      gt:2.1714818477630615e-01 }
                  - { var:14, quality:5.1999819278717041e-01,
                      gt:2.0548537373542786e-01 }
                  - { var:34, quality:5.1766639947891235e-01,
                      le:6.3915407657623291e-01 }
                  - { var:7, quality:5.1755803823471069e-01,
                      le:2.7216443419456482e-01 }
                  - { var:22, quality:5.1732981204986572e-01,
                      gt:2.0605662465095520e-01 }
                  - { var:11, quality:5.1513504981994629e-01,
                      gt:1.5028958208858967e-02 }
                  - { var:6, quality:5.1460832357406616e-01,
                      le:2.0818886160850525e-01 }
                  - { var:0, quality:5.1402419805526733e-01,
                      gt:3.2754085958003998e-02 }
                  - { var:8, quality:5.1380085945129395e-01,
                      le:2.8791674971580505e-01 }
                  - { var:4, quality:5.1301693916320801e-01,
                      gt:3.3057585358619690e-02 }
            -
               depth: 1
               sample_count: 258
               value: 4.5196949567896788e-01
               norm_class_idx: 1
               Tn: 0
               complexity: 0
               alpha: 0.
               node_risk: 0.
               tree_risk: 0.
               tree_error: 0.
            -
               depth: 1
               sample_count: 71
               value: -4.5196949567896788e-01
               norm_class_idx: 0
               Tn: 0
               complexity: 0
               alpha: 0.
               node_risk: 0.
               tree_risk: 0.
               tree_error: 0.
      -
         best_tree_idx: -1
         nodes:
            -
               depth: 0
               sample_count: 363
               value: -4.3835997279755418e-01
               norm_class_idx: 0
               Tn: 0
               complexity: 0
               alpha: 0.
               node_risk: 0.
               tree_risk: 0.
               tree_error: 0.
               splits:
                  - { var:20, quality:5.8388894796371460e-01,
                      le:3.4167844057083130e-01 }
                  - { var:22, quality:5.6976932287216187e-01,
                      le:3.4484890103340149e-01 }
                  - { var:17, quality:5.5924016237258911e-01,
                      le:2.9209554195404053e-01 }
                  - { var:21, quality:5.5669224262237549e-01,
                      le:3.4862899780273438e-01 }
                  - { var:16, quality:5.5085158348083496e-01,
                      le:3.1999140977859497e-01 }
                  - { var:12, quality:5.5061882734298706e-01,
                      gt:1.8481701612472534e-01 }
                  - { var:24, quality:5.5043441057205200e-01,
                      le:4.3094980716705322e-01 }
                  - { var:13, quality:5.4891937971115112e-01,
                      le:3.3830386400222778e-01 }
                  - { var:19, quality:5.4694473743438721e-01,
                      le:4.9561357498168945e-01 }
                  - { var:23, quality:5.4634678363800049e-01,
                      le:3.3746099472045898e-01 }
                  - { var:15, quality:5.4595559835433960e-01,
                      le:5.4309928417205811e-01 }
                  - { var:18, quality:5.4545664787292480e-01,
                      le:3.3805486559867859e-01 }
                  - { var:14, quality:5.3872555494308472e-01,
                      le:3.1563323736190796e-01 }
                  - { var:30, quality:5.2576655149459839e-01,
                      gt:5.2947077900171280e-02 }
                  - { var:37, quality:5.2068483829498291e-01,
                      gt:2.1246454119682312e-01 }
                  - { var:38, quality:5.1230090856552124e-01,
                      gt:2.3706899955868721e-03 }
                  - { var:36, quality:5.0841808319091797e-01,
                      gt:2.1204346418380737e-01 }
                  - { var:39, quality:5.0456267595291138e-01,
                      gt:2.2082584910094738e-03 }
                  - { var:6, quality:5.0444841384887695e-01,
                      gt:2.2094814479351044e-01 }
                  - { var:11, quality:5.0405925512313843e-01,
                      gt:2.3853766918182373e-01 }
                  - { var:35, quality:5.0235337018966675e-01,
                      gt:7.6648366451263428e-01 }
                  - { var:8, quality:5.0193470716476440e-01,
                      gt:2.8791674971580505e-01 }
                  - { var:34, quality:5.0168472528457642e-01,
                      gt:7.5316321849822998e-01 }
            -
               depth: 1
               sample_count: 42
               value: 4.3835997279755418e-01
               norm_class_idx: 1
               Tn: 0
               complexity: 0
               alpha: 0.
               node_risk: 0.
               tree_risk: 0.
               tree_error: 0.
            -
               depth: 1
               sample_count: 321
               value: -4.3835997279755418e-01
               norm_class_idx: 0
               Tn: 0
               complexity: 0
               alpha: 0.
               node_risk: 0.
               tree_risk: 0.
               tree_error: 0.
      -
         best_tree_idx: -1
         nodes:
            -
               depth: 0
               sample_count: 326
               value: 5.2990927064564042e-01
               norm_class_idx: 1
               Tn: 0
               complexity: 0
               alpha: 0.
               node_risk: 0.
               tree_risk: 0.
               tree_error: 0.
               splits:
                  - { var:34, quality:5.9140485525131226e-01,
                      le:3.9815393090248108e-01 }
                  - { var:35, quality:5.6381392478942871e-01,
                      le:4.1614562273025513e-01 }
                  - { var:36, quality:4.9849587678909302e-01,
                      le:1.0743132233619690e-01 }
                  - { var:31, quality:4.9799591302871704e-01,
                      le:1.0572474449872971e-01 }
                  - { var:37, quality:4.7872501611709595e-01,
                      le:9.9898956716060638e-02 }
                  - { var:32, quality:4.6742817759513855e-01,
                      le:6.8804457783699036e-02 }
                  - { var:13, quality:4.5061916112899780e-01,
                      gt:7.9742956161499023e-01 }
                  - { var:33, quality:4.5010143518447876e-01,
                      le:6.8150103092193604e-02 }
                  - { var:38, quality:4.2514079809188843e-01,
                      le:2.0096686203032732e-03 }
                  - { var:23, quality:4.2144453525543213e-01,
                      gt:6.4710891246795654e-01 }
                  - { var:18, quality:4.2029419541358948e-01,
                      gt:6.5743553638458252e-01 }
                  - { var:19, quality:4.2003920674324036e-01,
                      gt:7.0179116725921631e-01 }
                  - { var:39, quality:4.1987714171409607e-01,
                      le:1.9178432412445545e-03 }
                  - { var:17, quality:4.1938430070877075e-01,
                      gt:4.3002679944038391e-01 }
                  - { var:24, quality:4.1811215877532959e-01,
                      gt:6.7779362201690674e-01 }
                  - { var:15, quality:4.1574954986572266e-01,
                      gt:5.7204806804656982e-01 }
                  - { var:14, quality:4.1354995965957642e-01,
                      gt:7.9704344272613525e-01 }
                  - { var:16, quality:4.1350361704826355e-01,
                      le:7.5466036796569824e-01 }
                  - { var:22, quality:4.1268444061279297e-01,
                      gt:5.4180759191513062e-01 }
                  - { var:20, quality:4.1239079833030701e-01,
                      gt:5.2860212326049805e-01 }
                  - { var:21, quality:4.0866345167160034e-01,
                      gt:3.4862899780273438e-01 }
                  - { var:12, quality:4.0839067101478577e-01,
                      le:3.3521667122840881e-02 }
                  - { var:30, quality:3.9325705170631409e-01,
                      le:3.6464933305978775e-02 }
                  - { var:1, quality:3.7309730052947998e-01,
                      le:1.4003768563270569e-01 }
                  - { var:4, quality:3.5716217756271362e-01,
                      le:1.4230065047740936e-01 }
                  - { var:11, quality:3.5688677430152893e-01,
                      le:1.3518983125686646e-01 }
                  - { var:27, quality:3.5415717959403992e-01,
                      le:4.4999998807907104e-01 }
                  - { var:26, quality:3.4861320257186890e-01,
                      gt:2.5000000000000000e-01 }
                  - { var:5, quality:3.4858793020248413e-01,
                      gt:8.0959826707839966e-02 }
                  - { var:7, quality:3.4620001912117004e-01,
                      gt:1.8984504044055939e-02 }
                  - { var:3, quality:3.4543246030807495e-01,
                      le:1.3515615463256836e-01 }
                  - { var:8, quality:3.4464246034622192e-01,
                      le:1.4746466279029846e-01 }
                  - { var:9, quality:3.4245431423187256e-01,
                      gt:1.0806253552436829e-01 }
                  - { var:2, quality:3.4216904640197754e-01,
                      le:2.8637534379959106e-01 }
                  - { var:6, quality:3.4092980623245239e-01,
                      gt:1.3447612524032593e-02 }
                  - { var:0, quality:3.4048736095428467e-01,
                      gt:1.1308877915143967e-01 }
                  - { var:25, quality:3.3430486917495728e-01,
                      le:6.4999997615814209e-01 }
            -
               depth: 1
               sample_count: 149
               value: 5.2990927064564042e-01
               norm_class_idx: 1
               Tn: 0
               complexity: 0
               alpha: 0.
               node_risk: 0.
               tree_risk: 0.
               tree_error: 0.
            -
               depth: 1
               sample_count: 177
               value: -5.2990927064564042e-01
               norm_class_idx: 0
               Tn: 0
               complexity: 0
               alpha: 0.
               node_risk: 0.
               tree_risk: 0.
               tree_error: 0.
      -
         best_tree_idx: -1
         nodes:
            -
               depth: 0
               sample_count: 323
               value: 3.7722781601378758e-01
               norm_class_idx: 1
               Tn: 0
               complexity: 0
               alpha: 0.
               node_risk: 0.
               tree_risk: 0.
               tree_error: 0.
               splits:
                  - { var:38, quality:5.9051674604415894e-01,
                      le:9.0157700469717383e-04 }
                  - { var:39, quality:5.6600904464721680e-01,
                      le:8.4351596888154745e-04 }
                  - { var:30, quality:5.6485754251480103e-01,
                      le:6.6714417189359665e-03 }
                  - { var:34, quality:5.1769709587097168e-01,
                      le:2.0736485719680786e-01 }
                  - { var:36, quality:5.1711952686309814e-01,
                      le:9.7035709768533707e-03 }
                  - { var:10, quality:5.1707071065902710e-01,
                      le:1.0888146236538887e-02 }
                  - { var:8, quality:5.1645708084106445e-01,
                      le:1.2528106570243835e-02 }
                  - { var:0, quality:5.1566606760025024e-01,
                      le:4.5733872801065445e-02 }
                  - { var:35, quality:5.1454561948776245e-01,
                      le:1.5128403902053833e-01 }
                  - { var:37, quality:5.1417231559753418e-01,
                      le:1.2925982475280762e-02 }
                  - { var:4, quality:5.1376891136169434e-01,
                      gt:2.4242132902145386e-01 }
                  - { var:31, quality:5.1209586858749390e-01,
                      le:4.4726908206939697e-02 }
                  - { var:32, quality:5.1145738363265991e-01,
                      le:3.8459107279777527e-02 }
                  - { var:3, quality:5.1063615083694458e-01,
                      le:1.0119978338479996e-02 }
                  - { var:1, quality:5.1049774885177612e-01,
                      le:2.0626269280910492e-02 }
                  - { var:2, quality:5.1043194532394409e-01,
                      gt:3.2646149396896362e-01 }
                  - { var:5, quality:5.1037412881851196e-01,
                      gt:2.5331223011016846e-01 }
                  - { var:7, quality:5.0952178239822388e-01,
                      le:9.7166616469621658e-03 }
                  - { var:9, quality:5.0929498672485352e-01,
                      gt:2.2055685520172119e-01 }
                  - { var:11, quality:5.0915873050689697e-01,
                      le:1.1778879910707474e-02 }
                  - { var:18, quality:5.0858855247497559e-01,
                      gt:9.5482915639877319e-01 }
                  - { var:22, quality:5.0818079710006714e-01,
                      gt:8.9324510097503662e-01 }
                  - { var:19, quality:5.0815278291702271e-01,
                      gt:9.2765253782272339e-01 }
                  - { var:33, quality:5.0793033838272095e-01,
                      le:2.6179764419794083e-02 }
                  - { var:23, quality:5.0776273012161255e-01,
                      gt:9.3612271547317505e-01 }
                  - { var:24, quality:5.0770878791809082e-01,
                      gt:9.3060445785522461e-01 }
                  - { var:17, quality:5.0748801231384277e-01,
                      gt:9.0133273601531982e-01 }
                  - { var:6, quality:5.0723189115524292e-01,
                      le:8.9732054620981216e-03 }
                  - { var:26, quality:5.0715327262878418e-01,
                      gt:9.4999998807907104e-01 }
            -
               depth: 1
               sample_count: 77
               value: -3.7722781601378758e-01
               norm_class_idx: 0
               Tn: 0
               complexity: 0
               alpha: 0.
               node_risk: 0.
               tree_risk: 0.
               tree_error: 0.
            -
               depth: 1
               sample_count: 246
               value: 3.7722781601378758e-01
               norm_class_idx: 1
               Tn: 0
               complexity: 0
               alpha: 0.
               node_risk: 0.
               tree_risk: 0.
               tree_error: 0.
      -
         best_tree_idx: -1
         nodes:
            -
               depth: 0
               sample_count: 325
               value: -4.5659694506489051e-01
               norm_class_idx: 0
               Tn: 0
               complexity: 0
               alpha: 0.
               node_risk: 0.
               tree_risk: 0.
               tree_error: 0.
               splits:
                  - { var:36, quality:5.7770031690597534e-01,
                      le:1.8707594275474548e-01 }
                  - { var:37, quality:5.6046140193939209e-01,
                      le:1.9311144948005676e-01 }
                  - { var:23, quality:5.3006887435913086e-01,
                      gt:3.3746099472045898e-01 }
                  - { var:14, quality:5.2653145790100098e-01,
                      gt:3.1563323736190796e-01 }
                  - { var:18, quality:5.2517157793045044e-01,
                      gt:4.3174213171005249e-01 }
                  - { var:12, quality:5.2482396364212036e-01,
                      le:9.4231504201889038e-01 }
                  - { var:19, quality:5.2355605363845825e-01,
                      gt:3.6868542432785034e-01 }
                  - { var:24, quality:5.2109038829803467e-01,
                      gt:3.6685204505920410e-01 }
                  - { var:35, quality:5.2095395326614380e-01,
                      le:5.5896216630935669e-01 }
                  - { var:15, quality:5.1972931623458862e-01,
                      gt:4.8105150461196899e-01 }
                  - { var:31, quality:5.1809966564178467e-01,
                      le:1.3379022479057312e-01 }
                  - { var:13, quality:5.1715868711471558e-01,
                      gt:7.1233019232749939e-02 }
                  - { var:32, quality:5.1702004671096802e-01,
                      le:1.0237042605876923e-01 }
                  - { var:34, quality:5.1251256465911865e-01,
                      le:5.5135899782180786e-01 }
                  - { var:22, quality:5.1162493228912354e-01,
                      gt:3.5326823592185974e-01 }
                  - { var:33, quality:5.1018208265304565e-01,
                      le:1.2872990965843201e-01 }
                  - { var:9, quality:5.0397080183029175e-01,
                      le:2.1539530158042908e-01 }
                  - { var:17, quality:5.0329279899597168e-01,
                      le:8.7139964103698730e-01 }
                  - { var:11, quality:5.0286531448364258e-01,
                      le:1.5473298728466034e-01 }
                  - { var:6, quality:5.0239861011505127e-01,
                      le:2.3855853080749512e-01 }
                  - { var:30, quality:5.0138503313064575e-01,
                      le:5.3244382143020630e-02 }
            -
               depth: 1
               sample_count: 288
               value: -4.5659694506489051e-01
               norm_class_idx: 0
               Tn: 0
               complexity: 0
               alpha: 0.
               node_risk: 0.
               tree_risk: 0.
               tree_error: 0.
            -
               depth: 1
               sample_count: 37
               value: 4.5659694506489051e-01
               norm_class_idx: 1
               Tn: 0
               complexity: 0
               alpha: 0.
               node_risk: 0.
               tree_risk: 0.
               tree_error: 0.
      -
         best_tree_idx: -1
         nodes:
            -
               depth: 0
               sample_count: 323
               value: 4.2963149620018781e-01
               norm_class_idx: 1
               Tn: 0
               complexity: 0
               alpha: 0.
               node_risk: 0.
               tree_risk: 0.
               tree_error: 0.
               splits:
                  - { var:37, quality:5.7660996913909912e-01,
                      le:1.0184929519891739e-01 }
                  - { var:36, quality:5.1024580001831055e-01,
                      le:1.1499349772930145e-01 }
                  - { var:33, quality:5.0085473060607910e-01,
                      le:7.2970107197761536e-02 }
                  - { var:31, quality:4.9658197164535522e-01,
                      le:1.0725268721580505e-01 }
                  - { var:13, quality:4.7579723596572876e-01,
                      gt:5.9687471389770508e-01 }
                  - { var:23, quality:4.6735787391662598e-01,
                      gt:7.0157027244567871e-01 }
                  - { var:24, quality:4.6684879064559937e-01,
                      gt:5.7751613855361938e-01 }
                  - { var:22, quality:4.6569654345512390e-01,
                      gt:6.0010761022567749e-01 }
                  - { var:35, quality:4.6430534124374390e-01,
                      le:3.9751231670379639e-01 }
                  - { var:18, quality:4.6427735686302185e-01,
                      gt:7.0029246807098389e-01 }
                  - { var:17, quality:4.6348428726196289e-01,
                      gt:4.3409818410873413e-01 }
                  - { var:15, quality:4.6277081966400146e-01,
                      gt:6.2248802185058594e-01 }
                  - { var:19, quality:4.6156328916549683e-01,
                      gt:7.0363354682922363e-01 }
                  - { var:20, quality:4.5909067988395691e-01,
                      gt:4.3818119168281555e-01 }
                  - { var:12, quality:4.5893466472625732e-01,
                      le:1.4035007916390896e-02 }
                  - { var:39, quality:4.5832633972167969e-01,
                      le:1.9178432412445545e-03 }
                  - { var:34, quality:4.5794838666915894e-01,
                      le:4.2877763509750366e-01 }
                  - { var:38, quality:4.5411464571952820e-01,
                      le:2.0096686203032732e-03 }
                  - { var:21, quality:4.5158410072326660e-01,
                      gt:3.4862899780273438e-01 }
                  - { var:16, quality:4.4879233837127686e-01,
                      gt:4.1852521896362305e-01 }
                  - { var:32, quality:4.4574555754661560e-01,
                      le:7.6366841793060303e-02 }
                  - { var:30, quality:4.4414514303207397e-01,
                      le:3.6464933305978775e-02 }
                  - { var:14, quality:4.4157010316848755e-01,
                      gt:6.8993806838989258e-01 }
                  - { var:6, quality:3.8732209801673889e-01,
                      le:9.7399614751338959e-02 }
                  - { var:11, quality:3.8602125644683838e-01,
                      le:1.4480751752853394e-01 }
                  - { var:1, quality:3.8049489259719849e-01,
                      le:1.4301857352256775e-01 }
                  - { var:9, quality:3.7891015410423279e-01,
                      le:1.9759538769721985e-01 }
                  - { var:8, quality:3.7740844488143921e-01,
                      le:1.5950579941272736e-01 }
                  - { var:7, quality:3.7476167082786560e-01,
                      gt:1.4165860600769520e-02 }
                  - { var:0, quality:3.7474623322486877e-01,
                      gt:6.9720268249511719e-02 }
                  - { var:4, quality:3.7283676862716675e-01,
                      le:1.8212278187274933e-01 }
            -
               depth: 1
               sample_count: 164
               value: 4.2963149620018781e-01
               norm_class_idx: 1
               Tn: 0
               complexity: 0
               alpha: 0.
               node_risk: 0.
               tree_risk: 0.
               tree_error: 0.
            -
               depth: 1
               sample_count: 159
               value: -4.2963149620018781e-01
               norm_class_idx: 0
               Tn: 0
               complexity: 0
               alpha: 0.
               node_risk: 0.
               tree_risk: 0.
               tree_error: 0.
      -
         best_tree_idx: -1
         nodes:
            -
               depth: 0
               sample_count: 314
               value: -3.7291098644746723e-01
               norm_class_idx: 0
               Tn: 0
               complexity: 0
               alpha: 0.
               node_risk: 0.
               tree_risk: 0.
               tree_error: 0.
               splits:
                  - { var:34, quality:5.8348131179809570e-01,
                      le:3.5235404968261719e-01 }
                  - { var:35, quality:5.5173969268798828e-01,
                      le:3.2858306169509888e-01 }
                  - { var:36, quality:5.1661753654479980e-01,
                      le:7.0414125919342041e-02 }
                  - { var:37, quality:5.1110029220581055e-01,
                      le:7.1919232606887817e-02 }
                  - { var:31, quality:5.0134199857711792e-01,
                      le:7.2580784559249878e-02 }
                  - { var:32, quality:4.6259507536888123e-01,
                      le:5.3492065519094467e-02 }
                  - { var:33, quality:4.6100619435310364e-01,
                      le:5.0447840243577957e-02 }
                  - { var:13, quality:4.2489644885063171e-01,
                      gt:9.6113455295562744e-01 }
                  - { var:39, quality:4.1449290513992310e-01,
                      le:1.2030492071062326e-03 }
                  - { var:38, quality:4.1005352139472961e-01,
                      le:1.1646610219031572e-03 }
                  - { var:3, quality:3.9997917413711548e-01,
                      le:2.4644477292895317e-02 }
                  - { var:5, quality:3.9070373773574829e-01,
                      le:3.6097392439842224e-02 }
                  - { var:11, quality:3.8865783810615540e-01,
                      le:2.9027117416262627e-02 }
                  - { var:30, quality:3.8815647363662720e-01,
                      le:4.7556273639202118e-03 }
                  - { var:1, quality:3.8463407754898071e-01,
                      le:3.1640872359275818e-02 }
                  - { var:21, quality:3.8394033908843994e-01,
                      gt:6.4044392108917236e-01 }
                  - { var:17, quality:3.8314151763916016e-01,
                      gt:6.7076170444488525e-01 }
                  - { var:22, quality:3.8156053423881531e-01,
                      gt:7.2703003883361816e-01 }
                  - { var:24, quality:3.8100904226303101e-01,
                      gt:7.5361430644989014e-01 }
                  - { var:7, quality:3.8030397891998291e-01,
                      gt:2.2229121625423431e-01 }
                  - { var:23, quality:3.7935236096382141e-01,
                      gt:8.6699223518371582e-01 }
                  - { var:2, quality:3.7632903456687927e-01,
                      le:4.3986812233924866e-02 }
                  - { var:0, quality:3.7427595257759094e-01,
                      gt:1.3202059268951416e-01 }
                  - { var:10, quality:3.7395524978637695e-01,
                      le:1.5775645151734352e-02 }
                  - { var:18, quality:3.7264090776443481e-01,
                      gt:8.2303810119628906e-01 }
                  - { var:20, quality:3.6989578604698181e-01,
                      gt:6.6799557209014893e-01 }
                  - { var:28, quality:3.6965191364288330e-01,
                      gt:7.5000000000000000e-01 }
                  - { var:9, quality:3.6911177635192871e-01,
                      gt:1.4033707976341248e-01 }
                  - { var:19, quality:3.6893942952156067e-01,
                      gt:7.7472174167633057e-01 }
                  - { var:8, quality:3.6830735206604004e-01,
                      le:1.2528106570243835e-02 }
                  - { var:16, quality:3.6758428812026978e-01,
                      gt:5.0618815422058105e-01 }
                  - { var:4, quality:3.6577481031417847e-01,
                      gt:3.0112385749816895e-01 }
                  - { var:26, quality:3.6511078476905823e-01,
                      gt:8.5000002384185791e-01 }
                  - { var:6, quality:3.6371648311614990e-01,
                      le:3.6039825528860092e-02 }
            -
               depth: 1
               sample_count: 117
               value: -3.7291098644746723e-01
               norm_class_idx: 0
               Tn: 0
               complexity: 0
               alpha: 0.
               node_risk: 0.
               tree_risk: 0.
               tree_error: 0.
            -
               depth: 1
               sample_count: 197
               value: 3.7291098644746723e-01
               norm_class_idx: 1
               Tn: 0
               complexity: 0
               alpha: 0.
               node_risk: 0.
               tree_risk: 0.
               tree_error: 0.
      -
         best_tree_idx: -1
         nodes:
            -
               depth: 0
               sample_count: 324
               value: -3.8977973070185029e-01
               norm_class_idx: 0
               Tn: 0
               complexity: 0
               alpha: 0.
               node_risk: 0.
               tree_risk: 0.
               tree_error: 0.
               splits:
                  - { var:0, quality:5.6814682483673096e-01,
                      le:1.1308877915143967e-01 }
                  - { var:31, quality:3.7990048527717590e-01,
                      gt:9.6347473561763763e-02 }
                  - { var:37, quality:3.7157636880874634e-01,
                      gt:7.3598317801952362e-02 }
                  - { var:6, quality:3.7026643753051758e-01,
                      gt:5.8185003697872162e-02 }
                  - { var:32, quality:3.6787277460098267e-01,
                      gt:5.1140874624252319e-02 }
                  - { var:36, quality:3.6620837450027466e-01,
                      gt:8.7931275367736816e-02 }
                  - { var:8, quality:3.6218369007110596e-01,
                      gt:2.9562022536993027e-02 }
                  - { var:33, quality:3.6001837253570557e-01,
                      gt:5.9634864330291748e-02 }
                  - { var:9, quality:3.5952177643775940e-01,
                      gt:9.1139808297157288e-02 }
                  - { var:10, quality:3.5511252284049988e-01,
                      gt:2.1985752508044243e-02 }
                  - { var:35, quality:3.5226571559906006e-01,
                      gt:3.9681541919708252e-01 }
                  - { var:5, quality:3.4967249631881714e-01,
                      le:1.0936807096004486e-01 }
                  - { var:13, quality:3.4535810351371765e-01,
                      le:9.8299092054367065e-01 }
                  - { var:34, quality:3.4456726908683777e-01,
                      gt:3.5911417007446289e-01 }
                  - { var:16, quality:3.4442058205604553e-01,
                      le:6.9294089078903198e-01 }
                  - { var:24, quality:3.4368157386779785e-01,
                      le:8.5389804840087891e-01 }
                  - { var:20, quality:3.4261417388916016e-01,
                      le:7.0943528413772583e-01 }
                  - { var:38, quality:3.3931410312652588e-01,
                      gt:1.2809946201741695e-03 }
                  - { var:39, quality:3.3748340606689453e-01,
                      gt:1.0701585561037064e-03 }
                  - { var:23, quality:3.3681502938270569e-01,
                      le:8.7343889474868774e-01 }
                  - { var:18, quality:3.3653044700622559e-01,
                      le:8.9972484111785889e-01 }
                  - { var:22, quality:3.3578380942344666e-01,
                      le:6.9261848926544189e-01 }
                  - { var:21, quality:3.3425331115722656e-01,
                      le:6.9368124008178711e-01 }
                  - { var:29, quality:3.3417803049087524e-01,
                      le:8.5000002384185791e-01 }
                  - { var:17, quality:3.3356606960296631e-01,
                      le:7.8172528743743896e-01 }
                  - { var:30, quality:3.3255907893180847e-01,
                      gt:2.4075461551547050e-02 }
                  - { var:19, quality:3.3186545968055725e-01,
                      le:8.8539940118789673e-01 }
                  - { var:3, quality:3.3124458789825439e-01,
                      gt:2.2875612601637840e-02 }
                  - { var:2, quality:3.3114781975746155e-01,
                      gt:4.9419954419136047e-02 }
                  - { var:1, quality:3.2960090041160583e-01,
                      gt:2.1971069276332855e-02 }
                  - { var:26, quality:3.2827141880989075e-01,
                      le:6.4999997615814209e-01 }
                  - { var:25, quality:3.2758402824401855e-01,
                      gt:4.4999998807907104e-01 }
                  - { var:4, quality:3.2728371024131775e-01,
                      gt:2.6756253093481064e-02 }
                  - { var:11, quality:3.2690021395683289e-01,
                      gt:1.3102625496685505e-02 }
                  - { var:15, quality:3.2461902499198914e-01,
                      le:7.5802159309387207e-01 }
                  - { var:7, quality:3.2294178009033203e-01,
                      le:1.9559249281883240e-01 }
                  - { var:27, quality:3.2194483280181885e-01,
                      le:8.5000002384185791e-01 }
            -
               depth: 1
               sample_count: 157
               value: 3.8977973070185029e-01
               norm_class_idx: 1
               Tn: 0
               complexity: 0
               alpha: 0.
               node_risk: 0.
               tree_risk: 0.
               tree_error: 0.
            -
               depth: 1
               sample_count: 167
               value: -3.8977973070185029e-01
               norm_class_idx: 0
               Tn: 0
               complexity: 0
               alpha: 0.
               node_risk: 0.
               tree_risk: 0.
               tree_error: 0.
      -
         best_tree_idx: -1
         nodes:
            -
               depth: 0
               sample_count: 319
               value: -4.3519391932672324e-01
               norm_class_idx: 0
               Tn: 0
               complexity: 0
               alpha: 0.
               node_risk: 0.
               tree_risk: 0.
               tree_error: 0.
               splits:
                  - { var:7, quality:5.6241428852081299e-01,
                      le:1.3500958681106567e-01 }
                  - { var:1, quality:4.6518039703369141e-01,
                      gt:4.5621853321790695e-02 }
                  - { var:3, quality:4.4192507863044739e-01,
                      gt:1.9335605204105377e-02 }
                  - { var:5, quality:4.3605321645736694e-01,
                      gt:2.2036153823137283e-02 }
                  - { var:21, quality:4.3547773361206055e-01,
                      gt:4.0698610246181488e-02 }
                  - { var:0, quality:4.3494564294815063e-01,
                      gt:3.0312307178974152e-02 }
                  - { var:2, quality:4.3409997224807739e-01,
                      gt:1.3993841595947742e-02 }
                  - { var:8, quality:4.3376150727272034e-01,
                      gt:2.3070193827152252e-02 }
                  - { var:9, quality:4.3348634243011475e-01,
                      gt:2.1338677033782005e-02 }
                  - { var:4, quality:4.3342995643615723e-01,
                      gt:3.0411936342716217e-02 }
                  - { var:39, quality:4.3278732895851135e-01,
                      le:5.2862111479043961e-03 }
                  - { var:38, quality:4.3278732895851135e-01,
                      le:5.2571604028344154e-03 }
                  - { var:30, quality:4.3278732895851135e-01,
                      le:1.4572313427925110e-01 }
                  - { var:36, quality:4.3237569928169250e-01,
                      le:2.5364932417869568e-01 }
                  - { var:18, quality:4.3203142285346985e-01,
                      gt:3.0832165852189064e-02 }
                  - { var:10, quality:4.3190878629684448e-01,
                      gt:8.0500077456235886e-03 }
                  - { var:11, quality:4.3181380629539490e-01,
                      gt:1.7502389848232269e-02 }
                  - { var:35, quality:4.3141350150108337e-01,
                      gt:1.5128403902053833e-01 }
                  - { var:24, quality:4.3129420280456543e-01,
                      gt:1.5933713316917419e-01 }
                  - { var:23, quality:4.3124619126319885e-01,
                      gt:1.7587107419967651e-01 }
                  - { var:37, quality:4.3118011951446533e-01,
                      le:2.9960399866104126e-01 }
                  - { var:34, quality:4.3118011951446533e-01,
                      le:7.6604652404785156e-01 }
                  - { var:33, quality:4.3118011951446533e-01,
                      le:2.1292041242122650e-01 }
                  - { var:31, quality:4.3118011951446533e-01,
                      le:2.2732742130756378e-01 }
            -
               depth: 1
               sample_count: 266
               value: -4.3519391932672324e-01
               norm_class_idx: 0
               Tn: 0
               complexity: 0
               alpha: 0.
               node_risk: 0.
               tree_risk: 0.
               tree_error: 0.
            -
               depth: 1
               sample_count: 53
               value: 4.3519391932672324e-01
               norm_class_idx: 1
               Tn: 0
               complexity: 0
               alpha: 0.
               node_risk: 0.
               tree_risk: 0.
               tree_error: 0.
      -
         best_tree_idx: -1
         nodes:
            -
               depth: 0
               sample_count: 308
               value: 4.5909002884387928e-01
               norm_class_idx: 1
               Tn: 0
               complexity: 0
               alpha: 0.
               node_risk: 0.
               tree_risk: 0.
               tree_error: 0.
               splits:
                  - { var:7, quality:5.9081435203552246e-01,
                      le:7.4752166867256165e-02 }
                  - { var:1, quality:5.0094610452651978e-01,
                      gt:8.5351854562759399e-02 }
                  - { var:5, quality:4.0566897392272949e-01,
                      le:7.6818734407424927e-02 }
                  - { var:8, quality:3.9073470234870911e-01,
                      gt:3.5861745476722717e-02 }
                  - { var:3, quality:3.8981407880783081e-01,
                      gt:3.8021080195903778e-02 }
                  - { var:4, quality:3.8767778873443604e-01,
                      gt:7.2053268551826477e-02 }
                  - { var:2, quality:3.7326136231422424e-01,
                      le:9.6990883350372314e-02 }
                  - { var:0, quality:3.6343470215797424e-01,
                      le:1.8719771504402161e-01 }
                  - { var:28, quality:3.6015015840530396e-01,
                      gt:2.5000000000000000e-01 }
                  - { var:10, quality:3.5290133953094482e-01,
                      le:7.9217359423637390e-02 }
                  - { var:11, quality:3.5200110077857971e-01,
                      gt:2.3809287697076797e-02 }
                  - { var:6, quality:3.5131153464317322e-01,
                      gt:6.1825498938560486e-02 }
                  - { var:31, quality:3.4968733787536621e-01,
                      le:1.3065406680107117e-01 }
                  - { var:30, quality:3.4910315275192261e-01,
                      le:1.6111999750137329e-02 }
                  - { var:33, quality:3.4771814942359924e-01,
                      le:9.7403764724731445e-02 }
                  - { var:17, quality:3.4686473011970520e-01,
                      gt:7.1567547321319580e-01 }
                  - { var:9, quality:3.4472957253456116e-01,
                      le:1.8983942270278931e-01 }
                  - { var:34, quality:3.4459108114242554e-01,
                      le:6.6384112834930420e-01 }
                  - { var:36, quality:3.4450927376747131e-01,
                      gt:2.7578046545386314e-02 }
                  - { var:39, quality:3.4430828690528870e-01,
                      gt:6.2265392625704408e-04 }
                  - { var:19, quality:3.4417894482612610e-01,
                      gt:6.9661164283752441e-01 }
                  - { var:16, quality:3.4396424889564514e-01,
                      le:8.5574746131896973e-01 }
                  - { var:38, quality:3.4380224347114563e-01,
                      gt:6.2239344697445631e-04 }
                  - { var:35, quality:3.4345287084579468e-01,
                      le:6.1589002609252930e-01 }
                  - { var:18, quality:3.4302824735641479e-01,
                      gt:1.7886540293693542e-01 }
                  - { var:37, quality:3.4235262870788574e-01,
                      le:9.3470975756645203e-02 }
                  - { var:29, quality:3.4232586622238159e-01,
                      le:5.5000001192092896e-01 }
                  - { var:20, quality:3.4183901548385620e-01,
                      gt:2.4155320227146149e-01 }
                  - { var:21, quality:3.4055194258689880e-01,
                      gt:6.6186994314193726e-01 }
                  - { var:32, quality:3.4033820033073425e-01,
                      le:1.0216514766216278e-01 }
                  - { var:23, quality:3.3966776728630066e-01,
                      gt:7.1824896335601807e-01 }
                  - { var:24, quality:3.3936098217964172e-01,
                      gt:1.6840580105781555e-01 }
                  - { var:15, quality:3.3916345238685608e-01,
                      gt:2.4963417649269104e-01 }
                  - { var:22, quality:3.3839118480682373e-01,
                      gt:7.5753581523895264e-01 }
                  - { var:14, quality:3.3792132139205933e-01,
                      gt:1.9233411550521851e-01 }
                  - { var:26, quality:3.3548846840858459e-01,
                      le:9.4999998807907104e-01 }
                  - { var:27, quality:3.3487758040428162e-01,
                      le:9.4999998807907104e-01 }
            -
               depth: 1
               sample_count: 153
               value: 4.5909002884387928e-01
               norm_class_idx: 1
               Tn: 0
               complexity: 0
               alpha: 0.
               node_risk: 0.
               tree_risk: 0.
               tree_error: 0.
            -
               depth: 1
               sample_count: 155
               value: -4.5909002884387928e-01
               norm_class_idx: 0
               Tn: 0
               complexity: 0
               alpha: 0.
               node_risk: 0.
               tree_risk: 0.
               tree_error: 0.
      -
         best_tree_idx: -1
         nodes:
            -
               depth: 0
               sample_count: 309
               value: 3.5462780071142380e-01
               norm_class_idx: 1
               Tn: 0
               complexity: 0
               alpha: 0.
               node_risk: 0.
               tree_risk: 0.
               tree_error: 0.
               splits:
                  - { var:39, quality:5.6034034490585327e-01,
                      le:1.4794655144214630e-03 }
                  - { var:38, quality:5.0788229703903198e-01,
                      le:1.4566887402907014e-03 }
                  - { var:30, quality:4.9988424777984619e-01,
                      le:2.0309198647737503e-02 }
                  - { var:17, quality:4.6276527643203735e-01,
                      gt:6.6690087318420410e-01 }
                  - { var:21, quality:4.5956349372863770e-01,
                      gt:6.3099491596221924e-01 }
                  - { var:16, quality:4.5937305688858032e-01,
                      gt:5.7879996299743652e-01 }
                  - { var:20, quality:4.5912274718284607e-01,
                      gt:6.5510761737823486e-01 }
                  - { var:22, quality:4.5817241072654724e-01,
                      gt:7.0245933532714844e-01 }
                  - { var:24, quality:4.4129961729049683e-01,
                      gt:7.3549532890319824e-01 }
                  - { var:13, quality:4.3814727663993835e-01,
                      gt:8.9627093076705933e-01 }
                  - { var:18, quality:4.2649176716804504e-01,
                      gt:7.6516830921173096e-01 }
                  - { var:23, quality:4.2440634965896606e-01,
                      gt:7.3316097259521484e-01 }
                  - { var:19, quality:4.1474586725234985e-01,
                      gt:7.2229754924774170e-01 }
                  - { var:15, quality:4.1227850317955017e-01,
                      gt:6.2863600254058838e-01 }
                  - { var:37, quality:4.0823060274124146e-01,
                      le:9.3470975756645203e-02 }
                  - { var:35, quality:3.9248710870742798e-01,
                      le:3.6420792341232300e-01 }
                  - { var:33, quality:3.8913959264755249e-01,
                      le:6.4147248864173889e-02 }
                  - { var:36, quality:3.8783493638038635e-01,
                      le:8.6121998727321625e-02 }
                  - { var:31, quality:3.8767924904823303e-01,
                      le:9.4236269593238831e-02 }
                  - { var:12, quality:3.8666951656341553e-01,
                      le:1.4035007916390896e-02 }
                  - { var:34, quality:3.8075780868530273e-01,
                      le:3.9414456486701965e-01 }
                  - { var:14, quality:3.6952933669090271e-01,
                      gt:7.6480126380920410e-01 }
                  - { var:32, quality:3.5637396574020386e-01,
                      le:5.0817340612411499e-02 }
                  - { var:2, quality:3.5548302531242371e-01,
                      gt:1.0082279145717621e-01 }
                  - { var:7, quality:3.4708580374717712e-01,
                      le:1.4302918314933777e-01 }
                  - { var:11, quality:3.4186053276062012e-01,
                      le:6.4411804080009460e-02 }
                  - { var:6, quality:3.3478447794914246e-01,
                      le:7.8709758818149567e-02 }
                  - { var:0, quality:3.3429047465324402e-01,
                      gt:1.3048471510410309e-01 }
                  - { var:1, quality:3.3316010236740112e-01,
                      gt:4.5783586800098419e-02 }
                  - { var:8, quality:3.2403233647346497e-01,
                      le:2.9347507283091545e-02 }
                  - { var:25, quality:3.2142832875251770e-01,
                      le:6.4999997615814209e-01 }
                  - { var:27, quality:3.2028052210807800e-01,
                      le:1.5000000596046448e-01 }
                  - { var:10, quality:3.1640994548797607e-01,
                      le:3.2951176166534424e-02 }
                  - { var:3, quality:3.1513503193855286e-01,
                      le:5.3184039890766144e-02 }
                  - { var:26, quality:3.1395581364631653e-01,
                      gt:2.5000000000000000e-01 }
                  - { var:29, quality:3.1082949042320251e-01,
                      le:2.5000000000000000e-01 }
                  - { var:4, quality:3.0987802147865295e-01,
                      gt:8.5102587938308716e-02 }
                  - { var:9, quality:3.0951347947120667e-01,
                      gt:4.0061991661787033e-02 }
                  - { var:5, quality:3.0798467993736267e-01,
                      le:3.6460891366004944e-02 }
                  - { var:28, quality:2.9689845442771912e-01,
                      gt:4.4999998807907104e-01 }
            -
               depth: 1
               sample_count: 135
               value: 3.5462780071142380e-01
               norm_class_idx: 1
               Tn: 0
               complexity: 0
               alpha: 0.
               node_risk: 0.
               tree_risk: 0.
               tree_error: 0.
            -
               depth: 1
               sample_count: 174
               value: -3.5462780071142380e-01
               norm_class_idx: 0
               Tn: 0
               complexity: 0
               alpha: 0.
               node_risk: 0.
               tree_risk: 0.
               tree_error: 0.
      -
         best_tree_idx: -1
         nodes:
            -
               depth: 0
               sample_count: 305
               value: -4.2032522041478104e-01
               norm_class_idx: 0
               Tn: 0
               complexity: 0
               alpha: 0.
               node_risk: 0.
               tree_risk: 0.
               tree_error: 0.
               splits:
                  - { var:16, quality:5.8053117990493774e-01,
                      le:6.4071047306060791e-01 }
                  - { var:21, quality:5.5644166469573975e-01,
                      le:6.6751503944396973e-01 }
                  - { var:17, quality:5.4123312234878540e-01,
                      le:7.1874558925628662e-01 }
                  - { var:20, quality:5.2949988842010498e-01,
                      le:6.9670045375823975e-01 }
                  - { var:22, quality:5.2128309011459351e-01,
                      le:7.4668049812316895e-01 }
                  - { var:24, quality:4.9302420020103455e-01,
                      le:7.3628509044647217e-01 }
                  - { var:30, quality:4.8013669252395630e-01,
                      gt:1.7120458185672760e-02 }
                  - { var:39, quality:4.6496695280075073e-01,
                      gt:1.5418410766869783e-03 }
                  - { var:38, quality:4.6358528733253479e-01,
                      gt:1.7114300280809402e-03 }
                  - { var:13, quality:4.5788714289665222e-01,
                      le:8.9992994070053101e-01 }
                  - { var:23, quality:4.4857519865036011e-01,
                      le:7.6205563545227051e-01 }
                  - { var:18, quality:4.4504743814468384e-01,
                      le:7.8685337305068970e-01 }
                  - { var:15, quality:4.3720877170562744e-01,
                      le:7.1289741992950439e-01 }
                  - { var:19, quality:4.3211123347282410e-01,
                      le:7.4346363544464111e-01 }
                  - { var:12, quality:3.9178934693336487e-01,
                      gt:1.4035007916390896e-02 }
                  - { var:14, quality:3.9032754302024841e-01,
                      gt:9.9518287181854248e-01 }
                  - { var:33, quality:3.9028608798980713e-01,
                      gt:7.1630224585533142e-02 }
                  - { var:37, quality:3.8293379545211792e-01,
                      gt:1.0086023807525635e-01 }
                  - { var:31, quality:3.8026922941207886e-01,
                      gt:8.7755173444747925e-02 }
                  - { var:1, quality:3.7773287296295166e-01,
                      le:4.6962894499301910e-02 }
                  - { var:36, quality:3.7409770488739014e-01,
                      gt:8.1095762550830841e-02 }
                  - { var:11, quality:3.7105444073677063e-01,
                      gt:7.8242309391498566e-02 }
                  - { var:32, quality:3.6293727159500122e-01,
                      gt:5.4894018918275833e-02 }
                  - { var:7, quality:3.5681799054145813e-01,
                      gt:1.4515450596809387e-01 }
                  - { var:3, quality:3.5080462694168091e-01,
                      gt:8.2851454615592957e-02 }
                  - { var:28, quality:3.4770527482032776e-01,
                      le:1.5000000596046448e-01 }
                  - { var:0, quality:3.4683468937873840e-01,
                      le:1.3310481607913971e-01 }
                  - { var:25, quality:3.4421589970588684e-01,
                      gt:5.5000001192092896e-01 }
                  - { var:34, quality:3.4124571084976196e-01,
                      gt:3.7510311603546143e-01 }
                  - { var:9, quality:3.4060394763946533e-01,
                      le:8.2470357418060303e-02 }
                  - { var:6, quality:3.3967232704162598e-01,
                      gt:9.9699571728706360e-02 }
                  - { var:2, quality:3.3654749393463135e-01,
                      le:5.7529464364051819e-02 }
                  - { var:8, quality:3.3617383241653442e-01,
                      gt:1.2689542770385742e-01 }
                  - { var:35, quality:3.3617222309112549e-01,
                      gt:3.1297314167022705e-01 }
                  - { var:5, quality:3.3453014492988586e-01,
                      gt:1.5768231451511383e-01 }
                  - { var:4, quality:3.3115237951278687e-01,
                      le:8.5102587938308716e-02 }
                  - { var:10, quality:3.2903704047203064e-01,
                      gt:2.2347997874021530e-02 }
                  - { var:29, quality:3.2776811718940735e-01,
                      gt:8.5000002384185791e-01 }
            -
               depth: 1
               sample_count: 123
               value: 4.2032522041478104e-01
               norm_class_idx: 1
               Tn: 0
               complexity: 0
               alpha: 0.
               node_risk: 0.
               tree_risk: 0.
               tree_error: 0.
            -
               depth: 1
               sample_count: 182
               value: -4.2032522041478104e-01
               norm_class_idx: 0
               Tn: 0
               complexity: 0
               alpha: 0.
               node_risk: 0.
               tree_risk: 0.
               tree_error: 0.
      -
         best_tree_idx: -1
         nodes:
            -
               depth: 0
               sample_count: 305
               value: 3.8812544824467982e-01
               norm_class_idx: 1
               Tn: 0
               complexity: 0
               alpha: 0.
               node_risk: 0.
               tree_risk: 0.
               tree_error: 0.
               splits:
                  - { var:16, quality:5.6498640775680542e-01,
                      le:7.2544991970062256e-01 }
                  - { var:21, quality:5.3033107519149780e-01,
                      le:7.4506926536560059e-01 }
                  - { var:17, quality:4.9817577004432678e-01,
                      le:7.8043079376220703e-01 }
                  - { var:20, quality:4.9099272489547729e-01,
                      le:7.8205382823944092e-01 }
                  - { var:22, quality:4.6322339773178101e-01,
                      le:8.0125623941421509e-01 }
                  - { var:15, quality:4.2679709196090698e-01,
                      le:8.3667945861816406e-01 }
                  - { var:24, quality:4.2582488059997559e-01,
                      le:8.3620953559875488e-01 }
                  - { var:30, quality:4.2352515459060669e-01,
                      gt:1.0567661374807358e-02 }
                  - { var:34, quality:4.2156004905700684e-01,
                      le:6.2621372938156128e-01 }
                  - { var:18, quality:4.1451227664947510e-01,
                      le:8.8982784748077393e-01 }
                  - { var:8, quality:4.1423046588897705e-01,
                      gt:1.9110497087240219e-02 }
                  - { var:35, quality:4.1094794869422913e-01,
                      le:6.4070963859558105e-01 }
                  - { var:19, quality:4.0966692566871643e-01,
                      le:9.0122425556182861e-01 }
                  - { var:39, quality:4.0839573740959167e-01,
                      gt:9.0250466018915176e-04 }
                  - { var:6, quality:4.0765124559402466e-01,
                      gt:1.3447612524032593e-02 }
                  - { var:23, quality:4.0721282362937927e-01,
                      le:8.9459127187728882e-01 }
                  - { var:9, quality:4.0675199031829834e-01,
                      gt:2.1338677033782005e-02 }
                  - { var:32, quality:4.0653169155120850e-01,
                      le:9.6993170678615570e-02 }
                  - { var:7, quality:4.0648207068443298e-01,
                      gt:1.8480498343706131e-02 }
                  - { var:33, quality:4.0636533498764038e-01,
                      le:1.6676057875156403e-01 }
                  - { var:31, quality:4.0636533498764038e-01,
                      le:2.0828242599964142e-01 }
                  - { var:0, quality:4.0516924858093262e-01,
                      le:2.1926106512546539e-01 }
                  - { var:37, quality:4.0414634346961975e-01,
                      le:2.7732077240943909e-01 }
                  - { var:2, quality:4.0380400419235229e-01,
                      le:3.1551271677017212e-01 }
                  - { var:1, quality:4.0347716212272644e-01,
                      le:1.8723285198211670e-01 }
                  - { var:11, quality:3.9985004067420959e-01,
                      gt:1.2736689299345016e-02 }
                  - { var:38, quality:3.9944812655448914e-01,
                      gt:4.0136644383892417e-04 }
                  - { var:36, quality:3.9843598008155823e-01,
                      le:2.4947509169578552e-01 }
            -
               depth: 1
               sample_count: 229
               value: -3.8812544824467982e-01
               norm_class_idx: 0
               Tn: 0
               complexity: 0
               alpha: 0.
               node_risk: 0.
               tree_risk: 0.
               tree_error: 0.
            -
               depth: 1
               sample_count: 76
               value: 3.8812544824467982e-01
               norm_class_idx: 1
               Tn: 0
               complexity: 0
               alpha: 0.
               node_risk: 0.
               tree_risk: 0.
               tree_error: 0.
      -
         best_tree_idx: -1
         nodes:
            -
               depth: 0
               sample_count: 301
               value: 3.7175413547860775e-01
               norm_class_idx: 1
               Tn: 0
               complexity: 0
               alpha: 0.
               node_risk: 0.
               tree_risk: 0.
               tree_error: 0.
               splits:
                  - { var:38, quality:5.8256071805953979e-01,
                      le:2.7818754315376282e-03 }
                  - { var:39, quality:5.7026183605194092e-01,
                      le:2.7641248889267445e-03 }
                  - { var:30, quality:5.6888103485107422e-01,
                      le:6.2498405575752258e-02 }
                  - { var:15, quality:5.5670499801635742e-01,
                      gt:2.4085879325866699e-01 }
                  - { var:17, quality:5.5388987064361572e-01,
                      gt:9.3711540102958679e-02 }
                  - { var:14, quality:5.5148923397064209e-01,
                      gt:1.2529487907886505e-01 }
                  - { var:24, quality:5.5020129680633545e-01,
                      gt:2.1714818477630615e-01 }
                  - { var:20, quality:5.4962497949600220e-01,
                      gt:1.7108084261417389e-01 }
                  - { var:23, quality:5.4919707775115967e-01,
                      gt:1.4531221985816956e-01 }
                  - { var:19, quality:5.4852914810180664e-01,
                      gt:1.2976476550102234e-01 }
                  - { var:18, quality:5.4768812656402588e-01,
                      gt:1.3565601408481598e-01 }
                  - { var:22, quality:5.4727202653884888e-01,
                      gt:1.4278170466423035e-01 }
                  - { var:6, quality:5.4632371664047241e-01,
                      le:2.3855853080749512e-01 }
                  - { var:35, quality:5.4612106084823608e-01,
                      le:7.5052309036254883e-01 }
                  - { var:34, quality:5.4559028148651123e-01,
                      le:7.4278044700622559e-01 }
                  - { var:37, quality:5.4488182067871094e-01,
                      le:2.9118633270263672e-01 }
                  - { var:33, quality:5.4446637630462646e-01,
                      le:2.1292041242122650e-01 }
                  - { var:31, quality:5.4446637630462646e-01,
                      le:2.2732742130756378e-01 }
                  - { var:7, quality:5.4437500238418579e-01,
                      le:2.7595156431198120e-01 }
                  - { var:8, quality:5.4434221982955933e-01,
                      le:2.8791674971580505e-01 }
            -
               depth: 1
               sample_count: 262
               value: 3.7175413547860775e-01
               norm_class_idx: 1
               Tn: 0
               complexity: 0
               alpha: 0.
               node_risk: 0.
               tree_risk: 0.
               tree_error: 0.
            -
               depth: 1
               sample_count: 39
               value: -3.7175413547860775e-01
               norm_class_idx: 0
               Tn: 0
               complexity: 0
               alpha: 0.
               node_risk: 0.
               tree_risk: 0.
               tree_error: 0.
      -
         best_tree_idx: -1
         nodes:
            -
               depth: 0
               sample_count: 309
               value: -4.1419098391031417e-01
               norm_class_idx: 0
               Tn: 0
               complexity: 0
               alpha: 0.
               node_risk: 0.
               tree_risk: 0.
               tree_error: 0.
               splits:
                  - { var:1, quality:5.5628877878189087e-01,
                      le:4.5621853321790695e-02 }
                  - { var:7, quality:4.9390092492103577e-01,
                      gt:1.6449841856956482e-01 }
                  - { var:3, quality:4.4509276747703552e-01,
                      le:2.1430313587188721e-02 }
                  - { var:5, quality:4.4176352024078369e-01,
                      gt:1.2725374102592468e-01 }
                  - { var:10, quality:4.3817642331123352e-01,
                      gt:1.0455776751041412e-01 }
                  - { var:21, quality:4.3630936741828918e-01,
                      le:4.0698610246181488e-02 }
                  - { var:8, quality:4.3626049160957336e-01,
                      gt:2.3100671172142029e-01 }
                  - { var:11, quality:4.3572777509689331e-01,
                      le:1.9324235618114471e-02 }
                  - { var:2, quality:4.3485310673713684e-01,
                      le:2.5347333401441574e-02 }
                  - { var:39, quality:4.3235960602760315e-01,
                      gt:4.9511333927512169e-03 }
                  - { var:38, quality:4.3235960602760315e-01,
                      gt:5.0561781972646713e-03 }
                  - { var:30, quality:4.3235960602760315e-01,
                      gt:1.4572313427925110e-01 }
                  - { var:35, quality:4.3217763304710388e-01,
                      le:1.5128403902053833e-01 }
                  - { var:36, quality:4.3150380253791809e-01,
                      le:6.7458543926477432e-03 }
                  - { var:4, quality:4.3146365880966187e-01,
                      gt:3.4873282909393311e-01 }
                  - { var:34, quality:4.3124771118164062e-01,
                      le:1.2261015176773071e-01 }
                  - { var:0, quality:4.3121501803398132e-01,
                      le:1.6417372971773148e-02 }
                  - { var:37, quality:4.3114089965820312e-01,
                      le:7.4006980285048485e-03 }
            -
               depth: 1
               sample_count: 56
               value: 4.1419098391031417e-01
               norm_class_idx: 1
               Tn: 0
               complexity: 0
               alpha: 0.
               node_risk: 0.
               tree_risk: 0.
               tree_error: 0.
            -
               depth: 1
               sample_count: 253
               value: -4.1419098391031417e-01
               norm_class_idx: 0
               Tn: 0
               complexity: 0
               alpha: 0.
               node_risk: 0.
               tree_risk: 0.
               tree_error: 0.
      -
         best_tree_idx: -1
         nodes:
            -
               depth: 0
               sample_count: 297
               value: 2.9503035742902606e-01
               norm_class_idx: 1
               Tn: 0
               complexity: 0
               alpha: 0.
               node_risk: 0.
               tree_risk: 0.
               tree_error: 0.
               splits:
                  - { var:38, quality:5.6590759754180908e-01,
                      le:7.5227313209325075e-04 }
                  - { var:39, quality:5.5767899751663208e-01,
                      le:8.0499041359871626e-04 }
                  - { var:30, quality:5.5633401870727539e-01,
                      le:6.6714417189359665e-03 }
                  - { var:10, quality:5.2217566967010498e-01,
                      le:1.0888146236538887e-02 }
                  - { var:34, quality:5.1906913518905640e-01,
                      le:1.4358803629875183e-01 }
                  - { var:36, quality:5.1825076341629028e-01,
                      le:9.7035709768533707e-03 }
                  - { var:35, quality:5.1789474487304688e-01,
                      le:1.5128403902053833e-01 }
                  - { var:8, quality:5.1781970262527466e-01,
                      le:1.2413151562213898e-02 }
                  - { var:0, quality:5.1716095209121704e-01,
                      le:2.7668260037899017e-02 }
                  - { var:37, quality:5.1621288061141968e-01,
                      le:8.6114779114723206e-03 }
                  - { var:7, quality:5.1599138975143433e-01,
                      le:1.0591588914394379e-02 }
                  - { var:2, quality:5.1580983400344849e-01,
                      gt:3.2646149396896362e-01 }
                  - { var:3, quality:5.1551860570907593e-01,
                      le:1.0119978338479996e-02 }
                  - { var:31, quality:5.1543742418289185e-01,
                      le:3.5736948251724243e-02 }
                  - { var:4, quality:5.1420629024505615e-01,
                      gt:2.4242132902145386e-01 }
                  - { var:1, quality:5.1407593488693237e-01,
                      le:1.5150868333876133e-02 }
                  - { var:5, quality:5.1406264305114746e-01,
                      le:1.0068476200103760e-02 }
                  - { var:9, quality:5.1390320062637329e-01,
                      le:1.2873335741460323e-02 }
                  - { var:32, quality:5.1339828968048096e-01,
                      le:2.1959379315376282e-02 }
                  - { var:11, quality:5.1305973529815674e-01,
                      le:1.1795225553214550e-02 }
                  - { var:22, quality:5.1281046867370605e-01,
                      gt:8.9321631193161011e-01 }
                  - { var:18, quality:5.1261639595031738e-01,
                      gt:9.6088004112243652e-01 }
            -
               depth: 1
               sample_count: 53
               value: -2.9503035742902606e-01
               norm_class_idx: 0
               Tn: 0
               complexity: 0
               alpha: 0.
               node_risk: 0.
               tree_risk: 0.
               tree_error: 0.
            -
               depth: 1
               sample_count: 244
               value: 2.9503035742902606e-01
               norm_class_idx: 1
               Tn: 0
               complexity: 0
               alpha: 0.
               node_risk: 0.
               tree_risk: 0.
               tree_error: 0.
      -
         best_tree_idx: -1
         nodes:
            -
               depth: 0
               sample_count: 305
               value: -3.4258701181231127e-01
               norm_class_idx: 0
               Tn: 0
               complexity: 0
