%YAML:1.0
my_boost_tree: !!opencv-ml-boost-tree
   boosting_type: DiscreteAdaboost
   splitting_criteria: 3
   ntrees: 100
   weight_trimming_rate: 9.4999999999999996e-01
   is_classifier: 1
   var_all: 40
   var_count: 40
   ord_var_count: 40
   cat_var_count: 0
   training_params:
      use_surrogates: 1
      max_categories: 10
      max_depth: 1
      min_sample_count: 10
      cross_validation_folds: 0
      priors: !!opencv-matrix
         rows: 1
         cols: 2
         dt: d
         data: [ 1., 1. ]
   var_type: [ 0, 0, 0, 0, 0, 0, 0, 0, 0, 0, 0, 0, 0, 0, 0, 0, 0, 0, 0,
       0, 0, 0, 0, 0, 0, 0, 0, 0, 0, 0, 0, 0, 0, 0, 0, 0, 0, 0, 0, 0 ]
   cat_count: !!opencv-matrix
      rows: 1
      cols: 1
      dt: i
      data: [ 2 ]
   cat_map: !!opencv-matrix
      rows: 1
      cols: 2
      dt: i
      data: [ -1, 1 ]
   trees:
      -
         best_tree_idx: -1
         nodes:
            -
               depth: 0
               sample_count: 410
               value: -1.9970576602222545e+00
               norm_class_idx: 0
               Tn: 0
               complexity: 0
               alpha: 0.
               node_risk: 0.
               tree_risk: 0.
               tree_error: 0.
               splits:
                  - { var:17, quality:8.8048779964447021e-01,
                      le:9.8313546180725098e-01 }
            -
               depth: 1
               sample_count: 409
               value: -1.9970576602222545e+00
               norm_class_idx: 0
               Tn: 0
               complexity: 0
               alpha: 0.
               node_risk: 0.
               tree_risk: 0.
               tree_error: 0.
            -
               depth: 1
               sample_count: 1
               value: 1.9970576602222545e+00
               norm_class_idx: 1
               Tn: 0
               complexity: 0
               alpha: 0.
               node_risk: 0.
               tree_risk: 0.
               tree_error: 0.
      -
         best_tree_idx: -1
         nodes:
            -
               depth: 0
               sample_count: 410
               value: 8.7891494393029035e-01
               norm_class_idx: 1
               Tn: 0
               complexity: 0
               alpha: 0.
               node_risk: 0.
               tree_risk: 0.
               tree_error: 0.
               splits:
                  - { var:31, quality:7.0659732818603516e-01,
                      le:9.9771983921527863e-02 }
                  - { var:37, quality:6.5890228748321533e-01,
                      le:9.8192408680915833e-02 }
                  - { var:34, quality:6.5338981151580811e-01,
                      le:3.9630240201950073e-01 }
                  - { var:33, quality:6.5107297897338867e-01,
                      le:6.2259178608655930e-02 }
                  - { var:35, quality:6.4617961645126343e-01,
                      le:3.9046931266784668e-01 }
                  - { var:36, quality:6.4422231912612915e-01,
                      le:8.1095762550830841e-02 }
                  - { var:32, quality:6.4056730270385742e-01,
                      le:6.5144337713718414e-02 }
                  - { var:13, quality:5.8236658573150635e-01,
                      gt:9.9237602949142456e-01 }
                  - { var:38, quality:5.6582909822463989e-01,
                      le:1.2918116990476847e-03 }
                  - { var:39, quality:5.5764025449752808e-01,
                      le:1.2150956317782402e-03 }
                  - { var:17, quality:5.4997074604034424e-01,
                      gt:7.0707869529724121e-01 }
                  - { var:22, quality:5.4677510261535645e-01,
                      gt:7.5206291675567627e-01 }
                  - { var:30, quality:5.3549045324325562e-01,
                      le:8.6969416588544846e-03 }
                  - { var:3, quality:5.2178913354873657e-01,
                      le:2.9637333005666733e-02 }
                  - { var:20, quality:5.1989173889160156e-01,
                      gt:7.0088160037994385e-01 }
                  - { var:21, quality:5.1793438196182251e-01,
                      gt:6.8917977809906006e-01 }
                  - { var:16, quality:5.1571738719940186e-01,
                      gt:6.6615152359008789e-01 }
                  - { var:9, quality:5.1236194372177124e-01,
                      le:2.5456283241510391e-02 }
                  - { var:6, quality:5.1066422462463379e-01,
                      le:2.6840757578611374e-02 }
                  - { var:24, quality:5.0860708951950073e-01,
                      gt:7.9686975479125977e-01 }
                  - { var:1, quality:5.0710910558700562e-01,
                      le:3.1901873648166656e-02 }
                  - { var:4, quality:5.0221574306488037e-01,
                      le:4.2250741273164749e-02 }
                  - { var:0, quality:5.0221574306488037e-01,
                      gt:2.3223745822906494e-01 }
                  - { var:7, quality:4.9866062402725220e-01,
                      gt:2.3108831048011780e-01 }
                  - { var:8, quality:4.9830111861228943e-01,
                      gt:1.3445091247558594e-01 }
                  - { var:10, quality:4.9732246994972229e-01,
                      le:1.1039250530302525e-02 }
                  - { var:11, quality:4.9536511301994324e-01,
                      le:1.2933695688843727e-02 }
                  - { var:28, quality:4.9340778589248657e-01,
                      gt:9.4999998807907104e-01 }
                  - { var:5, quality:4.9340778589248657e-01,
                      le:3.2321520149707794e-02 }
                  - { var:2, quality:4.9340778589248657e-01,
                      gt:2.2886970639228821e-01 }
                  - { var:23, quality:4.9047181010246277e-01,
                      gt:9.6695876121520996e-01 }
            -
               depth: 1
               sample_count: 190
               value: -8.7891494393029035e-01
               norm_class_idx: 0
               Tn: 0
               complexity: 0
               alpha: 0.
               node_risk: 0.
               tree_risk: 0.
               tree_error: 0.
            -
               depth: 1
               sample_count: 220
               value: 8.7891494393029035e-01
               norm_class_idx: 1
               Tn: 0
               complexity: 0
               alpha: 0.
               node_risk: 0.
               tree_risk: 0.
               tree_error: 0.
      -
         best_tree_idx: -1
         nodes:
            -
               depth: 0
               sample_count: 410
               value: -7.8614653506887167e-01
               norm_class_idx: 0
               Tn: 0
               complexity: 0
               alpha: 0.
               node_risk: 0.
               tree_risk: 0.
               tree_error: 0.
               splits:
                  - { var:19, quality:6.8700331449508667e-01,
                      le:8.6131906509399414e-01 }
                  - { var:23, quality:6.3592618703842163e-01,
                      le:8.5182225704193115e-01 }
                  - { var:18, quality:6.1296433210372925e-01,
                      le:8.6416459083557129e-01 }
                  - { var:24, quality:5.8494067192077637e-01,
                      le:8.3079779148101807e-01 }
                  - { var:15, quality:5.6268435716629028e-01,
                      le:7.6567661762237549e-01 }
                  - { var:22, quality:5.4623985290527344e-01,
                      le:8.0521166324615479e-01 }
                  - { var:20, quality:5.0666451454162598e-01,
                      le:7.6039004325866699e-01 }
                  - { var:7, quality:4.8935914039611816e-01,
                      le:2.2431203722953796e-01 }
                  - { var:9, quality:4.8709186911582947e-01,
                      gt:1.5570352785289288e-02 }
                  - { var:30, quality:4.8474252223968506e-01,
                      gt:9.1788023710250854e-03 }
                  - { var:17, quality:4.8417016863822937e-01,
                      le:7.6053380966186523e-01 }
                  - { var:2, quality:4.8267570137977600e-01,
                      gt:2.6813670992851257e-02 }
                  - { var:6, quality:4.8232313990592957e-01,
                      le:1.6841074824333191e-01 }
                  - { var:21, quality:4.8230487108230591e-01,
                      le:8.5803937911987305e-01 }
                  - { var:11, quality:4.8192474246025085e-01,
                      le:1.4948108792304993e-01 }
                  - { var:39, quality:4.7983106970787048e-01,
                      le:4.2300978675484657e-03 }
                  - { var:32, quality:4.7968536615371704e-01,
                      gt:3.0784737318754196e-02 }
                  - { var:5, quality:4.7943261265754700e-01,
                      le:2.4318531155586243e-01 }
                  - { var:10, quality:4.7878685593605042e-01,
                      le:2.9064705967903137e-01 }
                  - { var:8, quality:4.7863581776618958e-01,
                      gt:1.8373901024460793e-02 }
                  - { var:38, quality:4.7820949554443359e-01,
                      le:4.3710721656680107e-03 }
                  - { var:36, quality:4.7811356186866760e-01,
                      le:3.2982867956161499e-01 }
                  - { var:31, quality:4.7811356186866760e-01,
                      le:2.6125013828277588e-01 }
                  - { var:4, quality:4.7811356186866760e-01,
                      le:2.7629655599594116e-01 }
                  - { var:1, quality:4.7744023799896240e-01,
                      gt:1.0563598014414310e-02 }
                  - { var:28, quality:4.7714313864707947e-01,
                      le:9.4999998807907104e-01 }
                  - { var:37, quality:4.7676691412925720e-01,
                      gt:6.2106791883707047e-03 }
                  - { var:33, quality:4.7658798098564148e-01,
                      le:1.6401554644107819e-01 }
            -
               depth: 1
               sample_count: 324
               value: -7.8614653506887167e-01
               norm_class_idx: 0
               Tn: 0
               complexity: 0
               alpha: 0.
               node_risk: 0.
               tree_risk: 0.
               tree_error: 0.
            -
               depth: 1
               sample_count: 86
               value: 7.8614653506887167e-01
               norm_class_idx: 1
               Tn: 0
               complexity: 0
               alpha: 0.
               node_risk: 0.
               tree_risk: 0.
               tree_error: 0.
      -
         best_tree_idx: -1
         nodes:
            -
               depth: 0
               sample_count: 410
               value: -5.4573223353802403e-01
               norm_class_idx: 0
               Tn: 0
               complexity: 0
               alpha: 0.
               node_risk: 0.
               tree_risk: 0.
               tree_error: 0.
               splits:
                  - { var:17, quality:6.3314485549926758e-01,
                      le:7.3803603649139404e-01 }
                  - { var:20, quality:5.8045810461044312e-01,
                      le:7.4066996574401855e-01 }
                  - { var:21, quality:5.7236021757125854e-01,
                      le:7.1152877807617188e-01 }
                  - { var:22, quality:5.6774032115936279e-01,
                      le:7.5701707601547241e-01 }
                  - { var:24, quality:5.4050785303115845e-01,
                      le:8.1195205450057983e-01 }
                  - { var:16, quality:5.3189766407012939e-01,
                      le:6.6017246246337891e-01 }
                  - { var:38, quality:5.1228547096252441e-01,
                      gt:1.3055808376520872e-03 }
                  - { var:34, quality:5.0933063030242920e-01,
                      gt:3.7494087219238281e-01 }
                  - { var:13, quality:5.0926119089126587e-01,
                      le:8.9422273635864258e-01 }
                  - { var:30, quality:5.0715351104736328e-01,
                      gt:9.0789124369621277e-03 }
                  - { var:39, quality:5.0631582736968994e-01,
                      gt:1.3525837566703558e-03 }
                  - { var:35, quality:4.9811515212059021e-01,
                      gt:3.7390398979187012e-01 }
                  - { var:31, quality:4.9637854099273682e-01,
                      gt:9.0874955058097839e-02 }
                  - { var:37, quality:4.9460300803184509e-01,
                      gt:7.8772932291030884e-02 }
                  - { var:36, quality:4.9361532926559448e-01,
                      gt:7.6955556869506836e-02 }
                  - { var:23, quality:4.9202069640159607e-01,
                      le:8.6437642574310303e-01 }
                  - { var:18, quality:4.9011835455894470e-01,
                      le:8.7875664234161377e-01 }
                  - { var:32, quality:4.8440366983413696e-01,
                      gt:6.5766707062721252e-02 }
                  - { var:33, quality:4.7427201271057129e-01,
                      gt:5.1867201924324036e-02 }
                  - { var:15, quality:4.7359916567802429e-01,
                      le:8.0620384216308594e-01 }
                  - { var:19, quality:4.7126701474189758e-01,
                      le:8.7073975801467896e-01 }
                  - { var:7, quality:4.5664572715759277e-01,
                      gt:1.9039291888475418e-02 }
                  - { var:6, quality:4.5604127645492554e-01,
                      gt:2.2343214601278305e-02 }
                  - { var:9, quality:4.5526638627052307e-01,
                      le:1.6948142647743225e-01 }
                  - { var:1, quality:4.5493358373641968e-01,
                      gt:3.7703473120927811e-02 }
                  - { var:3, quality:4.5340338349342346e-01,
                      gt:3.2058767974376678e-02 }
                  - { var:10, quality:4.5058897137641907e-01,
                      le:1.7288252711296082e-01 }
                  - { var:11, quality:4.4892814755439758e-01,
                      le:1.8854573369026184e-01 }
                  - { var:2, quality:4.4870901107788086e-01,
                      gt:4.0017869323492050e-02 }
                  - { var:5, quality:4.4811412692070007e-01,
                      gt:3.1543135643005371e-02 }
                  - { var:8, quality:4.4794067740440369e-01,
                      gt:2.1065711975097656e-02 }
                  - { var:4, quality:4.4784253835678101e-01,
                      le:2.1541780233383179e-01 }
                  - { var:0, quality:4.4771334528923035e-01,
                      le:2.3223745822906494e-01 }
            -
               depth: 1
               sample_count: 233
               value: 5.4573223353802403e-01
               norm_class_idx: 1
               Tn: 0
               complexity: 0
               alpha: 0.
               node_risk: 0.
               tree_risk: 0.
               tree_error: 0.
            -
               depth: 1
               sample_count: 177
               value: -5.4573223353802403e-01
               norm_class_idx: 0
               Tn: 0
               complexity: 0
               alpha: 0.
               node_risk: 0.
               tree_risk: 0.
               tree_error: 0.
      -
         best_tree_idx: -1
         nodes:
            -
               depth: 0
               sample_count: 410
               value: -5.2816438185824754e-01
               norm_class_idx: 0
               Tn: 0
               complexity: 0
               alpha: 0.
               node_risk: 0.
               tree_risk: 0.
               tree_error: 0.
               splits:
                  - { var:7, quality:6.2905490398406982e-01,
                      le:9.7404740750789642e-02 }
                  - { var:1, quality:4.4426366686820984e-01,
                      gt:7.9118251800537109e-02 }
                  - { var:3, quality:4.1218587756156921e-01,
                      gt:4.1484117507934570e-02 }
                  - { var:4, quality:4.1197079420089722e-01,
                      gt:5.6416984647512436e-02 }
                  - { var:5, quality:4.0409702062606812e-01,
                      le:8.9126758277416229e-02 }
                  - { var:35, quality:3.9742934703826904e-01,
                      le:6.4953351020812988e-01 }
                  - { var:16, quality:3.9617803692817688e-01,
                      le:8.7493526935577393e-01 }
                  - { var:34, quality:3.9466452598571777e-01,
                      le:6.9755220413208008e-01 }
                  - { var:10, quality:3.9353781938552856e-01,
                      gt:1.5591853298246861e-02 }
                  - { var:9, quality:3.9236095547676086e-01,
                      gt:2.6162110269069672e-02 }
                  - { var:27, quality:3.9022961258888245e-01,
                      le:8.5000002384185791e-01 }
                  - { var:6, quality:3.9010369777679443e-01,
                      le:1.5967273712158203e-01 }
                  - { var:29, quality:3.9002248644828796e-01,
                      le:8.5000002384185791e-01 }
                  - { var:8, quality:3.8999313116073608e-01,
                      le:1.4643707871437073e-01 }
                  - { var:32, quality:3.8802593946456909e-01,
                      le:1.3406088948249817e-01 }
                  - { var:18, quality:3.8715007901191711e-01,
                      gt:1.8042874336242676e-01 }
                  - { var:28, quality:3.8622686266899109e-01,
                      le:8.5000002384185791e-01 }
                  - { var:31, quality:3.8551127910614014e-01,
                      le:1.9916002452373505e-01 }
                  - { var:20, quality:3.8500985503196716e-01,
                      le:9.0917563438415527e-01 }
                  - { var:0, quality:3.8491207361221313e-01,
                      gt:3.3854097127914429e-02 }
                  - { var:33, quality:3.8469672203063965e-01,
                      gt:5.2413150668144226e-02 }
                  - { var:15, quality:3.8429301977157593e-01,
                      gt:3.2146877050399780e-01 }
                  - { var:36, quality:3.8404333591461182e-01,
                      le:2.4964088201522827e-01 }
                  - { var:14, quality:3.8348159193992615e-01,
                      gt:6.8231530487537384e-02 }
                  - { var:24, quality:3.8273170590400696e-01,
                      gt:1.1245657503604889e-01 }
                  - { var:23, quality:3.8273170590400696e-01,
                      gt:1.2653779983520508e-01 }
                  - { var:22, quality:3.8273170590400696e-01,
                      gt:1.0247771441936493e-01 }
                  - { var:2, quality:3.8185155391693115e-01,
                      le:1.8227812647819519e-01 }
                  - { var:21, quality:3.8165915012359619e-01,
                      le:9.4880104064941406e-01 }
                  - { var:19, quality:3.8125887513160706e-01,
                      gt:4.1166879236698151e-02 }
                  - { var:17, quality:3.8125887513160706e-01,
                      gt:1.1550989933311939e-02 }
                  - { var:11, quality:3.8114807009696960e-01,
                      gt:1.7627421766519547e-02 }
                  - { var:38, quality:3.8014045357704163e-01,
                      gt:9.7213734989054501e-05 }
            -
               depth: 1
               sample_count: 267
               value: -5.2816438185824754e-01
               norm_class_idx: 0
               Tn: 0
               complexity: 0
               alpha: 0.
               node_risk: 0.
               tree_risk: 0.
               tree_error: 0.
            -
               depth: 1
               sample_count: 143
               value: 5.2816438185824754e-01
               norm_class_idx: 1
               Tn: 0
               complexity: 0
               alpha: 0.
               node_risk: 0.
               tree_risk: 0.
               tree_error: 0.
      -
         best_tree_idx: -1
         nodes:
            -
               depth: 0
               sample_count: 347
               value: -4.5302959343319038e-01
               norm_class_idx: 0
               Tn: 0
               complexity: 0
               alpha: 0.
               node_risk: 0.
               tree_risk: 0.
               tree_error: 0.
               splits:
                  - { var:11, quality:5.9658408164978027e-01,
                      le:5.6777663528919220e-02 }
                  - { var:5, quality:4.0183514356613159e-01,
                      gt:8.4212295711040497e-02 }
                  - { var:9, quality:3.9353418350219727e-01,
                      le:4.8599384725093842e-02 }
                  - { var:3, quality:3.9264339208602905e-01,
                      gt:8.1293106079101562e-02 }
                  - { var:7, quality:3.7216913700103760e-01,
                      gt:1.0567168891429901e-01 }
                  - { var:0, quality:3.7089416384696960e-01,
                      gt:1.3043817877769470e-01 }
                  - { var:6, quality:3.6660239100456238e-01,
                      le:6.5363302826881409e-02 }
                  - { var:10, quality:3.6022642254829407e-01,
                      gt:5.0064466893672943e-02 }
                  - { var:23, quality:3.5769376158714294e-01,
                      gt:8.8123983144760132e-01 }
                  - { var:15, quality:3.5739850997924805e-01,
                      gt:8.5587275028228760e-01 }
                  - { var:2, quality:3.5266357660293579e-01,
                      gt:1.2557017803192139e-01 }
                  - { var:4, quality:3.5246306657791138e-01,
                      le:8.3611726760864258e-02 }
                  - { var:8, quality:3.4959620237350464e-01,
                      le:3.0957333743572235e-02 }
                  - { var:19, quality:3.4944170713424683e-01,
                      gt:8.8817703723907471e-01 }
                  - { var:39, quality:3.4795948863029480e-01,
                      gt:2.1941128652542830e-03 }
                  - { var:30, quality:3.4740355610847473e-01,
                      gt:5.2510738372802734e-02 }
                  - { var:24, quality:3.4626314043998718e-01,
                      gt:8.4977519512176514e-01 }
                  - { var:35, quality:3.4460926055908203e-01,
                      gt:6.4953351020812988e-01 }
                  - { var:33, quality:3.4310230612754822e-01,
                      le:9.6359834074974060e-02 }
                  - { var:18, quality:3.4290730953216553e-01,
                      gt:9.0792620182037354e-01 }
                  - { var:16, quality:3.4237790107727051e-01,
                      gt:7.6408910751342773e-01 }
                  - { var:34, quality:3.4190705418586731e-01,
                      gt:6.7411923408508301e-01 }
                  - { var:14, quality:3.4166643023490906e-01,
                      le:8.6312657594680786e-01 }
                  - { var:1, quality:3.4058561921119690e-01,
                      le:7.3660984635353088e-02 }
                  - { var:25, quality:3.3818742632865906e-01,
                      le:1.5000000596046448e-01 }
                  - { var:21, quality:3.3796742558479309e-01,
                      gt:8.2975661754608154e-01 }
                  - { var:38, quality:3.3713105320930481e-01,
                      gt:3.1163769308477640e-03 }
                  - { var:32, quality:3.3674675226211548e-01,
                      le:9.3918830156326294e-02 }
                  - { var:20, quality:3.3208930492401123e-01,
                      gt:8.4255969524383545e-01 }
                  - { var:22, quality:3.3100348711013794e-01,
                      gt:8.4312224388122559e-01 }
                  - { var:31, quality:3.3065584301948547e-01,
                      le:1.5004669129848480e-01 }
                  - { var:17, quality:3.2748308777809143e-01,
                      le:2.3602958023548126e-01 }
                  - { var:37, quality:3.2638487219810486e-01,
                      le:8.1133887171745300e-02 }
                  - { var:36, quality:3.2436284422874451e-01,
                      le:2.0670082420110703e-02 }
                  - { var:12, quality:3.2159641385078430e-01,
                      gt:7.0320475101470947e-01 }
                  - { var:29, quality:3.1965070962905884e-01,
                      le:3.5000002384185791e-01 }
            -
               depth: 1
               sample_count: 187
               value: -4.5302959343319038e-01
               norm_class_idx: 0
               Tn: 0
               complexity: 0
               alpha: 0.
               node_risk: 0.
               tree_risk: 0.
               tree_error: 0.
            -
               depth: 1
               sample_count: 160
               value: 4.5302959343319038e-01
               norm_class_idx: 1
               Tn: 0
               complexity: 0
               alpha: 0.
               node_risk: 0.
               tree_risk: 0.
               tree_error: 0.
      -
         best_tree_idx: -1
         nodes:
            -
               depth: 0
               sample_count: 318
               value: -3.8096036504418723e-01
               norm_class_idx: 0
               Tn: 0
               complexity: 0
               alpha: 0.
               node_risk: 0.
               tree_risk: 0.
               tree_error: 0.
               splits:
                  - { var:24, quality:5.8696562051773071e-01,
                      le:7.3938965797424316e-01 }
                  - { var:22, quality:5.2564609050750732e-01,
                      le:6.7715269327163696e-01 }
                  - { var:23, quality:5.1495838165283203e-01,
                      le:7.5644659996032715e-01 }
                  - { var:18, quality:5.1323062181472778e-01,
                      le:8.0348038673400879e-01 }
                  - { var:20, quality:4.9036517739295959e-01,
                      le:6.6913157701492310e-01 }
                  - { var:19, quality:4.8309296369552612e-01,
                      le:7.9362016916275024e-01 }
                  - { var:15, quality:4.8129850625991821e-01,
                      le:7.2021090984344482e-01 }
                  - { var:13, quality:4.7631868720054626e-01,
                      le:6.1964857578277588e-01 }
                  - { var:17, quality:4.7375637292861938e-01,
                      le:5.1357465982437134e-01 }
                  - { var:21, quality:4.6402594447135925e-01,
                      le:5.4220199584960938e-01 }
                  - { var:12, quality:4.6362283825874329e-01,
                      gt:4.7832228243350983e-02 }
                  - { var:16, quality:4.5894816517829895e-01,
                      le:4.2539742588996887e-01 }
                  - { var:30, quality:4.5866310596466064e-01,
                      gt:1.8146365880966187e-02 }
                  - { var:39, quality:4.5280689001083374e-01,
                      gt:1.9941800273954868e-03 }
                  - { var:38, quality:4.4944328069686890e-01,
                      gt:1.7486566212028265e-03 }
                  - { var:14, quality:4.3723472952842712e-01,
                      le:8.7149786949157715e-01 }
                  - { var:37, quality:4.0526312589645386e-01,
                      gt:1.4728847146034241e-01 }
                  - { var:31, quality:3.9341992139816284e-01,
                      gt:1.1777619272470474e-01 }
                  - { var:36, quality:3.8830015063285828e-01,
                      gt:1.3762201368808746e-01 }
                  - { var:32, quality:3.8802891969680786e-01,
                      gt:7.9879105091094971e-02 }
                  - { var:35, quality:3.8506945967674255e-01,
                      gt:4.3082731962203979e-01 }
                  - { var:33, quality:3.7632715702056885e-01,
                      gt:8.3290092647075653e-02 }
                  - { var:34, quality:3.7551179528236389e-01,
                      gt:4.5293241739273071e-01 }
                  - { var:8, quality:3.4463310241699219e-01,
                      gt:5.1307916641235352e-02 }
                  - { var:4, quality:3.3540692925453186e-01,
                      le:8.3402857184410095e-02 }
                  - { var:27, quality:3.3361506462097168e-01,
                      gt:5.5000001192092896e-01 }
                  - { var:11, quality:3.3315238356590271e-01,
                      gt:5.9130772948265076e-02 }
                  - { var:0, quality:3.3299800753593445e-01,
                      gt:1.1801457405090332e-01 }
                  - { var:6, quality:3.3296120166778564e-01,
                      le:6.4392894506454468e-02 }
                  - { var:10, quality:3.2930499315261841e-01,
                      gt:1.8822068348526955e-02 }
                  - { var:5, quality:3.2526043057441711e-01,
                      gt:6.9222062826156616e-02 }
                  - { var:9, quality:3.2466635107994080e-01,
                      le:3.8190145045518875e-02 }
                  - { var:29, quality:3.2291269302368164e-01,
                      le:5.5000001192092896e-01 }
                  - { var:1, quality:3.2103851437568665e-01,
                      le:7.8703239560127258e-02 }
                  - { var:2, quality:3.2020202279090881e-01,
                      le:9.9646337330341339e-02 }
                  - { var:7, quality:3.1676444411277771e-01,
                      le:1.5600433945655823e-01 }
                  - { var:26, quality:3.1509515643119812e-01,
                      gt:5.5000001192092896e-01 }
                  - { var:3, quality:3.1350252032279968e-01,
                      gt:1.3190746307373047e-01 }
                  - { var:28, quality:3.0543732643127441e-01,
                      le:9.4999998807907104e-01 }
                  - { var:25, quality:3.0046916007995605e-01,
                      le:9.4999998807907104e-01 }
            -
               depth: 1
               sample_count: 168
               value: -3.8096036504418723e-01
               norm_class_idx: 0
               Tn: 0
               complexity: 0
               alpha: 0.
               node_risk: 0.
               tree_risk: 0.
               tree_error: 0.
            -
               depth: 1
               sample_count: 150
               value: 3.8096036504418723e-01
               norm_class_idx: 1
               Tn: 0
               complexity: 0
               alpha: 0.
               node_risk: 0.
               tree_risk: 0.
               tree_error: 0.
      -
         best_tree_idx: -1
         nodes:
            -
               depth: 0
               sample_count: 335
               value: -4.8379311733048397e-01
               norm_class_idx: 0
               Tn: 0
               complexity: 0
               alpha: 0.
               node_risk: 0.
               tree_risk: 0.
               tree_error: 0.
               splits:
                  - { var:3, quality:5.8242321014404297e-01,
                      le:1.0668629407882690e-01 }
                  - { var:9, quality:4.8773366212844849e-01,
                      gt:3.5252671688795090e-02 }
                  - { var:11, quality:4.8685988783836365e-01,
                      gt:1.9671870395541191e-02 }
                  - { var:8, quality:4.8378440737724304e-01,
                      le:1.3296905159950256e-01 }
                  - { var:18, quality:4.7826120257377625e-01,
                      le:9.8337101936340332e-01 }
                  - { var:39, quality:4.7712069749832153e-01,
                      le:4.5831999741494656e-03 }
                  - { var:38, quality:4.7712069749832153e-01,
                      le:4.3710721656680107e-03 }
                  - { var:23, quality:4.7685822844505310e-01,
                      gt:1.3642242550849915e-01 }
                  - { var:17, quality:4.7620916366577148e-01,
                      le:9.8313546180725098e-01 }
                  - { var:30, quality:4.7589495778083801e-01,
                      le:9.6126131713390350e-02 }
                  - { var:21, quality:4.7545972466468811e-01,
                      le:9.2460346221923828e-01 }
                  - { var:20, quality:4.7514653205871582e-01,
                      le:9.7127294540405273e-01 }
                  - { var:33, quality:4.7495621442794800e-01,
                      gt:2.8138410300016403e-02 }
                  - { var:22, quality:4.7475761175155640e-01,
                      gt:9.0764343738555908e-02 }
                  - { var:19, quality:4.7475761175155640e-01,
                      gt:4.1166879236698151e-02 }
                  - { var:6, quality:4.7386533021926880e-01,
                      gt:2.9488462954759598e-02 }
                  - { var:36, quality:4.7353842854499817e-01,
                      gt:8.8387038558721542e-03 }
                  - { var:32, quality:4.7349223494529724e-01,
                      gt:3.0623756349086761e-02 }
                  - { var:31, quality:4.7348752617835999e-01,
                      gt:4.1322525590658188e-02 }
            -
               depth: 1
               sample_count: 275
               value: -4.8379311733048397e-01
               norm_class_idx: 0
               Tn: 0
               complexity: 0
               alpha: 0.
               node_risk: 0.
               tree_risk: 0.
               tree_error: 0.
            -
               depth: 1
               sample_count: 60
               value: 4.8379311733048397e-01
               norm_class_idx: 1
               Tn: 0
               complexity: 0
               alpha: 0.
               node_risk: 0.
               tree_risk: 0.
               tree_error: 0.
      -
         best_tree_idx: -1
         nodes:
            -
               depth: 0
               sample_count: 315
               value: 5.1951773928659650e-01
               norm_class_idx: 1
               Tn: 0
               complexity: 0
               alpha: 0.
               node_risk: 0.
               tree_risk: 0.
               tree_error: 0.
               splits:
                  - { var:35, quality:5.9074676036834717e-01,
                      le:3.7481558322906494e-01 }
                  - { var:34, quality:5.7858264446258545e-01,
                      le:3.5646045207977295e-01 }
                  - { var:37, quality:5.6270825862884521e-01,
                      le:6.1643421649932861e-02 }
                  - { var:31, quality:5.5779278278350830e-01,
                      le:8.9171871542930603e-02 }
                  - { var:33, quality:5.5573832988739014e-01,
                      le:5.1867201924324036e-02 }
                  - { var:36, quality:5.4402214288711548e-01,
                      le:7.3167465627193451e-02 }
                  - { var:32, quality:5.3381317853927612e-01,
                      le:5.9159800410270691e-02 }
                  - { var:38, quality:5.2926188707351685e-01,
                      le:7.9056038521230221e-04 }
                  - { var:39, quality:5.2674442529678345e-01,
                      le:4.4721364974975586e-04 }
                  - { var:1, quality:5.2573019266128540e-01,
                      le:3.1760249286890030e-02 }
                  - { var:30, quality:5.2552258968353271e-01,
                      le:3.0738913919776678e-03 }
                  - { var:6, quality:5.2446240186691284e-01,
                      le:1.9488178193569183e-02 }
                  - { var:3, quality:5.2252280712127686e-01,
                      le:2.0876232534646988e-02 }
                  - { var:10, quality:5.2139288187026978e-01,
                      le:8.5740312933921814e-03 }
                  - { var:7, quality:5.2012526988983154e-01,
                      le:1.8175063654780388e-02 }
                  - { var:5, quality:5.1962608098983765e-01,
                      le:1.4555975794792175e-02 }
                  - { var:8, quality:5.1936632394790649e-01,
                      le:1.1001423001289368e-02 }
                  - { var:4, quality:5.1936632394790649e-01,
                      le:2.7488613501191139e-02 }
                  - { var:9, quality:5.1933979988098145e-01,
                      gt:1.7041458189487457e-01 }
                  - { var:2, quality:5.1891314983367920e-01,
                      le:1.1331922374665737e-02 }
                  - { var:11, quality:5.1828879117965698e-01,
                      le:9.1808158904314041e-03 }
                  - { var:0, quality:5.1763319969177246e-01,
                      le:2.1548226475715637e-02 }
            -
               depth: 1
               sample_count: 83
               value: -5.1951773928659650e-01
               norm_class_idx: 0
               Tn: 0
               complexity: 0
               alpha: 0.
               node_risk: 0.
               tree_risk: 0.
               tree_error: 0.
            -
               depth: 1
               sample_count: 232
               value: 5.1951773928659650e-01
               norm_class_idx: 1
               Tn: 0
               complexity: 0
               alpha: 0.
               node_risk: 0.
               tree_risk: 0.
               tree_error: 0.
      -
         best_tree_idx: -1
         nodes:
            -
               depth: 0
               sample_count: 312
               value: -4.9097396778397012e-01
               norm_class_idx: 0
               Tn: 0
               complexity: 0
               alpha: 0.
               node_risk: 0.
               tree_risk: 0.
               tree_error: 0.
               splits:
                  - { var:10, quality:5.7966524362564087e-01,
                      le:1.6593832522630692e-02 }
                  - { var:3, quality:5.2191621065139771e-01,
                      le:2.3068642243742943e-02 }
                  - { var:6, quality:5.2076834440231323e-01,
                      gt:1.5967273712158203e-01 }
                  - { var:32, quality:5.1785260438919067e-01,
                      le:3.1721588224172592e-02 }
                  - { var:0, quality:5.1703560352325439e-01,
                      le:3.4432567656040192e-02 }
                  - { var:37, quality:5.1678520441055298e-01,
                      le:6.2106791883707047e-03 }
                  - { var:2, quality:5.1678520441055298e-01,
                      le:1.1331922374665737e-02 }
                  - { var:1, quality:5.1678520441055298e-01,
                      le:1.0922970250248909e-02 }
                  - { var:34, quality:5.1589226722717285e-01,
                      gt:7.0959246158599854e-01 }
                  - { var:35, quality:5.1578742265701294e-01,
                      le:1.5128403902053833e-01 }
                  - { var:7, quality:5.1565003395080566e-01,
                      le:2.0860027521848679e-02 }
                  - { var:11, quality:5.1532155275344849e-01,
                      le:1.3162016868591309e-02 }
            -
               depth: 1
               sample_count: 27
               value: 4.9097396778397012e-01
               norm_class_idx: 1
               Tn: 0
               complexity: 0
               alpha: 0.
               node_risk: 0.
               tree_risk: 0.
               tree_error: 0.
            -
               depth: 1
               sample_count: 285
               value: -4.9097396778397012e-01
               norm_class_idx: 0
               Tn: 0
               complexity: 0
               alpha: 0.
               node_risk: 0.
               tree_risk: 0.
               tree_error: 0.
      -
         best_tree_idx: -1
         nodes:
            -
               depth: 0
               sample_count: 296
               value: 4.5727479285561784e-01
               norm_class_idx: 1
               Tn: 0
               complexity: 0
               alpha: 0.
               node_risk: 0.
               tree_risk: 0.
               tree_error: 0.
               splits:
                  - { var:16, quality:5.9388750791549683e-01,
                      le:7.1316945552825928e-01 }
                  - { var:21, quality:5.4595983028411865e-01,
                      le:7.5805395841598511e-01 }
                  - { var:20, quality:5.3686511516571045e-01,
                      le:7.8236293792724609e-01 }
                  - { var:17, quality:5.2613621950149536e-01,
                      le:7.8151416778564453e-01 }
                  - { var:22, quality:5.1737129688262939e-01,
                      le:8.1146991252899170e-01 }
                  - { var:35, quality:4.9815827608108521e-01,
                      le:6.5211093425750732e-01 }
                  - { var:30, quality:4.9694848060607910e-01,
                      gt:6.3037266954779625e-03 }
                  - { var:38, quality:4.9549129605293274e-01,
                      gt:1.0161831742152572e-03 }
                  - { var:24, quality:4.9227097630500793e-01,
                      le:8.7651240825653076e-01 }
                  - { var:34, quality:4.9046927690505981e-01,
                      le:6.8371653556823730e-01 }
                  - { var:39, quality:4.9007913470268250e-01,
                      gt:8.5374794434756041e-04 }
                  - { var:10, quality:4.8890995979309082e-01,
                      gt:1.3285929337143898e-02 }
                  - { var:19, quality:4.8463433980941772e-01,
                      le:9.2894744873046875e-01 }
                  - { var:18, quality:4.8319679498672485e-01,
                      le:9.1880834102630615e-01 }
                  - { var:7, quality:4.8303967714309692e-01,
                      gt:2.3412691429257393e-02 }
                  - { var:32, quality:4.8056739568710327e-01,
                      le:1.3406088948249817e-01 }
                  - { var:5, quality:4.8034229874610901e-01,
                      gt:2.9140945523977280e-02 }
                  - { var:23, quality:4.7921010851860046e-01,
                      le:9.3063968420028687e-01 }
                  - { var:6, quality:4.7909364104270935e-01,
                      gt:2.3351982235908508e-02 }
                  - { var:8, quality:4.7884884476661682e-01,
                      gt:2.1065711975097656e-02 }
                  - { var:31, quality:4.7754341363906860e-01,
                      le:2.0505470037460327e-01 }
                  - { var:33, quality:4.7662535309791565e-01,
                      le:1.6676057875156403e-01 }
                  - { var:14, quality:4.7607269883155823e-01,
                      gt:2.1037969738245010e-02 }
                  - { var:2, quality:4.7584435343742371e-01,
                      gt:2.1630425006151199e-02 }
                  - { var:36, quality:4.7496226429939270e-01,
                      le:3.2982867956161499e-01 }
                  - { var:37, quality:4.7451967000961304e-01,
                      gt:1.2876035645604134e-02 }
                  - { var:4, quality:4.7385549545288086e-01,
                      le:2.8662309050559998e-01 }
                  - { var:1, quality:4.7379791736602783e-01,
                      gt:1.0922970250248909e-02 }
                  - { var:15, quality:4.7374901175498962e-01,
                      gt:5.3228236734867096e-02 }
                  - { var:0, quality:4.7362431883811951e-01,
                      gt:3.4432567656040192e-02 }
                  - { var:9, quality:4.7259119153022766e-01,
                      le:2.1539530158042908e-01 }
                  - { var:11, quality:4.7233030200004578e-01,
                      gt:6.4100171439349651e-03 }
                  - { var:3, quality:4.7197917103767395e-01,
                      gt:1.2757054530084133e-02 }
            -
               depth: 1
               sample_count: 211
               value: 4.5727479285561784e-01
               norm_class_idx: 1
               Tn: 0
               complexity: 0
               alpha: 0.
               node_risk: 0.
               tree_risk: 0.
               tree_error: 0.
            -
               depth: 1
               sample_count: 85
               value: -4.5727479285561784e-01
               norm_class_idx: 0
               Tn: 0
               complexity: 0
               alpha: 0.
               node_risk: 0.
               tree_risk: 0.
               tree_error: 0.
      -
         best_tree_idx: -1
         nodes:
            -
               depth: 0
               sample_count: 301
               value: -2.9017454391275133e-01
               norm_class_idx: 0
               Tn: 0
               complexity: 0
               alpha: 0.
               node_risk: 0.
               tree_risk: 0.
               tree_error: 0.
               splits:
                  - { var:30, quality:5.6587678194046021e-01,
                      le:3.4640207886695862e-02 }
                  - { var:39, quality:5.1605135202407837e-01,
                      le:2.5273771025240421e-03 }
                  - { var:38, quality:5.0535213947296143e-01,
                      le:2.4224533699452877e-03 }
                  - { var:17, quality:4.6606123447418213e-01,
                      gt:3.4303864836692810e-01 }
                  - { var:21, quality:4.6148103475570679e-01,
                      gt:3.0838209390640259e-01 }
                  - { var:22, quality:4.6052804589271545e-01,
                      gt:4.8763501644134521e-01 }
                  - { var:24, quality:4.5261767506599426e-01,
                      gt:4.8971384763717651e-01 }
                  - { var:20, quality:4.5227533578872681e-01,
                      gt:3.4163355827331543e-01 }
                  - { var:12, quality:4.4446802139282227e-01,
                      le:2.1031224727630615e-01 }
                  - { var:23, quality:4.4319665431976318e-01,
                      gt:5.6002515554428101e-01 }
                  - { var:18, quality:4.4282871484756470e-01,
                      gt:6.3934475183486938e-01 }
                  - { var:16, quality:4.4279739260673523e-01,
                      gt:3.3167815208435059e-01 }
                  - { var:19, quality:4.4232988357543945e-01,
                      gt:5.5003321170806885e-01 }
                  - { var:15, quality:4.3661350011825562e-01,
                      gt:4.3725579977035522e-01 }
                  - { var:13, quality:4.1989243030548096e-01,
                      gt:4.2605954408645630e-01 }
                  - { var:14, quality:4.1336292028427124e-01,
                      gt:3.0079758167266846e-01 }
                  - { var:35, quality:4.0623411536216736e-01,
                      le:6.4953351020812988e-01 }
                  - { var:7, quality:4.0029722452163696e-01,
                      le:1.8632394075393677e-01 }
                  - { var:11, quality:3.9992004632949829e-01,
                      gt:1.6331329941749573e-02 }
                  - { var:34, quality:3.9901778101921082e-01,
                      le:6.7411923408508301e-01 }
                  - { var:9, quality:3.9764231443405151e-01,
                      gt:2.1958388388156891e-02 }
                  - { var:32, quality:3.9669975638389587e-01,
                      le:1.4302086830139160e-01 }
                  - { var:5, quality:3.9459446072578430e-01,
                      gt:3.8904480636119843e-02 }
                  - { var:31, quality:3.9397090673446655e-01,
                      le:1.9916002452373505e-01 }
                  - { var:8, quality:3.9341202378273010e-01,
                      gt:1.8260924145579338e-02 }
                  - { var:6, quality:3.9309814572334290e-01,
                      le:1.9548720121383667e-01 }
                  - { var:37, quality:3.9303866028785706e-01,
                      le:2.8877267241477966e-01 }
                  - { var:27, quality:3.9294895529747009e-01,
                      le:9.4999998807907104e-01 }
                  - { var:36, quality:3.9177772402763367e-01,
                      le:2.5044959783554077e-01 }
                  - { var:1, quality:3.9115265011787415e-01,
                      le:1.8299192190170288e-01 }
                  - { var:33, quality:3.9091610908508301e-01,
                      le:2.1292041242122650e-01 }
                  - { var:3, quality:3.9028751850128174e-01,
                      gt:2.3695532232522964e-02 }
                  - { var:4, quality:3.8954091072082520e-01,
                      gt:2.8716407716274261e-02 }
                  - { var:0, quality:3.8869848847389221e-01,
                      gt:3.2754085958003998e-02 }
            -
               depth: 1
               sample_count: 196
               value: 2.9017454391275133e-01
               norm_class_idx: 1
               Tn: 0
               complexity: 0
               alpha: 0.
               node_risk: 0.
               tree_risk: 0.
               tree_error: 0.
            -
               depth: 1
               sample_count: 105
               value: -2.9017454391275133e-01
               norm_class_idx: 0
               Tn: 0
               complexity: 0
               alpha: 0.
               node_risk: 0.
               tree_risk: 0.
               tree_error: 0.
      -
         best_tree_idx: -1
         nodes:
            -
               depth: 0
               sample_count: 313
               value: -5.0410986355026133e-01
               norm_class_idx: 0
               Tn: 0
               complexity: 0
               alpha: 0.
               node_risk: 0.
               tree_risk: 0.
               tree_error: 0.
               splits:
                  - { var:15, quality:5.8018022775650024e-01,
                      le:8.2387673854827881e-01 }
                  - { var:18, quality:4.9843165278434753e-01,
                      le:8.6901879310607910e-01 }
                  - { var:24, quality:4.9355906248092651e-01,
                      le:8.4223961830139160e-01 }
                  - { var:19, quality:4.8231029510498047e-01,
                      le:9.1161286830902100e-01 }
                  - { var:22, quality:4.8182722926139832e-01,
                      le:7.9230850934982300e-01 }
                  - { var:23, quality:4.7924229502677917e-01,
                      le:8.7108004093170166e-01 }
                  - { var:17, quality:4.7855818271636963e-01,
                      le:7.8390979766845703e-01 }
                  - { var:21, quality:4.7784483432769775e-01,
                      le:7.5068420171737671e-01 }
                  - { var:20, quality:4.7526541352272034e-01,
                      le:7.6218771934509277e-01 }
                  - { var:32, quality:4.5924451947212219e-01,
                      gt:4.0050625801086426e-02 }
                  - { var:30, quality:4.5504721999168396e-01,
                      gt:6.5710097551345825e-03 }
                  - { var:2, quality:4.5415809750556946e-01,
                      gt:2.1630425006151199e-02 }
                  - { var:0, quality:4.5349293947219849e-01,
                      le:2.2392714023590088e-01 }
                  - { var:36, quality:4.5315185189247131e-01,
                      le:3.2982867956161499e-01 }
                  - { var:33, quality:4.5298233628273010e-01,
                      le:1.6676057875156403e-01 }
                  - { var:31, quality:4.5245710015296936e-01,
                      le:2.6125013828277588e-01 }
                  - { var:7, quality:4.5245710015296936e-01,
                      le:2.9411733150482178e-01 }
                  - { var:4, quality:4.5230859518051147e-01,
                      le:2.8662309050559998e-01 }
                  - { var:37, quality:4.5225504040718079e-01,
                      gt:6.2106791883707047e-03 }
                  - { var:1, quality:4.5225504040718079e-01,
                      gt:1.0922970250248909e-02 }
                  - { var:34, quality:4.5193979144096375e-01,
                      le:7.1528804302215576e-01 }
                  - { var:8, quality:4.5192158222198486e-01,
                      gt:1.3832873664796352e-02 }
                  - { var:10, quality:4.5109161734580994e-01,
                      gt:6.0408525168895721e-03 }
                  - { var:16, quality:4.5108124613761902e-01,
                      le:7.5433516502380371e-01 }
                  - { var:11, quality:4.5089024305343628e-01,
                      gt:5.1800892688333988e-03 }
                  - { var:6, quality:4.5086279511451721e-01,
                      le:2.2571785748004913e-01 }
                  - { var:39, quality:4.5084789395332336e-01,
                      gt:8.4365851944312453e-04 }
            -
               depth: 1
               sample_count: 258
               value: -5.0410986355026133e-01
               norm_class_idx: 0
               Tn: 0
               complexity: 0
               alpha: 0.
               node_risk: 0.
               tree_risk: 0.
               tree_error: 0.
            -
               depth: 1
               sample_count: 55
               value: 5.0410986355026133e-01
               norm_class_idx: 1
               Tn: 0
               complexity: 0
               alpha: 0.
               node_risk: 0.
               tree_risk: 0.
               tree_error: 0.
      -
         best_tree_idx: -1
         nodes:
            -
               depth: 0
               sample_count: 295
               value: -4.4934383258521854e-01
               norm_class_idx: 0
               Tn: 0
               complexity: 0
               alpha: 0.
               node_risk: 0.
               tree_risk: 0.
               tree_error: 0.
               splits:
                  - { var:39, quality:5.7925415039062500e-01,
                      le:1.5346719883382320e-03 }
                  - { var:30, quality:5.5273461341857910e-01,
                      le:1.3518535532057285e-02 }
                  - { var:38, quality:5.4471927881240845e-01,
                      le:1.5224630478769541e-03 }
                  - { var:24, quality:4.6109360456466675e-01,
                      gt:7.9720830917358398e-01 }
                  - { var:34, quality:4.6066072583198547e-01,
                      le:3.8459277153015137e-01 }
                  - { var:17, quality:4.5754116773605347e-01,
                      gt:7.4666529893875122e-01 }
                  - { var:22, quality:4.5369338989257812e-01,
                      gt:7.4512267112731934e-01 }
                  - { var:37, quality:4.5288312435150146e-01,
                      le:9.6992149949073792e-02 }
                  - { var:20, quality:4.5170849561691284e-01,
                      gt:7.6213377714157104e-01 }
                  - { var:36, quality:4.4526159763336182e-01,
                      le:7.3167465627193451e-02 }
                  - { var:35, quality:4.4479408860206604e-01,
                      le:3.9656752347946167e-01 }
                  - { var:31, quality:4.4198644161224365e-01,
                      le:9.9675275385379791e-02 }
                  - { var:23, quality:4.3505334854125977e-01,
                      gt:8.5877358913421631e-01 }
                  - { var:21, quality:4.3417584896087646e-01,
                      gt:7.2999119758605957e-01 }
                  - { var:18, quality:4.3332079052925110e-01,
                      gt:8.2944846153259277e-01 }
                  - { var:32, quality:4.3322178721427917e-01,
                      le:6.3236594200134277e-02 }
                  - { var:33, quality:4.2747798562049866e-01,
                      le:5.1867201924324036e-02 }
                  - { var:19, quality:4.2159572243690491e-01,
                      gt:8.2558286190032959e-01 }
                  - { var:2, quality:4.2007225751876831e-01,
                      le:4.4645104557275772e-02 }
                  - { var:29, quality:4.1869008541107178e-01,
                      gt:8.5000002384185791e-01 }
                  - { var:7, quality:4.1854122281074524e-01,
                      le:2.8998203575611115e-02 }
                  - { var:6, quality:4.1736370325088501e-01,
                      le:2.6565954089164734e-02 }
                  - { var:8, quality:4.1696965694427490e-01,
                      gt:1.5129958093166351e-01 }
                  - { var:10, quality:4.1661554574966431e-01,
                      gt:1.8510556221008301e-01 }
                  - { var:5, quality:4.1455721855163574e-01,
                      le:2.8762664645910263e-02 }
                  - { var:3, quality:4.1382309794425964e-01,
                      le:2.0919270813465118e-02 }
                  - { var:1, quality:4.1266757249832153e-01,
                      le:3.1991306692361832e-02 }
                  - { var:13, quality:4.1152811050415039e-01,
                      gt:9.1660845279693604e-01 }
                  - { var:9, quality:4.1143098473548889e-01,
                      gt:1.7041458189487457e-01 }
                  - { var:0, quality:4.1102132201194763e-01,
                      gt:2.3951472342014313e-01 }
                  - { var:4, quality:4.0992826223373413e-01,
                      gt:2.1541780233383179e-01 }
                  - { var:16, quality:4.0887069702148438e-01,
                      gt:5.9877431392669678e-01 }
                  - { var:11, quality:4.0850022435188293e-01,
                      le:1.1701915413141251e-02 }
                  - { var:15, quality:4.0671965479850769e-01,
                      gt:8.0560839176177979e-01 }
            -
               depth: 1
               sample_count: 117
               value: -4.4934383258521854e-01
               norm_class_idx: 0
               Tn: 0
               complexity: 0
               alpha: 0.
               node_risk: 0.
               tree_risk: 0.
               tree_error: 0.
            -
               depth: 1
               sample_count: 178
               value: 4.4934383258521854e-01
               norm_class_idx: 1
               Tn: 0
               complexity: 0
               alpha: 0.
               node_risk: 0.
               tree_risk: 0.
               tree_error: 0.
      -
         best_tree_idx: -1
         nodes:
            -
               depth: 0
               sample_count: 291
               value: -3.8050357175664939e-01
               norm_class_idx: 0
               Tn: 0
               complexity: 0
               alpha: 0.
               node_risk: 0.
               tree_risk: 0.
               tree_error: 0.
               splits:
                  - { var:10, quality:5.6764012575149536e-01,
                      le:4.5214068144559860e-02 }
                  - { var:4, quality:4.0834850072860718e-01,
                      gt:7.6187692582607269e-02 }
                  - { var:5, quality:3.8761398196220398e-01,
                      le:6.5497517585754395e-02 }
                  - { var:1, quality:3.6471655964851379e-01,
                      gt:7.9742640256881714e-02 }
                  - { var:3, quality:3.6192226409912109e-01,
                      le:7.2012238204479218e-02 }
                  - { var:6, quality:3.6038255691528320e-01,
                      gt:6.4642369747161865e-02 }
                  - { var:2, quality:3.5419258475303650e-01,
                      gt:6.8379163742065430e-02 }
                  - { var:11, quality:3.4999266266822815e-01,
                      gt:4.4981330633163452e-02 }
                  - { var:8, quality:3.4347167611122131e-01,
                      le:5.7134799659252167e-02 }
                  - { var:19, quality:3.3859372138977051e-01,
                      le:9.1004741191864014e-01 }
                  - { var:9, quality:3.3813768625259399e-01,
                      gt:4.8743963241577148e-02 }
                  - { var:25, quality:3.3135586977005005e-01,
                      le:6.4999997615814209e-01 }
                  - { var:39, quality:3.3132487535476685e-01,
                      le:3.1481138430535793e-03 }
                  - { var:38, quality:3.2850503921508789e-01,
                      le:3.0927155166864395e-03 }
                  - { var:34, quality:3.2747891545295715e-01,
                      gt:4.4272550940513611e-01 }
                  - { var:30, quality:3.2608401775360107e-01,
                      le:5.2191346883773804e-02 }
                  - { var:15, quality:3.2605925202369690e-01,
                      le:8.0811202526092529e-01 }
                  - { var:37, quality:3.2594534754753113e-01,
                      le:1.7586593329906464e-01 }
                  - { var:23, quality:3.2475534081459045e-01,
                      le:9.0751731395721436e-01 }
                  - { var:18, quality:3.2370352745056152e-01,
                      le:9.0488159656524658e-01 }
                  - { var:7, quality:3.2365944981575012e-01,
                      le:8.3788670599460602e-02 }
                  - { var:32, quality:3.2242926955223083e-01,
                      le:1.3558524847030640e-01 }
                  - { var:14, quality:3.2229107618331909e-01,
                      le:9.9767458438873291e-01 }
                  - { var:0, quality:3.2210814952850342e-01,
                      gt:7.2349593043327332e-02 }
                  - { var:36, quality:3.2094332575798035e-01,
                      le:2.5364932417869568e-01 }
                  - { var:31, quality:3.2068964838981628e-01,
                      gt:1.1237800121307373e-01 }
                  - { var:17, quality:3.1970635056495667e-01,
                      le:7.8536337614059448e-01 }
                  - { var:26, quality:3.1878021359443665e-01,
                      le:2.5000000000000000e-01 }
                  - { var:24, quality:3.1814062595367432e-01,
                      le:9.0053963661193848e-01 }
                  - { var:21, quality:3.1667798757553101e-01,
                      le:8.5803937911987305e-01 }
                  - { var:20, quality:3.1644928455352783e-01,
                      le:8.8368463516235352e-01 }
                  - { var:22, quality:3.1640189886093140e-01,
                      le:8.8363599777221680e-01 }
                  - { var:33, quality:3.1599956750869751e-01,
                      le:1.2651818990707397e-01 }
                  - { var:16, quality:3.1574115157127380e-01,
                      gt:4.4206607341766357e-01 }
                  - { var:35, quality:3.1449031829833984e-01,
                      le:7.4717766046524048e-01 }
                  - { var:13, quality:3.1019872426986694e-01,
                      le:4.3469607830047607e-01 }
            -
               depth: 1
               sample_count: 143
               value: 3.8050357175664939e-01
               norm_class_idx: 1
               Tn: 0
               complexity: 0
               alpha: 0.
               node_risk: 0.
               tree_risk: 0.
               tree_error: 0.
            -
               depth: 1
               sample_count: 148
               value: -3.8050357175664939e-01
               norm_class_idx: 0
               Tn: 0
               complexity: 0
               alpha: 0.
               node_risk: 0.
               tree_risk: 0.
               tree_error: 0.
      -
         best_tree_idx: -1
         nodes:
            -
               depth: 0
               sample_count: 290
               value: -4.6758181690609613e-01
               norm_class_idx: 0
               Tn: 0
               complexity: 0
               alpha: 0.
               node_risk: 0.
               tree_risk: 0.
               tree_error: 0.
               splits:
                  - { var:8, quality:5.7738053798675537e-01,
                      le:8.4238030016422272e-02 }
                  - { var:2, quality:4.6784564852714539e-01,
                      gt:5.2206277847290039e-02 }
                  - { var:6, quality:4.6645376086235046e-01,
                      gt:2.9523439705371857e-02 }
                  - { var:11, quality:4.6248430013656616e-01,
                      le:1.2734627723693848e-01 }
                  - { var:17, quality:4.6240505576133728e-01,
                      gt:5.8274928480386734e-02 }
                  - { var:15, quality:4.6229737997055054e-01,
                      gt:3.4602054953575134e-01 }
                  - { var:3, quality:4.6178236603736877e-01,
                      le:2.2000013291835785e-01 }
                  - { var:21, quality:4.5939564704895020e-01,
                      gt:5.6210402399301529e-02 }
                  - { var:7, quality:4.5742255449295044e-01,
                      gt:1.1972961947321892e-02 }
                  - { var:20, quality:4.5687255263328552e-01,
                      gt:2.2769980132579803e-01 }
                  - { var:4, quality:4.5633959770202637e-01,
                      le:2.8662309050559998e-01 }
                  - { var:37, quality:4.5605650544166565e-01,
                      le:3.0112153291702271e-01 }
                  - { var:35, quality:4.5596757531166077e-01,
                      le:7.7811622619628906e-01 }
                  - { var:33, quality:4.5596757531166077e-01,
                      le:2.1292041242122650e-01 }
                  - { var:10, quality:4.5585590600967407e-01,
                      le:1.4393070340156555e-01 }
                  - { var:32, quality:4.5571509003639221e-01,
                      gt:3.9419390261173248e-02 }
                  - { var:25, quality:4.5524716377258301e-01,
                      le:9.4999998807907104e-01 }
                  - { var:34, quality:4.5492249727249146e-01,
                      le:7.6701557636260986e-01 }
                  - { var:39, quality:4.5484098792076111e-01,
                      le:6.6409055143594742e-03 }
                  - { var:36, quality:4.5484098792076111e-01,
                      le:4.3081015348434448e-01 }
                  - { var:30, quality:4.5484098792076111e-01,
                      le:1.3392317295074463e-01 }
                  - { var:1, quality:4.5484098792076111e-01,
                      le:2.0287792384624481e-01 }
                  - { var:29, quality:4.5468986034393311e-01,
                      le:8.5000002384185791e-01 }
                  - { var:23, quality:4.5447808504104614e-01,
                      gt:1.3642242550849915e-01 }
                  - { var:0, quality:4.5445439219474792e-01,
                      gt:3.2754085958003998e-02 }
                  - { var:5, quality:4.5442059636116028e-01,
                      gt:1.0068476200103760e-02 }
                  - { var:9, quality:4.5437592267990112e-01,
                      le:3.5387656092643738e-01 }
                  - { var:38, quality:4.5425415039062500e-01,
                      gt:6.5334643295500427e-05 }
                  - { var:31, quality:4.5409324765205383e-01,
                      le:2.2732742130756378e-01 }
            -
               depth: 1
               sample_count: 236
               value: -4.6758181690609613e-01
               norm_class_idx: 0
               Tn: 0
               complexity: 0
               alpha: 0.
               node_risk: 0.
               tree_risk: 0.
               tree_error: 0.
            -
               depth: 1
               sample_count: 54
               value: 4.6758181690609613e-01
               norm_class_idx: 1
               Tn: 0
               complexity: 0
               alpha: 0.
               node_risk: 0.
               tree_risk: 0.
               tree_error: 0.
      -
         best_tree_idx: -1
         nodes:
            -
               depth: 0
               sample_count: 282
               value: -3.5989706207729549e-01
               norm_class_idx: 0
               Tn: 0
               complexity: 0
               alpha: 0.
               node_risk: 0.
               tree_risk: 0.
               tree_error: 0.
               splits:
                  - { var:30, quality:5.8190935850143433e-01,
                      le:3.4640207886695862e-02 }
                  - { var:39, quality:5.3135371208190918e-01,
                      le:2.5273771025240421e-03 }
                  - { var:38, quality:5.2779752016067505e-01,
                      le:2.4224533699452877e-03 }
                  - { var:17, quality:4.7760334610939026e-01,
                      gt:3.4303864836692810e-01 }
                  - { var:21, quality:4.7490084171295166e-01,
                      gt:3.0838209390640259e-01 }
                  - { var:22, quality:4.6939468383789062e-01,
                      gt:2.9252764582633972e-01 }
                  - { var:20, quality:4.6859326958656311e-01,
                      gt:3.4123373031616211e-01 }
                  - { var:24, quality:4.6523174643516541e-01,
                      gt:3.1393280625343323e-01 }
                  - { var:23, quality:4.5629560947418213e-01,
                      gt:5.6002515554428101e-01 }
                  - { var:16, quality:4.5549827814102173e-01,
                      gt:2.9264631867408752e-01 }
                  - { var:12, quality:4.5519101619720459e-01,
                      le:2.1031224727630615e-01 }
                  - { var:19, quality:4.5447632670402527e-01,
                      gt:3.5493516921997070e-01 }
                  - { var:18, quality:4.5349109172821045e-01,
                      gt:6.3934475183486938e-01 }
                  - { var:15, quality:4.4872650504112244e-01,
                      gt:4.3725579977035522e-01 }
                  - { var:13, quality:4.3707522749900818e-01,
                      gt:4.2605954408645630e-01 }
                  - { var:14, quality:4.3201869726181030e-01,
                      gt:6.1936920881271362e-01 }
                  - { var:35, quality:4.2835062742233276e-01,
                      le:6.4953351020812988e-01 }
                  - { var:7, quality:4.2420220375061035e-01,
                      le:1.8748155236244202e-01 }
                  - { var:34, quality:4.2305374145507812e-01,
                      le:6.1652481555938721e-01 }
                  - { var:9, quality:4.2136237025260925e-01,
                      gt:2.2163398563861847e-02 }
                  - { var:11, quality:4.2019233107566833e-01,
                      gt:1.6430756077170372e-02 }
                  - { var:32, quality:4.1726005077362061e-01,
                      le:1.4302086830139160e-01 }
                  - { var:31, quality:4.1515108942985535e-01,
                      le:1.9916002452373505e-01 }
                  - { var:8, quality:4.1497683525085449e-01,
                      gt:1.8140442669391632e-02 }
                  - { var:37, quality:4.1357576847076416e-01,
                      le:2.8877267241477966e-01 }
                  - { var:27, quality:4.1346082091331482e-01,
                      le:9.4999998807907104e-01 }
                  - { var:1, quality:4.1273373365402222e-01,
                      le:1.8299192190170288e-01 }
                  - { var:3, quality:4.1231590509414673e-01,
                      gt:2.3695532232522964e-02 }
                  - { var:36, quality:4.1210025548934937e-01,
                      le:2.5044959783554077e-01 }
                  - { var:6, quality:4.1197180747985840e-01,
                      le:1.9677215814590454e-01 }
                  - { var:5, quality:4.1179600358009338e-01,
                      le:1.4555348455905914e-01 }
                  - { var:33, quality:4.1175284981727600e-01,
                      le:2.1292041242122650e-01 }
                  - { var:4, quality:4.1060677170753479e-01,
                      gt:2.9991744086146355e-02 }
                  - { var:0, quality:4.1019025444984436e-01,
                      gt:3.2754085958003998e-02 }
                  - { var:10, quality:4.0977895259857178e-01,
                      gt:1.2822311371564865e-02 }
            -
               depth: 1
               sample_count: 180
               value: 3.5989706207729549e-01
               norm_class_idx: 1
               Tn: 0
               complexity: 0
               alpha: 0.
               node_risk: 0.
               tree_risk: 0.
               tree_error: 0.
            -
               depth: 1
               sample_count: 102
               value: -3.5989706207729549e-01
               norm_class_idx: 0
               Tn: 0
               complexity: 0
               alpha: 0.
               node_risk: 0.
               tree_risk: 0.
               tree_error: 0.
      -
         best_tree_idx: -1
         nodes:
            -
               depth: 0
               sample_count: 292
               value: -3.8397876815873566e-01
               norm_class_idx: 0
               Tn: 0
               complexity: 0
               alpha: 0.
               node_risk: 0.
               tree_risk: 0.
               tree_error: 0.
               splits:
                  - { var:0, quality:5.6591343879699707e-01,
                      le:1.2765440344810486e-01 }
                  - { var:6, quality:3.7380397319793701e-01,
                      gt:6.4508520066738129e-02 }
                  - { var:11, quality:3.6169174313545227e-01,
                      gt:3.9520282298326492e-02 }
                  - { var:9, quality:3.5479012131690979e-01,
                      gt:4.1409462690353394e-02 }
                  - { var:38, quality:3.5109096765518188e-01,
                      le:2.5474377907812595e-03 }
                  - { var:3, quality:3.4925112128257751e-01,
                      le:7.0855990052223206e-02 }
                  - { var:39, quality:3.4876683354377747e-01,
                      le:2.4773865006864071e-03 }
                  - { var:30, quality:3.4758701920509338e-01,
                      le:4.0016010403633118e-02 }
                  - { var:22, quality:3.4581670165061951e-01,
                      gt:2.9573503136634827e-01 }
                  - { var:20, quality:3.4306451678276062e-01,
                      gt:2.2769980132579803e-01 }
                  - { var:16, quality:3.3948066830635071e-01,
                      gt:4.5199260115623474e-02 }
                  - { var:17, quality:3.3925643563270569e-01,
                      gt:2.3743227124214172e-01 }
                  - { var:18, quality:3.3900478482246399e-01,
                      gt:2.8920823335647583e-01 }
                  - { var:1, quality:3.3782914280891418e-01,
                      le:1.1382257938385010e-01 }
                  - { var:21, quality:3.3742719888687134e-01,
                      gt:1.4091768860816956e-01 }
                  - { var:14, quality:3.3693596720695496e-01,
                      gt:6.1936920881271362e-01 }
                  - { var:24, quality:3.3627241849899292e-01,
                      le:8.5305392742156982e-01 }
                  - { var:19, quality:3.3593916893005371e-01,
                      gt:6.8981581926345825e-01 }
                  - { var:32, quality:3.3495166897773743e-01,
                      gt:9.5027029514312744e-02 }
                  - { var:15, quality:3.3450752496719360e-01,
                      le:8.6723411083221436e-01 }
                  - { var:36, quality:3.3349260687828064e-01,
                      gt:1.7122298479080200e-01 }
                  - { var:23, quality:3.3291050791740417e-01,
                      gt:3.5867902636528015e-01 }
                  - { var:25, quality:3.3196914196014404e-01,
                      le:9.4999998807907104e-01 }
                  - { var:5, quality:3.3110901713371277e-01,
                      le:8.5643984377384186e-02 }
                  - { var:31, quality:3.3037117123603821e-01,
                      gt:1.1806404590606689e-01 }
                  - { var:10, quality:3.2658052444458008e-01,
                      gt:9.4074001535773277e-03 }
                  - { var:13, quality:3.2552024722099304e-01,
                      gt:2.0565703511238098e-01 }
                  - { var:37, quality:3.2540437579154968e-01,
                      gt:1.0752028785645962e-02 }
                  - { var:26, quality:3.2488247752189636e-01,
                      le:4.4999998807907104e-01 }
                  - { var:4, quality:3.2447454333305359e-01,
                      gt:4.7977756708860397e-02 }
                  - { var:7, quality:3.2427030801773071e-01,
                      le:2.4006664752960205e-01 }
                  - { var:2, quality:3.2399001717567444e-01,
                      gt:1.1331922374665737e-02 }
                  - { var:8, quality:3.2364615797996521e-01,
                      gt:2.0249627530574799e-02 }
                  - { var:12, quality:3.2332095503807068e-01,
                      le:9.8105108737945557e-01 }
                  - { var:35, quality:3.2272076606750488e-01,
                      le:8.2119834423065186e-01 }
                  - { var:33, quality:3.2272076606750488e-01,
                      le:3.4258639812469482e-01 }
                  - { var:29, quality:3.2264807820320129e-01,
                      gt:1.5000000596046448e-01 }
                  - { var:34, quality:3.2260444760322571e-01,
                      gt:1.6370619833469391e-01 }
            -
               depth: 1
               sample_count: 183
               value: -3.8397876815873566e-01
               norm_class_idx: 0
               Tn: 0
               complexity: 0
               alpha: 0.
               node_risk: 0.
               tree_risk: 0.
               tree_error: 0.
            -
               depth: 1
               sample_count: 109
               value: 3.8397876815873566e-01
               norm_class_idx: 1
               Tn: 0
               complexity: 0
               alpha: 0.
               node_risk: 0.
               tree_risk: 0.
               tree_error: 0.
      -
         best_tree_idx: -1
         nodes:
            -
               depth: 0
               sample_count: 292
               value: -4.8407933066637393e-01
               norm_class_idx: 0
               Tn: 0
               complexity: 0
               alpha: 0.
               node_risk: 0.
               tree_risk: 0.
               tree_error: 0.
               splits:
                  - { var:6, quality:5.9046781063079834e-01,
                      le:6.4295858144760132e-02 }
                  - { var:0, quality:4.0604874491691589e-01,
                      gt:1.0972243547439575e-01 }
                  - { var:5, quality:3.6989361047744751e-01,
                      gt:6.5497517585754395e-02 }
                  - { var:10, quality:3.6935499310493469e-01,
                      gt:4.6662829816341400e-02 }
                  - { var:3, quality:3.6845123767852783e-01,
                      gt:7.0855990052223206e-02 }
                  - { var:16, quality:3.6544167995452881e-01,
                      le:4.7878807783126831e-01 }
                  - { var:21, quality:3.6138111352920532e-01,
                      le:5.2055990695953369e-01 }
                  - { var:11, quality:3.6092767119407654e-01,
                      le:5.5290333926677704e-02 }
                  - { var:8, quality:3.6028388142585754e-01,
                      gt:1.0402419418096542e-01 }
                  - { var:9, quality:3.5871288180351257e-01,
                      le:3.7242457270622253e-02 }
                  - { var:1, quality:3.5868716239929199e-01,
                      le:7.4094921350479126e-02 }
                  - { var:22, quality:3.5581043362617493e-01,
                      le:6.6770118474960327e-01 }
                  - { var:15, quality:3.5444787144660950e-01,
                      gt:8.8940864801406860e-01 }
                  - { var:17, quality:3.5281872749328613e-01,
                      le:5.2802443504333496e-01 }
                  - { var:4, quality:3.5141712427139282e-01,
                      le:5.7069242000579834e-02 }
                  - { var:20, quality:3.5094639658927917e-01,
                      le:6.1236304044723511e-01 }
                  - { var:39, quality:3.4988722205162048e-01,
                      gt:2.7995030395686626e-03 }
                  - { var:25, quality:3.4830495715141296e-01,
                      gt:4.4999998807907104e-01 }
                  - { var:24, quality:3.4804019331932068e-01,
                      le:7.1015548706054688e-01 }
                  - { var:30, quality:3.4706187248229980e-01,
                      gt:4.0012784302234650e-02 }
                  - { var:19, quality:3.4581357240676880e-01,
                      gt:9.2951464653015137e-01 }
                  - { var:14, quality:3.4559988975524902e-01,
                      le:5.8962023258209229e-01 }
                  - { var:33, quality:3.4048882126808167e-01,
                      le:6.7626118659973145e-02 }
                  - { var:7, quality:3.4033954143524170e-01,
                      gt:1.8748155236244202e-01 }
                  - { var:32, quality:3.3921617269515991e-01,
                      gt:1.3325598835945129e-01 }
                  - { var:35, quality:3.3883097767829895e-01,
                      le:3.9262196421623230e-01 }
                  - { var:38, quality:3.3854374289512634e-01,
                      gt:1.8180201295763254e-03 }
                  - { var:34, quality:3.3781114220619202e-01,
                      le:4.2921286821365356e-01 }
                  - { var:37, quality:3.3687365055084229e-01,
                      le:1.1272436380386353e-01 }
                  - { var:23, quality:3.3558890223503113e-01,
                      le:3.3679643273353577e-01 }
                  - { var:29, quality:3.3434647321701050e-01,
                      gt:8.5000002384185791e-01 }
                  - { var:18, quality:3.3279767632484436e-01,
                      gt:9.7460567951202393e-01 }
                  - { var:31, quality:3.3120188117027283e-01,
                      gt:1.8660259246826172e-01 }
                  - { var:27, quality:3.3078989386558533e-01,
                      le:2.5000000000000000e-01 }
                  - { var:13, quality:3.3049407601356506e-01,
                      le:6.6768729686737061e-01 }
                  - { var:2, quality:3.2991388440132141e-01,
                      gt:1.0085450112819672e-01 }
                  - { var:36, quality:3.2934001088142395e-01,
                      le:1.1794207990169525e-01 }
                  - { var:28, quality:3.2594740390777588e-01,
                      gt:7.5000000000000000e-01 }
            -
               depth: 1
               sample_count: 153
               value: -4.8407933066637393e-01
               norm_class_idx: 0
               Tn: 0
               complexity: 0
               alpha: 0.
               node_risk: 0.
               tree_risk: 0.
               tree_error: 0.
            -
               depth: 1
               sample_count: 139
               value: 4.8407933066637393e-01
               norm_class_idx: 1
               Tn: 0
               complexity: 0
               alpha: 0.
               node_risk: 0.
               tree_risk: 0.
               tree_error: 0.
      -
         best_tree_idx: -1
         nodes:
            -
               depth: 0
               sample_count: 288
               value: -4.4761731384668957e-01
               norm_class_idx: 0
               Tn: 0
               complexity: 0
               alpha: 0.
               node_risk: 0.
               tree_risk: 0.
               tree_error: 0.
               splits:
                  - { var:5, quality:5.8772760629653931e-01,
                      le:8.3952680230140686e-02 }
                  - { var:10, quality:4.1959881782531738e-01,
                      le:5.0697818398475647e-02 }
                  - { var:11, quality:3.9961856603622437e-01,
                      gt:4.8839315772056580e-02 }
                  - { var:1, quality:3.9601638913154602e-01,
                      gt:8.6866617202758789e-02 }
                  - { var:6, quality:3.7656489014625549e-01,
                      gt:6.5363302826881409e-02 }
                  - { var:4, quality:3.7472599744796753e-01,
                      gt:9.4247832894325256e-02 }
                  - { var:7, quality:3.7277987599372864e-01,
                      le:8.4830798208713531e-02 }
                  - { var:9, quality:3.6737787723541260e-01,
                      gt:4.8728480935096741e-02 }
                  - { var:39, quality:3.6561354994773865e-01,
                      le:3.0024182051420212e-03 }
                  - { var:23, quality:3.6531147360801697e-01,
                      le:9.2186629772186279e-01 }
                  - { var:8, quality:3.6309114098548889e-01,
                      le:1.3296905159950256e-01 }
                  - { var:24, quality:3.6264303326606750e-01,
                      le:8.7401866912841797e-01 }
                  - { var:15, quality:3.6231720447540283e-01,
                      le:9.0710073709487915e-01 }
                  - { var:18, quality:3.6206838488578796e-01,
                      le:9.4519877433776855e-01 }
                  - { var:20, quality:3.6100330948829651e-01,
                      le:8.7012112140655518e-01 }
                  - { var:29, quality:3.6045554280281067e-01,
                      le:8.5000002384185791e-01 }
                  - { var:34, quality:3.6003348231315613e-01,
                      le:7.1528804302215576e-01 }
                  - { var:3, quality:3.5958954691886902e-01,
                      le:2.2000013291835785e-01 }
                  - { var:0, quality:3.5882300138473511e-01,
                      gt:5.3589522838592529e-02 }
                  - { var:37, quality:3.5701996088027954e-01,
                      le:3.0112153291702271e-01 }
                  - { var:2, quality:3.5683742165565491e-01,
                      gt:6.7559704184532166e-02 }
                  - { var:19, quality:3.5604220628738403e-01,
                      le:9.0126925706863403e-01 }
                  - { var:30, quality:3.5599055886268616e-01,
                      gt:6.3925636932253838e-03 }
                  - { var:21, quality:3.5537001490592957e-01,
                      le:8.2975661754608154e-01 }
                  - { var:38, quality:3.5532373189926147e-01,
                      le:3.2151401974260807e-03 }
                  - { var:25, quality:3.5505828261375427e-01,
                      le:8.5000002384185791e-01 }
                  - { var:22, quality:3.5431745648384094e-01,
                      gt:1.1399188637733459e-01 }
                  - { var:33, quality:3.5428071022033691e-01,
                      le:2.0667111873626709e-01 }
                  - { var:31, quality:3.5427513718605042e-01,
                      le:2.1346077322959900e-01 }
                  - { var:36, quality:3.5412326455116272e-01,
                      gt:8.9307762682437897e-03 }
                  - { var:35, quality:3.5388031601905823e-01,
                      le:7.1564346551895142e-01 }
                  - { var:17, quality:3.5371699929237366e-01,
                      gt:2.1242309361696243e-02 }
            -
               depth: 1
               sample_count: 181
               value: -4.4761731384668957e-01
               norm_class_idx: 0
               Tn: 0
               complexity: 0
               alpha: 0.
               node_risk: 0.
               tree_risk: 0.
               tree_error: 0.
            -
               depth: 1
               sample_count: 107
               value: 4.4761731384668957e-01
               norm_class_idx: 1
               Tn: 0
               complexity: 0
               alpha: 0.
               node_risk: 0.
               tree_risk: 0.
               tree_error: 0.
      -
         best_tree_idx: -1
         nodes:
            -
               depth: 0
               sample_count: 290
               value: -3.4414655623217094e-01
               norm_class_idx: 0
               Tn: 0
               complexity: 0
               alpha: 0.
               node_risk: 0.
               tree_risk: 0.
               tree_error: 0.
               splits:
                  - { var:25, quality:5.6558269262313843e-01,
                      le:2.5000000000000000e-01 }
                  - { var:23, quality:3.7818208336830139e-01,
                      gt:9.1577440500259399e-01 }
                  - { var:24, quality:3.7337973713874817e-01,
                      gt:8.6208981275558472e-01 }
                  - { var:0, quality:3.7005499005317688e-01,
                      gt:1.9093945622444153e-01 }
                  - { var:15, quality:3.6970379948616028e-01,
                      gt:8.5587275028228760e-01 }
                  - { var:22, quality:3.6740359663963318e-01,
                      gt:8.1392371654510498e-01 }
                  - { var:19, quality:3.6541047692298889e-01,
                      gt:9.1097933053970337e-01 }
                  - { var:18, quality:3.6400213837623596e-01,
                      gt:9.5765918493270874e-01 }
                  - { var:20, quality:3.6116850376129150e-01,
                      gt:8.3612096309661865e-01 }
                  - { var:21, quality:3.5989543795585632e-01,
                      gt:7.9729223251342773e-01 }
                  - { var:11, quality:3.5631918907165527e-01,
                      le:2.9724363237619400e-02 }
                  - { var:38, quality:3.5566449165344238e-01,
                      gt:2.8500631451606750e-03 }
                  - { var:30, quality:3.5496813058853149e-01,
                      le:4.1665448807179928e-03 }
                  - { var:17, quality:3.5486593842506409e-01,
                      gt:8.0762839317321777e-01 }
                  - { var:5, quality:3.5389962792396545e-01,
                      gt:1.9283966720104218e-01 }
                  - { var:34, quality:3.5275775194168091e-01,
                      gt:7.0777428150177002e-01 }
                  - { var:39, quality:3.5246086120605469e-01,
                      le:9.6429290715605021e-04 }
                  - { var:35, quality:3.5177379846572876e-01,
                      gt:6.9985818862915039e-01 }
                  - { var:1, quality:3.5079854726791382e-01,
                      gt:1.5149700641632080e-01 }
                  - { var:36, quality:3.4988108277320862e-01,
                      gt:2.7447628974914551e-01 }
                  - { var:6, quality:3.4936445951461792e-01,
                      le:2.0345374941825867e-02 }
                  - { var:4, quality:3.4926974773406982e-01,
                      gt:2.2624787688255310e-01 }
                  - { var:7, quality:3.4868964552879333e-01,
                      le:2.4773500859737396e-02 }
                  - { var:32, quality:3.4840652346611023e-01,
                      gt:1.3406088948249817e-01 }
                  - { var:37, quality:3.4802693128585815e-01,
                      gt:2.8460523486137390e-01 }
                  - { var:31, quality:3.4682622551918030e-01,
                      gt:1.8940435349941254e-01 }
                  - { var:10, quality:3.4607696533203125e-01,
                      le:1.2202365323901176e-02 }
                  - { var:3, quality:3.4582638740539551e-01,
                      le:1.1225618422031403e-02 }
                  - { var:33, quality:3.4557437896728516e-01,
                      gt:2.1292041242122650e-01 }
                  - { var:16, quality:3.4447318315505981e-01,
                      le:2.5745693594217300e-02 }
                  - { var:8, quality:3.4443637728691101e-01,
                      le:1.7936093732714653e-02 }
                  - { var:2, quality:3.4368184208869934e-01,
                      gt:3.2416695356369019e-01 }
            -
               depth: 1
               sample_count: 122
               value: -3.4414655623217094e-01
               norm_class_idx: 0
               Tn: 0
               complexity: 0
               alpha: 0.
               node_risk: 0.
               tree_risk: 0.
               tree_error: 0.
            -
               depth: 1
               sample_count: 168
               value: 3.4414655623217094e-01
               norm_class_idx: 1
               Tn: 0
               complexity: 0
               alpha: 0.
               node_risk: 0.
               tree_risk: 0.
               tree_error: 0.
      -
         best_tree_idx: -1
         nodes:
            -
               depth: 0
               sample_count: 292
               value: -3.8425555980538595e-01
               norm_class_idx: 0
               Tn: 0
               complexity: 0
               alpha: 0.
               node_risk: 0.
               tree_risk: 0.
               tree_error: 0.
               splits:
                  - { var:1, quality:5.5806082487106323e-01,
                      le:1.0360355675220490e-01 }
                  - { var:7, quality:4.4814944267272949e-01,
                      gt:4.7507129609584808e-02 }
                  - { var:21, quality:4.2205631732940674e-01,
                      gt:7.9614818096160889e-02 }
                  - { var:5, quality:4.1839560866355896e-01,
                      gt:5.1842037588357925e-02 }
                  - { var:17, quality:4.1707772016525269e-01,
                      gt:9.4826892018318176e-02 }
                  - { var:20, quality:4.1704159975051880e-01,
                      gt:1.1652837693691254e-01 }
                  - { var:6, quality:4.1515359282493591e-01,
                      gt:2.0345374941825867e-02 }
                  - { var:30, quality:4.1071778535842896e-01,
                      gt:3.7627536803483963e-03 }
                  - { var:22, quality:4.1038671135902405e-01,
                      gt:2.2209750115871429e-01 }
                  - { var:18, quality:4.1008353233337402e-01,
                      le:9.8337101936340332e-01 }
                  - { var:24, quality:4.0918609499931335e-01,
                      gt:2.5681567192077637e-01 }
                  - { var:36, quality:4.0811046957969666e-01,
                      gt:8.9307762682437897e-03 }
                  - { var:11, quality:4.0811046957969666e-01,
                      gt:6.4100171439349651e-03 }
                  - { var:39, quality:4.0793272852897644e-01,
                      le:6.6409055143594742e-03 }
                  - { var:37, quality:4.0793272852897644e-01,
                      le:6.2509357929229736e-01 }
                  - { var:35, quality:4.0793272852897644e-01,
                      le:8.2119834423065186e-01 }
                  - { var:33, quality:4.0793272852897644e-01,
                      le:3.4258639812469482e-01 }
                  - { var:32, quality:4.0793272852897644e-01,
                      le:2.5057542324066162e-01 }
                  - { var:38, quality:4.0791717171669006e-01,
                      gt:6.5334643295500427e-05 }
                  - { var:3, quality:4.0763801336288452e-01,
                      le:2.5839415192604065e-01 }
                  - { var:16, quality:4.0757796168327332e-01,
                      le:9.8177117109298706e-01 }
                  - { var:8, quality:4.0744376182556152e-01,
                      le:1.9050696492195129e-01 }
                  - { var:10, quality:4.0741440653800964e-01,
                      gt:4.2012790217995644e-03 }
            -
               depth: 1
               sample_count: 225
               value: -3.8425555980538595e-01
               norm_class_idx: 0
               Tn: 0
               complexity: 0
               alpha: 0.
               node_risk: 0.
               tree_risk: 0.
               tree_error: 0.
            -
               depth: 1
               sample_count: 67
               value: 3.8425555980538595e-01
               norm_class_idx: 1
               Tn: 0
               complexity: 0
               alpha: 0.
               node_risk: 0.
               tree_risk: 0.
               tree_error: 0.
      -
         best_tree_idx: -1
         nodes:
            -
               depth: 0
               sample_count: 286
               value: -2.4106502561866952e-01
               norm_class_idx: 0
               Tn: 0
               complexity: 0
               alpha: 0.
               node_risk: 0.
               tree_risk: 0.
               tree_error: 0.
               splits:
                  - { var:35, quality:5.5591934919357300e-01,
                      le:4.9434602260589600e-01 }
                  - { var:34, quality:5.1670747995376587e-01,
                      le:5.0905215740203857e-01 }
                  - { var:37, quality:4.4749903678894043e-01,
                      le:1.6391390562057495e-01 }
                  - { var:14, quality:4.2755696177482605e-01,
                      gt:5.1854717731475830e-01 }
                  - { var:31, quality:4.2650219798088074e-01,
                      le:1.4489693939685822e-01 }
                  - { var:33, quality:4.1894015669822693e-01,
                      le:9.8128542304039001e-02 }
                  - { var:36, quality:4.1704618930816650e-01,
                      le:2.1840476989746094e-01 }
                  - { var:13, quality:4.1439032554626465e-01,
                      gt:9.2923705233260989e-04 }
                  - { var:18, quality:4.1228201985359192e-01,
                      gt:4.1644400358200073e-01 }
                  - { var:19, quality:4.0917620062828064e-01,
                      gt:4.6730521321296692e-01 }
                  - { var:23, quality:4.0587702393531799e-01,
                      gt:4.4929260015487671e-01 }
                  - { var:12, quality:4.0342926979064941e-01,
                      le:6.5497159957885742e-01 }
                  - { var:32, quality:4.0209835767745972e-01,
                      le:1.3046404719352722e-01 }
                  - { var:16, quality:3.9956906437873840e-01,
                      le:8.2524538040161133e-01 }
                  - { var:24, quality:3.9783111214637756e-01,
                      gt:4.1076058149337769e-01 }
                  - { var:15, quality:3.9361721277236938e-01,
                      gt:3.9144998788833618e-01 }
                  - { var:21, quality:3.9061364531517029e-01,
                      le:8.0914413928985596e-01 }
                  - { var:39, quality:3.8918468356132507e-01,
                      le:3.1243227422237396e-03 }
                  - { var:30, quality:3.8812237977981567e-01,
                      le:5.1421217620372772e-02 }
                  - { var:20, quality:3.8186892867088318e-01,
                      le:8.6216092109680176e-01 }
                  - { var:38, quality:3.8185307383537292e-01,
                      le:2.9672866221517324e-03 }
                  - { var:0, quality:3.7986564636230469e-01,
                      le:2.2788867354393005e-01 }
                  - { var:1, quality:3.7934303283691406e-01,
                      le:1.4568409323692322e-01 }
                  - { var:17, quality:3.7919712066650391e-01,
                      le:8.2664924860000610e-01 }
                  - { var:11, quality:3.7590366601943970e-01,
                      le:1.9967618584632874e-01 }
                  - { var:26, quality:3.7502452731132507e-01,
                      le:8.5000002384185791e-01 }
                  - { var:22, quality:3.7486410140991211e-01,
                      le:8.7566429376602173e-01 }
                  - { var:6, quality:3.7182325124740601e-01,
                      le:1.9677215814590454e-01 }
                  - { var:4, quality:3.7159180641174316e-01,
                      le:2.0989444851875305e-01 }
                  - { var:3, quality:3.7092030048370361e-01,
                      le:1.3190746307373047e-01 }
                  - { var:5, quality:3.7064877152442932e-01,
                      gt:2.5125421583652496e-02 }
                  - { var:2, quality:3.7033006548881531e-01,
                      le:2.9177254438400269e-01 }
                  - { var:10, quality:3.7027719616889954e-01,
                      gt:1.3513158075511456e-02 }
                  - { var:7, quality:3.6959591507911682e-01,
                      le:2.4530160427093506e-01 }
                  - { var:8, quality:3.6800846457481384e-01,
                      gt:1.3832873664796352e-02 }
            -
               depth: 1
               sample_count: 178
               value: 2.4106502561866952e-01
               norm_class_idx: 1
               Tn: 0
               complexity: 0
               alpha: 0.
               node_risk: 0.
               tree_risk: 0.
               tree_error: 0.
            -
               depth: 1
               sample_count: 108
               value: -2.4106502561866952e-01
