%YAML:1.0
my_boost_tree: !!opencv-ml-boost-tree
   boosting_type: DiscreteAdaboost
   splitting_criteria: 3
   ntrees: 100
   weight_trimming_rate: 9.4999999999999996e-01
   is_classifier: 1
   var_all: 40
   var_count: 40
   ord_var_count: 40
   cat_var_count: 0
   training_params:
      use_surrogates: 1
      max_categories: 10
      max_depth: 1
      min_sample_count: 10
      cross_validation_folds: 0
      priors: !!opencv-matrix
         rows: 1
         cols: 2
         dt: d
         data: [ 1., 1. ]
   var_type: [ 0, 0, 0, 0, 0, 0, 0, 0, 0, 0, 0, 0, 0, 0, 0, 0, 0, 0, 0,
       0, 0, 0, 0, 0, 0, 0, 0, 0, 0, 0, 0, 0, 0, 0, 0, 0, 0, 0, 0, 0 ]
   cat_count: !!opencv-matrix
      rows: 1
      cols: 1
      dt: i
      data: [ 2 ]
   cat_map: !!opencv-matrix
      rows: 1
      cols: 2
      dt: i
      data: [ -1, 1 ]
   trees:
      -
         best_tree_idx: -1
         nodes:
            -
               depth: 0
               sample_count: 410
               value: -2.0442552325547925e+00
               norm_class_idx: 0
               Tn: 0
               complexity: 0
               alpha: 0.
               node_risk: 0.
               tree_risk: 0.
               tree_error: 0.
               splits:
                  - { var:23, quality:8.8536584377288818e-01,
                      le:9.4639098644256592e-01 }
                  - { var:24, quality:8.7456870079040527e-01,
                      le:9.0972185134887695e-01 }
                  - { var:22, quality:8.7240928411483765e-01,
                      le:9.0569758415222168e-01 }
                  - { var:17, quality:8.7240928411483765e-01,
                      le:9.2046403884887695e-01 }
            -
               depth: 1
               sample_count: 403
               value: -2.0442552325547925e+00
               norm_class_idx: 0
               Tn: 0
               complexity: 0
               alpha: 0.
               node_risk: 0.
               tree_risk: 0.
               tree_error: 0.
            -
               depth: 1
               sample_count: 7
               value: 2.0442552325547925e+00
               norm_class_idx: 1
               Tn: 0
               complexity: 0
               alpha: 0.
               node_risk: 0.
               tree_risk: 0.
               tree_error: 0.
      -
         best_tree_idx: -1
         nodes:
            -
               depth: 0
               sample_count: 410
               value: -1.0204912829977637e+00
               norm_class_idx: 0
               Tn: 0
               complexity: 0
               alpha: 0.
               node_risk: 0.
               tree_risk: 0.
               tree_error: 0.
               splits:
                  - { var:38, quality:7.3506826162338257e-01,
                      le:1.7049341695383191e-03 }
                  - { var:39, quality:6.8702876567840576e-01,
                      le:1.6082332003861666e-03 }
                  - { var:30, quality:6.5693414211273193e-01,
                      le:1.4385482296347618e-02 }
                  - { var:13, quality:5.7384526729583740e-01,
                      gt:9.4482475519180298e-01 }
                  - { var:36, quality:5.6260019540786743e-01,
                      le:6.1038203537464142e-02 }
                  - { var:37, quality:5.5883026123046875e-01,
                      le:6.5527021884918213e-02 }
                  - { var:35, quality:5.4943776130676270e-01,
                      le:3.1085073947906494e-01 }
                  - { var:34, quality:5.4640030860900879e-01,
                      le:3.1984999775886536e-01 }
                  - { var:31, quality:5.3030818700790405e-01,
                      le:7.9469591379165649e-02 }
                  - { var:22, quality:5.2720606327056885e-01,
                      gt:7.1971869468688965e-01 }
                  - { var:17, quality:5.2619355916976929e-01,
                      gt:7.1057987213134766e-01 }
                  - { var:21, quality:5.2490103244781494e-01,
                      gt:6.6935122013092041e-01 }
                  - { var:32, quality:5.2322071790695190e-01,
                      le:5.4404959082603455e-02 }
                  - { var:18, quality:5.2119576930999756e-01,
                      gt:8.4462857246398926e-01 }
                  - { var:20, quality:5.2113115787506104e-01,
                      gt:6.9869101047515869e-01 }
                  - { var:24, quality:5.1871836185455322e-01,
                      gt:7.8667891025543213e-01 }
                  - { var:33, quality:5.1107084751129150e-01,
                      le:5.0916045904159546e-02 }
                  - { var:23, quality:4.9599120020866394e-01,
                      gt:8.2183301448822021e-01 }
                  - { var:16, quality:4.9232900142669678e-01,
                      gt:6.3878548145294189e-01 }
                  - { var:1, quality:4.8188096284866333e-01,
                      le:4.3443113565444946e-02 }
                  - { var:11, quality:4.8013600707054138e-01,
                      le:3.1548954546451569e-02 }
                  - { var:19, quality:4.7709855437278748e-01,
                      gt:8.6946606636047363e-01 }
                  - { var:10, quality:4.7175607085227966e-01,
                      gt:1.3423062860965729e-01 }
                  - { var:3, quality:4.6798613667488098e-01,
                      le:2.5014109909534454e-02 }
                  - { var:28, quality:4.6742603182792664e-01,
                      gt:9.4999998807907104e-01 }
                  - { var:6, quality:4.6624121069908142e-01,
                      le:2.2604838013648987e-02 }
                  - { var:2, quality:4.6550875902175903e-01,
                      gt:1.2575554847717285e-01 }
                  - { var:5, quality:4.6522873640060425e-01,
                      gt:1.2721756100654602e-01 }
                  - { var:8, quality:4.5870140194892883e-01,
                      le:4.4732153415679932e-02 }
                  - { var:7, quality:4.5814129710197449e-01,
                      le:2.9343981295824051e-02 }
                  - { var:9, quality:4.5786124467849731e-01,
                      gt:1.6946019232273102e-01 }
                  - { var:4, quality:4.5279875397682190e-01,
                      gt:1.9486236572265625e-01 }
                  - { var:0, quality:4.5178627967834473e-01,
                      le:2.4813111871480942e-02 }
            -
               depth: 1
               sample_count: 230
               value: -1.0204912829977637e+00
               norm_class_idx: 0
               Tn: 0
               complexity: 0
               alpha: 0.
               node_risk: 0.
               tree_risk: 0.
               tree_error: 0.
            -
               depth: 1
               sample_count: 180
               value: 1.0204912829977637e+00
               norm_class_idx: 1
               Tn: 0
               complexity: 0
               alpha: 0.
               node_risk: 0.
               tree_risk: 0.
               tree_error: 0.
      -
         best_tree_idx: -1
         nodes:
            -
               depth: 0
               sample_count: 410
               value: -6.7776706572134304e-01
               norm_class_idx: 0
               Tn: 0
               complexity: 0
               alpha: 0.
               node_risk: 0.
               tree_risk: 0.
               tree_error: 0.
               splits:
                  - { var:15, quality:6.6324013471603394e-01,
                      le:8.0943328142166138e-01 }
                  - { var:19, quality:5.5539238452911377e-01,
                      le:8.7030637264251709e-01 }
                  - { var:24, quality:5.5242544412612915e-01,
                      le:8.2712137699127197e-01 }
                  - { var:18, quality:5.5225360393524170e-01,
                      le:8.7621414661407471e-01 }
                  - { var:23, quality:5.3836852312088013e-01,
                      le:8.6056792736053467e-01 }
                  - { var:20, quality:5.3603595495223999e-01,
                      le:7.5945192575454712e-01 }
                  - { var:22, quality:5.3075528144836426e-01,
                      le:7.9503536224365234e-01 }
                  - { var:17, quality:5.1674306392669678e-01,
                      le:7.7658998966217041e-01 }
                  - { var:21, quality:5.0369602441787720e-01,
                      le:7.4154913425445557e-01 }
                  - { var:16, quality:4.7687363624572754e-01,
                      le:8.4099900722503662e-01 }
                  - { var:28, quality:4.7071650624275208e-01,
                      le:8.5000002384185791e-01 }
                  - { var:0, quality:4.6982595324516296e-01,
                      le:2.3841841518878937e-01 }
                  - { var:30, quality:4.6648871898651123e-01,
                      gt:6.5192254260182381e-03 }
                  - { var:25, quality:4.6630117297172546e-01,
                      le:9.4999998807907104e-01 }
                  - { var:5, quality:4.6281671524047852e-01,
                      gt:2.8973542153835297e-02 }
                  - { var:4, quality:4.6219530701637268e-01,
                      gt:2.6756253093481064e-02 }
                  - { var:32, quality:4.6001058816909790e-01,
                      gt:2.8752882033586502e-02 }
                  - { var:6, quality:4.5960134267807007e-01,
                      gt:1.6212705522775650e-02 }
                  - { var:38, quality:4.5877885818481445e-01,
                      le:4.0354528464376926e-03 }
                  - { var:2, quality:4.5867052674293518e-01,
                      le:3.0995839834213257e-01 }
                  - { var:39, quality:4.5805564522743225e-01,
                      gt:1.2356319930404425e-03 }
                  - { var:37, quality:4.5804911851882935e-01,
                      le:3.2317662239074707e-01 }
                  - { var:36, quality:4.5804911851882935e-01,
                      le:3.2982867956161499e-01 }
                  - { var:10, quality:4.5804911851882935e-01,
                      le:3.1506803631782532e-01 }
                  - { var:1, quality:4.5750421285629272e-01,
                      le:1.5739971399307251e-01 }
            -
               depth: 1
               sample_count: 316
               value: -6.7776706572134304e-01
               norm_class_idx: 0
               Tn: 0
               complexity: 0
               alpha: 0.
               node_risk: 0.
               tree_risk: 0.
               tree_error: 0.
            -
               depth: 1
               sample_count: 94
               value: 6.7776706572134304e-01
               norm_class_idx: 1
               Tn: 0
               complexity: 0
               alpha: 0.
               node_risk: 0.
               tree_risk: 0.
               tree_error: 0.
      -
         best_tree_idx: -1
         nodes:
            -
               depth: 0
               sample_count: 410
               value: -6.1099117324431484e-01
               norm_class_idx: 0
               Tn: 0
               complexity: 0
               alpha: 0.
               node_risk: 0.
               tree_risk: 0.
               tree_error: 0.
               splits:
                  - { var:10, quality:6.4816689491271973e-01,
                      le:4.6930171549320221e-02 }
                  - { var:4, quality:5.2340841293334961e-01,
                      gt:1.1009172350168228e-01 }
                  - { var:8, quality:4.5705977082252502e-01,
                      le:5.0931915640830994e-02 }
                  - { var:2, quality:4.4463247060775757e-01,
                      gt:1.3805492222309113e-01 }
                  - { var:9, quality:4.4226813316345215e-01,
                      le:3.4128863364458084e-02 }
                  - { var:6, quality:4.3379235267639160e-01,
                      gt:1.3573852181434631e-01 }
                  - { var:15, quality:4.3256947398185730e-01,
                      le:4.1568931937217712e-01 }
                  - { var:14, quality:4.2959684133529663e-01,
                      le:7.6968735456466675e-01 }
                  - { var:28, quality:4.2957982420921326e-01,
                      gt:8.5000002384185791e-01 }
                  - { var:5, quality:4.2935618758201599e-01,
                      le:6.5916255116462708e-02 }
                  - { var:32, quality:4.2846572399139404e-01,
                      le:3.0432937666773796e-02 }
                  - { var:33, quality:4.2800790071487427e-01,
                      le:3.6562789231538773e-02 }
                  - { var:23, quality:4.2794632911682129e-01,
                      le:4.9343544244766235e-01 }
                  - { var:19, quality:4.2590245604515076e-01,
                      le:4.9024605751037598e-01 }
                  - { var:22, quality:4.2584997415542603e-01,
                      gt:8.2539355754852295e-01 }
                  - { var:18, quality:4.2417436838150024e-01,
                      le:4.8983341455459595e-01 }
                  - { var:24, quality:4.2306911945343018e-01,
                      gt:8.5581248998641968e-01 }
                  - { var:11, quality:4.2296138405799866e-01,
                      le:1.5028958208858967e-02 }
                  - { var:3, quality:4.2292881011962891e-01,
                      le:3.1387537717819214e-02 }
                  - { var:31, quality:4.2278724908828735e-01,
                      le:5.3903192281723022e-02 }
                  - { var:16, quality:4.2263746261596680e-01,
                      gt:8.5628807544708252e-01 }
                  - { var:34, quality:4.2089879512786865e-01,
                      gt:6.7888379096984863e-01 }
                  - { var:0, quality:4.2018005251884460e-01,
                      gt:2.3094990849494934e-01 }
                  - { var:35, quality:4.1962856054306030e-01,
                      gt:6.6276693344116211e-01 }
                  - { var:39, quality:4.1961362957954407e-01,
                      le:1.3344243634492159e-03 }
                  - { var:12, quality:4.1925439238548279e-01,
                      gt:8.9639955759048462e-01 }
                  - { var:17, quality:4.1666901111602783e-01,
                      le:8.0282375216484070e-02 }
                  - { var:30, quality:4.1605025529861450e-01,
                      gt:8.9776024222373962e-02 }
                  - { var:36, quality:4.1602209210395813e-01,
                      gt:2.1839356422424316e-01 }
                  - { var:21, quality:4.1422814130783081e-01,
                      gt:8.2213330268859863e-01 }
                  - { var:20, quality:4.1412854194641113e-01,
                      le:2.3440378904342651e-01 }
                  - { var:26, quality:4.1193583607673645e-01,
                      gt:5.5000001192092896e-01 }
                  - { var:7, quality:4.1193187236785889e-01,
                      gt:1.6566771268844604e-01 }
                  - { var:1, quality:4.1171237826347351e-01,
                      gt:1.3083428144454956e-01 }
                  - { var:29, quality:4.1020381450653076e-01,
                      gt:9.4999998807907104e-01 }
                  - { var:38, quality:4.0918612480163574e-01,
                      le:8.5932970978319645e-04 }
                  - { var:37, quality:4.0912282466888428e-01,
                      le:1.3531927950680256e-02 }
            -
               depth: 1
               sample_count: 200
               value: -6.1099117324431484e-01
               norm_class_idx: 0
               Tn: 0
               complexity: 0
               alpha: 0.
               node_risk: 0.
               tree_risk: 0.
               tree_error: 0.
            -
               depth: 1
               sample_count: 210
               value: 6.1099117324431484e-01
               norm_class_idx: 1
               Tn: 0
               complexity: 0
               alpha: 0.
               node_risk: 0.
               tree_risk: 0.
               tree_error: 0.
      -
         best_tree_idx: -1
         nodes:
            -
               depth: 0
               sample_count: 323
               value: -5.3250711073446921e-01
               norm_class_idx: 0
               Tn: 0
               complexity: 0
               alpha: 0.
               node_risk: 0.
               tree_risk: 0.
               tree_error: 0.
               splits:
                  - { var:1, quality:6.0282444953918457e-01,
                      le:8.5618056356906891e-02 }
                  - { var:7, quality:4.7245338559150696e-01,
                      gt:7.4609324336051941e-02 }
                  - { var:5, quality:3.9309424161911011e-01,
                      gt:8.3721697330474854e-02 }
                  - { var:0, quality:3.8899609446525574e-01,
                      le:1.0242846608161926e-01 }
                  - { var:10, quality:3.8765072822570801e-01,
                      gt:6.8829029798507690e-02 }
                  - { var:21, quality:3.8531553745269775e-01,
                      le:6.5444874763488770e-01 }
                  - { var:9, quality:3.8266238570213318e-01,
                      gt:7.3557324707508087e-02 }
                  - { var:17, quality:3.8097035884857178e-01,
                      le:6.7317909002304077e-01 }
                  - { var:16, quality:3.7559625506401062e-01,
                      le:6.3860106468200684e-01 }
                  - { var:20, quality:3.7275937199592590e-01,
                      le:6.9464194774627686e-01 }
                  - { var:33, quality:3.7068173289299011e-01,
                      gt:8.8087148964405060e-02 }
                  - { var:31, quality:3.7002158164978027e-01,
                      gt:1.0385002195835114e-01 }
                  - { var:37, quality:3.6855858564376831e-01,
                      gt:9.5289230346679688e-02 }
                  - { var:24, quality:3.6495229601860046e-01,
                      le:6.7260372638702393e-01 }
                  - { var:8, quality:3.6423692107200623e-01,
                      gt:8.5749603807926178e-02 }
                  - { var:34, quality:3.6421227455139160e-01,
                      gt:4.3600937724113464e-01 }
                  - { var:22, quality:3.6287245154380798e-01,
                      le:7.7000892162322998e-01 }
                  - { var:13, quality:3.6009293794631958e-01,
                      le:9.7612631320953369e-01 }
                  - { var:32, quality:3.5865709185600281e-01,
                      gt:5.3598053753376007e-02 }
                  - { var:36, quality:3.5750174522399902e-01,
                      gt:8.1619784235954285e-02 }
                  - { var:19, quality:3.5713189840316772e-01,
                      le:8.2086896896362305e-01 }
                  - { var:2, quality:3.5690423846244812e-01,
                      le:8.1193901598453522e-02 }
                  - { var:14, quality:3.5476353764533997e-01,
                      gt:9.8605167865753174e-01 }
                  - { var:18, quality:3.5394683480262756e-01,
                      le:8.2255327701568604e-01 }
                  - { var:23, quality:3.4988856315612793e-01,
                      le:7.2058522701263428e-01 }
                  - { var:38, quality:3.4915697574615479e-01,
                      gt:1.8180476035922766e-03 }
                  - { var:6, quality:3.4809669852256775e-01,
                      gt:6.5491467714309692e-02 }
                  - { var:35, quality:3.4712940454483032e-01,
                      gt:3.6302423477172852e-01 }
                  - { var:3, quality:3.4570041298866272e-01,
                      gt:1.0621115565299988e-01 }
                  - { var:25, quality:3.4561166167259216e-01,
                      le:7.5000000000000000e-01 }
                  - { var:15, quality:3.4490638971328735e-01,
                      le:7.8263539075851440e-01 }
                  - { var:11, quality:3.4038811922073364e-01,
                      le:7.3035240173339844e-02 }
                  - { var:28, quality:3.3187603950500488e-01,
                      le:8.5000002384185791e-01 }
                  - { var:30, quality:3.3072048425674438e-01,
                      le:8.3891540765762329e-02 }
                  - { var:29, quality:3.2976448535919189e-01,
                      le:6.4999997615814209e-01 }
                  - { var:4, quality:3.2862135767936707e-01,
                      gt:3.9011269807815552e-02 }
                  - { var:39, quality:3.2754537463188171e-01,
                      gt:1.3742230366915464e-03 }
                  - { var:27, quality:3.2056090235710144e-01,
                      gt:1.5000000596046448e-01 }
                  - { var:12, quality:3.1546261906623840e-01,
                      le:8.7746328115463257e-01 }
                  - { var:26, quality:3.1027361750602722e-01,
                      gt:9.4999998807907104e-01 }
            -
               depth: 1
               sample_count: 182
               value: -5.3250711073446921e-01
               norm_class_idx: 0
               Tn: 0
               complexity: 0
               alpha: 0.
               node_risk: 0.
               tree_risk: 0.
               tree_error: 0.
            -
               depth: 1
               sample_count: 141
               value: 5.3250711073446921e-01
               norm_class_idx: 1
               Tn: 0
               complexity: 0
               alpha: 0.
               node_risk: 0.
               tree_risk: 0.
               tree_error: 0.
      -
         best_tree_idx: -1
         nodes:
            -
               depth: 0
               sample_count: 323
               value: -6.6771167445706769e-01
               norm_class_idx: 0
               Tn: 0
               complexity: 0
               alpha: 0.
               node_risk: 0.
               tree_risk: 0.
               tree_error: 0.
               splits:
                  - { var:38, quality:6.1212313175201416e-01,
                      le:2.8028353117406368e-03 }
                  - { var:39, quality:5.7414531707763672e-01,
                      le:2.7405293658375740e-03 }
                  - { var:30, quality:5.4140931367874146e-01,
                      le:4.3536715209484100e-02 }
                  - { var:18, quality:4.9695721268653870e-01,
                      gt:7.1508872509002686e-01 }
                  - { var:12, quality:4.9094846844673157e-01,
                      le:2.1031224727630615e-01 }
                  - { var:23, quality:4.9032947421073914e-01,
                      gt:7.2345244884490967e-01 }
                  - { var:13, quality:4.8791033029556274e-01,
                      gt:1.1343343555927277e-01 }
                  - { var:17, quality:4.8507696390151978e-01,
                      gt:2.8082907199859619e-01 }
                  - { var:24, quality:4.8496386408805847e-01,
                      gt:6.8482387065887451e-01 }
                  - { var:21, quality:4.7618478536605835e-01,
                      gt:3.1729075312614441e-01 }
                  - { var:15, quality:4.7592476010322571e-01,
                      gt:3.4602054953575134e-01 }
                  - { var:20, quality:4.7563984990119934e-01,
                      gt:3.4085988998413086e-01 }
                  - { var:22, quality:4.7545576095581055e-01,
                      gt:4.5278328657150269e-01 }
                  - { var:19, quality:4.6987095475196838e-01,
                      gt:2.9590159654617310e-01 }
                  - { var:14, quality:4.6626394987106323e-01,
                      gt:7.6968735456466675e-01 }
                  - { var:16, quality:4.6533441543579102e-01,
                      gt:2.9785239696502686e-01 }
                  - { var:27, quality:4.6300348639488220e-01,
                      le:8.5000002384185791e-01 }
                  - { var:35, quality:4.5354530215263367e-01,
                      le:6.2294709682464600e-01 }
                  - { var:0, quality:4.5235684514045715e-01,
                      gt:3.2754085958003998e-02 }
                  - { var:34, quality:4.4969499111175537e-01,
                      le:6.4203959703445435e-01 }
                  - { var:37, quality:4.4538214802742004e-01,
                      le:2.9191699624061584e-01 }
                  - { var:32, quality:4.4251179695129395e-01,
                      le:1.3959708809852600e-01 }
                  - { var:33, quality:4.4221353530883789e-01,
                      le:1.6113132238388062e-01 }
                  - { var:31, quality:4.4079634547233582e-01,
                      le:1.9928425550460815e-01 }
                  - { var:2, quality:4.4052466750144958e-01,
                      gt:4.7690946608781815e-02 }
                  - { var:5, quality:4.4040319323539734e-01,
                      le:2.0746572315692902e-01 }
                  - { var:6, quality:4.4037464261054993e-01,
                      le:1.6215974092483521e-01 }
                  - { var:8, quality:4.4002422690391541e-01,
                      le:2.7519100904464722e-01 }
                  - { var:26, quality:4.3949720263481140e-01,
                      le:9.4999998807907104e-01 }
            -
               depth: 1
               sample_count: 261
               value: -6.6771167445706769e-01
               norm_class_idx: 0
               Tn: 0
               complexity: 0
               alpha: 0.
               node_risk: 0.
               tree_risk: 0.
               tree_error: 0.
            -
               depth: 1
               sample_count: 62
               value: 6.6771167445706769e-01
               norm_class_idx: 1
               Tn: 0
               complexity: 0
               alpha: 0.
               node_risk: 0.
               tree_risk: 0.
               tree_error: 0.
      -
         best_tree_idx: -1
         nodes:
            -
               depth: 0
               sample_count: 323
               value: 6.4932784697888624e-01
               norm_class_idx: 1
               Tn: 0
               complexity: 0
               alpha: 0.
               node_risk: 0.
               tree_risk: 0.
               tree_error: 0.
               splits:
                  - { var:15, quality:6.4903461933135986e-01,
                      le:6.7806887626647949e-01 }
                  - { var:20, quality:5.8908224105834961e-01,
                      le:5.4917597770690918e-01 }
                  - { var:22, quality:5.8857595920562744e-01,
                      le:4.6740216016769409e-01 }
                  - { var:24, quality:5.8126080036163330e-01,
                      le:5.9522145986557007e-01 }
                  - { var:21, quality:5.8045423030853271e-01,
                      le:4.4552958011627197e-01 }
                  - { var:17, quality:5.7733094692230225e-01,
                      le:3.9166653156280518e-01 }
                  - { var:18, quality:5.6886422634124756e-01,
                      le:6.9492506980895996e-01 }
                  - { var:16, quality:5.6589746475219727e-01,
                      le:3.4538468718528748e-01 }
                  - { var:19, quality:5.5991452932357788e-01,
                      le:5.2676123380661011e-01 }
                  - { var:23, quality:5.5145949125289917e-01,
                      le:5.2905958890914917e-01 }
                  - { var:12, quality:5.5003666877746582e-01,
                      gt:2.2667042911052704e-01 }
                  - { var:13, quality:5.4971313476562500e-01,
                      le:3.9131581783294678e-01 }
                  - { var:14, quality:5.3734201192855835e-01,
                      le:7.5886517763137817e-01 }
                  - { var:39, quality:5.0892221927642822e-01,
                      gt:2.8588376007974148e-03 }
                  - { var:38, quality:5.0384467840194702e-01,
                      gt:2.8500631451606750e-03 }
                  - { var:30, quality:4.9460783600807190e-01,
                      gt:4.3243337422609329e-02 }
                  - { var:37, quality:4.8495349287986755e-01,
                      gt:2.0764765143394470e-01 }
                  - { var:31, quality:4.7983369231224060e-01,
                      gt:1.7754165828227997e-01 }
                  - { var:36, quality:4.7821816802024841e-01,
                      gt:2.1615390479564667e-01 }
                  - { var:3, quality:4.7378090023994446e-01,
                      le:3.8384273648262024e-02 }
                  - { var:33, quality:4.7242835164070129e-01,
                      gt:1.0335971415042877e-01 }
                  - { var:32, quality:4.7145876288414001e-01,
                      gt:1.4540287852287292e-01 }
                  - { var:0, quality:4.7035053372383118e-01,
                      le:3.2754085958003998e-02 }
                  - { var:35, quality:4.7003883123397827e-01,
                      gt:6.5330517292022705e-01 }
                  - { var:2, quality:4.6803945302963257e-01,
                      le:4.6390354633331299e-02 }
                  - { var:34, quality:4.6726682782173157e-01,
                      gt:6.1368614435195923e-01 }
                  - { var:6, quality:4.6629306674003601e-01,
                      gt:1.4148280024528503e-01 }
                  - { var:9, quality:4.6130132675170898e-01,
                      gt:1.6612124443054199e-01 }
                  - { var:5, quality:4.6125265955924988e-01,
                      gt:2.0746572315692902e-01 }
                  - { var:7, quality:4.6110039949417114e-01,
                      gt:1.9351539015769958e-01 }
                  - { var:29, quality:4.6107691526412964e-01,
                      gt:9.4999998807907104e-01 }
                  - { var:8, quality:4.5976918935775757e-01,
                      gt:2.7519100904464722e-01 }
                  - { var:10, quality:4.5966804027557373e-01,
                      le:1.4694849029183388e-02 }
                  - { var:4, quality:4.5955216884613037e-01,
                      gt:2.0712980628013611e-01 }
                  - { var:1, quality:4.5836538076400757e-01,
                      gt:1.9695807993412018e-01 }
                  - { var:11, quality:4.5818394422531128e-01,
                      gt:2.5777012109756470e-01 }
            -
               depth: 1
               sample_count: 121
               value: -6.4932784697888624e-01
               norm_class_idx: 0
               Tn: 0
               complexity: 0
               alpha: 0.
               node_risk: 0.
               tree_risk: 0.
               tree_error: 0.
            -
               depth: 1
               sample_count: 202
               value: 6.4932784697888624e-01
               norm_class_idx: 1
               Tn: 0
               complexity: 0
               alpha: 0.
               node_risk: 0.
               tree_risk: 0.
               tree_error: 0.
      -
         best_tree_idx: -1
         nodes:
            -
               depth: 0
               sample_count: 318
               value: -6.0656051930850297e-01
               norm_class_idx: 0
               Tn: 0
               complexity: 0
               alpha: 0.
               node_risk: 0.
               tree_risk: 0.
               tree_error: 0.
               splits:
                  - { var:14, quality:6.1826092004776001e-01,
                      le:9.9982267618179321e-01 }
                  - { var:13, quality:4.9941232800483704e-01,
                      gt:9.9989324808120728e-01 }
                  - { var:1, quality:4.1915443539619446e-01,
                      gt:1.0421568155288696e-01 }
                  - { var:18, quality:4.1749477386474609e-01,
                      le:5.2833509445190430e-01 }
                  - { var:36, quality:4.1417002677917480e-01,
                      le:6.0373909771442413e-02 }
                  - { var:23, quality:4.1261026263237000e-01,
                      le:5.2070927619934082e-01 }
                  - { var:21, quality:4.0991050004959106e-01,
                      gt:6.9353342056274414e-01 }
                  - { var:16, quality:4.0948525071144104e-01,
                      gt:6.4944535493850708e-01 }
                  - { var:37, quality:4.0868163108825684e-01,
                      le:6.7100912332534790e-02 }
                  - { var:19, quality:4.0545687079429626e-01,
                      le:5.1769614219665527e-01 }
                  - { var:12, quality:4.0309855341911316e-01,
                      gt:9.5408451557159424e-01 }
                  - { var:31, quality:3.9924767613410950e-01,
                      le:7.9421997070312500e-02 }
                  - { var:35, quality:3.9549747109413147e-01,
                      le:3.1085073947906494e-01 }
                  - { var:32, quality:3.9509573578834534e-01,
                      le:5.6444011628627777e-02 }
                  - { var:34, quality:3.9419347047805786e-01,
                      le:3.1984999775886536e-01 }
                  - { var:15, quality:3.8618600368499756e-01,
                      le:4.3808239698410034e-01 }
                  - { var:24, quality:3.8585454225540161e-01,
                      le:3.9428910613059998e-01 }
                  - { var:6, quality:3.8518264889717102e-01,
                      le:5.8314811438322067e-02 }
                  - { var:7, quality:3.8402545452117920e-01,
                      le:7.3036745190620422e-02 }
                  - { var:5, quality:3.8365545868873596e-01,
                      le:5.3133223205804825e-02 }
                  - { var:22, quality:3.8285002112388611e-01,
                      le:4.1460761427879333e-01 }
                  - { var:33, quality:3.8258129358291626e-01,
                      le:5.8052211999893188e-02 }
                  - { var:20, quality:3.7696585059165955e-01,
                      gt:6.8302977085113525e-01 }
                  - { var:17, quality:3.7448930740356445e-01,
                      gt:6.7910289764404297e-01 }
                  - { var:3, quality:3.7233275175094604e-01,
                      le:7.3190271854400635e-02 }
                  - { var:27, quality:3.6895817518234253e-01,
                      gt:5.5000001192092896e-01 }
                  - { var:29, quality:3.6674204468727112e-01,
                      gt:5.5000001192092896e-01 }
                  - { var:39, quality:3.6311009526252747e-01,
                      gt:3.1039910390973091e-03 }
                  - { var:38, quality:3.5997623205184937e-01,
                      le:1.7878063954412937e-03 }
                  - { var:4, quality:3.5480436682701111e-01,
                      le:8.9212119579315186e-02 }
                  - { var:8, quality:3.5407504439353943e-01,
                      le:5.6740134954452515e-02 }
                  - { var:2, quality:3.5398265719413757e-01,
                      gt:9.5088899135589600e-02 }
                  - { var:10, quality:3.5393747687339783e-01,
                      gt:1.1161123216152191e-01 }
                  - { var:11, quality:3.5297590494155884e-01,
                      gt:8.1195324659347534e-02 }
                  - { var:30, quality:3.5291916131973267e-01,
                      gt:5.5142968893051147e-02 }
                  - { var:26, quality:3.4826520085334778e-01,
                      le:2.5000000000000000e-01 }
                  - { var:0, quality:3.3999276161193848e-01,
                      gt:1.7188978195190430e-01 }
                  - { var:9, quality:3.3575546741485596e-01,
                      le:3.6189116537570953e-02 }
                  - { var:28, quality:3.3057749271392822e-01,
                      gt:8.5000002384185791e-01 }
                  - { var:25, quality:3.2953390479087830e-01,
                      le:1.5000000596046448e-01 }
            -
               depth: 1
               sample_count: 196
               value: -6.0656051930850297e-01
               norm_class_idx: 0
               Tn: 0
               complexity: 0
               alpha: 0.
               node_risk: 0.
               tree_risk: 0.
               tree_error: 0.
            -
               depth: 1
               sample_count: 122
               value: 6.0656051930850297e-01
               norm_class_idx: 1
               Tn: 0
               complexity: 0
               alpha: 0.
               node_risk: 0.
               tree_risk: 0.
               tree_error: 0.
      -
         best_tree_idx: -1
         nodes:
            -
               depth: 0
               sample_count: 315
               value: -5.5490607538292747e-01
               norm_class_idx: 0
               Tn: 0
               complexity: 0
               alpha: 0.
               node_risk: 0.
               tree_risk: 0.
               tree_error: 0.
               splits:
                  - { var:39, quality:5.9184426069259644e-01,
                      le:2.6050708256661892e-03 }
                  - { var:38, quality:5.5199772119522095e-01,
                      le:2.5212005712091923e-03 }
                  - { var:30, quality:5.3037160634994507e-01,
                      le:3.9248496294021606e-02 }
                  - { var:23, quality:4.9844932556152344e-01,
                      gt:7.3799526691436768e-01 }
                  - { var:18, quality:4.8651647567749023e-01,
                      gt:7.4355977773666382e-01 }
                  - { var:19, quality:4.8551478981971741e-01,
                      gt:7.1476805210113525e-01 }
                  - { var:14, quality:4.8036050796508789e-01,
                      gt:8.0424511432647705e-01 }
                  - { var:12, quality:4.7998166084289551e-01,
                      le:5.8950603008270264e-02 }
                  - { var:24, quality:4.7546911239624023e-01,
                      gt:7.3333328962326050e-01 }
                  - { var:15, quality:4.7393268346786499e-01,
                      gt:6.9912070035934448e-01 }
                  - { var:17, quality:4.6653169393539429e-01,
                      gt:3.3304429054260254e-01 }
                  - { var:22, quality:4.6416494250297546e-01,
                      gt:4.5278328657150269e-01 }
                  - { var:13, quality:4.6146523952484131e-01,
                      gt:1.1343343555927277e-01 }
                  - { var:21, quality:4.5857614278793335e-01,
                      gt:3.8334655761718750e-01 }
                  - { var:20, quality:4.5572045445442200e-01,
                      gt:3.7118661403656006e-01 }
                  - { var:16, quality:4.4822794198989868e-01,
                      gt:3.3458375930786133e-01 }
                  - { var:35, quality:4.3512225151062012e-01,
                      le:5.8061480522155762e-01 }
                  - { var:34, quality:4.1961681842803955e-01,
                      le:6.1368614435195923e-01 }
                  - { var:27, quality:4.1901654005050659e-01,
                      le:8.5000002384185791e-01 }
                  - { var:2, quality:4.1639852523803711e-01,
                      gt:4.7690946608781815e-02 }
                  - { var:11, quality:4.1105565428733826e-01,
                      le:1.8564578890800476e-01 }
                  - { var:10, quality:4.0396437048912048e-01,
                      le:1.4280703663825989e-01 }
                  - { var:32, quality:4.0356379747390747e-01,
                      le:1.3899302482604980e-01 }
                  - { var:8, quality:4.0343207120895386e-01,
                      le:8.4919482469558716e-02 }
                  - { var:0, quality:4.0184912085533142e-01,
                      gt:3.2754085958003998e-02 }
                  - { var:37, quality:4.0089705586433411e-01,
                      le:2.5978714227676392e-01 }
                  - { var:36, quality:4.0076628327369690e-01,
                      le:2.5028383731842041e-01 }
                  - { var:26, quality:3.9931803941726685e-01,
                      le:8.5000002384185791e-01 }
                  - { var:31, quality:3.9907535910606384e-01,
                      le:1.7754165828227997e-01 }
                  - { var:7, quality:3.9830496907234192e-01,
                      le:1.2945336103439331e-01 }
                  - { var:9, quality:3.9730679988861084e-01,
                      gt:3.7682697176933289e-02 }
                  - { var:33, quality:3.9498829841613770e-01,
                      le:1.2586706876754761e-01 }
                  - { var:6, quality:3.9449799060821533e-01,
                      le:1.1045546829700470e-01 }
                  - { var:4, quality:3.9324763417243958e-01,
                      le:1.6684277355670929e-01 }
                  - { var:5, quality:3.9156898856163025e-01,
                      le:2.0746572315692902e-01 }
                  - { var:3, quality:3.9101454615592957e-01,
                      gt:3.8340315222740173e-02 }
            -
               depth: 1
               sample_count: 235
               value: -5.5490607538292747e-01
               norm_class_idx: 0
               Tn: 0
               complexity: 0
               alpha: 0.
               node_risk: 0.
               tree_risk: 0.
               tree_error: 0.
            -
               depth: 1
               sample_count: 80
               value: 5.5490607538292747e-01
               norm_class_idx: 1
               Tn: 0
               complexity: 0
               alpha: 0.
               node_risk: 0.
               tree_risk: 0.
               tree_error: 0.
      -
         best_tree_idx: -1
         nodes:
            -
               depth: 0
               sample_count: 307
               value: -4.6830847138509457e-01
               norm_class_idx: 0
               Tn: 0
               complexity: 0
               alpha: 0.
               node_risk: 0.
               tree_risk: 0.
               tree_error: 0.
               splits:
                  - { var:31, quality:6.0310518741607666e-01,
                      le:1.1578531563282013e-01 }
                  - { var:33, quality:5.6047260761260986e-01,
                      le:8.0694168806076050e-02 }
                  - { var:32, quality:5.5168455839157104e-01,
                      le:8.5826098918914795e-02 }
                  - { var:36, quality:4.9884033203125000e-01,
                      le:1.3433188199996948e-01 }
                  - { var:37, quality:4.9319681525230408e-01,
                      le:1.1656774580478668e-01 }
                  - { var:34, quality:4.7218593955039978e-01,
                      le:4.8659652471542358e-01 }
                  - { var:35, quality:4.6359539031982422e-01,
                      le:4.7695705294609070e-01 }
                  - { var:13, quality:4.4714310765266418e-01,
                      gt:7.7852046489715576e-01 }
                  - { var:17, quality:4.4255524873733521e-01,
                      gt:3.8097697496414185e-01 }
                  - { var:22, quality:4.3159875273704529e-01,
                      gt:6.2392604351043701e-01 }
                  - { var:21, quality:4.2134022712707520e-01,
                      gt:5.9625053405761719e-01 }
                  - { var:24, quality:4.2111134529113770e-01,
                      gt:7.2306954860687256e-01 }
                  - { var:14, quality:4.1621333360671997e-01,
                      gt:7.0818793773651123e-01 }
                  - { var:18, quality:4.1515088081359863e-01,
                      gt:5.1755559444427490e-01 }
                  - { var:20, quality:4.1512793302536011e-01,
                      gt:5.0358599424362183e-01 }
                  - { var:12, quality:4.1337692737579346e-01,
                      le:5.6299591064453125e-01 }
                  - { var:16, quality:4.0852147340774536e-01,
                      gt:4.3688231706619263e-01 }
                  - { var:23, quality:4.0735134482383728e-01,
                      gt:5.1364582777023315e-01 }
                  - { var:19, quality:4.0725496411323547e-01,
                      gt:6.8845307826995850e-01 }
                  - { var:15, quality:4.0563791990280151e-01,
                      gt:5.0628209114074707e-01 }
                  - { var:7, quality:3.9382347464561462e-01,
                      le:1.0075321793556213e-01 }
                  - { var:8, quality:3.9225429296493530e-01,
                      le:8.6921453475952148e-02 }
                  - { var:38, quality:3.8193812966346741e-01,
                      le:2.7068073395639658e-03 }
                  - { var:39, quality:3.7549600005149841e-01,
                      le:2.7570906095206738e-03 }
                  - { var:3, quality:3.6994028091430664e-01,
                      le:9.6334487199783325e-02 }
                  - { var:0, quality:3.6665073037147522e-01,
                      gt:1.0220409929752350e-01 }
                  - { var:1, quality:3.6661010980606079e-01,
                      gt:6.1697967350482941e-02 }
                  - { var:6, quality:3.6357834935188293e-01,
                      le:1.3867822289466858e-01 }
                  - { var:26, quality:3.6313095688819885e-01,
                      le:8.5000002384185791e-01 }
                  - { var:5, quality:3.6265596747398376e-01,
                      le:2.0314887166023254e-01 }
                  - { var:9, quality:3.6156815290451050e-01,
                      le:1.1027333140373230e-01 }
                  - { var:25, quality:3.6134442687034607e-01,
                      le:9.4999998807907104e-01 }
                  - { var:4, quality:3.5997810959815979e-01,
                      le:1.4946037530899048e-01 }
                  - { var:2, quality:3.5674893856048584e-01,
                      gt:6.4882449805736542e-02 }
                  - { var:10, quality:3.5598188638687134e-01,
                      gt:1.4694849029183388e-02 }
                  - { var:30, quality:3.5525777935981750e-01,
                      gt:6.5710097551345825e-03 }
            -
               depth: 1
               sample_count: 177
               value: 4.6830847138509457e-01
               norm_class_idx: 1
               Tn: 0
               complexity: 0
               alpha: 0.
               node_risk: 0.
               tree_risk: 0.
               tree_error: 0.
            -
               depth: 1
               sample_count: 130
               value: -4.6830847138509457e-01
               norm_class_idx: 0
               Tn: 0
               complexity: 0
               alpha: 0.
               node_risk: 0.
               tree_risk: 0.
               tree_error: 0.
      -
         best_tree_idx: -1
         nodes:
            -
               depth: 0
               sample_count: 314
               value: -4.2730711648488517e-01
               norm_class_idx: 0
               Tn: 0
               complexity: 0
               alpha: 0.
               node_risk: 0.
               tree_risk: 0.
               tree_error: 0.
               splits:
                  - { var:6, quality:5.9049975872039795e-01,
                      le:5.3300470113754272e-02 }
                  - { var:0, quality:4.4843509793281555e-01,
                      gt:1.6884899139404297e-01 }
                  - { var:32, quality:4.2251002788543701e-01,
                      le:5.5035680532455444e-02 }
                  - { var:33, quality:4.2083597183227539e-01,
                      le:3.5868242383003235e-02 }
                  - { var:8, quality:4.2044746875762939e-01,
                      le:2.7158267796039581e-02 }
                  - { var:31, quality:4.1961762309074402e-01,
                      le:5.3674269467592239e-02 }
                  - { var:30, quality:4.1301235556602478e-01,
                      gt:9.5267854630947113e-02 }
                  - { var:1, quality:4.1229045391082764e-01,
                      gt:1.1703436821699142e-01 }
                  - { var:37, quality:4.1210594773292542e-01,
                      le:6.5255403518676758e-02 }
                  - { var:2, quality:4.1175588965415955e-01,
                      gt:1.6287854313850403e-01 }
                  - { var:34, quality:4.1057816147804260e-01,
                      le:3.4606707096099854e-01 }
                  - { var:38, quality:4.0837398171424866e-01,
                      gt:4.3710721656680107e-03 }
                  - { var:19, quality:4.0512931346893311e-01,
                      gt:8.4497165679931641e-01 }
                  - { var:10, quality:4.0450504422187805e-01,
                      gt:1.7389431595802307e-01 }
                  - { var:4, quality:4.0424144268035889e-01,
                      le:2.6913087815046310e-02 }
                  - { var:3, quality:4.0393504500389099e-01,
                      gt:1.7541909217834473e-01 }
                  - { var:39, quality:4.0314894914627075e-01,
                      le:5.0971109885722399e-04 }
                  - { var:18, quality:4.0233835577964783e-01,
                      gt:8.7219107151031494e-01 }
                  - { var:35, quality:4.0217614173889160e-01,
                      le:2.7711245417594910e-01 }
                  - { var:22, quality:4.0197053551673889e-01,
                      gt:8.3960515260696411e-01 }
                  - { var:7, quality:4.0139088034629822e-01,
                      le:2.3235268890857697e-02 }
                  - { var:13, quality:4.0101340413093567e-01,
                      gt:9.5043122768402100e-01 }
                  - { var:36, quality:4.0046405792236328e-01,
                      le:1.3920951634645462e-02 }
                  - { var:17, quality:4.0002757310867310e-01,
                      gt:8.5529124736785889e-01 }
                  - { var:16, quality:3.9973840117454529e-01,
                      gt:9.7437417507171631e-01 }
                  - { var:15, quality:3.9968854188919067e-01,
                      gt:9.3423241376876831e-01 }
                  - { var:9, quality:3.9932739734649658e-01,
                      gt:1.9534650444984436e-01 }
                  - { var:5, quality:3.9906606078147888e-01,
                      le:1.8902953714132309e-02 }
                  - { var:11, quality:3.9840522408485413e-01,
                      le:1.2933695688843727e-02 }
                  - { var:24, quality:3.9784255623817444e-01,
                      gt:8.3077514171600342e-01 }
                  - { var:20, quality:3.9607742428779602e-01,
                      gt:9.0091323852539062e-01 }
            -
               depth: 1
               sample_count: 134
               value: -4.2730711648488517e-01
               norm_class_idx: 0
               Tn: 0
               complexity: 0
               alpha: 0.
               node_risk: 0.
               tree_risk: 0.
               tree_error: 0.
            -
               depth: 1
               sample_count: 180
               value: 4.2730711648488517e-01
               norm_class_idx: 1
               Tn: 0
               complexity: 0
               alpha: 0.
               node_risk: 0.
               tree_risk: 0.
               tree_error: 0.
      -
         best_tree_idx: -1
         nodes:
            -
               depth: 0
               sample_count: 300
               value: -5.6262543047044666e-01
               norm_class_idx: 0
               Tn: 0
               complexity: 0
               alpha: 0.
               node_risk: 0.
               tree_risk: 0.
               tree_error: 0.
               splits:
                  - { var:32, quality:5.9747296571731567e-01,
                      le:4.1955657303333282e-02 }
                  - { var:31, quality:5.7773327827453613e-01,
                      le:5.9414260089397430e-02 }
                  - { var:33, quality:5.7211929559707642e-01,
                      le:4.5928087085485458e-02 }
                  - { var:37, quality:5.4662644863128662e-01,
                      le:5.2294269204139709e-02 }
                  - { var:36, quality:5.4189735651016235e-01,
                      le:5.0436742603778839e-02 }
                  - { var:34, quality:5.4148709774017334e-01,
                      le:2.9926484823226929e-01 }
                  - { var:35, quality:5.3866404294967651e-01,
                      le:2.9699897766113281e-01 }
                  - { var:28, quality:5.2105849981307983e-01,
                      gt:9.4999998807907104e-01 }
                  - { var:4, quality:5.1135104894638062e-01,
                      gt:1.8743360042572021e-01 }
                  - { var:23, quality:5.0973087549209595e-01,
                      gt:9.6787393093109131e-01 }
                  - { var:6, quality:5.0963133573532104e-01,
                      gt:2.4244926869869232e-01 }
                  - { var:9, quality:5.0961410999298096e-01,
                      le:1.3027722015976906e-02 }
                  - { var:11, quality:5.0956231355667114e-01,
                      le:6.5103881061077118e-03 }
                  - { var:39, quality:5.0923967361450195e-01,
                      le:8.5643245256505907e-05 }
                  - { var:30, quality:5.0923967361450195e-01,
                      le:1.8191605340689421e-04 }
                  - { var:1, quality:5.0923967361450195e-01,
                      gt:2.9110208153724670e-01 }
                  - { var:2, quality:5.0884729623794556e-01,
                      le:1.3191806152462959e-02 }
                  - { var:38, quality:5.0872957706451416e-01,
                      le:9.5919014711398631e-05 }
                  - { var:10, quality:5.0865668058395386e-01,
                      gt:2.0950008928775787e-01 }
            -
               depth: 1
               sample_count: 39
               value: 5.6262543047044666e-01
               norm_class_idx: 1
               Tn: 0
               complexity: 0
               alpha: 0.
               node_risk: 0.
               tree_risk: 0.
               tree_error: 0.
            -
               depth: 1
               sample_count: 261
               value: -5.6262543047044666e-01
               norm_class_idx: 0
               Tn: 0
               complexity: 0
               alpha: 0.
               node_risk: 0.
               tree_risk: 0.
               tree_error: 0.
      -
         best_tree_idx: -1
         nodes:
            -
               depth: 0
               sample_count: 289
               value: 4.9883601038496206e-01
               norm_class_idx: 1
               Tn: 0
               complexity: 0
               alpha: 0.
               node_risk: 0.
               tree_risk: 0.
               tree_error: 0.
               splits:
                  - { var:32, quality:6.0388791561126709e-01,
                      le:6.5026782453060150e-02 }
                  - { var:31, quality:5.6089621782302856e-01,
                      le:9.3811228871345520e-02 }
                  - { var:33, quality:5.5910211801528931e-01,
                      le:6.3579216599464417e-02 }
                  - { var:36, quality:5.2768033742904663e-01,
                      le:9.1795802116394043e-02 }
                  - { var:35, quality:5.1781851053237915e-01,
                      le:4.2427814006805420e-01 }
                  - { var:37, quality:5.1228266954421997e-01,
                      le:9.8192408680915833e-02 }
                  - { var:34, quality:5.0910979509353638e-01,
                      le:4.2705959081649780e-01 }
                  - { var:13, quality:4.5715099573135376e-01,
                      gt:9.8812365531921387e-01 }
                  - { var:17, quality:4.3365436792373657e-01,
                      gt:7.2859466075897217e-01 }
                  - { var:22, quality:4.2318308353424072e-01,
                      gt:7.3535227775573730e-01 }
                  - { var:24, quality:4.2195519804954529e-01,
                      gt:7.8283298015594482e-01 }
                  - { var:18, quality:4.2106831073760986e-01,
                      gt:8.4275627136230469e-01 }
                  - { var:0, quality:4.1917854547500610e-01,
                      gt:1.8307507038116455e-01 }
                  - { var:1, quality:4.1461408138275146e-01,
                      gt:1.2088012695312500e-01 }
                  - { var:39, quality:4.1096392273902893e-01,
                      le:1.3540259096771479e-03 }
                  - { var:20, quality:4.0885820984840393e-01,
                      gt:7.1926653385162354e-01 }
                  - { var:30, quality:4.0818277001380920e-01,
                      le:1.1110939085483551e-02 }
                  - { var:7, quality:4.0630289912223816e-01,
                      le:2.8545107692480087e-02 }
                  - { var:29, quality:4.0423980355262756e-01,
                      gt:8.5000002384185791e-01 }
                  - { var:11, quality:4.0392929315567017e-01,
                      le:5.0562530755996704e-02 }
                  - { var:21, quality:4.0123599767684937e-01,
                      gt:6.7788624763488770e-01 }
                  - { var:38, quality:4.0022647380828857e-01,
                      le:7.8853016020730138e-04 }
                  - { var:23, quality:3.9701080322265625e-01,
                      gt:8.2783174514770508e-01 }
                  - { var:6, quality:3.9602091908454895e-01,
                      le:5.1291324198246002e-02 }
                  - { var:4, quality:3.9409622550010681e-01,
                      gt:1.7695951461791992e-01 }
                  - { var:3, quality:3.9379465579986572e-01,
                      le:2.7082433924078941e-02 }
                  - { var:10, quality:3.9262467622756958e-01,
                      gt:1.7389431595802307e-01 }
                  - { var:9, quality:3.9176571369171143e-01,
                      gt:1.6414071619510651e-01 }
                  - { var:2, quality:3.9026433229446411e-01,
                      le:4.3665051460266113e-02 }
                  - { var:5, quality:3.9010995626449585e-01,
                      le:2.6916310191154480e-02 }
                  - { var:19, quality:3.8880285620689392e-01,
                      gt:8.3614790439605713e-01 }
                  - { var:8, quality:3.8762483000755310e-01,
                      le:2.4666439741849899e-02 }
            -
               depth: 1
               sample_count: 135
               value: -4.9883601038496206e-01
               norm_class_idx: 0
               Tn: 0
               complexity: 0
               alpha: 0.
               node_risk: 0.
               tree_risk: 0.
               tree_error: 0.
            -
               depth: 1
               sample_count: 154
               value: 4.9883601038496206e-01
               norm_class_idx: 1
               Tn: 0
               complexity: 0
               alpha: 0.
               node_risk: 0.
               tree_risk: 0.
               tree_error: 0.
      -
         best_tree_idx: -1
         nodes:
            -
               depth: 0
               sample_count: 288
               value: -3.7292386448449361e-01
               norm_class_idx: 0
               Tn: 0
               complexity: 0
               alpha: 0.
               node_risk: 0.
               tree_risk: 0.
               tree_error: 0.
               splits:
                  - { var:2, quality:5.7288050651550293e-01,
                      le:1.0818082094192505e-01 }
                  - { var:8, quality:4.4753843545913696e-01,
                      gt:3.7515521049499512e-02 }
                  - { var:10, quality:4.3143495917320251e-01,
                      gt:2.6451252400875092e-02 }
                  - { var:29, quality:4.2852205038070679e-01,
                      le:8.5000002384185791e-01 }
                  - { var:37, quality:4.2552822828292847e-01,
                      gt:2.8192717581987381e-02 }
                  - { var:35, quality:4.2427629232406616e-01,
                      gt:2.8475412726402283e-01 }
                  - { var:18, quality:4.2249819636344910e-01,
                      le:9.1024994850158691e-01 }
                  - { var:7, quality:4.2218959331512451e-01,
                      le:1.4334116876125336e-01 }
                  - { var:32, quality:4.2086032032966614e-01,
                      le:1.2757229804992676e-01 }
                  - { var:22, quality:4.2084479331970215e-01,
                      le:8.6012357473373413e-01 }
                  - { var:33, quality:4.1979405283927917e-01,
                      gt:2.9731836169958115e-02 }
                  - { var:20, quality:4.1941502690315247e-01,
                      le:8.6490416526794434e-01 }
                  - { var:36, quality:4.1925621032714844e-01,
                      gt:3.0485492199659348e-02 }
                  - { var:24, quality:4.1923448443412781e-01,
                      le:9.2363041639328003e-01 }
                  - { var:31, quality:4.1871723532676697e-01,
                      le:1.8869784474372864e-01 }
                  - { var:3, quality:4.1871097683906555e-01,
                      le:1.8433856964111328e-01 }
                  - { var:39, quality:4.1870576143264771e-01,
                      gt:9.7234628628939390e-04 }
                  - { var:30, quality:4.1854584217071533e-01,
                      gt:5.1264613866806030e-03 }
                  - { var:34, quality:4.1754713654518127e-01,
                      gt:2.9590451717376709e-01 }
                  - { var:4, quality:4.1741973161697388e-01,
                      le:1.8581713736057281e-01 }
                  - { var:21, quality:4.1693875193595886e-01,
                      le:8.9579164981842041e-01 }
                  - { var:19, quality:4.1534933447837830e-01,
                      gt:6.6813640296459198e-02 }
                  - { var:6, quality:4.1534376144409180e-01,
                      gt:4.3461766093969345e-02 }
                  - { var:5, quality:4.1530573368072510e-01,
                      gt:2.5230776518583298e-02 }
                  - { var:17, quality:4.1436126828193665e-01,
                      le:8.5529124736785889e-01 }
                  - { var:1, quality:4.1406741738319397e-01,
                      le:2.5797015428543091e-01 }
                  - { var:23, quality:4.1400662064552307e-01,
                      le:9.5086699724197388e-01 }
                  - { var:38, quality:4.1381800174713135e-01,
                      gt:3.0920951394364238e-04 }
                  - { var:0, quality:4.1380515694618225e-01,
                      gt:2.2274211049079895e-02 }
            -
               depth: 1
               sample_count: 175
               value: 3.7292386448449361e-01
               norm_class_idx: 1
               Tn: 0
               complexity: 0
               alpha: 0.
               node_risk: 0.
               tree_risk: 0.
               tree_error: 0.
            -
               depth: 1
               sample_count: 113
               value: -3.7292386448449361e-01
               norm_class_idx: 0
               Tn: 0
               complexity: 0
               alpha: 0.
               node_risk: 0.
               tree_risk: 0.
               tree_error: 0.
      -
         best_tree_idx: -1
         nodes:
            -
               depth: 0
               sample_count: 292
               value: -4.4840378862505947e-01
               norm_class_idx: 0
               Tn: 0
               complexity: 0
               alpha: 0.
               node_risk: 0.
               tree_risk: 0.
               tree_error: 0.
               splits:
                  - { var:20, quality:5.8237296342849731e-01,
                      le:7.4199116230010986e-01 }
                  - { var:17, quality:5.4760217666625977e-01,
                      le:7.3929011821746826e-01 }
                  - { var:22, quality:5.4065328836441040e-01,
                      le:7.5874495506286621e-01 }
                  - { var:21, quality:5.2357447147369385e-01,
                      le:6.9833606481552124e-01 }
                  - { var:16, quality:5.0269573926925659e-01,
                      le:6.2128674983978271e-01 }
                  - { var:24, quality:4.9633401632308960e-01,
                      le:7.9160642623901367e-01 }
                  - { var:18, quality:4.7043719887733459e-01,
                      le:8.7852615118026733e-01 }
                  - { var:23, quality:4.6606764197349548e-01,
                      le:8.2851958274841309e-01 }
                  - { var:13, quality:4.6565678715705872e-01,
                      le:8.1072092056274414e-01 }
                  - { var:30, quality:4.5435068011283875e-01,
                      gt:1.1110939085483551e-02 }
                  - { var:39, quality:4.5298248529434204e-01,
                      gt:1.3540259096771479e-03 }
                  - { var:19, quality:4.4891443848609924e-01,
                      le:8.2362902164459229e-01 }
                  - { var:15, quality:4.4720008969306946e-01,
                      le:7.6698088645935059e-01 }
                  - { var:32, quality:4.4525641202926636e-01,
                      gt:4.8768650740385056e-02 }
                  - { var:38, quality:4.4154128432273865e-01,
                      gt:1.5277793863788247e-03 }
                  - { var:31, quality:4.3875840306282043e-01,
                      gt:7.9566299915313721e-02 }
                  - { var:33, quality:4.3817523121833801e-01,
                      gt:4.6036876738071442e-02 }
                  - { var:34, quality:4.3302521109580994e-01,
                      gt:3.6452472209930420e-01 }
                  - { var:35, quality:4.2595410346984863e-01,
                      gt:3.8563030958175659e-01 }
                  - { var:37, quality:4.2176702618598938e-01,
                      gt:6.1824597418308258e-02 }
                  - { var:36, quality:4.1595861315727234e-01,
                      gt:6.0858942568302155e-02 }
                  - { var:2, quality:3.8680413365364075e-01,
                      le:1.2265072762966156e-01 }
                  - { var:0, quality:3.8054779171943665e-01,
                      le:2.1616087853908539e-01 }
                  - { var:1, quality:3.7578177452087402e-01,
                      le:1.1279748380184174e-01 }
                  - { var:8, quality:3.7552320957183838e-01,
                      gt:2.7158267796039581e-02 }
                  - { var:6, quality:3.7343785166740417e-01,
                      gt:5.0012983381748199e-02 }
                  - { var:28, quality:3.7008810043334961e-01,
                      le:8.5000002384185791e-01 }
                  - { var:4, quality:3.6733174324035645e-01,
                      gt:4.4088378548622131e-02 }
                  - { var:10, quality:3.6623331904411316e-01,
                      gt:3.5236261785030365e-02 }
                  - { var:3, quality:3.6609154939651489e-01,
                      le:1.9415441155433655e-01 }
                  - { var:11, quality:3.6566215753555298e-01,
                      gt:3.1548954546451569e-02 }
                  - { var:12, quality:3.6382248997688293e-01,
                      gt:1.6712751984596252e-01 }
                  - { var:5, quality:3.6082142591476440e-01,
                      gt:2.0220451056957245e-02 }
                  - { var:9, quality:3.6008962988853455e-01,
                      le:2.0082436501979828e-01 }
                  - { var:7, quality:3.5811215639114380e-01,
                      gt:1.2555386871099472e-02 }
            -
               depth: 1
               sample_count: 181
               value: -4.4840378862505947e-01
               norm_class_idx: 0
               Tn: 0
               complexity: 0
               alpha: 0.
               node_risk: 0.
               tree_risk: 0.
               tree_error: 0.
            -
               depth: 1
               sample_count: 111
               value: 4.4840378862505947e-01
               norm_class_idx: 1
               Tn: 0
               complexity: 0
               alpha: 0.
               node_risk: 0.
               tree_risk: 0.
               tree_error: 0.
      -
         best_tree_idx: -1
         nodes:
            -
               depth: 0
               sample_count: 288
               value: -3.3290117591863705e-01
               norm_class_idx: 0
               Tn: 0
               complexity: 0
               alpha: 0.
               node_risk: 0.
               tree_risk: 0.
               tree_error: 0.
               splits:
                  - { var:7, quality:5.7038336992263794e-01,
                      le:5.3624965250492096e-02 }
                  - { var:1, quality:4.2764744162559509e-01,
                      gt:1.3149340450763702e-01 }
                  - { var:11, quality:4.1498121619224548e-01,
                      gt:9.5525205135345459e-02 }
                  - { var:2, quality:4.0632236003875732e-01,
                      le:5.5898472666740417e-02 }
                  - { var:4, quality:4.0287375450134277e-01,
                      gt:1.4946037530899048e-01 }
                  - { var:37, quality:3.9787927269935608e-01,
                      gt:2.5483405590057373e-01 }
                  - { var:10, quality:3.9696878194808960e-01,
                      gt:1.6768911480903625e-01 }
                  - { var:3, quality:3.9664068818092346e-01,
                      gt:1.3356898725032806e-01 }
                  - { var:36, quality:3.9657443761825562e-01,
                      le:4.7810718417167664e-02 }
                  - { var:5, quality:3.9635965228080750e-01,
                      le:4.5813187956809998e-02 }
                  - { var:31, quality:3.9624494314193726e-01,
                      le:5.1611222326755524e-02 }
                  - { var:34, quality:3.9508441090583801e-01,
                      le:2.7019694447517395e-01 }
                  - { var:6, quality:3.9453691244125366e-01,
                      le:2.5496777147054672e-02 }
                  - { var:9, quality:3.9101064205169678e-01,
                      le:3.4363940358161926e-02 }
                  - { var:33, quality:3.8660582900047302e-01,
                      le:3.1688779592514038e-02 }
                  - { var:35, quality:3.8653355836868286e-01,
                      le:2.3381415009498596e-01 }
                  - { var:32, quality:3.8644281029701233e-01,
                      le:2.8260473161935806e-02 }
                  - { var:17, quality:3.8530334830284119e-01,
                      le:6.3196741044521332e-02 }
                  - { var:0, quality:3.8460156321525574e-01,
                      gt:2.4633750319480896e-01 }
                  - { var:21, quality:3.8431775569915771e-01,
                      le:6.7822255194187164e-02 }
                  - { var:25, quality:3.8361519575119019e-01,
                      gt:7.5000000000000000e-01 }
                  - { var:8, quality:3.8252460956573486e-01,
                      le:1.3045991770923138e-02 }
                  - { var:23, quality:3.8189071416854858e-01,
                      gt:9.4908982515335083e-01 }
                  - { var:19, quality:3.8168925046920776e-01,
                      le:6.6813640296459198e-02 }
                  - { var:30, quality:3.8129591941833496e-01,
                      gt:1.0297899693250656e-01 }
                  - { var:38, quality:3.8121858239173889e-01,
                      le:2.6088854065164924e-04 }
                  - { var:39, quality:3.8113307952880859e-01,
                      le:1.1730074766092002e-04 }
            -
               depth: 1
               sample_count: 104
               value: -3.3290117591863705e-01
               norm_class_idx: 0
               Tn: 0
               complexity: 0
               alpha: 0.
               node_risk: 0.
               tree_risk: 0.
               tree_error: 0.
            -
               depth: 1
               sample_count: 184
               value: 3.3290117591863705e-01
               norm_class_idx: 1
               Tn: 0
               complexity: 0
               alpha: 0.
               node_risk: 0.
               tree_risk: 0.
               tree_error: 0.
      -
         best_tree_idx: -1
         nodes:
            -
               depth: 0
               sample_count: 295
               value: -4.7537973324106020e-01
               norm_class_idx: 0
               Tn: 0
               complexity: 0
               alpha: 0.
               node_risk: 0.
               tree_risk: 0.
               tree_error: 0.
               splits:
                  - { var:11, quality:5.8208948373794556e-01,
                      le:7.2977446019649506e-02 }
                  - { var:5, quality:3.9291387796401978e-01,
                      gt:5.0217177718877792e-02 }
                  - { var:10, quality:3.8751363754272461e-01,
                      le:1.0157591104507446e-01 }
                  - { var:7, quality:3.8738638162612915e-01,
                      gt:3.6535657942295074e-02 }
                  - { var:20, quality:3.8681119680404663e-01,
                      gt:4.3233209848403931e-01 }
                  - { var:2, quality:3.8664934039115906e-01,
                      gt:4.6809047460556030e-02 }
                  - { var:37, quality:3.8621842861175537e-01,
                      le:2.2619220614433289e-01 }
                  - { var:24, quality:3.8500955700874329e-01,
                      gt:3.0693185329437256e-01 }
                  - { var:16, quality:3.8491553068161011e-01,
                      gt:3.7315267324447632e-01 }
                  - { var:22, quality:3.8433361053466797e-01,
                      gt:2.9996979236602783e-01 }
                  - { var:3, quality:3.8418164849281311e-01,
                      gt:4.6768113970756531e-02 }
                  - { var:19, quality:3.8388514518737793e-01,
                      gt:1.3274374604225159e-01 }
                  - { var:21, quality:3.8346856832504272e-01,
                      gt:2.1467703580856323e-01 }
                  - { var:15, quality:3.8273620605468750e-01,
                      gt:1.6487151384353638e-01 }
                  - { var:27, quality:3.8236457109451294e-01,
                      le:9.4999998807907104e-01 }
                  - { var:18, quality:3.8157314062118530e-01,
                      gt:3.1380680203437805e-01 }
                  - { var:23, quality:3.8136172294616699e-01,
                      gt:1.5918292105197906e-01 }
                  - { var:25, quality:3.8115206360816956e-01,
                      le:7.5000000000000000e-01 }
                  - { var:36, quality:3.7791305780410767e-01,
                      le:2.4814197421073914e-01 }
                  - { var:17, quality:3.7774735689163208e-01,
                      le:8.8864743709564209e-01 }
                  - { var:30, quality:3.7754210829734802e-01,
                      le:8.3891540765762329e-02 }
                  - { var:14, quality:3.7423437833786011e-01,
                      gt:3.5153687000274658e-01 }
                  - { var:4, quality:3.7300440669059753e-01,
                      gt:2.6913087815046310e-02 }
                  - { var:39, quality:3.7224775552749634e-01,
                      le:4.8469775356352329e-03 }
                  - { var:33, quality:3.7176904082298279e-01,
                      le:1.6113132238388062e-01 }
                  - { var:0, quality:3.7154403328895569e-01,
                      le:4.1976255178451538e-01 }
                  - { var:32, quality:3.7127840518951416e-01,
                      le:1.6295507550239563e-01 }
                  - { var:6, quality:3.7061694264411926e-01,
                      le:2.2094814479351044e-01 }
                  - { var:9, quality:3.6999702453613281e-01,
                      le:2.6655155420303345e-01 }
                  - { var:31, quality:3.6985126137733459e-01,
                      le:1.9928425550460815e-01 }
                  - { var:38, quality:3.6970177292823792e-01,
                      le:3.8967861328274012e-03 }
                  - { var:34, quality:3.6956489086151123e-01,
                      le:7.4444389343261719e-01 }
                  - { var:8, quality:3.6952584981918335e-01,
                      le:1.0438627004623413e-01 }
                  - { var:1, quality:3.6931484937667847e-01,
                      gt:2.4367988109588623e-02 }
            -
               depth: 1
               sample_count: 203
               value: -4.7537973324106020e-01
               norm_class_idx: 0
               Tn: 0
               complexity: 0
               alpha: 0.
               node_risk: 0.
               tree_risk: 0.
               tree_error: 0.
            -
               depth: 1
               sample_count: 92
               value: 4.7537973324106020e-01
               norm_class_idx: 1
               Tn: 0
               complexity: 0
               alpha: 0.
               node_risk: 0.
               tree_risk: 0.
               tree_error: 0.
      -
         best_tree_idx: -1
         nodes:
            -
               depth: 0
               sample_count: 288
               value: -4.1985327783479270e-01
               norm_class_idx: 0
               Tn: 0
               complexity: 0
               alpha: 0.
               node_risk: 0.
               tree_risk: 0.
               tree_error: 0.
               splits:
                  - { var:25, quality:5.7154989242553711e-01,
                      le:2.5000000000000000e-01 }
                  - { var:11, quality:3.6001199483871460e-01,
                      le:8.1195324659347534e-02 }
                  - { var:8, quality:3.5752710700035095e-01,
                      gt:5.8619700372219086e-02 }
                  - { var:6, quality:3.5234951972961426e-01,
                      le:5.8421552181243896e-02 }
                  - { var:3, quality:3.4907123446464539e-01,
                      le:9.4434961676597595e-02 }
                  - { var:16, quality:3.4147864580154419e-01,
                      le:7.2571748495101929e-01 }
                  - { var:0, quality:3.3782121539115906e-01,
                      gt:8.9164391160011292e-02 }
                  - { var:5, quality:3.3752527832984924e-01,
                      gt:5.1745787262916565e-02 }
                  - { var:1, quality:3.3593916893005371e-01,
                      gt:1.0512863099575043e-01 }
                  - { var:10, quality:3.3561766147613525e-01,
                      le:8.0202057957649231e-02 }
                  - { var:9, quality:3.3225727081298828e-01,
                      gt:4.9608126282691956e-02 }
                  - { var:27, quality:3.3166235685348511e-01,
                      gt:3.5000002384185791e-01 }
                  - { var:38, quality:3.3076336979866028e-01,
                      gt:2.0710746757686138e-03 }
                  - { var:17, quality:3.3037063479423523e-01,
                      le:5.7147157192230225e-01 }
                  - { var:24, quality:3.3009272813796997e-01,
                      le:7.2632050514221191e-01 }
                  - { var:35, quality:3.2912221550941467e-01,
                      le:5.3760373592376709e-01 }
                  - { var:18, quality:3.2757690548896790e-01,
                      le:8.5169279575347900e-01 }
                  - { var:29, quality:3.2698670029640198e-01,
                      gt:4.4999998807907104e-01 }
                  - { var:13, quality:3.2648304104804993e-01,
                      le:6.8853062391281128e-01 }
                  - { var:22, quality:3.2404106855392456e-01,
                      le:6.7303162813186646e-01 }
                  - { var:23, quality:3.2383030652999878e-01,
                      le:8.6425411701202393e-01 }
                  - { var:28, quality:3.2381200790405273e-01,
                      gt:2.5000000000000000e-01 }
                  - { var:21, quality:3.2338771224021912e-01,
                      le:5.6174933910369873e-01 }
                  - { var:7, quality:3.2309335470199585e-01,
                      gt:5.1538638770580292e-02 }
                  - { var:36, quality:3.2132855057716370e-01,
                      le:1.4755372703075409e-01 }
                  - { var:26, quality:3.2132282853126526e-01,
                      gt:2.5000000000000000e-01 }
                  - { var:12, quality:3.2047906517982483e-01,
                      le:5.3174299001693726e-01 }
                  - { var:15, quality:3.2044076919555664e-01,
                      le:8.3484226465225220e-01 }
                  - { var:14, quality:3.1941297650337219e-01,
                      gt:9.2594611644744873e-01 }
                  - { var:34, quality:3.1919100880622864e-01,
                      le:5.3299605846405029e-01 }
                  - { var:33, quality:3.1912893056869507e-01,
                      le:3.9408929646015167e-02 }
                  - { var:39, quality:3.1907805800437927e-01,
                      gt:1.1418680660426617e-03 }
                  - { var:31, quality:3.1866630911827087e-01,
                      gt:1.1030849814414978e-01 }
                  - { var:20, quality:3.1816351413726807e-01,
                      le:6.3871395587921143e-01 }
                  - { var:30, quality:3.1800442934036255e-01,
                      gt:3.7777945399284363e-02 }
                  - { var:32, quality:3.1701639294624329e-01,
                      gt:1.0238616168498993e-01 }
                  - { var:37, quality:3.1599989533424377e-01,
                      gt:9.7413316369056702e-02 }
                  - { var:4, quality:3.1560412049293518e-01,
                      le:1.1045671999454498e-01 }
                  - { var:2, quality:3.1454232335090637e-01,
                      gt:1.2165481597185135e-01 }
                  - { var:19, quality:3.1204259395599365e-01,
                      gt:4.9171432852745056e-01 }
            -
               depth: 1
               sample_count: 128
               value: 4.1985327783479270e-01
               norm_class_idx: 1
               Tn: 0
               complexity: 0
               alpha: 0.
               node_risk: 0.
               tree_risk: 0.
               tree_error: 0.
            -
               depth: 1
               sample_count: 160
               value: -4.1985327783479270e-01
               norm_class_idx: 0
               Tn: 0
               complexity: 0
               alpha: 0.
               node_risk: 0.
               tree_risk: 0.
               tree_error: 0.
      -
         best_tree_idx: -1
         nodes:
            -
               depth: 0
               sample_count: 284
               value: -4.7218919442815627e-01
               norm_class_idx: 0
               Tn: 0
               complexity: 0
               alpha: 0.
               node_risk: 0.
               tree_risk: 0.
               tree_error: 0.
               splits:
                  - { var:0, quality:5.7220792770385742e-01,
                      le:6.3538774847984314e-02 }
                  - { var:5, quality:5.1071184873580933e-01,
                      gt:1.8987976014614105e-01 }
                  - { var:11, quality:5.0680798292160034e-01,
                      le:1.3162016868591309e-02 }
                  - { var:10, quality:5.0121754407882690e-01,
                      gt:1.6768911480903625e-01 }
                  - { var:8, quality:5.0040394067764282e-01,
                      gt:1.8567088246345520e-01 }
                  - { var:33, quality:5.0019842386245728e-01,
                      gt:1.5850397944450378e-01 }
                  - { var:6, quality:4.9971410632133484e-01,
                      gt:1.1045546829700470e-01 }
                  - { var:30, quality:4.9739435315132141e-01,
                      gt:1.1470176279544830e-01 }
                  - { var:39, quality:4.9593511223793030e-01,
                      gt:5.2667353302240372e-03 }
                  - { var:38, quality:4.9593511223793030e-01,
                      gt:5.1690991967916489e-03 }
                  - { var:1, quality:4.9501928687095642e-01,
                      le:2.7018213644623756e-02 }
                  - { var:2, quality:4.9468326568603516e-01,
                      le:2.9110338538885117e-02 }
                  - { var:9, quality:4.9407103657722473e-01,
                      le:2.2422971203923225e-02 }
                  - { var:7, quality:4.9305826425552368e-01,
                      le:8.7590478360652924e-03 }
                  - { var:37, quality:4.9261707067489624e-01,
                      le:9.1116400435566902e-03 }
            -
               depth: 1
               sample_count: 31
               value: 4.7218919442815627e-01
               norm_class_idx: 1
               Tn: 0
               complexity: 0
               alpha: 0.
               node_risk: 0.
               tree_risk: 0.
               tree_error: 0.
            -
               depth: 1
               sample_count: 253
               value: -4.7218919442815627e-01
               norm_class_idx: 0
               Tn: 0
               complexity: 0
               alpha: 0.
               node_risk: 0.
               tree_risk: 0.
               tree_error: 0.
      -
         best_tree_idx: -1
         nodes:
            -
               depth: 0
               sample_count: 272
               value: 4.3853134158647994e-01
               norm_class_idx: 1
               Tn: 0
               complexity: 0
               alpha: 0.
               node_risk: 0.
               tree_risk: 0.
               tree_error: 0.
               splits:
                  - { var:5, quality:5.9988284111022949e-01,
                      le:4.5934643596410751e-02 }
                  - { var:17, quality:5.2884525060653687e-01,
                      le:6.9017827510833740e-02 }
                  - { var:1, quality:5.2725076675415039e-01,
                      le:3.0435213819146156e-02 }
                  - { var:7, quality:5.2679187059402466e-01,
                      gt:1.8362455070018768e-01 }
                  - { var:8, quality:5.2649575471878052e-01,
                      gt:1.9788902997970581e-01 }
                  - { var:39, quality:5.2571791410446167e-01,
                      gt:5.2667353302240372e-03 }
                  - { var:38, quality:5.2571791410446167e-01,
                      gt:5.1690991967916489e-03 }
                  - { var:30, quality:5.2571791410446167e-01,
                      gt:1.4572313427925110e-01 }
                  - { var:2, quality:5.2569109201431274e-01,
                      le:2.5977984070777893e-02 }
                  - { var:21, quality:5.2464365959167480e-01,
                      le:2.7158034965395927e-02 }
                  - { var:0, quality:5.2426248788833618e-01,
                      gt:2.4633750319480896e-01 }
                  - { var:3, quality:5.2391862869262695e-01,
                      le:3.0663773417472839e-02 }
                  - { var:4, quality:5.2379518747329712e-01,
                      le:3.0328765511512756e-02 }
                  - { var:10, quality:5.2309590578079224e-01,
                      le:9.0409982949495316e-03 }
                  - { var:9, quality:5.2304023504257202e-01,
                      gt:2.1806803345680237e-01 }
                  - { var:34, quality:5.2294528484344482e-01,
                      gt:7.4444389343261719e-01 }
                  - { var:6, quality:5.2232593297958374e-01,
                      gt:2.4244926869869232e-01 }
                  - { var:33, quality:5.2230298519134521e-01,
                      gt:1.6231614351272583e-01 }
                  - { var:19, quality:5.2218031883239746e-01,
                      gt:9.9577820301055908e-01 }
                  - { var:37, quality:5.2196991443634033e-01,
                      le:9.1116400435566902e-03 }
                  - { var:35, quality:5.2184611558914185e-01,
                      gt:7.6313823461532593e-01 }
            -
               depth: 1
               sample_count: 54
               value: -4.3853134158647994e-01
               norm_class_idx: 0
               Tn: 0
               complexity: 0
               alpha: 0.
               node_risk: 0.
               tree_risk: 0.
               tree_error: 0.
            -
               depth: 1
               sample_count: 218
               value: 4.3853134158647994e-01
               norm_class_idx: 1
               Tn: 0
               complexity: 0
               alpha: 0.
               node_risk: 0.
               tree_risk: 0.
               tree_error: 0.
      -
         best_tree_idx: -1
         nodes:
            -
               depth: 0
               sample_count: 284
               value: -4.0961227454779170e-01
               norm_class_idx: 0
               Tn: 0
               complexity: 0
               alpha: 0.
               node_risk: 0.
               tree_risk: 0.
               tree_error: 0.
               splits:
                  - { var:3, quality:5.6399935483932495e-01,
                      le:8.1729136407375336e-02 }
                  - { var:11, quality:4.0786573290824890e-01,
                      gt:3.9595931768417358e-02 }
                  - { var:9, quality:3.9265412092208862e-01,
                      gt:6.3266322016716003e-02 }
                  - { var:37, quality:3.7145069241523743e-01,
                      le:1.7100670933723450e-01 }
                  - { var:4, quality:3.6827787756919861e-01,
                      le:6.6931962966918945e-02 }
                  - { var:34, quality:3.6437121033668518e-01,
                      le:4.9522179365158081e-01 }
                  - { var:35, quality:3.5802072286605835e-01,
                      le:5.3316986560821533e-01 }
                  - { var:24, quality:3.5767099261283875e-01,
                      le:8.3651506900787354e-01 }
                  - { var:19, quality:3.5123425722122192e-01,
                      le:8.7073975801467896e-01 }
                  - { var:28, quality:3.4863328933715820e-01,
                      le:8.5000002384185791e-01 }
                  - { var:15, quality:3.4694024920463562e-01,
                      le:8.6723411083221436e-01 }
                  - { var:18, quality:3.4592181444168091e-01,
                      gt:5.6023502349853516e-01 }
                  - { var:23, quality:3.4264707565307617e-01,
                      le:8.6143505573272705e-01 }
                  - { var:33, quality:3.4246182441711426e-01,
                      gt:3.7024583667516708e-02 }
                  - { var:22, quality:3.4103029966354370e-01,
                      le:8.1059896945953369e-01 }
                  - { var:31, quality:3.4092935919761658e-01,
                      gt:5.1985211670398712e-02 }
                  - { var:36, quality:3.4091365337371826e-01,
                      le:1.6817718744277954e-01 }
                  - { var:39, quality:3.4037327766418457e-01,
                      le:3.1720430124551058e-03 }
                  - { var:21, quality:3.3863633871078491e-01,
                      le:7.4676817655563354e-01 }
                  - { var:10, quality:3.3834147453308105e-01,
                      gt:6.6762328147888184e-02 }
                  - { var:30, quality:3.3785519003868103e-01,
                      le:5.3244382143020630e-02 }
                  - { var:14, quality:3.3757951855659485e-01,
                      gt:7.9951101541519165e-01 }
                  - { var:17, quality:3.3712378144264221e-01,
                      gt:6.4600121974945068e-01 }
                  - { var:32, quality:3.3628851175308228e-01,
                      gt:2.9240287840366364e-02 }
                  - { var:26, quality:3.3473256230354309e-01,
                      le:5.5000001192092896e-01 }
                  - { var:0, quality:3.3444672822952271e-01,
                      le:1.8698637187480927e-01 }
                  - { var:38, quality:3.3362752199172974e-01,
                      le:3.2737555447965860e-03 }
                  - { var:25, quality:3.3072084188461304e-01,
                      le:9.4999998807907104e-01 }
                  - { var:5, quality:3.3044520020484924e-01,
                      le:1.6879189014434814e-01 }
                  - { var:16, quality:3.2977938652038574e-01,
                      le:8.4515243768692017e-01 }
                  - { var:20, quality:3.2913464307785034e-01,
                      gt:9.2387542128562927e-02 }
                  - { var:2, quality:3.2636502385139465e-01,
                      le:1.7968609929084778e-01 }
                  - { var:12, quality:3.2621091604232788e-01,
                      le:2.1031224727630615e-01 }
                  - { var:13, quality:3.2537940144538879e-01,
                      gt:8.1964731216430664e-01 }
                  - { var:29, quality:3.2523810863494873e-01,
                      le:5.5000001192092896e-01 }
                  - { var:7, quality:3.2523769140243530e-01,
                      gt:4.4684164226055145e-02 }
                  - { var:8, quality:3.2441493868827820e-01,
                      gt:1.8140442669391632e-02 }
                  - { var:1, quality:3.2382804155349731e-01,
                      le:1.0234117507934570e-01 }
                  - { var:6, quality:3.2067018747329712e-01,
                      gt:5.5158272385597229e-02 }
            -
               depth: 1
               sample_count: 187
               value: -4.0961227454779170e-01
               norm_class_idx: 0
               Tn: 0
               complexity: 0
               alpha: 0.
               node_risk: 0.
               tree_risk: 0.
               tree_error: 0.
            -
               depth: 1
               sample_count: 97
               value: 4.0961227454779170e-01
               norm_class_idx: 1
               Tn: 0
               complexity: 0
               alpha: 0.
               node_risk: 0.
               tree_risk: 0.
               tree_error: 0.
      -
         best_tree_idx: -1
         nodes:
            -
               depth: 0
               sample_count: 278
               value: -3.4242276946552158e-01
               norm_class_idx: 0
               Tn: 0
               complexity: 0
               alpha: 0.
               node_risk: 0.
               tree_risk: 0.
               tree_error: 0.
               splits:
                  - { var:9, quality:5.7272094488143921e-01,
                      le:4.8502229154109955e-02 }
                  - { var:3, quality:4.3245384097099304e-01,
                      gt:9.4965040683746338e-02 }
                  - { var:11, quality:4.0217253565788269e-01,
                      le:2.9968107119202614e-02 }
                  - { var:15, quality:3.9518538117408752e-01,
                      gt:8.5004204511642456e-01 }
                  - { var:7, quality:3.9305114746093750e-01,
                      le:4.4417940080165863e-02 }
                  - { var:0, quality:3.8623800873756409e-01,
                      gt:1.9544865190982819e-01 }
                  - { var:10, quality:3.8131830096244812e-01,
                      le:2.6645844802260399e-02 }
                  - { var:16, quality:3.8119018077850342e-01,
                      gt:7.4388003349304199e-01 }
                  - { var:39, quality:3.7792557477951050e-01,
                      gt:3.9099780842661858e-03 }
                  - { var:6, quality:3.7712767720222473e-01,
                      le:3.2689325511455536e-02 }
                  - { var:24, quality:3.7658414244651794e-01,
                      gt:8.5865366458892822e-01 }
                  - { var:30, quality:3.7653720378875732e-01,
                      gt:8.2294695079326630e-02 }
                  - { var:1, quality:3.7618744373321533e-01,
                      gt:1.5739971399307251e-01 }
                  - { var:4, quality:3.7615340948104858e-01,
                      gt:1.4355441927909851e-01 }
                  - { var:35, quality:3.7412327527999878e-01,
                      gt:5.3869515657424927e-01 }
                  - { var:14, quality:3.7200081348419189e-01,
                      le:5.2338220179080963e-02 }
                  - { var:2, quality:3.7195152044296265e-01,
                      gt:1.7336273193359375e-01 }
                  - { var:34, quality:3.7175264954566956e-01,
                      gt:6.9329869747161865e-01 }
                  - { var:23, quality:3.7075304985046387e-01,
                      gt:8.9743876457214355e-01 }
                  - { var:21, quality:3.6928686499595642e-01,
                      le:1.4083012938499451e-01 }
                  - { var:8, quality:3.6919501423835754e-01,
                      le:1.7936093732714653e-02 }
                  - { var:5, quality:3.6809074878692627e-01,
                      gt:1.8128165602684021e-01 }
                  - { var:38, quality:3.6755993962287903e-01,
                      gt:3.8120781537145376e-03 }
                  - { var:29, quality:3.6738148331642151e-01,
                      gt:9.4999998807907104e-01 }
                  - { var:22, quality:3.6713340878486633e-01,
                      gt:8.2900959253311157e-01 }
                  - { var:33, quality:3.6514407396316528e-01,
                      le:3.1567618250846863e-02 }
                  - { var:19, quality:3.6459439992904663e-01,
                      gt:9.0081405639648438e-01 }
                  - { var:17, quality:3.6237171292304993e-01,
                      gt:9.0867990255355835e-01 }
                  - { var:32, quality:3.6219072341918945e-01,
                      le:2.8260473161935806e-02 }
                  - { var:36, quality:3.5944074392318726e-01,
                      le:8.9445672929286957e-03 }
                  - { var:31, quality:3.5892418026924133e-01,
                      le:4.1855167597532272e-02 }
                  - { var:37, quality:3.5823974013328552e-01,
                      le:6.2779700383543968e-03 }
                  - { var:18, quality:3.5816183686256409e-01,
                      le:1.2409287504851818e-02 }
            -
               depth: 1
               sample_count: 95
               value: -3.4242276946552158e-01
               norm_class_idx: 0
               Tn: 0
               complexity: 0
               alpha: 0.
               node_risk: 0.
               tree_risk: 0.
               tree_error: 0.
            -
               depth: 1
               sample_count: 183
               value: 3.4242276946552158e-01
               norm_class_idx: 1
               Tn: 0
               complexity: 0
               alpha: 0.
               node_risk: 0.
               tree_risk: 0.
               tree_error: 0.
      -
         best_tree_idx: -1
         nodes:
            -
               depth: 0
               sample_count: 285
               value: -4.3650220790168037e-01
               norm_class_idx: 0
               Tn: 0
               complexity: 0
               alpha: 0.
               node_risk: 0.
               tree_risk: 0.
               tree_error: 0.
               splits:
                  - { var:1, quality:5.7527863979339600e-01,
                      le:8.5618056356906891e-02 }
                  - { var:7, quality:4.6288841962814331e-01,
                      gt:7.4609324336051941e-02 }
                  - { var:17, quality:3.8911035656929016e-01,
                      le:6.7317909002304077e-01 }
                  - { var:0, quality:3.8743582367897034e-01,
                      le:1.0177328437566757e-01 }
                  - { var:5, quality:3.8733941316604614e-01,
                      gt:8.3721697330474854e-02 }
                  - { var:21, quality:3.8467404246330261e-01,
                      le:6.5296912193298340e-01 }
                  - { var:8, quality:3.8359791040420532e-01,
                      gt:8.5749603807926178e-02 }
                  - { var:16, quality:3.8242137432098389e-01,
                      le:6.3860106468200684e-01 }
                  - { var:10, quality:3.8080459833145142e-01,
                      gt:6.8859614431858063e-02 }
                  - { var:20, quality:3.7897229194641113e-01,
                      le:6.9461560249328613e-01 }
                  - { var:33, quality:3.6571010947227478e-01,
                      gt:8.8218674063682556e-02 }
                  - { var:13, quality:3.6421185731887817e-01,
                      le:6.2917590141296387e-01 }
                  - { var:22, quality:3.6315989494323730e-01,
                      le:7.5035202503204346e-01 }
                  - { var:24, quality:3.5972771048545837e-01,
