%YAML:1.0
my_boost_tree: !!opencv-ml-boost-tree
   boosting_type: DiscreteAdaboost
   splitting_criteria: 3
   ntrees: 100
   weight_trimming_rate: 9.4999999999999996e-01
   is_classifier: 1
   var_all: 40
   var_count: 40
   ord_var_count: 40
   cat_var_count: 0
   training_params:
      use_surrogates: 1
      max_categories: 10
      max_depth: 1
      min_sample_count: 10
      cross_validation_folds: 0
      priors: !!opencv-matrix
         rows: 1
         cols: 2
         dt: d
         data: [ 1., 1. ]
   var_type: [ 0, 0, 0, 0, 0, 0, 0, 0, 0, 0, 0, 0, 0, 0, 0, 0, 0, 0, 0,
       0, 0, 0, 0, 0, 0, 0, 0, 0, 0, 0, 0, 0, 0, 0, 0, 0, 0, 0, 0, 0 ]
   cat_count: !!opencv-matrix
      rows: 1
      cols: 1
      dt: i
      data: [ 2 ]
   cat_map: !!opencv-matrix
      rows: 1
      cols: 2
      dt: i
      data: [ -1, 1 ]
   trees:
      -
         best_tree_idx: -1
         nodes:
            -
               depth: 0
               sample_count: 410
               value: -1.9970576602222545e+00
               norm_class_idx: 0
               Tn: 0
               complexity: 0
               alpha: 0.
               node_risk: 0.
               tree_risk: 0.
               tree_error: 0.
               splits:
                  - { var:0, quality:8.8048779964447021e-01,
                      le:2.1171234548091888e-02 }
                  - { var:1, quality:8.7619274854660034e-01,
                      le:1.1227281764149666e-02 }
            -
               depth: 1
               sample_count: 3
               value: 1.9970576602222545e+00
               norm_class_idx: 1
               Tn: 0
               complexity: 0
               alpha: 0.
               node_risk: 0.
               tree_risk: 0.
               tree_error: 0.
            -
               depth: 1
               sample_count: 407
               value: -1.9970576602222545e+00
               norm_class_idx: 0
               Tn: 0
               complexity: 0
               alpha: 0.
               node_risk: 0.
               tree_risk: 0.
               tree_error: 0.
      -
         best_tree_idx: -1
         nodes:
            -
               depth: 0
               sample_count: 410
               value: -1.0818732977196528e+00
               norm_class_idx: 0
               Tn: 0
               complexity: 0
               alpha: 0.
               node_risk: 0.
               tree_risk: 0.
               tree_error: 0.
               splits:
                  - { var:39, quality:7.4684834480285645e-01,
                      le:1.2049104552716017e-03 }
                  - { var:38, quality:6.8778109550476074e-01,
                      le:1.3015363365411758e-03 }
                  - { var:30, quality:6.6595280170440674e-01,
                      le:1.1393552646040916e-02 }
                  - { var:37, quality:6.0933434963226318e-01,
                      le:7.1433141827583313e-02 }
                  - { var:36, quality:6.0519665479660034e-01,
                      le:7.5027838349342346e-02 }
                  - { var:13, quality:6.0388779640197754e-01,
                      gt:9.9259340763092041e-01 }
                  - { var:35, quality:5.7857632637023926e-01,
                      le:3.9977383613586426e-01 }
                  - { var:34, quality:5.7688742876052856e-01,
                      le:4.1746228933334351e-01 }
                  - { var:31, quality:5.7612746953964233e-01,
                      le:8.2122236490249634e-02 }
                  - { var:17, quality:5.6099122762680054e-01,
                      gt:6.8309426307678223e-01 }
                  - { var:16, quality:5.5930238962173462e-01,
                      gt:6.3500106334686279e-01 }
                  - { var:22, quality:5.5750799179077148e-01,
                      gt:7.2874188423156738e-01 }
                  - { var:21, quality:5.5581915378570557e-01,
                      gt:6.4879298210144043e-01 }
                  - { var:20, quality:5.5233591794967651e-01,
                      gt:6.9490122795104980e-01 }
                  - { var:33, quality:5.4678386449813843e-01,
                      le:6.3356503844261169e-02 }
                  - { var:32, quality:5.4406058788299561e-01,
                      le:6.5785050392150879e-02 }
                  - { var:24, quality:5.2919876575469971e-01,
                      gt:7.3773539066314697e-01 }
                  - { var:14, quality:5.1416808366775513e-01,
                      le:9.9982267618179321e-01 }
                  - { var:18, quality:5.0889045000076294e-01,
                      gt:7.4681800603866577e-01 }
                  - { var:15, quality:5.0344389677047729e-01,
                      gt:6.4692991971969604e-01 }
                  - { var:23, quality:5.0164955854415894e-01,
                      gt:7.3320960998535156e-01 }
                  - { var:19, quality:5.0061511993408203e-01,
                      gt:7.3612725734710693e-01 }
                  - { var:10, quality:4.5609298348426819e-01,
                      gt:7.8785091638565063e-02 }
                  - { var:0, quality:4.5250421762466431e-01,
                      le:7.5298711657524109e-02 }
                  - { var:1, quality:4.5178645849227905e-01,
                      le:7.5649626553058624e-02 }
                  - { var:6, quality:4.3888792395591736e-01,
                      le:4.9172818660736084e-02 }
                  - { var:5, quality:4.2854377627372742e-01,
                      gt:8.3538495004177094e-02 }
                  - { var:25, quality:4.2750936746597290e-01,
                      le:1.5000000596046448e-01 }
                  - { var:7, quality:4.2702379822731018e-01,
                      gt:1.0416162014007568e-01 }
                  - { var:9, quality:4.2522940039634705e-01,
                      gt:1.0877230763435364e-01 }
                  - { var:11, quality:4.2381501197814941e-01,
                      le:2.9984166845679283e-02 }
                  - { var:2, quality:4.1705963015556335e-01,
                      gt:1.2344045937061310e-01 }
                  - { var:3, quality:4.1684854030609131e-01,
                      le:3.2341159880161285e-02 }
                  - { var:28, quality:4.0675771236419678e-01,
                      le:6.4999997615814209e-01 }
                  - { var:8, quality:4.0650436282157898e-01,
                      gt:9.3401700258255005e-02 }
                  - { var:29, quality:4.0506887435913086e-01,
                      le:7.5000000000000000e-01 }
                  - { var:4, quality:4.0198674798011780e-01,
                      le:5.0093173980712891e-02 }
                  - { var:27, quality:3.9510470628738403e-01,
                      le:9.4999998807907104e-01 }
                  - { var:26, quality:3.8847598433494568e-01,
                      gt:2.5000000000000000e-01 }
            -
               depth: 1
               sample_count: 126
               value: 1.0818732977196528e+00
               norm_class_idx: 1
               Tn: 0
               complexity: 0
               alpha: 0.
               node_risk: 0.
               tree_risk: 0.
               tree_error: 0.
            -
               depth: 1
               sample_count: 284
               value: -1.0818732977196528e+00
               norm_class_idx: 0
               Tn: 0
               complexity: 0
               alpha: 0.
               node_risk: 0.
               tree_risk: 0.
               tree_error: 0.
      -
         best_tree_idx: -1
         nodes:
            -
               depth: 0
               sample_count: 410
               value: -8.2860455529916466e-01
               norm_class_idx: 0
               Tn: 0
               complexity: 0
               alpha: 0.
               node_risk: 0.
               tree_risk: 0.
               tree_error: 0.
               splits:
                  - { var:5, quality:6.9605976343154907e-01,
                      le:8.3520099520683289e-02 }
                  - { var:1, quality:5.0163674354553223e-01,
                      gt:9.9180161952972412e-02 }
                  - { var:6, quality:5.0155299901962280e-01,
                      gt:1.1052901297807693e-01 }
                  - { var:10, quality:4.8789858818054199e-01,
                      le:3.5902436822652817e-02 }
                  - { var:32, quality:4.8490047454833984e-01,
                      le:3.6707468330860138e-02 }
                  - { var:31, quality:4.7823071479797363e-01,
                      le:4.9683891236782074e-02 }
                  - { var:16, quality:4.7586292028427124e-01,
                      gt:7.8550678491592407e-01 }
                  - { var:33, quality:4.7347563505172729e-01,
                      le:3.4627258777618408e-02 }
                  - { var:39, quality:4.7293558716773987e-01,
                      gt:2.3967018350958824e-03 }
                  - { var:7, quality:4.7239869832992554e-01,
                      le:3.7495099008083344e-02 }
                  - { var:38, quality:4.7164472937583923e-01,
                      gt:2.3448872379958630e-03 }
                  - { var:20, quality:4.7036597132682800e-01,
                      gt:8.1755954027175903e-01 }
                  - { var:4, quality:4.6904140710830688e-01,
                      gt:1.3319568336009979e-01 }
                  - { var:36, quality:4.6898978948593140e-01,
                      le:1.1278234422206879e-02 }
                  - { var:21, quality:4.6849396824836731e-01,
                      gt:7.9096591472625732e-01 }
                  - { var:22, quality:4.6465355157852173e-01,
                      gt:8.3395141363143921e-01 }
                  - { var:2, quality:4.6438434720039368e-01,
                      gt:1.8213461339473724e-01 }
                  - { var:23, quality:4.6400815248489380e-01,
                      gt:8.8624191284179688e-01 }
                  - { var:34, quality:4.6362140774726868e-01,
                      le:1.7576153576374054e-01 }
                  - { var:11, quality:4.6261900663375854e-01,
                      gt:9.7388029098510742e-02 }
                  - { var:37, quality:4.6155500411987305e-01,
                      gt:2.0582431554794312e-01 }
                  - { var:24, quality:4.6084529161453247e-01,
                      gt:8.4952396154403687e-01 }
                  - { var:30, quality:4.6002706885337830e-01,
                      gt:6.0146216303110123e-02 }
                  - { var:19, quality:4.5952230691909790e-01,
                      gt:9.0734040737152100e-01 }
                  - { var:18, quality:4.5826360583305359e-01,
                      gt:9.1730642318725586e-01 }
                  - { var:35, quality:4.5809075236320496e-01,
                      gt:6.2115377187728882e-01 }
                  - { var:8, quality:4.5799434185028076e-01,
                      le:2.1563589572906494e-02 }
                  - { var:15, quality:4.5738103985786438e-01,
                      gt:8.8765680789947510e-01 }
                  - { var:9, quality:4.5695081353187561e-01,
                      gt:1.3791701197624207e-01 }
                  - { var:3, quality:4.5439103245735168e-01,
                      le:2.7118712663650513e-02 }
                  - { var:14, quality:4.5421823859214783e-01,
                      le:2.1404093503952026e-01 }
                  - { var:0, quality:4.5415392518043518e-01,
                      gt:2.6485764980316162e-01 }
                  - { var:13, quality:4.5320495963096619e-01,
                      le:7.8601729869842529e-01 }
                  - { var:17, quality:4.5316445827484131e-01,
                      gt:8.9751565456390381e-01 }
                  - { var:29, quality:4.5092678070068359e-01,
                      gt:9.4999998807907104e-01 }
            -
               depth: 1
               sample_count: 223
               value: -8.2860455529916466e-01
               norm_class_idx: 0
               Tn: 0
               complexity: 0
               alpha: 0.
               node_risk: 0.
               tree_risk: 0.
               tree_error: 0.
            -
               depth: 1
               sample_count: 187
               value: 8.2860455529916466e-01
               norm_class_idx: 1
               Tn: 0
               complexity: 0
               alpha: 0.
               node_risk: 0.
               tree_risk: 0.
               tree_error: 0.
      -
         best_tree_idx: -1
         nodes:
            -
               depth: 0
               sample_count: 410
               value: -5.5082288056296236e-01
               norm_class_idx: 0
               Tn: 0
               complexity: 0
               alpha: 0.
               node_risk: 0.
               tree_risk: 0.
               tree_error: 0.
               splits:
                  - { var:2, quality:6.3432645797729492e-01,
                      le:7.1421824395656586e-02 }
                  - { var:8, quality:4.9459505081176758e-01,
                      gt:8.7791360914707184e-02 }
                  - { var:11, quality:4.4607105851173401e-01,
                      gt:1.0737393796443939e-01 }
                  - { var:22, quality:4.4566151499748230e-01,
                      le:1.4278170466423035e-01 }
                  - { var:23, quality:4.4553893804550171e-01,
                      le:1.8950751423835754e-01 }
                  - { var:24, quality:4.4511643052101135e-01,
                      le:1.6710707545280457e-01 }
                  - { var:18, quality:4.4511643052101135e-01,
                      le:1.0944005101919174e-01 }
                  - { var:20, quality:4.4300389289855957e-01,
                      le:2.5464925169944763e-01 }
                  - { var:19, quality:4.4094610214233398e-01,
                      le:2.4180261790752411e-01 }
                  - { var:30, quality:4.3750891089439392e-01,
                      gt:4.0010292083024979e-02 }
                  - { var:21, quality:4.3690073490142822e-01,
                      le:1.6648128628730774e-02 }
                  - { var:0, quality:4.3554437160491943e-01,
                      gt:1.9573789834976196e-01 }
                  - { var:7, quality:4.3505823612213135e-01,
                      gt:1.6565638780593872e-01 }
                  - { var:17, quality:4.3484294414520264e-01,
                      le:6.9017827510833740e-02 }
                  - { var:14, quality:4.3484058976173401e-01,
                      le:3.0599808692932129e-01 }
                  - { var:39, quality:4.3408295512199402e-01,
                      le:1.5315576456487179e-04 }
                  - { var:38, quality:4.3408295512199402e-01,
                      le:1.3749256322626024e-04 }
                  - { var:15, quality:4.3387532234191895e-01,
                      le:2.3205626010894775e-01 }
                  - { var:3, quality:4.3384912610054016e-01,
                      le:7.7239284291863441e-03 }
                  - { var:16, quality:4.3345281481742859e-01,
                      le:4.9489244818687439e-02 }
                  - { var:1, quality:4.3249917030334473e-01,
                      gt:2.3722487688064575e-01 }
                  - { var:27, quality:4.3195462226867676e-01,
                      gt:9.4999998807907104e-01 }
                  - { var:10, quality:4.3125268816947937e-01,
                      gt:3.1461197137832642e-01 }
                  - { var:6, quality:4.3099454045295715e-01,
                      le:9.3370676040649414e-03 }
                  - { var:5, quality:4.3099454045295715e-01,
                      gt:3.1638801097869873e-01 }
                  - { var:9, quality:4.3042838573455811e-01,
                      le:1.7916340380907059e-02 }
                  - { var:4, quality:4.3023145198822021e-01,
                      gt:2.7306300401687622e-01 }
                  - { var:13, quality:4.2989304661750793e-01,
                      le:5.2261658012866974e-02 }
                  - { var:36, quality:4.2868497967720032e-01,
                      gt:2.9226452112197876e-01 }
                  - { var:34, quality:4.2856240272521973e-01,
                      gt:7.7797305583953857e-01 }
                  - { var:33, quality:4.2856240272521973e-01,
                      le:1.9049499183893204e-02 }
                  - { var:32, quality:4.2856240272521973e-01,
                      le:1.7913665622472763e-02 }
            -
               depth: 1
               sample_count: 115
               value: 5.5082288056296236e-01
               norm_class_idx: 1
               Tn: 0
               complexity: 0
               alpha: 0.
               node_risk: 0.
               tree_risk: 0.
               tree_error: 0.
            -
               depth: 1
               sample_count: 295
               value: -5.5082288056296236e-01
               norm_class_idx: 0
               Tn: 0
               complexity: 0
               alpha: 0.
               node_risk: 0.
               tree_risk: 0.
               tree_error: 0.
      -
         best_tree_idx: -1
         nodes:
            -
               depth: 0
               sample_count: 410
               value: -5.7212996642453828e-01
               norm_class_idx: 0
               Tn: 0
               complexity: 0
               alpha: 0.
               node_risk: 0.
               tree_risk: 0.
               tree_error: 0.
               splits:
                  - { var:21, quality:6.3925451040267944e-01,
                      le:6.5855348110198975e-01 }
                  - { var:17, quality:6.2207120656967163e-01,
                      le:6.8596625328063965e-01 }
                  - { var:16, quality:6.0963606834411621e-01,
                      le:6.3678848743438721e-01 }
                  - { var:22, quality:5.9952378273010254e-01,
                      le:7.0554542541503906e-01 }
                  - { var:20, quality:5.9901356697082520e-01,
                      le:6.6071069240570068e-01 }
                  - { var:23, quality:5.7062298059463501e-01,
                      le:7.2175270318984985e-01 }
                  - { var:15, quality:5.6800734996795654e-01,
                      le:6.4939856529235840e-01 }
                  - { var:13, quality:5.6661695241928101e-01,
                      le:7.8601729869842529e-01 }
                  - { var:19, quality:5.6365340948104858e-01,
                      le:6.9474184513092041e-01 }
                  - { var:24, quality:5.5836391448974609e-01,
                      le:7.1070063114166260e-01 }
                  - { var:18, quality:5.5660867691040039e-01,
                      le:7.4659121036529541e-01 }
                  - { var:14, quality:5.4634743928909302e-01,
                      le:7.5826853513717651e-01 }
                  - { var:38, quality:5.4479044675827026e-01,
                      gt:1.7779577756300569e-03 }
                  - { var:39, quality:5.3916126489639282e-01,
                      gt:1.8493458628654480e-03 }
                  - { var:30, quality:5.2612316608428955e-01,
                      gt:2.7876915410161018e-02 }
                  - { var:12, quality:5.2528017759323120e-01,
                      gt:6.2624984979629517e-01 }
                  - { var:31, quality:5.0282484292984009e-01,
                      gt:1.3110499083995819e-01 }
                  - { var:3, quality:5.0243228673934937e-01,
                      gt:1.8764612078666687e-01 }
                  - { var:1, quality:4.9642786383628845e-01,
                      le:1.1227281764149666e-02 }
                  - { var:0, quality:4.9642786383628845e-01,
                      le:1.5014915727078915e-02 }
                  - { var:32, quality:4.9588912725448608e-01,
                      gt:1.0697007179260254e-01 }
                  - { var:36, quality:4.9516534805297852e-01,
                      gt:2.0634305477142334e-01 }
                  - { var:10, quality:4.9395519495010376e-01,
                      gt:2.6562577486038208e-01 }
                  - { var:35, quality:4.9332022666931152e-01,
                      gt:5.9409916400909424e-01 }
                  - { var:34, quality:4.9332022666931152e-01,
                      gt:6.1924219131469727e-01 }
                  - { var:33, quality:4.9218457937240601e-01,
                      gt:1.0708777606487274e-01 }
                  - { var:37, quality:4.9212613701820374e-01,
                      gt:1.7857944965362549e-01 }
                  - { var:6, quality:4.9022671580314636e-01,
                      le:1.2186069041490555e-02 }
                  - { var:27, quality:4.8930305242538452e-01,
                      gt:9.4999998807907104e-01 }
                  - { var:11, quality:4.8857450485229492e-01,
                      gt:1.5734267234802246e-01 }
                  - { var:7, quality:4.8299619555473328e-01,
                      gt:2.2771492600440979e-01 }
                  - { var:29, quality:4.8169347643852234e-01,
                      gt:9.4999998807907104e-01 }
                  - { var:2, quality:4.8072859644889832e-01,
                      gt:2.6836273074150085e-01 }
                  - { var:4, quality:4.8070892691612244e-01,
                      gt:1.8629720807075500e-01 }
                  - { var:9, quality:4.8049032688140869e-01,
                      gt:2.8304457664489746e-01 }
                  - { var:8, quality:4.8030394315719604e-01,
                      gt:2.7519100904464722e-01 }
                  - { var:5, quality:4.8005732893943787e-01,
                      le:1.2231938540935516e-02 }
            -
               depth: 1
               sample_count: 186
               value: -5.7212996642453828e-01
               norm_class_idx: 0
               Tn: 0
               complexity: 0
               alpha: 0.
               node_risk: 0.
               tree_risk: 0.
               tree_error: 0.
            -
               depth: 1
               sample_count: 224
               value: 5.7212996642453828e-01
               norm_class_idx: 1
               Tn: 0
               complexity: 0
               alpha: 0.
               node_risk: 0.
               tree_risk: 0.
               tree_error: 0.
      -
         best_tree_idx: -1
         nodes:
            -
               depth: 0
               sample_count: 333
               value: -4.9943946480376827e-01
               norm_class_idx: 0
               Tn: 0
               complexity: 0
               alpha: 0.
               node_risk: 0.
               tree_risk: 0.
               tree_error: 0.
               splits:
                  - { var:20, quality:6.2109565734863281e-01,
                      le:7.0764112472534180e-01 }
                  - { var:24, quality:5.7015919685363770e-01,
                      le:7.4732667207717896e-01 }
                  - { var:22, quality:5.6378602981567383e-01,
                      le:7.4102723598480225e-01 }
                  - { var:21, quality:5.4073673486709595e-01,
                      le:6.9302654266357422e-01 }
                  - { var:16, quality:5.3873080015182495e-01,
                      le:6.5721601247787476e-01 }
                  - { var:17, quality:5.3232693672180176e-01,
                      le:7.1689397096633911e-01 }
                  - { var:18, quality:5.1752620935440063e-01,
                      le:8.0593144893646240e-01 }
                  - { var:19, quality:5.0992900133132935e-01,
                      le:7.5918883085250854e-01 }
                  - { var:15, quality:5.0966316461563110e-01,
                      le:6.8441873788833618e-01 }
                  - { var:23, quality:5.0023609399795532e-01,
                      le:7.6831448078155518e-01 }
                  - { var:30, quality:4.8811331391334534e-01,
                      gt:1.4137035235762596e-02 }
                  - { var:38, quality:4.8224148154258728e-01,
                      gt:1.4161500148475170e-03 }
                  - { var:13, quality:4.6852403879165649e-01,
                      le:9.1613054275512695e-01 }
                  - { var:39, quality:4.6387165784835815e-01,
                      gt:1.3644016580656171e-03 }
                  - { var:14, quality:4.5431661605834961e-01,
                      le:7.7063131332397461e-01 }
                  - { var:12, quality:4.3708392977714539e-01,
                      gt:1.0569761693477631e-01 }
                  - { var:37, quality:4.3042248487472534e-01,
                      gt:1.1659564822912216e-01 }
                  - { var:34, quality:4.2953154444694519e-01,
                      gt:4.5555186271667480e-01 }
                  - { var:36, quality:4.2762738466262817e-01,
                      gt:1.2177721410989761e-01 }
                  - { var:35, quality:4.2406305670738220e-01,
                      gt:4.9293699860572815e-01 }
                  - { var:31, quality:4.2012834548950195e-01,
                      gt:1.2513485550880432e-01 }
                  - { var:32, quality:4.1317296028137207e-01,
                      gt:7.9833902418613434e-02 }
                  - { var:3, quality:4.0494221448898315e-01,
                      gt:1.8764612078666687e-01 }
                  - { var:0, quality:4.0458738803863525e-01,
                      le:6.6686064004898071e-02 }
                  - { var:25, quality:4.0439948439598083e-01,
                      gt:9.4999998807907104e-01 }
                  - { var:1, quality:4.0319749712944031e-01,
                      le:1.1227281764149666e-02 }
                  - { var:8, quality:4.0198287367820740e-01,
                      gt:1.3045445084571838e-01 }
                  - { var:11, quality:4.0195500850677490e-01,
                      gt:1.8254333734512329e-01 }
                  - { var:10, quality:4.0171387791633606e-01,
                      gt:2.1966749429702759e-01 }
                  - { var:33, quality:4.0063440799713135e-01,
                      gt:1.0539847612380981e-01 }
                  - { var:27, quality:3.9930081367492676e-01,
                      gt:9.4999998807907104e-01 }
                  - { var:9, quality:3.9864891767501831e-01,
                      gt:2.2641026973724365e-01 }
                  - { var:7, quality:3.9805018901824951e-01,
                      gt:1.1186714470386505e-01 }
                  - { var:6, quality:3.9733269810676575e-01,
                      gt:2.1934255957603455e-01 }
                  - { var:28, quality:3.9456307888031006e-01,
                      gt:8.5000002384185791e-01 }
                  - { var:2, quality:3.9158558845520020e-01,
                      le:5.2902489900588989e-02 }
                  - { var:29, quality:3.9052182435989380e-01,
                      gt:9.4999998807907104e-01 }
            -
               depth: 1
               sample_count: 138
               value: 4.9943946480376827e-01
               norm_class_idx: 1
               Tn: 0
               complexity: 0
               alpha: 0.
               node_risk: 0.
               tree_risk: 0.
               tree_error: 0.
            -
               depth: 1
               sample_count: 195
               value: -4.9943946480376827e-01
               norm_class_idx: 0
               Tn: 0
               complexity: 0
               alpha: 0.
               node_risk: 0.
               tree_risk: 0.
               tree_error: 0.
      -
         best_tree_idx: -1
         nodes:
            -
               depth: 0
               sample_count: 332
               value: -6.6378973449571410e-01
               norm_class_idx: 0
               Tn: 0
               complexity: 0
               alpha: 0.
               node_risk: 0.
               tree_risk: 0.
               tree_error: 0.
               splits:
                  - { var:21, quality:6.1831778287887573e-01,
                      le:7.4333894252777100e-01 }
                  - { var:16, quality:5.6336951255798340e-01,
                      le:7.0474117994308472e-01 }
                  - { var:17, quality:5.5483496189117432e-01,
                      le:7.6568818092346191e-01 }
                  - { var:20, quality:5.5136531591415405e-01,
                      le:7.5908374786376953e-01 }
                  - { var:22, quality:5.2880632877349854e-01,
                      le:7.8736639022827148e-01 }
                  - { var:15, quality:4.8846736550331116e-01,
                      le:7.8761887550354004e-01 }
                  - { var:24, quality:4.8240301012992859e-01,
                      le:8.0765205621719360e-01 }
                  - { var:23, quality:4.6007478237152100e-01,
                      le:8.5748183727264404e-01 }
                  - { var:19, quality:4.5899930596351624e-01,
                      le:8.5277557373046875e-01 }
                  - { var:18, quality:4.4842869043350220e-01,
                      le:8.5862833261489868e-01 }
                  - { var:30, quality:4.4584223628044128e-01,
                      gt:7.5904075056314468e-03 }
                  - { var:38, quality:4.2653053998947144e-01,
                      gt:6.1448139604181051e-04 }
                  - { var:39, quality:4.1864889860153198e-01,
                      gt:1.6816944116726518e-04 }
                  - { var:32, quality:4.1789534687995911e-01,
                      gt:2.1959379315376282e-02 }
                  - { var:33, quality:4.1634821891784668e-01,
                      gt:4.1995454579591751e-02 }
                  - { var:2, quality:4.1420212388038635e-01,
                      le:2.0664167404174805e-01 }
                  - { var:9, quality:4.1210713982582092e-01,
                      le:1.2270950525999069e-01 }
                  - { var:6, quality:4.1091871261596680e-01,
                      gt:1.0963194072246552e-02 }
                  - { var:34, quality:4.0857344865798950e-01,
                      le:3.2724547386169434e-01 }
                  - { var:7, quality:4.0781927108764648e-01,
                      gt:1.2555386871099472e-02 }
                  - { var:37, quality:4.0715286135673523e-01,
                      le:2.3756259679794312e-01 }
                  - { var:0, quality:4.0675854682922363e-01,
                      le:2.3679500818252563e-01 }
                  - { var:10, quality:4.0653273463249207e-01,
                      le:3.1461197137832642e-01 }
                  - { var:11, quality:4.0649712085723877e-01,
                      gt:5.3954082541167736e-03 }
                  - { var:31, quality:4.0590646862983704e-01,
                      le:1.9076061248779297e-01 }
                  - { var:4, quality:4.0587887167930603e-01,
                      le:3.1904309988021851e-01 }
                  - { var:1, quality:4.0587887167930603e-01,
                      le:2.8007602691650391e-01 }
                  - { var:36, quality:4.0565520524978638e-01,
                      le:1.9282791018486023e-01 }
                  - { var:3, quality:4.0506115555763245e-01,
                      le:2.6876866817474365e-01 }
                  - { var:35, quality:4.0491423010826111e-01,
                      le:6.9946813583374023e-01 }
            -
               depth: 1
               sample_count: 244
               value: -6.6378973449571410e-01
               norm_class_idx: 0
               Tn: 0
               complexity: 0
               alpha: 0.
               node_risk: 0.
               tree_risk: 0.
               tree_error: 0.
            -
               depth: 1
               sample_count: 88
               value: 6.6378973449571410e-01
               norm_class_idx: 1
               Tn: 0
               complexity: 0
               alpha: 0.
               node_risk: 0.
               tree_risk: 0.
               tree_error: 0.
      -
         best_tree_idx: -1
         nodes:
            -
               depth: 0
               sample_count: 306
               value: -4.1336539847199000e-01
               norm_class_idx: 0
               Tn: 0
               complexity: 0
               alpha: 0.
               node_risk: 0.
               tree_risk: 0.
               tree_error: 0.
               splits:
                  - { var:6, quality:5.9644806385040283e-01,
                      le:3.3274874091148376e-02 }
                  - { var:3, quality:4.9915668368339539e-01,
                      le:2.3117821663618088e-02 }
                  - { var:10, quality:4.9899330735206604e-01,
                      gt:2.1224674582481384e-01 }
                  - { var:0, quality:4.9497699737548828e-01,
                      le:2.5183659046888351e-02 }
                  - { var:1, quality:4.9420821666717529e-01,
                      le:1.6147747635841370e-02 }
                  - { var:11, quality:4.9247115850448608e-01,
                      le:2.9838370159268379e-02 }
                  - { var:5, quality:4.9136054515838623e-01,
                      gt:2.3988673090934753e-01 }
                  - { var:4, quality:4.8432531952857971e-01,
                      le:4.2204573750495911e-02 }
                  - { var:7, quality:4.8425644636154175e-01,
                      le:1.6730519011616707e-02 }
                  - { var:30, quality:4.8410284519195557e-01,
                      le:3.7847046041861176e-04 }
                  - { var:8, quality:4.8403549194335938e-01,
                      le:1.0395990684628487e-02 }
                  - { var:2, quality:4.8355346918106079e-01,
                      le:2.3244928568601608e-02 }
                  - { var:9, quality:4.8328158259391785e-01,
                      le:1.7916340380907059e-02 }
                  - { var:38, quality:4.8191082477569580e-01,
                      le:5.3573934565065429e-05 }
                  - { var:17, quality:4.8150470852851868e-01,
                      le:1.0275583714246750e-02 }
                  - { var:15, quality:4.8062089085578918e-01,
                      le:8.9920818805694580e-02 }
                  - { var:39, quality:4.8033806681632996e-01,
                      gt:3.9151431992650032e-03 }
            -
               depth: 1
               sample_count: 61
               value: -4.1336539847199000e-01
               norm_class_idx: 0
               Tn: 0
               complexity: 0
               alpha: 0.
               node_risk: 0.
               tree_risk: 0.
               tree_error: 0.
            -
               depth: 1
               sample_count: 245
               value: 4.1336539847199000e-01
               norm_class_idx: 1
               Tn: 0
               complexity: 0
               alpha: 0.
               node_risk: 0.
               tree_risk: 0.
               tree_error: 0.
      -
         best_tree_idx: -1
         nodes:
            -
               depth: 0
               sample_count: 309
               value: -5.9025867091006534e-01
               norm_class_idx: 0
               Tn: 0
               complexity: 0
               alpha: 0.
               node_risk: 0.
               tree_risk: 0.
               tree_error: 0.
               splits:
                  - { var:31, quality:5.9600979089736938e-01,
                      le:4.7881215810775757e-02 }
                  - { var:36, quality:5.6955105066299438e-01,
                      le:1.1630585417151451e-02 }
                  - { var:33, quality:5.6467556953430176e-01,
                      le:3.4751392900943756e-02 }
                  - { var:32, quality:5.6422609090805054e-01,
                      le:3.4024059772491455e-02 }
                  - { var:34, quality:5.6318366527557373e-01,
                      le:1.7257407307624817e-01 }
                  - { var:37, quality:5.5766808986663818e-01,
                      le:1.5620620921254158e-02 }
                  - { var:6, quality:5.3625345230102539e-01,
                      gt:1.9756519794464111e-01 }
                  - { var:35, quality:5.3543847799301147e-01,
                      le:9.7872421145439148e-02 }
                  - { var:5, quality:5.3007179498672485e-01,
                      le:1.7949454486370087e-02 }
                  - { var:8, quality:5.2257633209228516e-01,
                      le:1.1679012328386307e-02 }
                  - { var:11, quality:5.2129918336868286e-01,
                      le:5.3954082541167736e-03 }
                  - { var:4, quality:5.2062809467315674e-01,
                      le:1.8466550856828690e-02 }
                  - { var:9, quality:5.1979088783264160e-01,
                      le:2.1759387105703354e-02 }
                  - { var:39, quality:5.1945823431015015e-01,
                      le:1.3058185868430883e-04 }
                  - { var:1, quality:5.1886963844299316e-01,
                      le:1.7551563680171967e-02 }
            -
               depth: 1
               sample_count: 22
               value: 5.9025867091006534e-01
               norm_class_idx: 1
               Tn: 0
               complexity: 0
               alpha: 0.
               node_risk: 0.
               tree_risk: 0.
               tree_error: 0.
            -
               depth: 1
               sample_count: 287
               value: -5.9025867091006534e-01
               norm_class_idx: 0
               Tn: 0
               complexity: 0
               alpha: 0.
               node_risk: 0.
               tree_risk: 0.
               tree_error: 0.
      -
         best_tree_idx: -1
         nodes:
            -
               depth: 0
               sample_count: 300
               value: 4.9175534260099713e-01
               norm_class_idx: 1
               Tn: 0
               complexity: 0
               alpha: 0.
               node_risk: 0.
               tree_risk: 0.
               tree_error: 0.
               splits:
                  - { var:7, quality:6.0598337650299072e-01,
                      le:6.0559891164302826e-02 }
                  - { var:1, quality:4.4503545761108398e-01,
                      gt:1.0064662992954254e-01 }
                  - { var:33, quality:4.4388893246650696e-01,
                      le:3.6978550255298615e-02 }
                  - { var:9, quality:4.3302735686302185e-01,
                      le:2.1759387105703354e-02 }
                  - { var:32, quality:4.3204265832901001e-01,
                      gt:1.0167663544416428e-01 }
                  - { var:31, quality:4.3118333816528320e-01,
                      le:4.2587272822856903e-02 }
                  - { var:15, quality:4.2928758263587952e-01,
                      gt:8.2323431968688965e-01 }
                  - { var:5, quality:4.2908787727355957e-01,
                      gt:1.6608364880084991e-01 }
                  - { var:35, quality:4.2903208732604980e-01,
                      le:1.1254806816577911e-01 }
                  - { var:34, quality:4.2767468094825745e-01,
                      le:1.4573678374290466e-01 }
                  - { var:37, quality:4.2717909812927246e-01,
                      le:5.4590315558016300e-03 }
                  - { var:36, quality:4.2482224106788635e-01,
                      le:8.9534949511289597e-03 }
                  - { var:3, quality:4.2222607135772705e-01,
                      le:2.5312572717666626e-02 }
                  - { var:18, quality:4.2213124036788940e-01,
                      gt:8.9772367477416992e-01 }
                  - { var:39, quality:4.2050617933273315e-01,
                      le:2.3543910356238484e-04 }
                  - { var:4, quality:4.1991597414016724e-01,
                      gt:1.3325153291225433e-01 }
                  - { var:2, quality:4.1932389140129089e-01,
                      le:2.3244928568601608e-02 }
                  - { var:10, quality:4.1932249069213867e-01,
                      gt:1.7542675137519836e-01 }
                  - { var:6, quality:4.1876888275146484e-01,
                      le:1.0963194072246552e-02 }
                  - { var:16, quality:4.1817003488540649e-01,
                      gt:7.3663568496704102e-01 }
                  - { var:30, quality:4.1787156462669373e-01,
                      le:8.8679825421422720e-04 }
                  - { var:8, quality:4.1764235496520996e-01,
                      gt:1.8718969821929932e-01 }
                  - { var:0, quality:4.1664317250251770e-01,
                      gt:2.3672923445701599e-01 }
                  - { var:11, quality:4.1635009646415710e-01,
                      le:1.2933695688843727e-02 }
                  - { var:19, quality:4.1495743393898010e-01,
                      gt:9.1603696346282959e-01 }
                  - { var:23, quality:4.1255044937133789e-01,
                      gt:8.8525342941284180e-01 }
                  - { var:38, quality:4.1203114390373230e-01,
                      le:6.1101483879610896e-05 }
                  - { var:21, quality:4.1180121898651123e-01,
                      gt:9.1044139862060547e-01 }
                  - { var:20, quality:4.1180121898651123e-01,
                      gt:9.1678249835968018e-01 }
                  - { var:17, quality:4.1126856207847595e-01,
                      gt:9.0388596057891846e-01 }
            -
               depth: 1
               sample_count: 116
               value: -4.9175534260099713e-01
               norm_class_idx: 0
               Tn: 0
               complexity: 0
               alpha: 0.
               node_risk: 0.
               tree_risk: 0.
               tree_error: 0.
            -
               depth: 1
               sample_count: 184
               value: 4.9175534260099713e-01
               norm_class_idx: 1
               Tn: 0
               complexity: 0
               alpha: 0.
               node_risk: 0.
               tree_risk: 0.
               tree_error: 0.
      -
         best_tree_idx: -1
         nodes:
            -
               depth: 0
               sample_count: 303
               value: -3.5525958741944574e-01
               norm_class_idx: 0
               Tn: 0
               complexity: 0
               alpha: 0.
               node_risk: 0.
               tree_risk: 0.
               tree_error: 0.
               splits:
                  - { var:20, quality:5.8485734462738037e-01,
                      le:7.2323095798492432e-01 }
                  - { var:22, quality:5.2353274822235107e-01,
                      le:7.6384198665618896e-01 }
                  - { var:21, quality:5.1149743795394897e-01,
                      le:7.1646368503570557e-01 }
                  - { var:24, quality:5.1065856218338013e-01,
                      le:7.5281554460525513e-01 }
                  - { var:16, quality:5.0900501012802124e-01,
                      le:6.7647677659988403e-01 }
                  - { var:18, quality:4.9252402782440186e-01,
                      le:8.0593144893646240e-01 }
                  - { var:15, quality:4.8332887887954712e-01,
                      le:7.2892141342163086e-01 }
                  - { var:19, quality:4.7947692871093750e-01,
                      le:7.8991222381591797e-01 }
                  - { var:23, quality:4.7589766979217529e-01,
                      le:7.9245239496231079e-01 }
                  - { var:17, quality:4.7232371568679810e-01,
                      le:7.5420284271240234e-01 }
                  - { var:30, quality:4.3802961707115173e-01,
                      gt:1.4531662687659264e-02 }
                  - { var:38, quality:4.3229794502258301e-01,
                      gt:1.2814027722924948e-03 }
                  - { var:39, quality:4.1521885991096497e-01,
                      gt:1.1523603461682796e-03 }
                  - { var:13, quality:4.0415656566619873e-01,
                      le:9.9259340763092041e-01 }
                  - { var:14, quality:3.8529005646705627e-01,
                      le:8.3985406160354614e-01 }
                  - { var:10, quality:3.7783342599868774e-01,
                      gt:6.0259900987148285e-02 }
                  - { var:32, quality:3.7006440758705139e-01,
                      gt:7.8566178679466248e-02 }
                  - { var:9, quality:3.6272832751274109e-01,
                      le:6.9000415503978729e-02 }
                  - { var:31, quality:3.6004185676574707e-01,
                      gt:9.6868447959423065e-02 }
                  - { var:33, quality:3.5867965221405029e-01,
                      gt:4.3612293899059296e-02 }
                  - { var:34, quality:3.5403770208358765e-01,
                      gt:4.5555186271667480e-01 }
                  - { var:5, quality:3.5364398360252380e-01,
                      gt:8.6679726839065552e-02 }
                  - { var:37, quality:3.5162720084190369e-01,
                      gt:1.1659564822912216e-01 }
                  - { var:36, quality:3.4840944409370422e-01,
                      gt:9.4380572438240051e-02 }
                  - { var:7, quality:3.4730723500251770e-01,
                      gt:1.0799528658390045e-01 }
                  - { var:0, quality:3.4646585583686829e-01,
                      le:7.7131494879722595e-02 }
                  - { var:4, quality:3.4581780433654785e-01,
                      le:9.3458220362663269e-02 }
                  - { var:35, quality:3.4572133421897888e-01,
                      gt:4.6299797296524048e-01 }
                  - { var:12, quality:3.4414845705032349e-01,
                      gt:1.4537841081619263e-01 }
                  - { var:2, quality:3.4088042378425598e-01,
                      le:9.2269331216812134e-02 }
                  - { var:11, quality:3.3409336209297180e-01,
                      le:8.4642559289932251e-02 }
                  - { var:6, quality:3.3189803361892700e-01,
                      le:5.3410120308399200e-02 }
                  - { var:3, quality:3.3148691058158875e-01,
                      gt:9.8993167281150818e-02 }
                  - { var:8, quality:3.2870590686798096e-01,
                      gt:1.2331315129995346e-01 }
                  - { var:1, quality:3.2493361830711365e-01,
                      le:6.9135040044784546e-02 }
                  - { var:26, quality:3.1386661529541016e-01,
                      le:2.5000000000000000e-01 }
                  - { var:25, quality:3.1293326616287231e-01,
                      gt:9.4999998807907104e-01 }
                  - { var:28, quality:3.1221771240234375e-01,
                      gt:3.5000002384185791e-01 }
                  - { var:27, quality:3.1060332059860229e-01,
                      gt:7.5000000000000000e-01 }
                  - { var:29, quality:3.0895295739173889e-01,
                      le:2.5000000000000000e-01 }
            -
               depth: 1
               sample_count: 143
               value: 3.5525958741944574e-01
               norm_class_idx: 1
               Tn: 0
               complexity: 0
               alpha: 0.
               node_risk: 0.
               tree_risk: 0.
               tree_error: 0.
            -
               depth: 1
               sample_count: 160
               value: -3.5525958741944574e-01
               norm_class_idx: 0
               Tn: 0
               complexity: 0
               alpha: 0.
               node_risk: 0.
               tree_risk: 0.
               tree_error: 0.
      -
         best_tree_idx: -1
         nodes:
            -
               depth: 0
               sample_count: 333
               value: -4.7145192019021592e-01
               norm_class_idx: 0
               Tn: 0
               complexity: 0
               alpha: 0.
               node_risk: 0.
               tree_risk: 0.
               tree_error: 0.
               splits:
                  - { var:17, quality:5.9569942951202393e-01,
                      le:7.4914819002151489e-01 }
                  - { var:21, quality:5.2305155992507935e-01,
                      le:7.2267627716064453e-01 }
                  - { var:22, quality:5.0361061096191406e-01,
                      le:7.4821078777313232e-01 }
                  - { var:16, quality:5.0158536434173584e-01,
                      le:6.9425135850906372e-01 }
                  - { var:20, quality:4.8705306649208069e-01,
                      le:7.2942459583282471e-01 }
                  - { var:15, quality:4.7761422395706177e-01,
                      le:7.3694932460784912e-01 }
                  - { var:24, quality:4.6624332666397095e-01,
                      le:7.7737683057785034e-01 }
                  - { var:23, quality:4.5461702346801758e-01,
                      le:7.8573328256607056e-01 }
                  - { var:18, quality:4.5133343338966370e-01,
                      le:8.0559229850769043e-01 }
                  - { var:19, quality:4.4753488898277283e-01,
                      le:7.6733791828155518e-01 }
                  - { var:14, quality:4.2057469487190247e-01,
                      le:8.6147242784500122e-01 }
                  - { var:30, quality:4.1411942243576050e-01,
                      gt:1.0471293702721596e-02 }
                  - { var:13, quality:4.1061922907829285e-01,
                      le:7.8601729869842529e-01 }
                  - { var:38, quality:4.0851524472236633e-01,
                      gt:1.7697851872071624e-03 }
                  - { var:39, quality:4.0835294127464294e-01,
                      gt:1.5602785861119628e-03 }
                  - { var:9, quality:3.8121983408927917e-01,
                      le:4.8737294971942902e-02 }
                  - { var:34, quality:3.8080462813377380e-01,
                      le:2.5305253267288208e-01 }
                  - { var:7, quality:3.7863710522651672e-01,
                      gt:1.1186714470386505e-01 }
                  - { var:35, quality:3.6695134639739990e-01,
                      le:2.3893430829048157e-01 }
                  - { var:6, quality:3.6652433872222900e-01,
                      gt:6.9075837731361389e-02 }
                  - { var:1, quality:3.6102747917175293e-01,
                      le:3.2734464854001999e-02 }
                  - { var:36, quality:3.5836055874824524e-01,
                      le:3.0236139893531799e-02 }
                  - { var:2, quality:3.5575157403945923e-01,
                      le:5.4779618978500366e-02 }
                  - { var:3, quality:3.5448142886161804e-01,
                      gt:1.2874215841293335e-01 }
                  - { var:37, quality:3.5295319557189941e-01,
                      le:2.2254023700952530e-02 }
                  - { var:31, quality:3.5140109062194824e-01,
                      le:5.5604916065931320e-02 }
                  - { var:0, quality:3.4980988502502441e-01,
                      gt:1.7248831689357758e-01 }
                  - { var:28, quality:3.4813016653060913e-01,
                      gt:3.5000002384185791e-01 }
                  - { var:5, quality:3.4678670763969421e-01,
                      le:4.8996921628713608e-02 }
                  - { var:4, quality:3.4166571497917175e-01,
                      le:6.8454474210739136e-02 }
                  - { var:32, quality:3.3799293637275696e-01,
                      gt:1.0741559416055679e-01 }
                  - { var:10, quality:3.3692035079002380e-01,
                      le:2.5940358638763428e-02 }
                  - { var:8, quality:3.3487465977668762e-01,
                      gt:5.0231248140335083e-02 }
                  - { var:33, quality:3.3418604731559753e-01,
                      gt:1.0708777606487274e-01 }
                  - { var:27, quality:3.3331668376922607e-01,
                      le:2.5000000000000000e-01 }
                  - { var:29, quality:3.2925987243652344e-01,
                      gt:6.4999997615814209e-01 }
                  - { var:11, quality:3.2817453145980835e-01,
                      gt:2.1214619278907776e-01 }
                  - { var:25, quality:3.2012876868247986e-01,
                      le:4.4999998807907104e-01 }
            -
               depth: 1
               sample_count: 210
               value: -4.7145192019021592e-01
               norm_class_idx: 0
               Tn: 0
               complexity: 0
               alpha: 0.
               node_risk: 0.
               tree_risk: 0.
               tree_error: 0.
            -
               depth: 1
               sample_count: 123
               value: 4.7145192019021592e-01
               norm_class_idx: 1
               Tn: 0
               complexity: 0
               alpha: 0.
               node_risk: 0.
               tree_risk: 0.
               tree_error: 0.
      -
         best_tree_idx: -1
         nodes:
            -
               depth: 0
               sample_count: 298
               value: -3.6516682803840872e-01
               norm_class_idx: 0
               Tn: 0
               complexity: 0
               alpha: 0.
               node_risk: 0.
               tree_risk: 0.
               tree_error: 0.
               splits:
                  - { var:16, quality:5.8429926633834839e-01,
                      le:6.7942285537719727e-01 }
                  - { var:21, quality:5.2633231878280640e-01,
                      le:7.0182961225509644e-01 }
                  - { var:20, quality:5.0913208723068237e-01,
                      le:7.2423446178436279e-01 }
                  - { var:17, quality:5.0827831029891968e-01,
                      le:7.4438327550888062e-01 }
                  - { var:22, quality:4.8739168047904968e-01,
                      le:7.4041503667831421e-01 }
                  - { var:15, quality:4.6523228287696838e-01,
                      le:7.3694932460784912e-01 }
                  - { var:24, quality:4.6109014749526978e-01,
                      le:7.5095212459564209e-01 }
                  - { var:23, quality:4.3712672591209412e-01,
                      le:7.8374487161636353e-01 }
                  - { var:30, quality:4.2427113652229309e-01,
                      gt:1.3972134329378605e-02 }
                  - { var:18, quality:4.2304778099060059e-01,
                      le:8.0593144893646240e-01 }
                  - { var:13, quality:4.2051389813423157e-01,
                      le:9.7277259826660156e-01 }
                  - { var:19, quality:4.1909196972846985e-01,
                      le:7.8991222381591797e-01 }
                  - { var:38, quality:4.0541842579841614e-01,
                      gt:1.3943745288997889e-03 }
                  - { var:39, quality:3.9070606231689453e-01,
                      gt:1.1523603461682796e-03 }
                  - { var:14, quality:3.9031335711479187e-01,
                      le:7.9834914207458496e-01 }
                  - { var:0, quality:3.6636808514595032e-01,
                      le:6.6686064004898071e-02 }
                  - { var:12, quality:3.6328783631324768e-01,
                      gt:3.6165446043014526e-01 }
                  - { var:34, quality:3.5940089821815491e-01,
                      le:2.7019694447517395e-01 }
                  - { var:7, quality:3.5729736089706421e-01,
                      gt:1.0799528658390045e-01 }
                  - { var:35, quality:3.5488757491111755e-01,
                      le:2.6034611463546753e-01 }
                  - { var:3, quality:3.5447493195533752e-01,
                      gt:1.1457110941410065e-01 }
                  - { var:28, quality:3.5204282402992249e-01,
                      gt:3.5000002384185791e-01 }
                  - { var:1, quality:3.5202699899673462e-01,
                      le:3.2734464854001999e-02 }
                  - { var:36, quality:3.5137861967086792e-01,
                      le:2.9853995889425278e-02 }
                  - { var:37, quality:3.4909263253211975e-01,
                      le:6.5564196556806564e-03 }
                  - { var:6, quality:3.4880140423774719e-01,
                      gt:6.9434888660907745e-02 }
                  - { var:8, quality:3.4669959545135498e-01,
                      gt:1.2144242227077484e-01 }
                  - { var:2, quality:3.4668633341789246e-01,
                      le:5.3269430994987488e-02 }
                  - { var:10, quality:3.4617036581039429e-01,
                      gt:6.0259900987148285e-02 }
                  - { var:9, quality:3.4409642219543457e-01,
                      le:4.8737294971942902e-02 }
                  - { var:32, quality:3.4292924404144287e-01,
                      gt:9.8472192883491516e-02 }
                  - { var:31, quality:3.4194940328598022e-01,
                      le:5.5604916065931320e-02 }
                  - { var:4, quality:3.4152776002883911e-01,
                      le:6.2738254666328430e-02 }
                  - { var:27, quality:3.4143429994583130e-01,
                      gt:7.5000000000000000e-01 }
                  - { var:33, quality:3.3969148993492126e-01,
                      gt:4.3612293899059296e-02 }
                  - { var:5, quality:3.3882462978363037e-01,
                      le:2.2320576012134552e-02 }
                  - { var:11, quality:3.3863222599029541e-01,
                      gt:1.8254333734512329e-01 }
                  - { var:29, quality:3.3084031939506531e-01,
                      le:2.5000000000000000e-01 }
            -
               depth: 1
               sample_count: 130
               value: 3.6516682803840872e-01
               norm_class_idx: 1
               Tn: 0
               complexity: 0
               alpha: 0.
               node_risk: 0.
               tree_risk: 0.
               tree_error: 0.
            -
               depth: 1
               sample_count: 168
               value: -3.6516682803840872e-01
               norm_class_idx: 0
               Tn: 0
               complexity: 0
               alpha: 0.
               node_risk: 0.
               tree_risk: 0.
               tree_error: 0.
      -
         best_tree_idx: -1
         nodes:
            -
               depth: 0
               sample_count: 328
               value: -3.1474592656682232e-01
               norm_class_idx: 0
               Tn: 0
               complexity: 0
               alpha: 0.
               node_risk: 0.
               tree_risk: 0.
               tree_error: 0.
               splits:
                  - { var:1, quality:5.7660609483718872e-01,
                      le:4.9854297190904617e-02 }
                  - { var:7, quality:4.5117378234863281e-01,
                      gt:1.3474217057228088e-01 }
                  - { var:38, quality:4.4832989573478699e-01,
                      le:4.7155376523733139e-04 }
                  - { var:3, quality:4.4688639044761658e-01,
                      gt:1.5488934516906738e-01 }
                  - { var:4, quality:4.4605016708374023e-01,
                      le:4.7069817781448364e-02 }
                  - { var:10, quality:4.4259545207023621e-01,
                      gt:2.0357960462570190e-01 }
                  - { var:30, quality:4.4244760274887085e-01,
                      le:2.6044435799121857e-03 }
                  - { var:39, quality:4.4063264131546021e-01,
                      le:4.6422699233517051e-04 }
                  - { var:0, quality:4.3827539682388306e-01,
                      le:4.6629726886749268e-02 }
                  - { var:6, quality:4.3791404366493225e-01,
                      le:1.9685015082359314e-02 }
                  - { var:36, quality:4.3715772032737732e-01,
                      le:7.0298975333571434e-03 }
                  - { var:5, quality:4.3530330061912537e-01,
                      le:2.6970500126481056e-02 }
                  - { var:37, quality:4.2905786633491516e-01,
                      le:8.7915714830160141e-03 }
                  - { var:8, quality:4.2898756265640259e-01,
                      gt:1.3518394529819489e-01 }
                  - { var:2, quality:4.2711567878723145e-01,
                      gt:2.5376921892166138e-01 }
                  - { var:35, quality:4.2693495750427246e-01,
                      le:1.5815323591232300e-01 }
                  - { var:11, quality:4.2664209008216858e-01,
                      gt:1.3518983125686646e-01 }
                  - { var:34, quality:4.2507502436637878e-01,
                      le:2.1506363153457642e-01 }
                  - { var:28, quality:4.2385599017143250e-01,
                      gt:9.4999998807907104e-01 }
                  - { var:21, quality:4.2212185263633728e-01,
                      le:5.0018839538097382e-03 }
                  - { var:9, quality:4.2178153991699219e-01,
                      gt:3.5553002357482910e-01 }
                  - { var:15, quality:4.2119023203849792e-01,
                      le:2.1773032844066620e-01 }
            -
               depth: 1
               sample_count: 86
               value: -3.1474592656682232e-01
               norm_class_idx: 0
               Tn: 0
               complexity: 0
               alpha: 0.
               node_risk: 0.
               tree_risk: 0.
               tree_error: 0.
            -
               depth: 1
               sample_count: 242
               value: 3.1474592656682232e-01
               norm_class_idx: 1
               Tn: 0
               complexity: 0
               alpha: 0.
               node_risk: 0.
               tree_risk: 0.
               tree_error: 0.
      -
         best_tree_idx: -1
         nodes:
            -
               depth: 0
               sample_count: 323
               value: -5.8993036929940457e-01
               norm_class_idx: 0
               Tn: 0
               complexity: 0
               alpha: 0.
               node_risk: 0.
               tree_risk: 0.
               tree_error: 0.
               splits:
                  - { var:38, quality:5.9890729188919067e-01,
                      le:6.6785898525267839e-04 }
                  - { var:39, quality:5.5702424049377441e-01,
                      le:6.5255409572273493e-04 }
                  - { var:30, quality:5.5122113227844238e-01,
                      le:4.9763242714107037e-03 }
                  - { var:32, quality:4.6763461828231812e-01,
                      le:3.6751933395862579e-02 }
                  - { var:34, quality:4.6406468749046326e-01,
                      le:1.4783851802349091e-01 }
                  - { var:36, quality:4.6379265189170837e-01,
                      le:9.5960758626461029e-03 }
                  - { var:6, quality:4.6080210804939270e-01,
                      gt:1.8584379553794861e-01 }
                  - { var:35, quality:4.5829245448112488e-01,
                      le:2.2664715349674225e-01 }
                  - { var:1, quality:4.5808264613151550e-01,
                      le:3.9383687078952789e-02 }
                  - { var:33, quality:4.5413342118263245e-01,
                      le:4.0047980844974518e-02 }
                  - { var:5, quality:4.5281758904457092e-01,
                      le:3.1255617737770081e-02 }
                  - { var:37, quality:4.5145982503890991e-01,
                      le:1.3517500832676888e-02 }
                  - { var:31, quality:4.5070284605026245e-01,
                      le:4.7881215810775757e-02 }
                  - { var:9, quality:4.4880926609039307e-01,
                      le:2.0216271281242371e-02 }
                  - { var:3, quality:4.4258722662925720e-01,
                      le:2.4880353361368179e-02 }
                  - { var:4, quality:4.4115957617759705e-01,
                      le:2.8423393145203590e-02 }
                  - { var:2, quality:4.4097635149955750e-01,
                      gt:2.5376921892166138e-01 }
                  - { var:17, quality:4.4064241647720337e-01,
                      gt:8.9751565456390381e-01 }
                  - { var:10, quality:4.3824321031570435e-01,
                      gt:3.1461197137832642e-01 }
                  - { var:8, quality:4.3720322847366333e-01,
                      le:1.3574831187725067e-02 }
                  - { var:7, quality:4.3649497628211975e-01,
                      le:9.7677391022443771e-03 }
                  - { var:22, quality:4.3496939539909363e-01,
                      gt:8.9423561096191406e-01 }
            -
               depth: 1
               sample_count: 56
               value: 5.8993036929940457e-01
               norm_class_idx: 1
               Tn: 0
               complexity: 0
               alpha: 0.
               node_risk: 0.
               tree_risk: 0.
               tree_error: 0.
            -
               depth: 1
               sample_count: 267
               value: -5.8993036929940457e-01
               norm_class_idx: 0
               Tn: 0
               complexity: 0
               alpha: 0.
               node_risk: 0.
               tree_risk: 0.
               tree_error: 0.
      -
         best_tree_idx: -1
         nodes:
            -
               depth: 0
               sample_count: 313
               value: -3.5557886649630555e-01
               norm_class_idx: 0
               Tn: 0
               complexity: 0
               alpha: 0.
               node_risk: 0.
               tree_risk: 0.
               tree_error: 0.
               splits:
                  - { var:18, quality:5.7149922847747803e-01,
                      le:8.2077997922897339e-01 }
                  - { var:19, quality:5.2742534875869751e-01,
                      le:8.1687605381011963e-01 }
                  - { var:24, quality:5.2293127775192261e-01,
                      le:7.9166579246520996e-01 }
                  - { var:23, quality:5.2076131105422974e-01,
                      le:8.1086540222167969e-01 }
                  - { var:22, quality:4.9427905678749084e-01,
                      le:7.6964128017425537e-01 }
                  - { var:15, quality:4.6445366740226746e-01,
                      le:7.4731636047363281e-01 }
                  - { var:20, quality:4.5556855201721191e-01,
                      le:7.6217830181121826e-01 }
                  - { var:14, quality:4.3103179335594177e-01,
                      le:8.6856871843338013e-01 }
                  - { var:30, quality:4.1771912574768066e-01,
                      gt:1.3870598748326302e-02 }
                  - { var:17, quality:4.1376596689224243e-01,
                      le:7.6611006259918213e-01 }
                  - { var:16, quality:4.0695941448211670e-01,
                      le:7.0618009567260742e-01 }
                  - { var:21, quality:3.9782756567001343e-01,
                      le:7.3673391342163086e-01 }
                  - { var:39, quality:3.8644179701805115e-01,
                      gt:1.2008284684270620e-03 }
                  - { var:38, quality:3.6823129653930664e-01,
                      gt:1.5168415848165751e-03 }
                  - { var:25, quality:3.4968858957290649e-01,
                      le:6.4999997615814209e-01 }
                  - { var:11, quality:3.4931945800781250e-01,
                      le:7.0779226720333099e-02 }
                  - { var:33, quality:3.4866783022880554e-01,
                      gt:4.3612293899059296e-02 }
                  - { var:8, quality:3.4792178869247437e-01,
                      le:6.6904082894325256e-02 }
                  - { var:34, quality:3.4672114253044128e-01,
                      gt:4.3550744652748108e-01 }
                  - { var:37, quality:3.4657675027847290e-01,
                      gt:5.6706454604864120e-02 }
                  - { var:5, quality:3.4337753057479858e-01,
                      gt:9.0092502534389496e-02 }
                  - { var:32, quality:3.3950042724609375e-01,
                      gt:3.9164025336503983e-02 }
                  - { var:7, quality:3.3939877152442932e-01,
                      gt:8.1856004893779755e-02 }
                  - { var:35, quality:3.3916586637496948e-01,
                      gt:4.5658528804779053e-01 }
                  - { var:3, quality:3.3916276693344116e-01,
                      le:6.6916793584823608e-02 }
                  - { var:1, quality:3.3686554431915283e-01,
                      le:1.0149243474006653e-01 }
                  - { var:10, quality:3.3204242587089539e-01,
                      le:8.6456120014190674e-02 }
                  - { var:6, quality:3.3182823657989502e-01,
                      gt:3.4830540418624878e-02 }
                  - { var:36, quality:3.3154317736625671e-01,
                      gt:6.3855245709419250e-02 }
                  - { var:2, quality:3.3038368821144104e-01,
                      gt:7.0099979639053345e-02 }
                  - { var:13, quality:3.3008411526679993e-01,
                      le:9.1613054275512695e-01 }
                  - { var:31, quality:3.2536214590072632e-01,
                      gt:3.5730905830860138e-02 }
                  - { var:4, quality:3.2522571086883545e-01,
                      le:1.4140355587005615e-01 }
                  - { var:27, quality:3.2520639896392822e-01,
                      le:6.4999997615814209e-01 }
                  - { var:9, quality:3.2478350400924683e-01,
                      le:1.2331396341323853e-01 }
                  - { var:0, quality:3.2315009832382202e-01,
                      le:2.3891527950763702e-01 }
                  - { var:28, quality:3.2234790921211243e-01,
                      gt:3.5000002384185791e-01 }
                  - { var:26, quality:3.2023319602012634e-01,
                      le:9.4999998807907104e-01 }
                  - { var:29, quality:3.1662601232528687e-01,
                      le:8.5000002384185791e-01 }
            -
               depth: 1
               sample_count: 176
               value: 3.5557886649630555e-01
               norm_class_idx: 1
               Tn: 0
               complexity: 0
               alpha: 0.
               node_risk: 0.
               tree_risk: 0.
               tree_error: 0.
            -
               depth: 1
               sample_count: 137
               value: -3.5557886649630555e-01
               norm_class_idx: 0
               Tn: 0
               complexity: 0
               alpha: 0.
               node_risk: 0.
               tree_risk: 0.
               tree_error: 0.
      -
         best_tree_idx: -1
         nodes:
            -
               depth: 0
               sample_count: 298
               value: -3.9478927078631743e-01
               norm_class_idx: 0
               Tn: 0
               complexity: 0
               alpha: 0.
               node_risk: 0.
               tree_risk: 0.
               tree_error: 0.
               splits:
                  - { var:14, quality:5.7799106836318970e-01,
                      le:8.9513909816741943e-01 }
                  - { var:23, quality:4.5622798800468445e-01,
                      le:8.0481791496276855e-01 }
                  - { var:19, quality:4.3636858463287354e-01,
                      le:8.1218993663787842e-01 }
                  - { var:18, quality:4.3059700727462769e-01,
                      le:8.4065270423889160e-01 }
                  - { var:15, quality:4.1942980885505676e-01,
                      le:7.0128732919692993e-01 }
                  - { var:24, quality:4.0867152810096741e-01,
                      le:7.8903818130493164e-01 }
                  - { var:34, quality:4.0768063068389893e-01,
                      le:2.4732658267021179e-01 }
                  - { var:35, quality:3.9453446865081787e-01,
                      le:2.2664715349674225e-01 }
                  - { var:22, quality:3.8963666558265686e-01,
                      le:7.6918053627014160e-01 }
                  - { var:38, quality:3.8136893510818481e-01,
                      le:4.5969354687258601e-04 }
                  - { var:39, quality:3.8067194819450378e-01,
                      le:5.4582173470407724e-04 }
                  - { var:9, quality:3.7371182441711426e-01,
                      le:4.1475597769021988e-02 }
                  - { var:13, quality:3.7085819244384766e-01,
                      gt:9.9750590324401855e-01 }
                  - { var:17, quality:3.6966729164123535e-01,
                      le:7.5142157077789307e-01 }
                  - { var:31, quality:3.6862638592720032e-01,
                      le:5.4608382284641266e-02 }
                  - { var:7, quality:3.6726313829421997e-01,
                      gt:9.2031426727771759e-02 }
                  - { var:1, quality:3.6699554324150085e-01,
                      le:4.3645232915878296e-02 }
                  - { var:30, quality:3.6386471986770630e-01,
                      le:2.3700292222201824e-03 }
                  - { var:12, quality:3.5753211379051208e-01,
                      gt:8.4413290023803711e-01 }
                  - { var:36, quality:3.5647645592689514e-01,
                      le:5.1830451935529709e-02 }
                  - { var:6, quality:3.5640138387680054e-01,
                      le:4.1380621492862701e-02 }
                  - { var:28, quality:3.5532227158546448e-01,
                      gt:3.5000002384185791e-01 }
                  - { var:33, quality:3.5422790050506592e-01,
                      le:4.4990383088588715e-02 }
                  - { var:37, quality:3.5340368747711182e-01,
                      le:1.2282734736800194e-02 }
                  - { var:0, quality:3.5304629802703857e-01,
                      le:5.1839578896760941e-02 }
                  - { var:20, quality:3.4940195083618164e-01,
                      le:7.3487824201583862e-01 }
                  - { var:3, quality:3.4938824176788330e-01,
                      le:3.2341159880161285e-02 }
                  - { var:32, quality:3.4507086873054504e-01,
                      le:3.4641698002815247e-02 }
                  - { var:10, quality:3.4493517875671387e-01,
                      gt:1.1362481862306595e-01 }
                  - { var:21, quality:3.4298390150070190e-01,
                      le:6.6125166416168213e-01 }
                  - { var:2, quality:3.4276682138442993e-01,
                      gt:1.1563576757907867e-01 }
                  - { var:11, quality:3.4209069609642029e-01,
                      gt:5.2014913409948349e-02 }
                  - { var:4, quality:3.4138107299804688e-01,
                      gt:1.1242052912712097e-01 }
                  - { var:8, quality:3.4131303429603577e-01,
                      le:2.4860868230462074e-02 }
                  - { var:5, quality:3.3536976575851440e-01,
                      le:5.4544139653444290e-02 }
                  - { var:16, quality:3.3018499612808228e-01,
                      le:3.5180479288101196e-01 }
                  - { var:26, quality:3.2669547200202942e-01,
                      gt:7.5000000000000000e-01 }
                  - { var:25, quality:3.2216012477874756e-01,
                      le:5.5000001192092896e-01 }
                  - { var:27, quality:3.2148998975753784e-01,
                      gt:9.4999998807907104e-01 }
                  - { var:29, quality:3.1976848840713501e-01,
                      gt:6.4999997615814209e-01 }
            -
               depth: 1
               sample_count: 135
               value: -3.9478927078631743e-01
               norm_class_idx: 0
               Tn: 0
               complexity: 0
               alpha: 0.
               node_risk: 0.
               tree_risk: 0.
               tree_error: 0.
            -
               depth: 1
               sample_count: 163
               value: 3.9478927078631743e-01
               norm_class_idx: 1
               Tn: 0
               complexity: 0
               alpha: 0.
               node_risk: 0.
               tree_risk: 0.
               tree_error: 0.
      -
         best_tree_idx: -1
         nodes:
            -
               depth: 0
               sample_count: 309
               value: -4.2562333941498109e-01
               norm_class_idx: 0
               Tn: 0
               complexity: 0
               alpha: 0.
               node_risk: 0.
               tree_risk: 0.
               tree_error: 0.
               splits:
                  - { var:31, quality:5.7406949996948242e-01,
                      le:1.0120860487222672e-01 }
                  - { var:33, quality:5.2996408939361572e-01,
                      le:8.3864614367485046e-02 }
                  - { var:36, quality:5.2931398153305054e-01,
                      le:1.0824009776115417e-01 }
                  - { var:37, quality:5.2567619085311890e-01,
                      le:1.3073512911796570e-01 }
                  - { var:34, quality:5.0112938880920410e-01,
                      le:4.2069977521896362e-01 }
                  - { var:32, quality:4.9947616457939148e-01,
                      le:7.9339489340782166e-02 }
                  - { var:35, quality:4.9281114339828491e-01,
                      le:4.0207874774932861e-01 }
                  - { var:13, quality:4.9229282140731812e-01,
                      gt:8.6577248573303223e-01 }
                  - { var:17, quality:4.6527069807052612e-01,
                      gt:6.2931382656097412e-01 }
                  - { var:16, quality:4.6329915523529053e-01,
                      gt:5.6467396020889282e-01 }
                  - { var:20, quality:4.6295958757400513e-01,
                      gt:6.1164081096649170e-01 }
                  - { var:21, quality:4.6062117815017700e-01,
                      gt:5.8444261550903320e-01 }
                  - { var:24, quality:4.5165598392486572e-01,
                      gt:6.7820066213607788e-01 }
                  - { var:22, quality:4.4925692677497864e-01,
                      gt:6.2968099117279053e-01 }
                  - { var:38, quality:4.4745862483978271e-01,
                      le:1.6134369652718306e-03 }
                  - { var:39, quality:4.4327703118324280e-01,
                      le:1.8506362102925777e-03 }
                  - { var:18, quality:4.4317874312400818e-01,
                      gt:6.7081463336944580e-01 }
                  - { var:30, quality:4.4250568747520447e-01,
                      le:2.0951049402356148e-02 }
                  - { var:14, quality:4.3840175867080688e-01,
                      le:9.9867796897888184e-01 }
                  - { var:12, quality:4.3693292140960693e-01,
                      le:2.4451473355293274e-01 }
                  - { var:15, quality:4.3556478619575500e-01,
                      gt:5.6063956022262573e-01 }
                  - { var:19, quality:4.3515393137931824e-01,
                      gt:6.6782534122467041e-01 }
                  - { var:23, quality:4.3081390857696533e-01,
                      gt:6.6391468048095703e-01 }
                  - { var:11, quality:4.2460036277770996e-01,
                      le:1.5734267234802246e-01 }
                  - { var:9, quality:4.1888338327407837e-01,
                      le:1.8268123269081116e-01 }
                  - { var:4, quality:4.1327568888664246e-01,
                      le:1.9303476810455322e-01 }
                  - { var:7, quality:4.0980032086372375e-01,
                      gt:1.1582364328205585e-02 }
                  - { var:2, quality:4.0934085845947266e-01,
                      le:2.7422302961349487e-01 }
                  - { var:0, quality:4.0831273794174194e-01,
                      gt:4.6696342527866364e-02 }
                  - { var:28, quality:4.0669524669647217e-01,
                      le:8.5000002384185791e-01 }
                  - { var:10, quality:4.0664657950401306e-01,
                      gt:6.1741154640913010e-03 }
                  - { var:6, quality:4.0637847781181335e-01,
                      le:2.3855853080749512e-01 }
            -
               depth: 1
               sample_count: 166
               value: 4.2562333941498109e-01
               norm_class_idx: 1
               Tn: 0
               complexity: 0
               alpha: 0.
               node_risk: 0.
               tree_risk: 0.
               tree_error: 0.
            -
               depth: 1
               sample_count: 143
               value: -4.2562333941498109e-01
               norm_class_idx: 0
               Tn: 0
               complexity: 0
               alpha: 0.
               node_risk: 0.
               tree_risk: 0.
               tree_error: 0.
      -
         best_tree_idx: -1
         nodes:
            -
               depth: 0
               sample_count: 297
               value: -6.0758818412020188e-01
               norm_class_idx: 0
               Tn: 0
               complexity: 0
               alpha: 0.
               node_risk: 0.
               tree_risk: 0.
               tree_error: 0.
               splits:
                  - { var:35, quality:6.2032091617584229e-01,
                      le:5.1270991563796997e-01 }
                  - { var:34, quality:5.9240716695785522e-01,
                      le:4.9196153879165649e-01 }
                  - { var:37, quality:5.7174831628799438e-01,
                      le:1.3042527437210083e-01 }
                  - { var:36, quality:5.6048154830932617e-01,
                      le:1.2177721410989761e-01 }
                  - { var:18, quality:5.4877895116806030e-01,
                      gt:6.6085410118103027e-01 }
                  - { var:14, quality:5.4822427034378052e-01,
                      gt:5.3710389137268066e-01 }
                  - { var:31, quality:5.4700148105621338e-01,
                      le:1.1484590172767639e-01 }
                  - { var:23, quality:5.4578942060470581e-01,
                      gt:4.1310143470764160e-01 }
                  - { var:24, quality:5.4435515403747559e-01,
                      gt:5.8550798892974854e-01 }
                  - { var:19, quality:5.4431444406509399e-01,
                      gt:3.3958166837692261e-01 }
                  - { var:13, quality:5.4245406389236450e-01,
                      gt:9.2923705233260989e-04 }
                  - { var:22, quality:5.4186391830444336e-01,
                      gt:1.5236553549766541e-01 }
                  - { var:12, quality:5.4155033826828003e-01,
                      le:6.5924060344696045e-01 }
                  - { var:20, quality:5.4009211063385010e-01,
                      gt:2.3813262581825256e-01 }
                  - { var:33, quality:5.3657472133636475e-01,
                      le:9.0529561042785645e-02 }
                  - { var:17, quality:5.3537821769714355e-01,
                      gt:2.9160356521606445e-01 }
                  - { var:15, quality:5.3511339426040649e-01,
                      le:8.6738234758377075e-01 }
                  - { var:32, quality:5.3117495775222778e-01,
                      le:1.0006818175315857e-01 }
                  - { var:16, quality:5.3056162595748901e-01,
                      le:8.2637870311737061e-01 }
                  - { var:11, quality:5.3049373626708984e-01,
                      le:2.2032621502876282e-01 }
                  - { var:39, quality:5.2986216545104980e-01,
                      le:2.2975620813667774e-03 }
                  - { var:21, quality:5.2968424558639526e-01,
                      le:8.1855201721191406e-01 }
                  - { var:38, quality:5.2645951509475708e-01,
                      le:2.2462611086666584e-03 }
                  - { var:30, quality:5.2622050046920776e-01,
                      le:4.0794406086206436e-02 }
                  - { var:9, quality:5.2210760116577148e-01,
                      le:2.2641026973724365e-01 }
                  - { var:0, quality:5.1383322477340698e-01,
                      le:3.7626582384109497e-01 }
            -
               depth: 1
               sample_count: 252
               value: -6.0758818412020188e-01
               norm_class_idx: 0
               Tn: 0
               complexity: 0
               alpha: 0.
               node_risk: 0.
               tree_risk: 0.
               tree_error: 0.
            -
               depth: 1
               sample_count: 45
               value: 6.0758818412020188e-01
               norm_class_idx: 1
               Tn: 0
               complexity: 0
               alpha: 0.
               node_risk: 0.
               tree_risk: 0.
               tree_error: 0.
      -
         best_tree_idx: -1
         nodes:
            -
               depth: 0
               sample_count: 293
               value: 3.8042313033426095e-01
               norm_class_idx: 1
               Tn: 0
               complexity: 0
               alpha: 0.
               node_risk: 0.
               tree_risk: 0.
               tree_error: 0.
               splits:
                  - { var:4, quality:5.8780789375305176e-01,
                      le:5.1791891455650330e-02 }
                  - { var:1, quality:5.0675553083419800e-01,
                      le:2.9673326760530472e-02 }
                  - { var:10, quality:5.0337052345275879e-01,
                      gt:1.6284844279289246e-01 }
                  - { var:3, quality:4.9894601106643677e-01,
                      gt:1.5488934516906738e-01 }
                  - { var:39, quality:4.9436500668525696e-01,
                      le:1.3490550918504596e-04 }
                  - { var:6, quality:4.9328735470771790e-01,
                      le:2.3824431002140045e-02 }
                  - { var:8, quality:4.9200269579887390e-01,
                      gt:1.5884530544281006e-01 }
                  - { var:30, quality:4.9193650484085083e-01,
                      le:6.9570069899782538e-04 }
                  - { var:38, quality:4.9154487252235413e-01,
                      le:3.1035317806527019e-04 }
                  - { var:0, quality:4.9086353182792664e-01,
                      le:3.5813234746456146e-02 }
                  - { var:36, quality:4.9028986692428589e-01,
                      le:7.0298975333571434e-03 }
                  - { var:5, quality:4.8824626207351685e-01,
                      le:1.7949454486370087e-02 }
                  - { var:37, quality:4.8685017228126526e-01,
                      le:8.6263082921504974e-03 }
                  - { var:9, quality:4.8573669791221619e-01,
                      le:1.7916340380907059e-02 }
                  - { var:11, quality:4.8543554544448853e-01,
                      le:9.3961348757147789e-03 }
                  - { var:34, quality:4.8493143916130066e-01,
                      le:1.1003766953945160e-01 }
                  - { var:35, quality:4.8346877098083496e-01,
                      le:7.7431127429008484e-02 }
                  - { var:15, quality:4.8172289133071899e-01,
                      gt:9.8794001340866089e-01 }
                  - { var:2, quality:4.8159617185592651e-01,
                      gt:3.1768789887428284e-01 }
                  - { var:7, quality:4.8150795698165894e-01,
                      gt:2.3006859421730042e-01 }
                  - { var:18, quality:4.8097741603851318e-01,
                      gt:9.7800290584564209e-01 }
                  - { var:33, quality:4.8093631863594055e-01,
                      gt:3.4258639812469482e-01 }
                  - { var:32, quality:4.8093631863594055e-01,
                      gt:2.3708760738372803e-01 }
                  - { var:31, quality:4.8093631863594055e-01,
                      gt:2.4551174044609070e-01 }
            -
               depth: 1
               sample_count: 65
               value: -3.8042313033426095e-01
               norm_class_idx: 0
               Tn: 0
               complexity: 0
               alpha: 0.
               node_risk: 0.
               tree_risk: 0.
               tree_error: 0.
            -
               depth: 1
               sample_count: 228
               value: 3.8042313033426095e-01
               norm_class_idx: 1
               Tn: 0
               complexity: 0
               alpha: 0.
               node_risk: 0.
               tree_risk: 0.
               tree_error: 0.
      -
         best_tree_idx: -1
         nodes:
            -
               depth: 0
               sample_count: 305
               value: -4.0412278331360130e-01
               norm_class_idx: 0
               Tn: 0
               complexity: 0
               alpha: 0.
               node_risk: 0.
               tree_risk: 0.
               tree_error: 0.
               splits:
                  - { var:36, quality:5.6254869699478149e-01,
                      le:8.2169815897941589e-02 }
                  - { var:37, quality:5.3460144996643066e-01,
                      le:9.8192408680915833e-02 }
                  - { var:31, quality:5.1274329423904419e-01,
                      le:1.0086318105459213e-01 }
                  - { var:34, quality:5.0754082202911377e-01,
                      le:4.1625976562500000e-01 }
                  - { var:35, quality:5.0264501571655273e-01,
                      le:3.9999607205390930e-01 }
                  - { var:33, quality:4.8425653576850891e-01,
                      le:8.3864614367485046e-02 }
                  - { var:13, quality:4.8354867100715637e-01,
                      gt:8.7060904502868652e-01 }
                  - { var:30, quality:4.5565637946128845e-01,
                      le:2.0951049402356148e-02 }
                  - { var:20, quality:4.5329439640045166e-01,
                      gt:6.1558920145034790e-01 }
                  - { var:38, quality:4.5265349745750427e-01,
                      le:1.4994596131145954e-03 }
                  - { var:17, quality:4.5250746607780457e-01,
                      gt:6.1420619487762451e-01 }
                  - { var:16, quality:4.5031189918518066e-01,
                      gt:5.7288402318954468e-01 }
                  - { var:32, quality:4.5006421208381653e-01,
                      le:8.6362019181251526e-02 }
                  - { var:39, quality:4.4986420869827271e-01,
                      le:1.4002032112330198e-03 }
                  - { var:24, quality:4.4841745495796204e-01,
                      gt:6.7810577154159546e-01 }
                  - { var:21, quality:4.4664862751960754e-01,
                      gt:5.8926975727081299e-01 }
                  - { var:22, quality:4.4377547502517700e-01,
                      gt:6.2968099117279053e-01 }
                  - { var:18, quality:4.3828645348548889e-01,
                      gt:6.9943463802337646e-01 }
                  - { var:19, quality:4.3208178877830505e-01,
                      gt:6.6782534122467041e-01 }
                  - { var:23, quality:4.3193554878234863e-01,
                      gt:6.6471576690673828e-01 }
                  - { var:12, quality:4.3074178695678711e-01,
                      le:3.1600221991539001e-01 }
                  - { var:15, quality:4.2796906828880310e-01,
                      gt:5.8320969343185425e-01 }
                  - { var:14, quality:4.2453801631927490e-01,
                      gt:7.0030695199966431e-01 }
                  - { var:11, quality:3.9277836680412292e-01,
                      le:1.5945187211036682e-01 }
                  - { var:9, quality:3.8951709866523743e-01,
                      le:1.8268123269081116e-01 }
                  - { var:27, quality:3.8773149251937866e-01,
                      le:9.4999998807907104e-01 }
                  - { var:6, quality:3.8237464427947998e-01,
                      le:2.2411227226257324e-01 }
                  - { var:29, quality:3.8207679986953735e-01,
                      le:7.5000000000000000e-01 }
                  - { var:2, quality:3.8204124569892883e-01,
                      le:2.7422302961349487e-01 }
                  - { var:7, quality:3.8069188594818115e-01,
                      le:1.8220198154449463e-01 }
                  - { var:3, quality:3.8049361109733582e-01,
                      gt:1.2768578017130494e-03 }
                  - { var:4, quality:3.8047316670417786e-01,
                      le:1.9303476810455322e-01 }
                  - { var:0, quality:3.7993928790092468e-01,
                      gt:4.6696342527866364e-02 }
            -
               depth: 1
               sample_count: 148
               value: 4.0412278331360130e-01
               norm_class_idx: 1
               Tn: 0
               complexity: 0
               alpha: 0.
               node_risk: 0.
               tree_risk: 0.
               tree_error: 0.
            -
               depth: 1
               sample_count: 157
               value: -4.0412278331360130e-01
               norm_class_idx: 0
               Tn: 0
               complexity: 0
               alpha: 0.
               node_risk: 0.
               tree_risk: 0.
               tree_error: 0.
      -
         best_tree_idx: -1
         nodes:
            -
               depth: 0
               sample_count: 296
               value: -5.6251435645047954e-01
               norm_class_idx: 0
               Tn: 0
               complexity: 0
               alpha: 0.
               node_risk: 0.
               tree_risk: 0.
               tree_error: 0.
               splits:
                  - { var:22, quality:5.8806496858596802e-01,
                      le:1.5355783700942993e-01 }
                  - { var:24, quality:5.8806496858596802e-01,
                      le:1.7351302504539490e-01 }
                  - { var:23, quality:5.8759415149688721e-01,
                      le:1.8969690799713135e-01 }
                  - { var:18, quality:5.8688861131668091e-01,
                      le:1.0792694985866547e-01 }
                  - { var:20, quality:5.8503609895706177e-01,
                      le:2.4323071539402008e-01 }
                  - { var:19, quality:5.8438074588775635e-01,
                      le:2.3565332591533661e-01 }
                  - { var:11, quality:5.7839375734329224e-01,
                      gt:2.4535530805587769e-01 }
                  - { var:14, quality:5.7589471340179443e-01,
                      le:3.2549148797988892e-01 }
                  - { var:21, quality:5.7373666763305664e-01,
                      le:3.2159917056560516e-02 }
                  - { var:17, quality:5.7371640205383301e-01,
                      le:5.5036321282386780e-02 }
                  - { var:12, quality:5.7225579023361206e-01,
                      gt:9.8105108737945557e-01 }
                  - { var:15, quality:5.6912213563919067e-01,
                      le:2.3212097585201263e-01 }
                  - { var:16, quality:5.6880915164947510e-01,
                      le:3.2872714102268219e-02 }
            -
               depth: 1
               sample_count: 3
               value: 5.6251435645047954e-01
               norm_class_idx: 1
               Tn: 0
               complexity: 0
               alpha: 0.
               node_risk: 0.
               tree_risk: 0.
               tree_error: 0.
            -
               depth: 1
               sample_count: 293
               value: -5.6251435645047954e-01
               norm_class_idx: 0
               Tn: 0
               complexity: 0
               alpha: 0.
               node_risk: 0.
               tree_risk: 0.
               tree_error: 0.
      -
         best_tree_idx: -1
         nodes:
            -
               depth: 0
               sample_count: 277
               value: 4.5597277562720506e-01
               norm_class_idx: 1
               Tn: 0
               complexity: 0
               alpha: 0.
               node_risk: 0.
               tree_risk: 0.
               tree_error: 0.
               splits:
                  - { var:7, quality:6.0259705781936646e-01,
                      le:3.8297235965728760e-02 }
                  - { var:37, quality:5.5058628320693970e-01,
                      le:3.5958639346063137e-03 }
                  - { var:35, quality:5.5058628320693970e-01,
                      le:9.0016081929206848e-02 }
                  - { var:9, quality:5.4829716682434082e-01,
                      le:2.1759387105703354e-02 }
                  - { var:4, quality:5.4782986640930176e-01,
                      gt:2.2720420360565186e-01 }
                  - { var:6, quality:5.4633820056915283e-01,
                      gt:2.1934255957603455e-01 }
                  - { var:36, quality:5.4604005813598633e-01,
                      le:5.8176042512059212e-03 }
                  - { var:34, quality:5.4604005813598633e-01,
                      le:1.1003766953945160e-01 }
                  - { var:39, quality:5.4554164409637451e-01,
                      le:1.1387959239073098e-04 }
                  - { var:11, quality:5.4483896493911743e-01,
                      le:5.3954082541167736e-03 }
                  - { var:30, quality:5.4425728321075439e-01,
                      le:8.7041924416553229e-05 }
                  - { var:1, quality:5.4425728321075439e-01,
                      gt:2.8007602691650391e-01 }
                  - { var:2, quality:5.4419070482254028e-01,
                      le:1.7657488584518433e-02 }
                  - { var:33, quality:5.4326790571212769e-01,
                      le:1.9049499183893204e-02 }
                  - { var:32, quality:5.4326790571212769e-01,
                      le:1.7913665622472763e-02 }
                  - { var:19, quality:5.4321980476379395e-01,
                      gt:9.2603218555450439e-01 }
                  - { var:18, quality:5.4313129186630249e-01,
                      gt:9.4306540489196777e-01 }
                  - { var:38, quality:5.4303330183029175e-01,
                      le:6.1101483879610896e-05 }
                  - { var:21, quality:5.4266381263732910e-01,
                      gt:9.2837274074554443e-01 }
                  - { var:15, quality:5.4249465465545654e-01,
                      le:2.1773032844066620e-01 }
            -
               depth: 1
               sample_count: 44
               value: -4.5597277562720506e-01
               norm_class_idx: 0
               Tn: 0
               complexity: 0
               alpha: 0.
               node_risk: 0.
               tree_risk: 0.
               tree_error: 0.
            -
               depth: 1
               sample_count: 233
               value: 4.5597277562720506e-01
               norm_class_idx: 1
               Tn: 0
               complexity: 0
               alpha: 0.
               node_risk: 0.
               tree_risk: 0.
               tree_error: 0.
      -
         best_tree_idx: -1
         nodes:
            -
               depth: 0
               sample_count: 300
               value: -4.3321095912970276e-01
               norm_class_idx: 0
               Tn: 0
               complexity: 0
               alpha: 0.
               node_risk: 0.
               tree_risk: 0.
               tree_error: 0.
               splits:
                  - { var:10, quality:5.7451152801513672e-01,
                      le:7.0793554186820984e-02 }
                  - { var:4, quality:4.0556398034095764e-01,
                      gt:7.5571984052658081e-02 }
                  - { var:0, quality:3.8515156507492065e-01,
                      gt:1.1575563997030258e-01 }
                  - { var:5, quality:3.8165292143821716e-01,
                      le:1.0754603147506714e-01 }
                  - { var:8, quality:3.7694102525711060e-01,
                      le:6.5807081758975983e-02 }
                  - { var:20, quality:3.6955112218856812e-01,
                      gt:7.3001420497894287e-01 }
                  - { var:14, quality:3.6102649569511414e-01,
                      le:9.6859973669052124e-01 }
                  - { var:32, quality:3.6020690202713013e-01,
                      le:7.7243760228157043e-02 }
                  - { var:6, quality:3.5717180371284485e-01,
                      gt:4.4286794960498810e-02 }
                  - { var:2, quality:3.5417443513870239e-01,
                      gt:8.8866077363491058e-02 }
                  - { var:21, quality:3.4955734014511108e-01,
                      gt:7.0963263511657715e-01 }
                  - { var:39, quality:3.4903925657272339e-01,
                      gt:8.8846019934862852e-04 }
                  - { var:30, quality:3.4791830182075500e-01,
                      gt:2.1951624657958746e-03 }
                  - { var:7, quality:3.4652012586593628e-01,
                      gt:6.2312316149473190e-02 }
                  - { var:34, quality:3.4495961666107178e-01,
