%YAML:1.0
my_boost_tree: !!opencv-ml-boost-tree
   boosting_type: DiscreteAdaboost
   splitting_criteria: 3
   ntrees: 100
   weight_trimming_rate: 9.4999999999999996e-01
   is_classifier: 1
   var_all: 40
   var_count: 40
   ord_var_count: 40
   cat_var_count: 0
   training_params:
      use_surrogates: 1
      max_categories: 10
      max_depth: 1
      min_sample_count: 10
      cross_validation_folds: 0
      priors: !!opencv-matrix
         rows: 1
         cols: 2
         dt: d
         data: [ 1., 1. ]
   var_type: [ 0, 0, 0, 0, 0, 0, 0, 0, 0, 0, 0, 0, 0, 0, 0, 0, 0, 0, 0,
       0, 0, 0, 0, 0, 0, 0, 0, 0, 0, 0, 0, 0, 0, 0, 0, 0, 0, 0, 0, 0 ]
   cat_count: !!opencv-matrix
      rows: 1
      cols: 1
      dt: i
      data: [ 2 ]
   cat_map: !!opencv-matrix
      rows: 1
      cols: 2
      dt: i
      data: [ -1, 1 ]
   trees:
      -
         best_tree_idx: -1
         nodes:
            -
               depth: 0
               sample_count: 410
               value: -2.1441617323610078e+00
               norm_class_idx: 0
               Tn: 0
               complexity: 0
               alpha: 0.
               node_risk: 0.
               tree_risk: 0.
               tree_error: 0.
               splits:
                  - { var:36, quality:8.9512193202972412e-01,
                      le:2.5431674718856812e-01 }
                  - { var:37, quality:8.7983936071395874e-01,
                      le:2.8774955868721008e-01 }
                  - { var:33, quality:8.7765616178512573e-01,
                      le:1.8722920119762421e-01 }
                  - { var:35, quality:8.7547290325164795e-01,
                      le:7.4910509586334229e-01 }
                  - { var:31, quality:8.7547290325164795e-01,
                      le:2.1840254962444305e-01 }
                  - { var:39, quality:8.7328970432281494e-01,
                      le:6.8102711811661720e-03 }
                  - { var:32, quality:8.7328970432281494e-01,
                      le:2.3708760738372803e-01 }
                  - { var:24, quality:8.7328970432281494e-01,
                      le:9.4058549404144287e-01 }
            -
               depth: 1
               sample_count: 399
               value: -2.1441617323610078e+00
               norm_class_idx: 0
               Tn: 0
               complexity: 0
               alpha: 0.
               node_risk: 0.
               tree_risk: 0.
               tree_error: 0.
            -
               depth: 1
               sample_count: 11
               value: 2.1441617323610078e+00
               norm_class_idx: 1
               Tn: 0
               complexity: 0
               alpha: 0.
               node_risk: 0.
               tree_risk: 0.
               tree_error: 0.
      -
         best_tree_idx: -1
         nodes:
            -
               depth: 0
               sample_count: 410
               value: -1.6364468814715143e+00
               norm_class_idx: 0
               Tn: 0
               complexity: 0
               alpha: 0.
               node_risk: 0.
               tree_risk: 0.
               tree_error: 0.
               splits:
                  - { var:16, quality:8.3705085515975952e-01,
                      le:5.2210754156112671e-01 }
                  - { var:21, quality:8.0968135595321655e-01,
                      le:5.8040702342987061e-01 }
                  - { var:17, quality:7.8801381587982178e-01,
                      le:6.2919795513153076e-01 }
                  - { var:22, quality:7.8117144107818604e-01,
                      le:6.9392275810241699e-01 }
                  - { var:20, quality:7.7432906627655029e-01,
                      le:6.8614935874938965e-01 }
                  - { var:13, quality:7.4687999486923218e-01,
                      le:6.6000640392303467e-01 }
                  - { var:15, quality:7.0301455259323120e-01,
                      le:7.2728580236434937e-01 }
                  - { var:24, quality:6.8803024291992188e-01,
                      le:7.4965804815292358e-01 }
                  - { var:18, quality:6.4925676584243774e-01,
                      le:8.0415594577789307e-01 }
                  - { var:37, quality:6.4750641584396362e-01,
                      gt:1.0150448977947235e-01 }
                  - { var:31, quality:6.4188396930694580e-01,
                      gt:8.6122721433639526e-02 }
                  - { var:23, quality:6.3260167837142944e-01,
                      le:7.6834619045257568e-01 }
                  - { var:36, quality:6.3207125663757324e-01,
                      gt:8.1851020455360413e-02 }
                  - { var:35, quality:6.2705880403518677e-01,
                      gt:3.6259037256240845e-01 }
                  - { var:19, quality:6.2628972530364990e-01,
                      le:7.6238119602203369e-01 }
                  - { var:39, quality:6.2082642316818237e-01,
                      gt:1.1951572960242629e-03 }
                  - { var:38, quality:6.1512440443038940e-01,
                      gt:1.1103302240371704e-03 }
                  - { var:34, quality:6.1337405443191528e-01,
                      gt:3.3653193712234497e-01 }
                  - { var:32, quality:6.0515260696411133e-01,
                      gt:7.6126150786876678e-02 }
                  - { var:30, quality:6.0258007049560547e-01,
                      gt:9.6919033676385880e-03 }
                  - { var:33, quality:5.9268778562545776e-01,
                      gt:6.1173640191555023e-02 }
                  - { var:12, quality:5.7229328155517578e-01,
                      gt:4.7832228243350983e-02 }
                  - { var:4, quality:5.7003903388977051e-01,
                      gt:5.8619905263185501e-02 }
                  - { var:7, quality:5.6828862428665161e-01,
                      le:8.5270956158638000e-02 }
                  - { var:5, quality:5.5179268121719360e-01,
                      le:1.0867431759834290e-01 }
                  - { var:8, quality:5.4556030035018921e-01,
                      gt:2.4256158620119095e-02 }
                  - { var:3, quality:5.4434031248092651e-01,
                      gt:4.3262079358100891e-02 }
                  - { var:10, quality:5.4380989074707031e-01,
                      le:9.4757631421089172e-02 }
                  - { var:1, quality:5.4083955287933350e-01,
                      gt:5.7247206568717957e-02 }
                  - { var:14, quality:5.3763055801391602e-01,
                      gt:9.9910724163055420e-01 }
                  - { var:6, quality:5.3293633460998535e-01,
                      gt:3.6129742860794067e-02 }
                  - { var:9, quality:5.2776479721069336e-01,
                      gt:4.2597547173500061e-02 }
                  - { var:2, quality:5.2548402547836304e-01,
                      gt:6.9280661642551422e-02 }
                  - { var:26, quality:5.2381318807601929e-01,
                      le:6.4999997615814209e-01 }
                  - { var:11, quality:5.2153241634368896e-01,
                      gt:2.4578146636486053e-02 }
                  - { var:0, quality:5.1933115720748901e-01,
                      gt:5.5401124060153961e-02 }
                  - { var:29, quality:5.1811116933822632e-01,
                      le:6.4999997615814209e-01 }
            -
               depth: 1
               sample_count: 139
               value: 1.6364468814715143e+00
               norm_class_idx: 1
               Tn: 0
               complexity: 0
               alpha: 0.
               node_risk: 0.
               tree_risk: 0.
               tree_error: 0.
            -
               depth: 1
               sample_count: 271
               value: -1.6364468814715143e+00
               norm_class_idx: 0
               Tn: 0
               complexity: 0
               alpha: 0.
               node_risk: 0.
               tree_risk: 0.
               tree_error: 0.
      -
         best_tree_idx: -1
         nodes:
            -
               depth: 0
               sample_count: 410
               value: -9.0326815518123738e-01
               norm_class_idx: 0
               Tn: 0
               complexity: 0
               alpha: 0.
               node_risk: 0.
               tree_risk: 0.
               tree_error: 0.
               splits:
                  - { var:31, quality:7.1162062883377075e-01,
                      le:1.3739608228206635e-01 }
                  - { var:33, quality:6.6874933242797852e-01,
                      le:9.2327848076820374e-02 }
                  - { var:32, quality:6.3879799842834473e-01,
                      le:9.5474883913993835e-02 }
                  - { var:37, quality:5.7518756389617920e-01,
                      le:1.6095188260078430e-01 }
                  - { var:36, quality:5.6761860847473145e-01,
                      le:1.5678924322128296e-01 }
                  - { var:35, quality:5.0292336940765381e-01,
                      le:4.6595788002014160e-01 }
                  - { var:34, quality:5.0156772136688232e-01,
                      le:4.5870536565780640e-01 }
                  - { var:13, quality:4.9530664086341858e-01,
                      gt:3.8456684350967407e-01 }
                  - { var:30, quality:4.7042790055274963e-01,
                      gt:1.2540145777165890e-02 }
                  - { var:1, quality:4.6749392151832581e-01,
                      le:1.3693803548812866e-01 }
                  - { var:18, quality:4.4995081424713135e-01,
                      le:8.7057340145111084e-01 }
                  - { var:38, quality:4.4706404209136963e-01,
                      gt:1.2979975435882807e-03 }
                  - { var:25, quality:4.4586315751075745e-01,
                      gt:2.5000000000000000e-01 }
                  - { var:39, quality:4.4540596008300781e-01,
                      gt:1.4058341039344668e-03 }
                  - { var:14, quality:4.4351878762245178e-01,
                      gt:1.1973799765110016e-01 }
                  - { var:19, quality:4.3764829635620117e-01,
                      le:9.2286390066146851e-01 }
                  - { var:15, quality:4.3709489703178406e-01,
                      gt:4.9688959121704102e-01 }
                  - { var:17, quality:4.3498313426971436e-01,
                      le:8.2538032531738281e-01 }
                  - { var:12, quality:4.3496850132942200e-01,
                      le:2.2628761827945709e-02 }
                  - { var:22, quality:4.3469911813735962e-01,
                      gt:4.2638987302780151e-01 }
                  - { var:6, quality:4.3315625190734863e-01,
                      gt:4.9476742744445801e-02 }
                  - { var:24, quality:4.3187546730041504e-01,
                      gt:5.3143107891082764e-01 }
                  - { var:20, quality:4.3149375915527344e-01,
                      gt:4.5516216754913330e-01 }
                  - { var:23, quality:4.2562326788902283e-01,
                      gt:4.4929260015487671e-01 }
                  - { var:28, quality:4.2445322871208191e-01,
                      le:5.5000001192092896e-01 }
                  - { var:4, quality:4.2100495100021362e-01,
                      gt:4.4532567262649536e-02 }
                  - { var:9, quality:4.2040088772773743e-01,
                      le:7.9696588218212128e-02 }
                  - { var:21, quality:4.1951721906661987e-01,
                      le:8.1012088060379028e-01 }
                  - { var:0, quality:4.1885361075401306e-01,
                      le:1.4246881008148193e-01 }
                  - { var:16, quality:4.1827967762947083e-01,
                      le:8.6305338144302368e-01 }
                  - { var:10, quality:4.1567471623420715e-01,
                      le:8.8261991739273071e-02 }
                  - { var:11, quality:4.1233724355697632e-01,
                      gt:1.2486308813095093e-02 }
                  - { var:2, quality:4.1159954667091370e-01,
                      gt:1.7668224871158600e-02 }
                  - { var:8, quality:4.1115254163742065e-01,
                      le:7.8582085669040680e-02 }
            -
               depth: 1
               sample_count: 312
               value: -9.0326815518123738e-01
               norm_class_idx: 0
               Tn: 0
               complexity: 0
               alpha: 0.
               node_risk: 0.
               tree_risk: 0.
               tree_error: 0.
            -
               depth: 1
               sample_count: 98
               value: 9.0326815518123738e-01
               norm_class_idx: 1
               Tn: 0
               complexity: 0
               alpha: 0.
               node_risk: 0.
               tree_risk: 0.
               tree_error: 0.
      -
         best_tree_idx: -1
         nodes:
            -
               depth: 0
               sample_count: 410
               value: -7.8538511962067425e-01
               norm_class_idx: 0
               Tn: 0
               complexity: 0
               alpha: 0.
               node_risk: 0.
               tree_risk: 0.
               tree_error: 0.
               splits:
                  - { var:0, quality:6.8683958053588867e-01,
                      le:1.9161707162857056e-01 }
                  - { var:18, quality:5.6687581539154053e-01,
                      le:9.8028826713562012e-01 }
                  - { var:9, quality:5.6525111198425293e-01,
                      gt:1.9346348941326141e-02 }
                  - { var:8, quality:5.6451940536499023e-01,
                      gt:1.5692876651883125e-02 }
                  - { var:15, quality:5.6310379505157471e-01,
                      le:9.9940937757492065e-01 }
                  - { var:35, quality:5.6229019165039062e-01,
                      gt:8.7949581444263458e-02 }
                  - { var:34, quality:5.6229019165039062e-01,
                      gt:8.5380986332893372e-02 }
                  - { var:32, quality:5.6229019165039062e-01,
                      gt:1.8297098577022552e-02 }
                  - { var:31, quality:5.6229019165039062e-01,
                      gt:2.6724327355623245e-02 }
                  - { var:23, quality:5.6229019165039062e-01,
                      le:9.7066974639892578e-01 }
                  - { var:10, quality:5.6229019165039062e-01,
                      gt:3.4710061736404896e-03 }
                  - { var:6, quality:5.6229019165039062e-01,
                      le:2.8326326608657837e-01 }
                  - { var:20, quality:5.6209915876388550e-01,
                      gt:1.5278157591819763e-01 }
                  - { var:37, quality:5.6189745664596558e-01,
                      gt:5.1602483727037907e-03 }
                  - { var:36, quality:5.6189745664596558e-01,
                      gt:4.6574356965720654e-03 }
                  - { var:33, quality:5.6189745664596558e-01,
                      gt:2.0608108490705490e-02 }
                  - { var:1, quality:5.6189745664596558e-01,
                      le:2.9542094469070435e-01 }
            -
               depth: 1
               sample_count: 348
               value: -7.8538511962067425e-01
               norm_class_idx: 0
               Tn: 0
               complexity: 0
               alpha: 0.
               node_risk: 0.
               tree_risk: 0.
               tree_error: 0.
            -
               depth: 1
               sample_count: 62
               value: 7.8538511962067425e-01
               norm_class_idx: 1
               Tn: 0
               complexity: 0
               alpha: 0.
               node_risk: 0.
               tree_risk: 0.
               tree_error: 0.
      -
         best_tree_idx: -1
         nodes:
            -
               depth: 0
               sample_count: 410
               value: -7.1310296866282330e-01
               norm_class_idx: 0
               Tn: 0
               complexity: 0
               alpha: 0.
               node_risk: 0.
               tree_risk: 0.
               tree_error: 0.
               splits:
                  - { var:16, quality:6.7108643054962158e-01,
                      le:2.9339396953582764e-01 }
                  - { var:21, quality:5.9023660421371460e-01,
                      le:3.4705445170402527e-01 }
                  - { var:20, quality:5.8594501018524170e-01,
                      le:4.3207520246505737e-01 }
                  - { var:17, quality:5.6845593452453613e-01,
                      le:3.6651086807250977e-01 }
                  - { var:22, quality:5.6616407632827759e-01,
                      le:5.4858100414276123e-01 }
                  - { var:24, quality:5.4391860961914062e-01,
                      le:6.4855593442916870e-01 }
                  - { var:15, quality:5.3918528556823730e-01,
                      le:6.1567878723144531e-01 }
                  - { var:13, quality:5.3078675270080566e-01,
                      le:3.5788443684577942e-01 }
                  - { var:19, quality:5.2084988355636597e-01,
                      le:6.8753373622894287e-01 }
                  - { var:23, quality:5.1944786310195923e-01,
                      le:7.3711019754409790e-01 }
                  - { var:18, quality:5.0886714458465576e-01,
                      le:7.2148871421813965e-01 }
                  - { var:12, quality:5.0462406873703003e-01,
                      gt:4.1028289124369621e-03 }
                  - { var:38, quality:4.7712859511375427e-01,
                      gt:2.0139093976467848e-03 }
                  - { var:39, quality:4.6706464886665344e-01,
                      gt:2.1956185810267925e-03 }
                  - { var:30, quality:4.6570035815238953e-01,
                      gt:2.9067642986774445e-02 }
                  - { var:0, quality:4.4864177703857422e-01,
                      le:9.6792072057723999e-02 }
                  - { var:6, quality:4.3356680870056152e-01,
                      gt:1.4478112757205963e-01 }
                  - { var:2, quality:4.3157953023910522e-01,
                      gt:2.8277868032455444e-01 }
                  - { var:3, quality:4.2872789502143860e-01,
                      gt:2.4129396677017212e-01 }
                  - { var:5, quality:4.2818224430084229e-01,
                      le:4.3079018592834473e-02 }
                  - { var:11, quality:4.2549321055412292e-01,
                      le:1.5183370560407639e-02 }
                  - { var:7, quality:4.2476680874824524e-01,
                      le:3.0375218018889427e-02 }
                  - { var:4, quality:4.2432931065559387e-01,
                      gt:1.2735210359096527e-01 }
                  - { var:25, quality:4.2345467209815979e-01,
                      gt:6.4999997615814209e-01 }
                  - { var:1, quality:4.2325031757354736e-01,
                      gt:1.8495142459869385e-01 }
                  - { var:9, quality:4.1992405056953430e-01,
                      gt:3.0266192555427551e-01 }
                  - { var:10, quality:4.1932699084281921e-01,
                      gt:1.9653929769992828e-01 }
                  - { var:8, quality:4.1799974441528320e-01,
                      gt:1.0390074551105499e-01 }
            -
               depth: 1
               sample_count: 63
               value: 7.1310296866282330e-01
               norm_class_idx: 1
               Tn: 0
               complexity: 0
               alpha: 0.
               node_risk: 0.
               tree_risk: 0.
               tree_error: 0.
            -
               depth: 1
               sample_count: 347
               value: -7.1310296866282330e-01
               norm_class_idx: 0
               Tn: 0
               complexity: 0
               alpha: 0.
               node_risk: 0.
               tree_risk: 0.
               tree_error: 0.
      -
         best_tree_idx: -1
         nodes:
            -
               depth: 0
               sample_count: 410
               value: 6.9457267845831172e-01
               norm_class_idx: 1
               Tn: 0
               complexity: 0
               alpha: 0.
               node_risk: 0.
               tree_risk: 0.
               tree_error: 0.
               splits:
                  - { var:18, quality:6.6698336601257324e-01,
                      le:3.4493446350097656e-01 }
                  - { var:23, quality:6.6205626726150513e-01,
                      le:3.5857647657394409e-01 }
                  - { var:19, quality:6.5969818830490112e-01,
                      le:3.6514413356781006e-01 }
                  - { var:24, quality:6.5160846710205078e-01,
                      le:3.2509863376617432e-01 }
                  - { var:14, quality:6.4684522151947021e-01,
                      le:4.3933653831481934e-01 }
                  - { var:22, quality:6.3750940561294556e-01,
                      le:2.8151720762252808e-01 }
                  - { var:15, quality:6.3336646556854248e-01,
                      le:3.6516714096069336e-01 }
                  - { var:39, quality:5.9924519062042236e-01,
                      gt:4.8469775356352329e-03 }
                  - { var:30, quality:5.9838658571243286e-01,
                      gt:1.0049231350421906e-01 }
                  - { var:38, quality:5.9707713127136230e-01,
                      gt:4.7552278265357018e-03 }
                  - { var:20, quality:5.9534454345703125e-01,
                      le:2.9908519983291626e-01 }
                  - { var:37, quality:5.9490913152694702e-01,
                      gt:6.2509357929229736e-01 }
                  - { var:36, quality:5.9490913152694702e-01,
                      gt:4.2619717121124268e-01 }
                  - { var:35, quality:5.9490913152694702e-01,
                      gt:7.9383349418640137e-01 }
                  - { var:33, quality:5.9490913152694702e-01,
                      gt:3.3806335926055908e-01 }
                  - { var:32, quality:5.9490913152694702e-01,
                      gt:2.3708760738372803e-01 }
                  - { var:31, quality:5.9490913152694702e-01,
                      gt:2.4474757909774780e-01 }
                  - { var:34, quality:5.7824754714965820e-01,
                      gt:5.4034841060638428e-01 }
                  - { var:17, quality:5.7621413469314575e-01,
                      le:1.0275583714246750e-02 }
                  - { var:4, quality:5.7552796602249146e-01,
                      le:3.0328765511512756e-02 }
                  - { var:2, quality:5.7551634311676025e-01,
                      le:3.6198072135448456e-02 }
                  - { var:11, quality:5.7534670829772949e-01,
                      gt:1.8838255107402802e-01 }
                  - { var:8, quality:5.7469785213470459e-01,
                      gt:2.8791674971580505e-01 }
                  - { var:21, quality:5.7449096441268921e-01,
                      le:2.8698094189167023e-02 }
                  - { var:3, quality:5.7309681177139282e-01,
                      le:3.0403578653931618e-02 }
            -
               depth: 1
               sample_count: 37
               value: -6.9457267845831172e-01
               norm_class_idx: 0
               Tn: 0
               complexity: 0
               alpha: 0.
               node_risk: 0.
               tree_risk: 0.
               tree_error: 0.
            -
               depth: 1
               sample_count: 373
               value: 6.9457267845831172e-01
               norm_class_idx: 1
               Tn: 0
               complexity: 0
               alpha: 0.
               node_risk: 0.
               tree_risk: 0.
               tree_error: 0.
      -
         best_tree_idx: -1
         nodes:
            -
               depth: 0
               sample_count: 409
               value: -7.3349602352675491e-01
               norm_class_idx: 0
               Tn: 0
               complexity: 0
               alpha: 0.
               node_risk: 0.
               tree_risk: 0.
               tree_error: 0.
               splits:
                  - { var:1, quality:6.7533951997756958e-01,
                      le:1.3693803548812866e-01 }
                  - { var:19, quality:5.4456418752670288e-01,
                      le:9.2515498399734497e-01 }
                  - { var:39, quality:5.4278409481048584e-01,
                      le:6.8102711811661720e-03 }
                  - { var:37, quality:5.4278409481048584e-01,
                      le:6.2509357929229736e-01 }
                  - { var:36, quality:5.4278409481048584e-01,
                      le:4.2619717121124268e-01 }
                  - { var:35, quality:5.4278409481048584e-01,
                      le:7.9383349418640137e-01 }
                  - { var:33, quality:5.4278409481048584e-01,
                      le:3.3806335926055908e-01 }
                  - { var:32, quality:5.4278409481048584e-01,
                      le:2.3708760738372803e-01 }
                  - { var:31, quality:5.4278409481048584e-01,
                      le:2.4474757909774780e-01 }
                  - { var:7, quality:5.4231715202331543e-01,
                      gt:4.3854624032974243e-02 }
                  - { var:30, quality:5.4145264625549316e-01,
                      le:1.0331282764673233e-01 }
                  - { var:38, quality:5.4113811254501343e-01,
                      le:4.7552278265357018e-03 }
                  - { var:9, quality:5.4010373353958130e-01,
                      gt:2.5097701698541641e-02 }
                  - { var:23, quality:5.3942352533340454e-01,
                      le:9.0814006328582764e-01 }
                  - { var:18, quality:5.3845345973968506e-01,
                      gt:1.9722113013267517e-01 }
                  - { var:6, quality:5.3782534599304199e-01,
                      le:1.1773890256881714e-01 }
                  - { var:14, quality:5.3542584180831909e-01,
                      gt:1.1973799765110016e-01 }
                  - { var:17, quality:5.3520315885543823e-01,
                      le:8.2664924860000610e-01 }
                  - { var:24, quality:5.3206449747085571e-01,
                      gt:2.4114736914634705e-01 }
                  - { var:22, quality:5.2656316757202148e-01,
                      gt:1.4103066921234131e-01 }
                  - { var:11, quality:5.2610796689987183e-01,
                      gt:6.9807292893528938e-03 }
                  - { var:15, quality:5.2587366104125977e-01,
                      le:9.3032455444335938e-01 }
            -
               depth: 1
               sample_count: 351
               value: -7.3349602352675491e-01
               norm_class_idx: 0
               Tn: 0
               complexity: 0
               alpha: 0.
               node_risk: 0.
               tree_risk: 0.
               tree_error: 0.
            -
               depth: 1
               sample_count: 58
               value: 7.3349602352675491e-01
               norm_class_idx: 1
               Tn: 0
               complexity: 0
               alpha: 0.
               node_risk: 0.
               tree_risk: 0.
               tree_error: 0.
      -
         best_tree_idx: -1
         nodes:
            -
               depth: 0
               sample_count: 409
               value: -6.5997993789928255e-01
               norm_class_idx: 0
               Tn: 0
               complexity: 0
               alpha: 0.
               node_risk: 0.
               tree_risk: 0.
               tree_error: 0.
               splits:
                  - { var:13, quality:6.5908378362655640e-01,
                      le:6.5196323394775391e-01 }
                  - { var:22, quality:5.8089882135391235e-01,
                      le:7.4324369430541992e-01 }
                  - { var:17, quality:5.7152962684631348e-01,
                      le:6.4067208766937256e-01 }
                  - { var:16, quality:5.7146048545837402e-01,
                      le:6.2453097105026245e-01 }
                  - { var:20, quality:5.6936138868331909e-01,
                      le:6.8614935874938965e-01 }
                  - { var:21, quality:5.6773644685745239e-01,
                      le:5.7719302177429199e-01 }
                  - { var:38, quality:5.5898034572601318e-01,
                      gt:1.1103302240371704e-03 }
                  - { var:35, quality:5.5040311813354492e-01,
                      gt:3.1285828351974487e-01 }
                  - { var:39, quality:5.4959166049957275e-01,
                      gt:1.1648534564301372e-03 }
                  - { var:30, quality:5.4474192857742310e-01,
                      gt:8.7810959666967392e-03 }
                  - { var:37, quality:5.4227745532989502e-01,
                      gt:4.5160643756389618e-02 }
                  - { var:18, quality:5.4137086868286133e-01,
                      le:8.9746779203414917e-01 }
                  - { var:34, quality:5.4096215963363647e-01,
                      gt:2.8216892480850220e-01 }
                  - { var:24, quality:5.4026955366134644e-01,
                      le:8.3133387565612793e-01 }
                  - { var:31, quality:5.3708702325820923e-01,
                      gt:8.6122721433639526e-02 }
                  - { var:36, quality:5.3318279981613159e-01,
                      gt:6.4180001616477966e-02 }
                  - { var:15, quality:5.3208684921264648e-01,
                      le:7.4091798067092896e-01 }
                  - { var:23, quality:5.3140097856521606e-01,
                      le:9.1539490222930908e-01 }
                  - { var:3, quality:5.3062605857849121e-01,
                      gt:3.4938491880893707e-02 }
                  - { var:7, quality:5.2639085054397583e-01,
                      gt:2.6260511949658394e-02 }
                  - { var:33, quality:5.2442777156829834e-01,
                      gt:3.2968334853649139e-02 }
                  - { var:19, quality:5.2431958913803101e-01,
                      le:9.2832326889038086e-01 }
                  - { var:1, quality:5.2320057153701782e-01,
                      le:2.0821356773376465e-01 }
                  - { var:9, quality:5.2266865968704224e-01,
                      gt:1.8156088888645172e-02 }
                  - { var:6, quality:5.2248758077621460e-01,
                      le:2.2133147716522217e-01 }
                  - { var:5, quality:5.1957404613494873e-01,
                      le:2.1264541149139404e-01 }
                  - { var:10, quality:5.1916950941085815e-01,
                      gt:1.1031908914446831e-02 }
                  - { var:4, quality:5.1888006925582886e-01,
                      gt:2.7640175074338913e-02 }
                  - { var:8, quality:5.1871371269226074e-01,
                      gt:2.4256158620119095e-02 }
                  - { var:11, quality:5.1832222938537598e-01,
                      le:1.7496451735496521e-01 }
                  - { var:2, quality:5.1831722259521484e-01,
                      gt:2.2278733551502228e-02 }
                  - { var:0, quality:5.1829880475997925e-01,
                      le:3.2557457685470581e-01 }
                  - { var:32, quality:5.1730227470397949e-01,
                      gt:1.8297098577022552e-02 }
            -
               depth: 1
               sample_count: 144
               value: 6.5997993789928255e-01
               norm_class_idx: 1
               Tn: 0
               complexity: 0
               alpha: 0.
               node_risk: 0.
               tree_risk: 0.
               tree_error: 0.
            -
               depth: 1
               sample_count: 265
               value: -6.5997993789928255e-01
               norm_class_idx: 0
               Tn: 0
               complexity: 0
               alpha: 0.
               node_risk: 0.
               tree_risk: 0.
               tree_error: 0.
      -
         best_tree_idx: -1
         nodes:
            -
               depth: 0
               sample_count: 244
               value: -7.8717392761983196e-01
               norm_class_idx: 0
               Tn: 0
               complexity: 0
               alpha: 0.
               node_risk: 0.
               tree_risk: 0.
               tree_error: 0.
               splits:
                  - { var:39, quality:6.6680079698562622e-01,
                      le:1.3437776360660791e-03 }
                  - { var:38, quality:6.3286191225051880e-01,
                      le:1.3194059720262885e-03 }
                  - { var:30, quality:6.2497085332870483e-01,
                      le:9.9707618355751038e-03 }
                  - { var:18, quality:5.8427369594573975e-01,
                      gt:8.6241888999938965e-01 }
                  - { var:20, quality:5.7804667949676514e-01,
                      gt:6.8437898159027100e-01 }
                  - { var:22, quality:5.7530200481414795e-01,
                      gt:6.9298529624938965e-01 }
                  - { var:23, quality:5.6730985641479492e-01,
                      gt:9.0153121948242188e-01 }
                  - { var:19, quality:5.6726908683776855e-01,
                      gt:9.2515498399734497e-01 }
                  - { var:17, quality:5.6546413898468018e-01,
                      gt:6.2645018100738525e-01 }
                  - { var:24, quality:5.6418859958648682e-01,
                      gt:8.0285704135894775e-01 }
                  - { var:3, quality:5.6417906284332275e-01,
                      gt:2.6462393999099731e-01 }
                  - { var:5, quality:5.6320679187774658e-01,
                      le:2.3523874580860138e-02 }
                  - { var:1, quality:5.6273156404495239e-01,
                      le:2.8755635023117065e-02 }
                  - { var:8, quality:5.6233125925064087e-01,
                      gt:2.2810034453868866e-01 }
                  - { var:16, quality:5.5433613061904907e-01,
                      gt:6.0687988996505737e-01 }
                  - { var:9, quality:5.5046343803405762e-01,
                      le:2.5553017854690552e-02 }
                  - { var:21, quality:5.4987299442291260e-01,
                      gt:6.5374207496643066e-01 }
                  - { var:35, quality:5.4892247915267944e-01,
                      le:3.7284582853317261e-01 }
                  - { var:37, quality:5.4823631048202515e-01,
                      le:1.4743490144610405e-02 }
                  - { var:36, quality:5.4747623205184937e-01,
                      le:1.4788636937737465e-02 }
                  - { var:34, quality:5.4745602607727051e-01,
                      le:1.3692346215248108e-01 }
                  - { var:4, quality:5.4723340272903442e-01,
                      le:2.7178907766938210e-02 }
                  - { var:2, quality:5.4714626073837280e-01,
                      le:2.2278733551502228e-02 }
                  - { var:7, quality:5.4712599515914917e-01,
                      le:9.7166616469621658e-03 }
                  - { var:33, quality:5.4707592725753784e-01,
                      le:2.3036643862724304e-02 }
                  - { var:31, quality:5.4707592725753784e-01,
                      le:4.0646336972713470e-02 }
                  - { var:10, quality:5.4707592725753784e-01,
                      le:1.0096086189150810e-02 }
                  - { var:32, quality:5.4669594764709473e-01,
                      le:1.8297098577022552e-02 }
                  - { var:6, quality:5.4669594764709473e-01,
                      gt:2.7348497509956360e-01 }
                  - { var:0, quality:5.4669594764709473e-01,
                      gt:3.7108987569808960e-01 }
                  - { var:11, quality:5.4667568206787109e-01,
                      le:8.2106571644544601e-03 }
            -
               depth: 1
               sample_count: 43
               value: 7.8717392761983196e-01
               norm_class_idx: 1
               Tn: 0
               complexity: 0
               alpha: 0.
               node_risk: 0.
               tree_risk: 0.
               tree_error: 0.
            -
               depth: 1
               sample_count: 201
               value: -7.8717392761983196e-01
               norm_class_idx: 0
               Tn: 0
               complexity: 0
               alpha: 0.
               node_risk: 0.
               tree_risk: 0.
               tree_error: 0.
      -
         best_tree_idx: -1
         nodes:
            -
               depth: 0
               sample_count: 300
               value: 6.5884425561264270e-01
               norm_class_idx: 1
               Tn: 0
               complexity: 0
               alpha: 0.
               node_risk: 0.
               tree_risk: 0.
               tree_error: 0.
               splits:
                  - { var:4, quality:6.5042734146118164e-01,
                      le:5.7767856866121292e-02 }
                  - { var:18, quality:5.6324106454849243e-01,
                      le:1.9722113013267517e-01 }
                  - { var:30, quality:5.6179726123809814e-01,
                      gt:1.0067434608936310e-01 }
                  - { var:24, quality:5.6134313344955444e-01,
                      le:2.4114736914634705e-01 }
                  - { var:39, quality:5.6116425991058350e-01,
                      gt:5.2667353302240372e-03 }
                  - { var:38, quality:5.6116425991058350e-01,
                      gt:4.7552278265357018e-03 }
                  - { var:32, quality:5.6016695499420166e-01,
                      gt:1.8685153126716614e-01 }
                  - { var:19, quality:5.6006067991256714e-01,
                      le:2.4592360854148865e-01 }
                  - { var:37, quality:5.5987268686294556e-01,
                      gt:6.2509357929229736e-01 }
                  - { var:36, quality:5.5987268686294556e-01,
                      gt:4.2619717121124268e-01 }
                  - { var:35, quality:5.5987268686294556e-01,
                      gt:7.9383349418640137e-01 }
                  - { var:33, quality:5.5987268686294556e-01,
                      gt:3.3806335926055908e-01 }
                  - { var:31, quality:5.5987268686294556e-01,
                      gt:2.4474757909774780e-01 }
                  - { var:23, quality:5.5974751710891724e-01,
                      le:2.2481729090213776e-01 }
                  - { var:14, quality:5.5869770050048828e-01,
                      le:1.1973799765110016e-01 }
                  - { var:6, quality:5.4679280519485474e-01,
                      le:3.8942776620388031e-02 }
                  - { var:15, quality:5.4598236083984375e-01,
                      le:2.9261264204978943e-01 }
                  - { var:10, quality:5.4534870386123657e-01,
                      gt:1.4393070340156555e-01 }
                  - { var:1, quality:5.4420006275177002e-01,
                      gt:1.8390277028083801e-01 }
                  - { var:8, quality:5.4187077283859253e-01,
                      gt:9.3200460076332092e-02 }
                  - { var:9, quality:5.4081994295120239e-01,
                      gt:1.8918208777904510e-01 }
                  - { var:11, quality:5.3808701038360596e-01,
                      le:1.3392503373324871e-02 }
                  - { var:22, quality:5.3709721565246582e-01,
                      le:2.3140311241149902e-01 }
                  - { var:7, quality:5.3640466928482056e-01,
                      gt:1.7597684264183044e-01 }
                  - { var:2, quality:5.3561377525329590e-01,
                      le:4.4585697352886200e-02 }
                  - { var:5, quality:5.3514677286148071e-01,
                      gt:1.4679098129272461e-01 }
                  - { var:0, quality:5.3267121315002441e-01,
                      le:2.4813111871480942e-02 }
            -
               depth: 1
               sample_count: 75
               value: -6.5884425561264270e-01
               norm_class_idx: 0
               Tn: 0
               complexity: 0
               alpha: 0.
               node_risk: 0.
               tree_risk: 0.
               tree_error: 0.
            -
               depth: 1
               sample_count: 225
               value: 6.5884425561264270e-01
               norm_class_idx: 1
               Tn: 0
               complexity: 0
               alpha: 0.
               node_risk: 0.
               tree_risk: 0.
               tree_error: 0.
      -
         best_tree_idx: -1
         nodes:
            -
               depth: 0
               sample_count: 276
               value: -6.9465600968550667e-01
               norm_class_idx: 0
               Tn: 0
               complexity: 0
               alpha: 0.
               node_risk: 0.
               tree_risk: 0.
               tree_error: 0.
               splits:
                  - { var:3, quality:6.2609887123107910e-01,
                      le:2.3571687936782837e-01 }
                  - { var:32, quality:6.0563898086547852e-01,
                      gt:1.9637560471892357e-02 }
                  - { var:33, quality:6.0327309370040894e-01,
                      gt:3.9617497473955154e-02 }
                  - { var:31, quality:5.9914010763168335e-01,
                      gt:4.7343671321868896e-02 }
                  - { var:36, quality:5.9871751070022583e-01,
                      gt:2.3369718343019485e-02 }
                  - { var:8, quality:5.9450918436050415e-01,
                      le:2.2810034453868866e-01 }
                  - { var:5, quality:5.9325021505355835e-01,
                      gt:2.3523874580860138e-02 }
                  - { var:1, quality:5.9285485744476318e-01,
                      gt:2.8755635023117065e-02 }
                  - { var:10, quality:5.9248274564743042e-01,
                      le:1.3791465759277344e-01 }
                  - { var:37, quality:5.8979684114456177e-01,
                      gt:5.0253599882125854e-02 }
                  - { var:0, quality:5.8663046360015869e-01,
                      gt:2.2827524691820145e-02 }
            -
               depth: 1
               sample_count: 270
               value: -6.9465600968550667e-01
               norm_class_idx: 0
               Tn: 0
               complexity: 0
               alpha: 0.
               node_risk: 0.
               tree_risk: 0.
               tree_error: 0.
            -
               depth: 1
               sample_count: 6
               value: 6.9465600968550667e-01
               norm_class_idx: 1
               Tn: 0
               complexity: 0
               alpha: 0.
               node_risk: 0.
               tree_risk: 0.
               tree_error: 0.
      -
         best_tree_idx: -1
         nodes:
            -
               depth: 0
               sample_count: 260
               value: 6.3574884895164085e-01
               norm_class_idx: 1
               Tn: 0
               complexity: 0
               alpha: 0.
               node_risk: 0.
               tree_risk: 0.
               tree_error: 0.
               splits:
                  - { var:5, quality:6.4138412475585938e-01,
                      le:9.8985865712165833e-02 }
                  - { var:11, quality:5.2168285846710205e-01,
                      gt:2.4398809298872948e-02 }
                  - { var:10, quality:5.1511716842651367e-01,
                      gt:1.8822068348526955e-02 }
                  - { var:9, quality:5.1394498348236084e-01,
                      le:1.6846518218517303e-01 }
                  - { var:8, quality:5.1386165618896484e-01,
                      gt:2.5768063962459564e-02 }
                  - { var:27, quality:5.0745284557342529e-01,
                      le:9.4999998807907104e-01 }
                  - { var:29, quality:5.0701606273651123e-01,
                      le:9.4999998807907104e-01 }
                  - { var:20, quality:5.0608348846435547e-01,
                      gt:1.7807090282440186e-01 }
                  - { var:26, quality:5.0576299428939819e-01,
                      le:9.4999998807907104e-01 }
                  - { var:0, quality:5.0510984659194946e-01,
                      gt:2.7460191398859024e-02 }
                  - { var:17, quality:5.0413823127746582e-01,
                      gt:5.6894488632678986e-02 }
                  - { var:15, quality:5.0406694412231445e-01,
                      gt:2.7417966723442078e-01 }
                  - { var:21, quality:5.0353413820266724e-01,
                      le:8.7306916713714600e-01 }
                  - { var:18, quality:5.0268447399139404e-01,
                      gt:1.3144642114639282e-01 }
                  - { var:23, quality:5.0127285718917847e-01,
                      gt:1.4432105422019958e-01 }
                  - { var:22, quality:5.0127285718917847e-01,
                      gt:1.4103066921234131e-01 }
                  - { var:30, quality:5.0122177600860596e-01,
                      gt:1.3399445451796055e-03 }
                  - { var:6, quality:5.0097304582595825e-01,
                      gt:3.2221816480159760e-02 }
                  - { var:39, quality:5.0091540813446045e-01,
                      gt:3.3380946842953563e-04 }
                  - { var:24, quality:5.0086557865142822e-01,
                      gt:2.1596542000770569e-01 }
                  - { var:38, quality:5.0030273199081421e-01,
                      gt:2.3323850473389030e-04 }
                  - { var:34, quality:5.0016957521438599e-01,
                      le:6.8126153945922852e-01 }
                  - { var:19, quality:4.9945351481437683e-01,
                      gt:1.3745024800300598e-01 }
                  - { var:1, quality:4.9939975142478943e-01,
                      gt:2.3558415472507477e-02 }
                  - { var:36, quality:4.9934056401252747e-01,
                      gt:1.9978584721684456e-02 }
                  - { var:16, quality:4.9923667311668396e-01,
                      le:8.4651529788970947e-01 }
                  - { var:7, quality:4.9894547462463379e-01,
                      gt:1.5844997018575668e-02 }
                  - { var:37, quality:4.9831300973892212e-01,
                      gt:2.7200240641832352e-02 }
                  - { var:35, quality:4.9829390645027161e-01,
                      gt:2.4620410799980164e-01 }
                  - { var:3, quality:4.9813306331634521e-01,
                      le:3.3740001916885376e-01 }
                  - { var:2, quality:4.9772384762763977e-01,
                      gt:2.2278733551502228e-02 }
            -
               depth: 1
               sample_count: 189
               value: 6.3574884895164085e-01
               norm_class_idx: 1
               Tn: 0
               complexity: 0
               alpha: 0.
               node_risk: 0.
               tree_risk: 0.
               tree_error: 0.
            -
               depth: 1
               sample_count: 71
               value: -6.3574884895164085e-01
               norm_class_idx: 0
               Tn: 0
               complexity: 0
               alpha: 0.
               node_risk: 0.
               tree_risk: 0.
               tree_error: 0.
      -
         best_tree_idx: -1
         nodes:
            -
               depth: 0
               sample_count: 247
               value: -5.0518731872466283e-01
               norm_class_idx: 0
               Tn: 0
               complexity: 0
               alpha: 0.
               node_risk: 0.
               tree_risk: 0.
               tree_error: 0.
               splits:
                  - { var:7, quality:6.0138624906539917e-01,
                      le:8.2138761878013611e-02 }
                  - { var:32, quality:4.0200760960578918e-01,
                      le:1.3526435196399689e-01 }
                  - { var:3, quality:3.9697289466857910e-01,
                      gt:4.2136691510677338e-02 }
                  - { var:31, quality:3.9673838019371033e-01,
                      le:1.8246853351593018e-01 }
                  - { var:14, quality:3.9127168059349060e-01,
                      gt:1.9233411550521851e-01 }
                  - { var:33, quality:3.8957136869430542e-01,
                      le:1.2105609476566315e-01 }
                  - { var:18, quality:3.8872724771499634e-01,
                      gt:2.8862667083740234e-01 }
                  - { var:23, quality:3.8797429203987122e-01,
                      gt:3.1546640396118164e-01 }
                  - { var:19, quality:3.8792577385902405e-01,
                      gt:3.1180965900421143e-01 }
                  - { var:20, quality:3.8696974515914917e-01,
                      le:6.0556006431579590e-01 }
                  - { var:36, quality:3.8686403632164001e-01,
                      le:2.6685279607772827e-01 }
                  - { var:24, quality:3.8548639416694641e-01,
                      gt:2.5465089082717896e-01 }
                  - { var:1, quality:3.8501751422882080e-01,
                      gt:5.2784584462642670e-02 }
                  - { var:35, quality:3.8458916544914246e-01,
                      le:6.6284561157226562e-01 }
                  - { var:38, quality:3.8276407122612000e-01,
                      le:4.1980063542723656e-03 }
                  - { var:39, quality:3.8174211978912354e-01,
                      le:4.5831999741494656e-03 }
                  - { var:30, quality:3.8105323910713196e-01,
                      le:1.0067434608936310e-01 }
                  - { var:2, quality:3.8077050447463989e-01,
                      le:1.2582232058048248e-01 }
                  - { var:37, quality:3.7956514954566956e-01,
                      le:6.2509357929229736e-01 }
                  - { var:16, quality:3.7813180685043335e-01,
                      gt:3.5719878971576691e-02 }
                  - { var:4, quality:3.7800049781799316e-01,
                      gt:6.3149034976959229e-02 }
                  - { var:26, quality:3.7767708301544189e-01,
                      le:3.5000002384185791e-01 }
                  - { var:15, quality:3.7704724073410034e-01,
                      gt:2.9261264204978943e-01 }
                  - { var:10, quality:3.7357202172279358e-01,
                      le:8.1552289426326752e-02 }
                  - { var:22, quality:3.7206524610519409e-01,
                      gt:2.3140311241149902e-01 }
                  - { var:21, quality:3.6967089772224426e-01,
                      gt:9.1663256287574768e-02 }
                  - { var:0, quality:3.6961767077445984e-01,
                      gt:4.6709083020687103e-02 }
                  - { var:5, quality:3.6827886104583740e-01,
                      gt:4.5717813074588776e-02 }
                  - { var:34, quality:3.6789831519126892e-01,
                      le:5.1890349388122559e-01 }
                  - { var:13, quality:3.6718913912773132e-01,
                      le:5.1703107357025146e-01 }
                  - { var:17, quality:3.6642643809318542e-01,
                      le:5.7553386688232422e-01 }
                  - { var:29, quality:3.6377987265586853e-01,
                      le:9.4999998807907104e-01 }
                  - { var:8, quality:3.6338508129119873e-01,
                      le:7.9173468053340912e-02 }
                  - { var:11, quality:3.6327505111694336e-01,
                      le:1.5871249139308929e-01 }
                  - { var:9, quality:3.5855615139007568e-01,
                      gt:1.0921244509518147e-02 }
                  - { var:28, quality:3.5811620950698853e-01,
                      le:3.5000002384185791e-01 }
            -
               depth: 1
               sample_count: 146
               value: 5.0518731872466283e-01
               norm_class_idx: 1
               Tn: 0
               complexity: 0
               alpha: 0.
               node_risk: 0.
               tree_risk: 0.
               tree_error: 0.
            -
               depth: 1
               sample_count: 101
               value: -5.0518731872466283e-01
               norm_class_idx: 0
               Tn: 0
               complexity: 0
               alpha: 0.
               node_risk: 0.
               tree_risk: 0.
               tree_error: 0.
      -
         best_tree_idx: -1
         nodes:
            -
               depth: 0
               sample_count: 255
               value: -3.8698869165444522e-01
               norm_class_idx: 0
               Tn: 0
               complexity: 0
               alpha: 0.
               node_risk: 0.
               tree_risk: 0.
               tree_error: 0.
               splits:
                  - { var:35, quality:5.8421134948730469e-01,
                      le:4.9077707529067993e-01 }
                  - { var:34, quality:5.4502826929092407e-01,
                      le:4.8527044057846069e-01 }
                  - { var:37, quality:4.9867147207260132e-01,
                      le:2.0779813826084137e-01 }
                  - { var:36, quality:4.7636175155639648e-01,
                      le:1.9576585292816162e-01 }
                  - { var:31, quality:4.5589190721511841e-01,
                      le:1.4489319920539856e-01 }
                  - { var:14, quality:4.4907227158546448e-01,
                      gt:6.3510537147521973e-01 }
                  - { var:33, quality:4.4539499282836914e-01,
                      le:1.1843514442443848e-01 }
                  - { var:18, quality:4.3216407299041748e-01,
                      gt:4.3699640035629272e-01 }
                  - { var:19, quality:4.3078815937042236e-01,
                      gt:4.1464960575103760e-01 }
                  - { var:23, quality:4.2814832925796509e-01,
                      gt:4.8892968893051147e-01 }
                  - { var:15, quality:4.2508786916732788e-01,
                      le:8.7227106094360352e-01 }
                  - { var:32, quality:4.2143437266349792e-01,
                      le:1.1193714290857315e-01 }
                  - { var:24, quality:4.1653919219970703e-01,
                      gt:2.5465089082717896e-01 }
                  - { var:16, quality:4.1633132100105286e-01,
                      le:7.3807674646377563e-01 }
                  - { var:4, quality:4.1446185111999512e-01,
                      gt:5.9451304376125336e-02 }
                  - { var:1, quality:4.1366368532180786e-01,
                      le:1.8168330192565918e-01 }
                  - { var:22, quality:4.0349212288856506e-01,
                      gt:2.3140311241149902e-01 }
                  - { var:39, quality:4.0312820672988892e-01,
                      le:3.1408369541168213e-03 }
                  - { var:26, quality:4.0289893746376038e-01,
                      le:8.5000002384185791e-01 }
                  - { var:38, quality:4.0110415220260620e-01,
                      le:4.1980063542723656e-03 }
                  - { var:30, quality:3.9939752221107483e-01,
                      le:1.2004857510328293e-01 }
                  - { var:17, quality:3.9897379279136658e-01,
                      le:8.2664924860000610e-01 }
                  - { var:21, quality:3.9896857738494873e-01,
                      le:6.6997849941253662e-01 }
                  - { var:12, quality:3.9750435948371887e-01,
                      le:9.5408451557159424e-01 }
                  - { var:6, quality:3.9542829990386963e-01,
                      le:1.1703860759735107e-01 }
                  - { var:20, quality:3.9373508095741272e-01,
                      le:8.0503666400909424e-01 }
                  - { var:13, quality:3.9179867506027222e-01,
                      gt:9.2923705233260989e-04 }
                  - { var:7, quality:3.9013984799385071e-01,
                      le:1.7597684264183044e-01 }
                  - { var:29, quality:3.8527390360832214e-01,
                      le:9.4999998807907104e-01 }
                  - { var:8, quality:3.8504648208618164e-01,
                      gt:1.4492237009108067e-02 }
                  - { var:28, quality:3.8431736826896667e-01,
                      le:9.4999998807907104e-01 }
                  - { var:11, quality:3.8318923115730286e-01,
                      le:2.4484810233116150e-01 }
            -
               depth: 1
               sample_count: 164
               value: 3.8698869165444522e-01
               norm_class_idx: 1
               Tn: 0
               complexity: 0
               alpha: 0.
               node_risk: 0.
               tree_risk: 0.
               tree_error: 0.
            -
               depth: 1
               sample_count: 91
               value: -3.8698869165444522e-01
               norm_class_idx: 0
               Tn: 0
               complexity: 0
               alpha: 0.
               node_risk: 0.
               tree_risk: 0.
               tree_error: 0.
      -
         best_tree_idx: -1
         nodes:
            -
               depth: 0
               sample_count: 260
               value: -7.0377351448903158e-01
               norm_class_idx: 0
               Tn: 0
               complexity: 0
               alpha: 0.
               node_risk: 0.
               tree_risk: 0.
               tree_error: 0.
               splits:
                  - { var:36, quality:6.2389385700225830e-01,
                      le:2.1592226624488831e-01 }
                  - { var:37, quality:5.6432622671127319e-01,
                      le:2.0398229360580444e-01 }
                  - { var:32, quality:5.6024152040481567e-01,
                      le:1.3046404719352722e-01 }
                  - { var:31, quality:5.5849498510360718e-01,
                      le:1.6691176593303680e-01 }
                  - { var:35, quality:5.4227960109710693e-01,
                      le:5.9726953506469727e-01 }
                  - { var:34, quality:5.2923089265823364e-01,
                      le:5.3304237127304077e-01 }
                  - { var:33, quality:5.1966106891632080e-01,
                      le:1.1364084482192993e-01 }
                  - { var:4, quality:5.1571702957153320e-01,
                      gt:4.4776834547519684e-02 }
                  - { var:38, quality:5.1483559608459473e-01,
                      le:3.2574064098298550e-03 }
                  - { var:14, quality:5.1270222663879395e-01,
                      gt:1.7055125534534454e-01 }
                  - { var:39, quality:5.1268887519836426e-01,
                      le:6.8102711811661720e-03 }
                  - { var:30, quality:5.1199299097061157e-01,
                      le:1.2004857510328293e-01 }
                  - { var:17, quality:5.0817602872848511e-01,
                      le:8.2664924860000610e-01 }
                  - { var:18, quality:5.0701493024826050e-01,
                      gt:1.9722113013267517e-01 }
                  - { var:15, quality:5.0678348541259766e-01,
                      le:9.1780799627304077e-01 }
                  - { var:21, quality:5.0554203987121582e-01,
                      le:8.6146390438079834e-01 }
                  - { var:20, quality:5.0501728057861328e-01,
                      le:8.9302468299865723e-01 }
                  - { var:7, quality:5.0461280345916748e-01,
                      le:1.7597684264183044e-01 }
                  - { var:24, quality:5.0457966327667236e-01,
                      gt:2.4803772568702698e-01 }
                  - { var:19, quality:5.0294500589370728e-01,
                      le:9.0586769580841064e-01 }
                  - { var:16, quality:5.0245726108551025e-01,
                      le:7.3807674646377563e-01 }
                  - { var:27, quality:5.0164055824279785e-01,
                      le:9.4999998807907104e-01 }
                  - { var:22, quality:5.0135719776153564e-01,
                      le:8.8026005029678345e-01 }
                  - { var:8, quality:4.9988526105880737e-01,
                      gt:1.4492237009108067e-02 }
                  - { var:23, quality:4.9959063529968262e-01,
                      gt:2.2481729090213776e-01 }
            -
               depth: 1
               sample_count: 229
               value: -7.0377351448903158e-01
               norm_class_idx: 0
               Tn: 0
               complexity: 0
               alpha: 0.
               node_risk: 0.
               tree_risk: 0.
               tree_error: 0.
            -
               depth: 1
               sample_count: 31
               value: 7.0377351448903158e-01
               norm_class_idx: 1
               Tn: 0
               complexity: 0
               alpha: 0.
               node_risk: 0.
               tree_risk: 0.
               tree_error: 0.
      -
         best_tree_idx: -1
         nodes:
            -
               depth: 0
               sample_count: 227
               value: 4.8825649642069041e-01
               norm_class_idx: 1
               Tn: 0
               complexity: 0
               alpha: 0.
               node_risk: 0.
               tree_risk: 0.
               tree_error: 0.
               splits:
                  - { var:19, quality:6.1666136980056763e-01,
                      le:4.1464960575103760e-01 }
                  - { var:23, quality:6.0116386413574219e-01,
                      le:4.0128427743911743e-01 }
                  - { var:14, quality:5.9724432229995728e-01,
                      le:4.9618369340896606e-01 }
                  - { var:18, quality:5.9323364496231079e-01,
                      le:3.9555376768112183e-01 }
                  - { var:24, quality:5.9162348508834839e-01,
                      le:3.5040721297264099e-01 }
                  - { var:22, quality:5.6633394956588745e-01,
                      le:2.3257467150688171e-01 }
                  - { var:15, quality:5.6047403812408447e-01,
                      le:2.9261264204978943e-01 }
                  - { var:35, quality:5.5954623222351074e-01,
                      gt:6.0650622844696045e-01 }
                  - { var:37, quality:5.5440539121627808e-01,
                      gt:2.4826434254646301e-01 }
                  - { var:39, quality:5.5107647180557251e-01,
                      gt:4.8469775356352329e-03 }
                  - { var:30, quality:5.5015945434570312e-01,
                      gt:1.0067434608936310e-01 }
                  - { var:38, quality:5.4978668689727783e-01,
                      gt:4.7552278265357018e-03 }
                  - { var:36, quality:5.4927027225494385e-01,
                      gt:4.2619717121124268e-01 }
                  - { var:33, quality:5.4927027225494385e-01,
                      gt:3.3806335926055908e-01 }
                  - { var:32, quality:5.4927027225494385e-01,
                      gt:2.3708760738372803e-01 }
                  - { var:31, quality:5.4927027225494385e-01,
                      gt:2.4474757909774780e-01 }
                  - { var:34, quality:5.4420292377471924e-01,
                      gt:5.3934758901596069e-01 }
                  - { var:1, quality:5.3853470087051392e-01,
                      gt:1.8400618433952332e-01 }
                  - { var:20, quality:5.3274780511856079e-01,
                      le:1.3683511316776276e-01 }
                  - { var:11, quality:5.3058165311813354e-01,
                      gt:1.6480326652526855e-01 }
                  - { var:17, quality:5.2820229530334473e-01,
                      le:1.0275583714246750e-02 }
                  - { var:2, quality:5.2764993906021118e-01,
                      le:3.6198072135448456e-02 }
                  - { var:3, quality:5.2763509750366211e-01,
                      le:3.2227028161287308e-02 }
                  - { var:21, quality:5.2736002206802368e-01,
                      le:2.8698094189167023e-02 }
                  - { var:8, quality:5.2734792232513428e-01,
                      gt:2.8791674971580505e-01 }
                  - { var:4, quality:5.2690994739532471e-01,
                      le:3.0989732593297958e-02 }
            -
               depth: 1
               sample_count: 34
               value: -4.8825649642069041e-01
               norm_class_idx: 0
               Tn: 0
               complexity: 0
               alpha: 0.
               node_risk: 0.
               tree_risk: 0.
               tree_error: 0.
            -
               depth: 1
               sample_count: 193
               value: 4.8825649642069041e-01
               norm_class_idx: 1
               Tn: 0
               complexity: 0
               alpha: 0.
               node_risk: 0.
               tree_risk: 0.
               tree_error: 0.
      -
         best_tree_idx: -1
         nodes:
            -
               depth: 0
               sample_count: 257
               value: -6.3585267594255535e-01
               norm_class_idx: 0
               Tn: 0
               complexity: 0
               alpha: 0.
               node_risk: 0.
               tree_risk: 0.
               tree_error: 0.
               splits:
                  - { var:13, quality:6.1045020818710327e-01,
                      le:9.2923705233260989e-04 }
                  - { var:12, quality:5.4333233833312988e-01,
                      gt:1.2041147053241730e-01 }
                  - { var:23, quality:5.3304225206375122e-01,
                      le:6.2362456321716309e-01 }
                  - { var:19, quality:5.2785551548004150e-01,
                      le:6.2802910804748535e-01 }
                  - { var:18, quality:5.2729177474975586e-01,
                      le:6.2484061717987061e-01 }
                  - { var:24, quality:5.2038013935089111e-01,
                      le:4.4225800037384033e-01 }
                  - { var:14, quality:5.1175433397293091e-01,
                      le:6.8427848815917969e-01 }
                  - { var:30, quality:5.0476574897766113e-01,
                      gt:4.4389262795448303e-02 }
                  - { var:39, quality:5.0035607814788818e-01,
                      gt:2.6046270504593849e-03 }
                  - { var:38, quality:5.0023561716079712e-01,
                      gt:2.6352268178015947e-03 }
                  - { var:15, quality:4.9948209524154663e-01,
                      le:4.3687310814857483e-01 }
                  - { var:22, quality:4.9540361762046814e-01,
                      le:4.3307664990425110e-01 }
                  - { var:36, quality:4.7030171751976013e-01,
                      gt:2.0635700225830078e-01 }
                  - { var:37, quality:4.6815049648284912e-01,
                      gt:2.0398229360580444e-01 }
                  - { var:31, quality:4.6636471152305603e-01,
                      gt:1.7181172966957092e-01 }
                  - { var:20, quality:4.6139267086982727e-01,
                      le:3.9183270931243896e-01 }
                  - { var:17, quality:4.6015015244483948e-01,
                      le:3.5974544286727905e-01 }
                  - { var:34, quality:4.5716252923011780e-01,
                      gt:5.3501522541046143e-01 }
                  - { var:35, quality:4.5411613583564758e-01,
                      gt:5.8429729938507080e-01 }
                  - { var:32, quality:4.5075011253356934e-01,
                      gt:1.3325598835945129e-01 }
                  - { var:33, quality:4.3941110372543335e-01,
                      gt:3.3806335926055908e-01 }
                  - { var:28, quality:4.3481445312500000e-01,
                      gt:7.5000000000000000e-01 }
                  - { var:4, quality:4.3287092447280884e-01,
                      gt:1.3676503300666809e-01 }
                  - { var:1, quality:4.3114542961120605e-01,
                      gt:1.8400618433952332e-01 }
                  - { var:6, quality:4.2739841341972351e-01,
                      le:4.4739499688148499e-02 }
                  - { var:21, quality:4.2708829045295715e-01,
                      le:3.7812179327011108e-01 }
                  - { var:9, quality:4.2705968022346497e-01,
                      gt:1.6712975502014160e-01 }
                  - { var:0, quality:4.2620128393173218e-01,
                      gt:2.6377069950103760e-01 }
                  - { var:27, quality:4.2543068528175354e-01,
                      gt:9.4999998807907104e-01 }
                  - { var:11, quality:4.2540240287780762e-01,
                      le:1.5894206240773201e-02 }
                  - { var:7, quality:4.2392194271087646e-01,
                      gt:1.7597684264183044e-01 }
                  - { var:16, quality:4.2215582728385925e-01,
                      le:3.6749276518821716e-01 }
                  - { var:8, quality:4.2198756337165833e-01,
                      gt:2.8791674971580505e-01 }
            -
               depth: 1
               sample_count: 55
               value: 6.3585267594255535e-01
               norm_class_idx: 1
               Tn: 0
               complexity: 0
               alpha: 0.
               node_risk: 0.
               tree_risk: 0.
               tree_error: 0.
            -
               depth: 1
               sample_count: 202
               value: -6.3585267594255535e-01
               norm_class_idx: 0
               Tn: 0
               complexity: 0
               alpha: 0.
               node_risk: 0.
               tree_risk: 0.
               tree_error: 0.
      -
         best_tree_idx: -1
         nodes:
            -
               depth: 0
               sample_count: 226
               value: -6.8451313376809686e-01
               norm_class_idx: 0
               Tn: 0
               complexity: 0
               alpha: 0.
               node_risk: 0.
               tree_risk: 0.
               tree_error: 0.
               splits:
                  - { var:14, quality:6.3082689046859741e-01,
                      le:9.6128046512603760e-01 }
                  - { var:12, quality:5.6960010528564453e-01,
                      gt:9.5408451557159424e-01 }
                  - { var:18, quality:5.5906337499618530e-01,
                      le:5.5532020330429077e-01 }
                  - { var:19, quality:5.5705386400222778e-01,
                      le:5.3262245655059814e-01 }
                  - { var:23, quality:5.5410403013229370e-01,
                      le:5.3347396850585938e-01 }
                  - { var:24, quality:5.3961116075515747e-01,
                      le:4.4923758506774902e-01 }
                  - { var:39, quality:5.3444111347198486e-01,
                      gt:2.4329584557563066e-03 }
                  - { var:13, quality:5.1942133903503418e-01,
                      le:2.9297184199094772e-02 }
                  - { var:22, quality:5.0987386703491211e-01,
                      le:3.6233502626419067e-01 }
                  - { var:38, quality:5.0696814060211182e-01,
                      gt:2.3914910852909088e-03 }
                  - { var:30, quality:4.9752676486968994e-01,
                      gt:4.2020209133625031e-02 }
                  - { var:34, quality:4.9300423264503479e-01,
                      gt:5.3501522541046143e-01 }
                  - { var:15, quality:4.9064716696739197e-01,
                      le:3.9581304788589478e-01 }
                  - { var:37, quality:4.8780921101570129e-01,
                      gt:2.0503553748130798e-01 }
                  - { var:35, quality:4.8708134889602661e-01,
                      gt:5.0697803497314453e-01 }
                  - { var:36, quality:4.8106428980827332e-01,
                      gt:1.8707594275474548e-01 }
                  - { var:17, quality:4.7512099146842957e-01,
                      le:3.5372906923294067e-01 }
                  - { var:20, quality:4.5306819677352905e-01,
                      le:3.2685256004333496e-01 }
                  - { var:1, quality:4.5130988955497742e-01,
                      gt:1.8183761835098267e-01 }
                  - { var:31, quality:4.4608089327812195e-01,
                      gt:1.6982980072498322e-01 }
                  - { var:32, quality:4.4373628497123718e-01,
                      gt:1.9460627436637878e-01 }
                  - { var:33, quality:4.4332158565521240e-01,
                      gt:3.3806335926055908e-01 }
                  - { var:6, quality:4.3477922677993774e-01,
                      gt:1.2971092760562897e-01 }
                  - { var:8, quality:4.2827007174491882e-01,
                      le:2.7533911168575287e-02 }
                  - { var:3, quality:4.2740753293037415e-01,
                      le:3.3803552389144897e-02 }
                  - { var:4, quality:4.2709600925445557e-01,
                      le:4.6428501605987549e-02 }
                  - { var:0, quality:4.2687609791755676e-01,
                      le:9.6012495458126068e-02 }
                  - { var:16, quality:4.2676123976707458e-01,
                      gt:9.0251052379608154e-01 }
                  - { var:27, quality:4.2338946461677551e-01,
                      gt:8.5000002384185791e-01 }
                  - { var:11, quality:4.2270842194557190e-01,
                      gt:1.6480326652526855e-01 }
                  - { var:10, quality:4.2216977477073669e-01,
                      le:1.4917252585291862e-02 }
                  - { var:2, quality:4.2133507132530212e-01,
                      gt:1.6977426409721375e-01 }
                  - { var:25, quality:4.2084625363349915e-01,
                      gt:8.5000002384185791e-01 }
                  - { var:21, quality:4.1991013288497925e-01,
                      gt:7.1197640895843506e-01 }
                  - { var:7, quality:4.1953551769256592e-01,
                      le:2.6170536875724792e-02 }
                  - { var:5, quality:4.1907277703285217e-01,
                      le:2.2805165499448776e-02 }
                  - { var:9, quality:4.1828468441963196e-01,
                      le:1.9012212753295898e-02 }
            -
               depth: 1
               sample_count: 105
               value: -6.8451313376809686e-01
               norm_class_idx: 0
               Tn: 0
               complexity: 0
               alpha: 0.
               node_risk: 0.
               tree_risk: 0.
               tree_error: 0.
            -
               depth: 1
               sample_count: 121
               value: 6.8451313376809686e-01
               norm_class_idx: 1
               Tn: 0
               complexity: 0
               alpha: 0.
               node_risk: 0.
               tree_risk: 0.
               tree_error: 0.
      -
         best_tree_idx: -1
         nodes:
            -
               depth: 0
               sample_count: 222
               value: -4.9149642989037567e-01
               norm_class_idx: 0
               Tn: 0
               complexity: 0
               alpha: 0.
               node_risk: 0.
               tree_risk: 0.
               tree_error: 0.
               splits:
                  - { var:0, quality:5.8268266916275024e-01,
                      le:1.7876796424388885e-01 }
                  - { var:18, quality:4.6783354878425598e-01,
                      le:8.7275290489196777e-01 }
                  - { var:38, quality:4.5202952623367310e-01,
                      gt:1.2189571280032396e-03 }
                  - { var:15, quality:4.5099788904190063e-01,
                      le:9.8604571819305420e-01 }
                  - { var:8, quality:4.5087859034538269e-01,
                      gt:1.5309633687138557e-02 }
                  - { var:9, quality:4.4911339879035950e-01,
                      gt:1.5881577506661415e-02 }
                  - { var:33, quality:4.4901049137115479e-01,
                      gt:3.2056733965873718e-02 }
                  - { var:14, quality:4.4849190115928650e-01,
                      gt:1.0749629139900208e-01 }
                  - { var:1, quality:4.4820702075958252e-01,
                      le:2.0704731345176697e-01 }
                  - { var:36, quality:4.4773429632186890e-01,
                      gt:5.4064691066741943e-03 }
                  - { var:35, quality:4.4773429632186890e-01,
                      gt:8.7949581444263458e-02 }
                  - { var:34, quality:4.4773429632186890e-01,
                      gt:9.4982832670211792e-02 }
                  - { var:32, quality:4.4773429632186890e-01,
                      gt:1.8297098577022552e-02 }
                  - { var:31, quality:4.4773429632186890e-01,
                      gt:2.6724327355623245e-02 }
                  - { var:10, quality:4.4773429632186890e-01,
                      gt:6.2370761297643185e-03 }
                  - { var:6, quality:4.4773429632186890e-01,
                      le:2.8326326608657837e-01 }
                  - { var:20, quality:4.4731280207633972e-01,
                      gt:1.5278157591819763e-01 }
                  - { var:23, quality:4.4730213284492493e-01,
                      le:9.5543026924133301e-01 }
                  - { var:5, quality:4.4720187783241272e-01,
                      gt:2.0234096795320511e-02 }
                  - { var:37, quality:4.4695153832435608e-01,
                      gt:1.6575612127780914e-02 }
            -
               depth: 1
               sample_count: 170
               value: -4.9149642989037567e-01
               norm_class_idx: 0
               Tn: 0
               complexity: 0
               alpha: 0.
               node_risk: 0.
               tree_risk: 0.
               tree_error: 0.
            -
               depth: 1
               sample_count: 52
               value: 4.9149642989037567e-01
               norm_class_idx: 1
               Tn: 0
               complexity: 0
               alpha: 0.
               node_risk: 0.
               tree_risk: 0.
               tree_error: 0.
      -
         best_tree_idx: -1
         nodes:
            -
               depth: 0
               sample_count: 210
               value: -5.1657641358413653e-01
               norm_class_idx: 0
               Tn: 0
               complexity: 0
               alpha: 0.
               node_risk: 0.
               tree_risk: 0.
               tree_error: 0.
               splits:
                  - { var:0, quality:6.0681891441345215e-01,
                      le:1.3261266052722931e-01 }
                  - { var:18, quality:4.0323287248611450e-01,
                      le:8.7275290489196777e-01 }
                  - { var:19, quality:3.9966502785682678e-01,
                      le:7.8998821973800659e-01 }
                  - { var:15, quality:3.9679321646690369e-01,
                      le:6.8026053905487061e-01 }
                  - { var:26, quality:3.9420956373214722e-01,
                      le:4.4999998807907104e-01 }
                  - { var:30, quality:3.9154049754142761e-01,
                      gt:2.3224178701639175e-02 }
                  - { var:38, quality:3.9150938391685486e-01,
                      gt:1.2951125390827656e-03 }
                  - { var:23, quality:3.9108651876449585e-01,
                      le:7.8590536117553711e-01 }
                  - { var:9, quality:3.9106038212776184e-01,
                      gt:5.1551081240177155e-02 }
                  - { var:6, quality:3.9075818657875061e-01,
                      gt:6.3383184373378754e-02 }
                  - { var:37, quality:3.9020836353302002e-01,
                      gt:1.3073512911796570e-01 }
                  - { var:39, quality:3.8862121105194092e-01,
                      gt:1.8568718805909157e-03 }
                  - { var:22, quality:3.8814643025398254e-01,
                      le:6.9128805398941040e-01 }
                  - { var:4, quality:3.8707768917083740e-01,
                      gt:5.9451304376125336e-02 }
                  - { var:13, quality:3.8345640897750854e-01,
                      le:6.4906513690948486e-01 }
                  - { var:21, quality:3.8070628046989441e-01,
                      le:2.9452174901962280e-01 }
                  - { var:36, quality:3.8061335682868958e-01,
                      gt:1.4675171673297882e-01 }
                  - { var:33, quality:3.8004586100578308e-01,
                      le:1.2225198745727539e-01 }
                  - { var:34, quality:3.7898963689804077e-01,
                      gt:3.8819873332977295e-01 }
                  - { var:17, quality:3.7796667218208313e-01,
                      le:3.6651086807250977e-01 }
                  - { var:24, quality:3.7790003418922424e-01,
                      le:7.0567983388900757e-01 }
                  - { var:28, quality:3.7230706214904785e-01,
                      le:5.5000001192092896e-01 }
                  - { var:32, quality:3.7147533893585205e-01,
                      le:1.3526435196399689e-01 }
                  - { var:16, quality:3.7123882770538330e-01,
                      le:1.9835716485977173e-01 }
                  - { var:10, quality:3.6880674958229065e-01,
                      gt:3.0607011169195175e-02 }
                  - { var:8, quality:3.6867427825927734e-01,
                      gt:3.6454543471336365e-02 }
                  - { var:29, quality:3.6836600303649902e-01,
                      le:9.4999998807907104e-01 }
                  - { var:20, quality:3.6660084128379822e-01,
                      le:4.2463633418083191e-01 }
                  - { var:5, quality:3.6625969409942627e-01,
                      gt:3.7129212170839310e-02 }
                  - { var:14, quality:3.6528235673904419e-01,
                      gt:1.4096075296401978e-01 }
                  - { var:7, quality:3.6516228318214417e-01,
                      gt:3.7270538508892059e-02 }
                  - { var:1, quality:3.6350497603416443e-01,
                      le:8.7910607457160950e-02 }
                  - { var:35, quality:3.6251199245452881e-01,
                      gt:3.9705580472946167e-01 }
                  - { var:31, quality:3.6136287450790405e-01,
                      le:2.2640277445316315e-01 }
                  - { var:3, quality:3.5946244001388550e-01,
                      gt:4.9416255205869675e-02 }
                  - { var:12, quality:3.5901856422424316e-01,
                      gt:2.4451473355293274e-01 }
                  - { var:11, quality:3.5226675868034363e-01,
                      gt:1.2852244079113007e-02 }
                  - { var:2, quality:3.5202702879905701e-01,
                      gt:9.0074852108955383e-02 }
            -
               depth: 1
               sample_count: 101
               value: 5.1657641358413653e-01
               norm_class_idx: 1
               Tn: 0
               complexity: 0
               alpha: 0.
               node_risk: 0.
               tree_risk: 0.
               tree_error: 0.
            -
               depth: 1
               sample_count: 109
               value: -5.1657641358413653e-01
               norm_class_idx: 0
               Tn: 0
               complexity: 0
               alpha: 0.
               node_risk: 0.
               tree_risk: 0.
               tree_error: 0.
      -
         best_tree_idx: -1
         nodes:
            -
               depth: 0
               sample_count: 217
               value: -4.3493382373455736e-01
               norm_class_idx: 0
               Tn: 0
               complexity: 0
               alpha: 0.
               node_risk: 0.
               tree_risk: 0.
               tree_error: 0.
               splits:
                  - { var:15, quality:5.8058011531829834e-01,
                      le:7.5786107778549194e-01 }
                  - { var:24, quality:5.3395998477935791e-01,
                      le:8.0964207649230957e-01 }
                  - { var:17, quality:5.2998220920562744e-01,
                      le:7.1350443363189697e-01 }
                  - { var:23, quality:5.2977806329727173e-01,
                      le:8.5755419731140137e-01 }
                  - { var:19, quality:5.2745562791824341e-01,
                      le:8.4647667407989502e-01 }
                  - { var:20, quality:5.2498030662536621e-01,
                      le:7.4829161167144775e-01 }
                  - { var:22, quality:5.2336204051971436e-01,
                      le:7.7119898796081543e-01 }
                  - { var:21, quality:5.2313232421875000e-01,
                      le:6.7706990242004395e-01 }
                  - { var:16, quality:5.2065908908843994e-01,
                      le:6.1611711978912354e-01 }
                  - { var:18, quality:5.1669126749038696e-01,
                      le:8.6444735527038574e-01 }
                  - { var:39, quality:5.0145262479782104e-01,
                      gt:1.1951572960242629e-03 }
                  - { var:13, quality:4.9470469355583191e-01,
                      le:9.1610705852508545e-01 }
                  - { var:30, quality:4.9211129546165466e-01,
                      gt:6.9979126565158367e-03 }
                  - { var:10, quality:4.8823484778404236e-01,
                      gt:1.8822068348526955e-02 }
                  - { var:38, quality:4.8812744021415710e-01,
                      gt:8.1644486635923386e-04 }
                  - { var:8, quality:4.8593178391456604e-01,
                      gt:1.9781708717346191e-02 }
                  - { var:37, quality:4.8592543601989746e-01,
                      gt:4.4589377939701080e-02 }
                  - { var:34, quality:4.8563203215599060e-01,
                      le:6.8126153945922852e-01 }
                  - { var:7, quality:4.8499625921249390e-01,
                      gt:2.8564330190420151e-02 }
                  - { var:4, quality:4.8305660486221313e-01,
                      le:2.3395714163780212e-01 }
                  - { var:9, quality:4.8271507024765015e-01,
                      gt:2.1086482331156731e-02 }
                  - { var:1, quality:4.8210561275482178e-01,
                      le:1.8723285198211670e-01 }
                  - { var:35, quality:4.8106488585472107e-01,
                      le:6.3850861787796021e-01 }
                  - { var:33, quality:4.8081928491592407e-01,
                      le:1.4286416769027710e-01 }
                  - { var:11, quality:4.8076704144477844e-01,
                      gt:9.2790629714727402e-03 }
                  - { var:2, quality:4.8064661026000977e-01,
                      gt:2.0760681480169296e-02 }
                  - { var:6, quality:4.8053044080734253e-01,
                      le:2.2133147716522217e-01 }
                  - { var:36, quality:4.7975113987922668e-01,
                      gt:2.3090019822120667e-02 }
                  - { var:3, quality:4.7909125685691833e-01,
                      le:3.3740001916885376e-01 }
                  - { var:0, quality:4.7909125685691833e-01,
                      gt:2.2827524691820145e-02 }
                  - { var:5, quality:4.7908687591552734e-01,
                      le:2.1440982818603516e-01 }
                  - { var:31, quality:4.7891682386398315e-01,
                      gt:4.5636944472789764e-02 }
            -
               depth: 1
               sample_count: 151
               value: 4.3493382373455736e-01
               norm_class_idx: 1
               Tn: 0
               complexity: 0
               alpha: 0.
               node_risk: 0.
               tree_risk: 0.
               tree_error: 0.
            -
               depth: 1
               sample_count: 66
               value: -4.3493382373455736e-01
               norm_class_idx: 0
               Tn: 0
               complexity: 0
               alpha: 0.
               node_risk: 0.
               tree_risk: 0.
               tree_error: 0.
      -
         best_tree_idx: -1
         nodes:
            -
               depth: 0
               sample_count: 219
               value: -5.6558108187604272e-01
               norm_class_idx: 0
               Tn: 0
               complexity: 0
               alpha: 0.
               node_risk: 0.
               tree_risk: 0.
               tree_error: 0.
               splits:
                  - { var:38, quality:6.0926610231399536e-01,
                      le:1.2054793769493699e-03 }
                  - { var:30, quality:5.7769429683685303e-01,
                      le:9.4829294830560684e-03 }
                  - { var:39, quality:5.5859732627868652e-01,
                      le:1.3775203842669725e-03 }
                  - { var:18, quality:5.4666495323181152e-01,
                      gt:8.8789832592010498e-01 }
                  - { var:22, quality:5.4069429636001587e-01,
                      gt:7.6043295860290527e-01 }
                  - { var:20, quality:5.3581064939498901e-01,
                      gt:6.8436580896377563e-01 }
                  - { var:24, quality:5.3286272287368774e-01,
                      gt:8.6152017116546631e-01 }
                  - { var:23, quality:5.2944582700729370e-01,
                      gt:9.2534774541854858e-01 }
                  - { var:37, quality:5.2706980705261230e-01,
                      le:4.4589377939701080e-02 }
                  - { var:19, quality:5.2646666765213013e-01,
                      gt:9.2832326889038086e-01 }
                  - { var:17, quality:5.2610599994659424e-01,
                      gt:6.8293499946594238e-01 }
                  - { var:10, quality:5.2352076768875122e-01,
                      le:1.0096086189150810e-02 }
                  - { var:34, quality:5.2344876527786255e-01,
                      le:2.0874781906604767e-01 }
                  - { var:11, quality:5.2334731817245483e-01,
                      gt:1.5871249139308929e-01 }
                  - { var:4, quality:5.2327066659927368e-01,
                      gt:3.1904309988021851e-01 }
                  - { var:31, quality:5.2311766147613525e-01,
                      le:4.4476829469203949e-02 }
                  - { var:9, quality:5.2297008037567139e-01,
                      le:1.3635819777846336e-02 }
                  - { var:36, quality:5.2274560928344727e-01,
                      le:9.5701245591044426e-03 }
                  - { var:35, quality:5.2274560928344727e-01,
                      le:1.3036806881427765e-01 }
                  - { var:2, quality:5.2265697717666626e-01,
                      le:2.9770918190479279e-02 }
                  - { var:7, quality:5.2262967824935913e-01,
                      le:9.7166616469621658e-03 }
                  - { var:32, quality:5.2207243442535400e-01,
                      le:1.8297098577022552e-02 }
                  - { var:6, quality:5.2207243442535400e-01,
                      gt:2.7348497509956360e-01 }
                  - { var:33, quality:5.2203321456909180e-01,
                      le:2.3391965776681900e-02 }
                  - { var:5, quality:5.2184987068176270e-01,
                      le:2.2805165499448776e-02 }
                  - { var:21, quality:5.2166277170181274e-01,
                      gt:8.1635588407516479e-01 }
                  - { var:8, quality:5.2155429124832153e-01,
                      le:1.3266200199723244e-02 }
                  - { var:0, quality:5.2152705192565918e-01,
                      gt:3.7013956904411316e-01 }
                  - { var:3, quality:5.2128535509109497e-01,
                      gt:3.3740001916885376e-01 }
                  - { var:1, quality:5.2128535509109497e-01,
                      le:1.8803130835294724e-02 }
                  - { var:13, quality:5.2096718549728394e-01,
                      gt:7.4186265468597412e-01 }
            -
               depth: 1
               sample_count: 43
               value: 5.6558108187604272e-01
               norm_class_idx: 1
               Tn: 0
               complexity: 0
               alpha: 0.
               node_risk: 0.
               tree_risk: 0.
               tree_error: 0.
            -
               depth: 1
               sample_count: 176
               value: -5.6558108187604272e-01
               norm_class_idx: 0
               Tn: 0
               complexity: 0
               alpha: 0.
               node_risk: 0.
               tree_risk: 0.
               tree_error: 0.
      -
         best_tree_idx: -1
         nodes:
            -
               depth: 0
               sample_count: 218
               value: -5.5795803369663211e-01
               norm_class_idx: 0
               Tn: 0
               complexity: 0
               alpha: 0.
               node_risk: 0.
               tree_risk: 0.
               tree_error: 0.
               splits:
                  - { var:13, quality:5.9188121557235718e-01,
                      le:6.5196323394775391e-01 }
                  - { var:38, quality:5.4291683435440063e-01,
                      gt:1.1103302240371704e-03 }
                  - { var:22, quality:5.3734946250915527e-01,
                      le:7.4456781148910522e-01 }
                  - { var:17, quality:5.3290510177612305e-01,
                      le:6.4067208766937256e-01 }
                  - { var:20, quality:5.3040462732315063e-01,
                      le:6.8809193372726440e-01 }
                  - { var:39, quality:5.2952140569686890e-01,
                      gt:1.1648534564301372e-03 }
                  - { var:30, quality:5.2598118782043457e-01,
                      gt:8.7810959666967392e-03 }
                  - { var:16, quality:5.2144604921340942e-01,
                      le:6.2453097105026245e-01 }
                  - { var:21, quality:5.2101653814315796e-01,
                      le:5.7719302177429199e-01 }
                  - { var:24, quality:5.1709866523742676e-01,
                      le:7.9635071754455566e-01 }
                  - { var:18, quality:5.1536142826080322e-01,
                      le:8.9746779203414917e-01 }
                  - { var:35, quality:5.1208448410034180e-01,
                      gt:3.1101703643798828e-01 }
                  - { var:37, quality:5.1006782054901123e-01,
                      gt:4.4976193457841873e-02 }
                  - { var:36, quality:5.0795125961303711e-01,
                      gt:6.4119279384613037e-02 }
                  - { var:34, quality:5.0455808639526367e-01,
                      gt:2.8065407276153564e-01 }
                  - { var:15, quality:5.0419837236404419e-01,
                      le:7.4141734838485718e-01 }
                  - { var:19, quality:5.0076508522033691e-01,
                      le:8.4327399730682373e-01 }
                  - { var:31, quality:5.0011467933654785e-01,
                      gt:7.8136727213859558e-02 }
                  - { var:23, quality:4.9944660067558289e-01,
                      le:9.1539490222930908e-01 }
                  - { var:9, quality:4.9721205234527588e-01,
                      gt:1.7634388059377670e-02 }
                  - { var:3, quality:4.9519217014312744e-01,
                      gt:3.4826263785362244e-02 }
                  - { var:7, quality:4.9503245949745178e-01,
                      gt:2.6654969900846481e-02 }
                  - { var:33, quality:4.9470469355583191e-01,
                      gt:3.2968334853649139e-02 }
                  - { var:8, quality:4.9334120750427246e-01,
                      gt:2.0577112212777138e-02 }
                  - { var:1, quality:4.9330410361289978e-01,
                      le:2.0821356773376465e-01 }
                  - { var:10, quality:4.9287706613540649e-01,
                      gt:1.1031908914446831e-02 }
                  - { var:6, quality:4.9215498566627502e-01,
                      le:2.2133147716522217e-01 }
                  - { var:2, quality:4.9196997284889221e-01,
                      gt:2.9869170859456062e-02 }
                  - { var:4, quality:4.9195939302444458e-01,
                      le:3.1904309988021851e-01 }
                  - { var:11, quality:4.9173191189765930e-01,
                      gt:1.2299047783017159e-02 }
                  - { var:5, quality:4.9166157841682434e-01,
                      gt:2.2805165499448776e-02 }
                  - { var:32, quality:4.9035263061523438e-01,
                      gt:1.8297098577022552e-02 }
                  - { var:0, quality:4.9013713002204895e-01,
                      le:3.2557457685470581e-01 }
            -
               depth: 1
               sample_count: 121
               value: 5.5795803369663211e-01
               norm_class_idx: 1
               Tn: 0
               complexity: 0
               alpha: 0.
               node_risk: 0.
               tree_risk: 0.
               tree_error: 0.
            -
               depth: 1
               sample_count: 97
               value: -5.5795803369663211e-01
               norm_class_idx: 0
               Tn: 0
               complexity: 0
               alpha: 0.
               node_risk: 0.
               tree_risk: 0.
               tree_error: 0.
      -
         best_tree_idx: -1
         nodes:
            -
               depth: 0
               sample_count: 202
               value: -5.2218360817750764e-01
               norm_class_idx: 0
               Tn: 0
               complexity: 0
               alpha: 0.
               node_risk: 0.
               tree_risk: 0.
               tree_error: 0.
               splits:
                  - { var:33, quality:6.0611087083816528e-01,
                      le:6.3784152269363403e-02 }
                  - { var:31, quality:5.6334686279296875e-01,
                      le:9.4816133379936218e-02 }
                  - { var:32, quality:5.4962658882141113e-01,
                      le:6.2932237982749939e-02 }
                  - { var:37, quality:5.2967309951782227e-01,
                      le:9.2574179172515869e-02 }
                  - { var:36, quality:5.2613151073455811e-01,
                      le:9.6141889691352844e-02 }
                  - { var:35, quality:5.0866395235061646e-01,
                      le:3.6602953076362610e-01 }
                  - { var:34, quality:5.0836104154586792e-01,
                      le:3.5412824153900146e-01 }
                  - { var:30, quality:4.9524843692779541e-01,
                      gt:7.4810057878494263e-02 }
                  - { var:2, quality:4.9254533648490906e-01,
                      gt:2.9537427425384521e-01 }
                  - { var:0, quality:4.9136316776275635e-01,
                      gt:2.5772333145141602e-01 }
                  - { var:3, quality:4.9134656786918640e-01,
                      gt:2.3571687936782837e-01 }
                  - { var:9, quality:4.8997262120246887e-01,
                      le:1.7634388059377670e-02 }
                  - { var:1, quality:4.8918417096138000e-01,
                      le:3.0175108462572098e-02 }
                  - { var:5, quality:4.8889866471290588e-01,
                      le:2.3523874580860138e-02 }
                  - { var:13, quality:4.8880073428153992e-01,
                      gt:9.9399441480636597e-01 }
                  - { var:8, quality:4.8818826675415039e-01,
                      gt:2.2810034453868866e-01 }
                  - { var:20, quality:4.8806923627853394e-01,
                      le:2.0018762350082397e-01 }
                  - { var:38, quality:4.8693773150444031e-01,
                      gt:3.6526368930935860e-03 }
                  - { var:39, quality:4.8646906018257141e-01,
                      gt:3.8033588789403439e-03 }
                  - { var:10, quality:4.8601230978965759e-01,
                      le:1.0096086189150810e-02 }
                  - { var:11, quality:4.8516228795051575e-01,
                      le:9.2790629714727402e-03 }
                  - { var:6, quality:4.8444807529449463e-01,
                      gt:2.7348497509956360e-01 }
                  - { var:22, quality:4.8443484306335449e-01,
                      le:1.9469344615936279e-01 }
                  - { var:4, quality:4.8388853669166565e-01,
                      gt:3.3574527502059937e-01 }
                  - { var:23, quality:4.8364439606666565e-01,
                      gt:9.4639098644256592e-01 }
                  - { var:21, quality:4.8359781503677368e-01,
                      le:2.8698094189167023e-02 }
                  - { var:19, quality:4.8359781503677368e-01,
                      le:9.4841688871383667e-02 }
                  - { var:18, quality:4.8359781503677368e-01,
                      le:1.0829584300518036e-01 }
                  - { var:7, quality:4.8358127474784851e-01,
