%YAML:1.0
my_boost_tree: !!opencv-ml-boost-tree
   boosting_type: DiscreteAdaboost
   splitting_criteria: 3
   ntrees: 100
   weight_trimming_rate: 9.4999999999999996e-01
   is_classifier: 1
   var_all: 40
   var_count: 40
   ord_var_count: 40
   cat_var_count: 0
   training_params:
      use_surrogates: 1
      max_categories: 10
      max_depth: 1
      min_sample_count: 10
      cross_validation_folds: 0
      priors: !!opencv-matrix
         rows: 1
         cols: 2
         dt: d
         data: [ 1., 1. ]
   var_type: [ 0, 0, 0, 0, 0, 0, 0, 0, 0, 0, 0, 0, 0, 0, 0, 0, 0, 0, 0,
       0, 0, 0, 0, 0, 0, 0, 0, 0, 0, 0, 0, 0, 0, 0, 0, 0, 0, 0, 0, 0 ]
   cat_count: !!opencv-matrix
      rows: 1
      cols: 1
      dt: i
      data: [ 2 ]
   cat_map: !!opencv-matrix
      rows: 1
      cols: 2
      dt: i
      data: [ -1, 1 ]
   trees:
      -
         best_tree_idx: -1
         nodes:
            -
               depth: 0
               sample_count: 410
               value: -2.4357376259815307e+00
               norm_class_idx: 0
               Tn: 0
               complexity: 0
               alpha: 0.
               node_risk: 0.
               tree_risk: 0.
               tree_error: 0.
               splits:
                  - { var:35, quality:9.1951221227645874e-01,
                      le:6.0696578025817871e-01 }
                  - { var:34, quality:9.0605592727661133e-01,
                      le:5.7701992988586426e-01 }
                  - { var:16, quality:8.4998810291290283e-01,
                      le:8.5537117719650269e-01 }
                  - { var:14, quality:8.3877456188201904e-01,
                      gt:2.7913138270378113e-01 }
                  - { var:39, quality:8.2980370521545410e-01,
                      le:3.3604577183723450e-03 }
                  - { var:18, quality:8.2980370521545410e-01,
                      gt:2.2629424929618835e-01 }
                  - { var:32, quality:8.2531827688217163e-01,
                      le:1.3822382688522339e-01 }
                  - { var:21, quality:8.2307553291320801e-01,
                      le:8.2837545871734619e-01 }
                  - { var:37, quality:8.2083284854888916e-01,
                      le:2.5978714227676392e-01 }
                  - { var:38, quality:8.1859010457992554e-01,
                      le:3.6471518687903881e-03 }
                  - { var:31, quality:8.1859010457992554e-01,
                      le:1.9012324512004852e-01 }
                  - { var:23, quality:8.1859010457992554e-01,
                      gt:2.5444710254669189e-01 }
                  - { var:33, quality:8.1634742021560669e-01,
                      le:1.4721490442752838e-01 }
                  - { var:22, quality:8.1634742021560669e-01,
                      gt:1.0247771441936493e-01 }
                  - { var:24, quality:8.1410467624664307e-01,
                      gt:1.1341836303472519e-01 }
                  - { var:17, quality:8.1410467624664307e-01,
                      gt:9.7483739256858826e-02 }
                  - { var:36, quality:8.1186199188232422e-01,
                      le:2.4222758412361145e-01 }
                  - { var:30, quality:8.1186199188232422e-01,
                      le:7.1258321404457092e-02 }
                  - { var:20, quality:8.1186199188232422e-01,
                      le:9.1865396499633789e-01 }
                  - { var:19, quality:8.1186199188232422e-01,
                      gt:4.8466995358467102e-02 }
                  - { var:15, quality:8.1186199188232422e-01,
                      le:9.5010071992874146e-01 }
                  - { var:11, quality:8.1186199188232422e-01,
                      le:2.3243328928947449e-01 }
            -
               depth: 1
               sample_count: 361
               value: -2.4357376259815307e+00
               norm_class_idx: 0
               Tn: 0
               complexity: 0
               alpha: 0.
               node_risk: 0.
               tree_risk: 0.
               tree_error: 0.
            -
               depth: 1
               sample_count: 49
               value: 2.4357376259815307e+00
               norm_class_idx: 1
               Tn: 0
               complexity: 0
               alpha: 0.
               node_risk: 0.
               tree_risk: 0.
               tree_error: 0.
      -
         best_tree_idx: -1
         nodes:
            -
               depth: 0
               sample_count: 410
               value: -1.0663977345375937e+00
               norm_class_idx: 0
               Tn: 0
               complexity: 0
               alpha: 0.
               node_risk: 0.
               tree_risk: 0.
               tree_error: 0.
               splits:
                  - { var:4, quality:7.4391126632690430e-01,
                      le:3.7830084562301636e-02 }
                  - { var:2, quality:6.8049854040145874e-01,
                      gt:2.4578303098678589e-01 }
                  - { var:10, quality:6.6922718286514282e-01,
                      gt:1.6283756494522095e-01 }
                  - { var:7, quality:6.6922718286514282e-01,
                      le:1.4582594856619835e-02 }
                  - { var:9, quality:6.6626727581024170e-01,
                      gt:2.1918264031410217e-01 }
                  - { var:3, quality:6.6569924354553223e-01,
                      gt:1.5875339508056641e-01 }
                  - { var:1, quality:6.6528069972991943e-01,
                      gt:2.0221844315528870e-01 }
                  - { var:5, quality:6.6190224885940552e-01,
                      le:1.3833230361342430e-02 }
                  - { var:0, quality:6.6190224885940552e-01,
                      gt:4.1363632678985596e-01 }
                  - { var:39, quality:6.6091561317443848e-01,
                      le:7.8403449151664972e-05 }
                  - { var:32, quality:6.6091561317443848e-01,
                      gt:1.8128228187561035e-01 }
                  - { var:30, quality:6.6091561317443848e-01,
                      le:8.7041924416553229e-05 }
                  - { var:8, quality:6.6091561317443848e-01,
                      le:9.7363200038671494e-03 }
                  - { var:6, quality:6.6091561317443848e-01,
                      le:1.2293736450374126e-02 }
            -
               depth: 1
               sample_count: 32
               value: 1.0663977345375937e+00
               norm_class_idx: 1
               Tn: 0
               complexity: 0
               alpha: 0.
               node_risk: 0.
               tree_risk: 0.
               tree_error: 0.
            -
               depth: 1
               sample_count: 378
               value: -1.0663977345375937e+00
               norm_class_idx: 0
               Tn: 0
               complexity: 0
               alpha: 0.
               node_risk: 0.
               tree_risk: 0.
               tree_error: 0.
      -
         best_tree_idx: -1
         nodes:
            -
               depth: 0
               sample_count: 410
               value: -1.1178390760027259e+00
               norm_class_idx: 0
               Tn: 0
               complexity: 0
               alpha: 0.
               node_risk: 0.
               tree_risk: 0.
               tree_error: 0.
               splits:
                  - { var:14, quality:7.5358766317367554e-01,
                      le:8.6647206544876099e-01 }
                  - { var:23, quality:6.3032442331314087e-01,
                      le:8.0838155746459961e-01 }
                  - { var:19, quality:5.9009176492691040e-01,
                      le:7.8851646184921265e-01 }
                  - { var:18, quality:5.7118314504623413e-01,
                      le:8.4953653812408447e-01 }
                  - { var:15, quality:5.6273221969604492e-01,
                      le:7.4793952703475952e-01 }
                  - { var:22, quality:5.4997193813323975e-01,
                      le:7.8199636936187744e-01 }
                  - { var:17, quality:5.4766589403152466e-01,
                      le:7.4532026052474976e-01 }
                  - { var:24, quality:5.4690694808959961e-01,
                      le:7.4276733398437500e-01 }
                  - { var:7, quality:5.1903593540191650e-01,
                      gt:4.6446841210126877e-02 }
                  - { var:20, quality:5.0906175374984741e-01,
                      le:7.3096358776092529e-01 }
                  - { var:21, quality:5.0652813911437988e-01,
                      le:7.4952805042266846e-01 }
                  - { var:38, quality:5.0081712007522583e-01,
                      gt:1.5133991837501526e-03 }
                  - { var:4, quality:5.0061935186386108e-01,
                      gt:6.6993191838264465e-02 }
                  - { var:39, quality:4.9285206198692322e-01,
                      gt:1.5445870812982321e-03 }
                  - { var:9, quality:4.8989993333816528e-01,
                      le:9.9147364497184753e-02 }
                  - { var:12, quality:4.8927515745162964e-01,
                      gt:2.1031224727630615e-01 }
                  - { var:1, quality:4.8673015832901001e-01,
                      le:1.7194440960884094e-01 }
                  - { var:5, quality:4.8529329895973206e-01,
                      gt:4.0696516633033752e-02 }
                  - { var:30, quality:4.8418310284614563e-01,
                      gt:1.4575740322470665e-02 }
                  - { var:6, quality:4.8405158519744873e-01,
                      gt:4.7289460897445679e-02 }
                  - { var:35, quality:4.8173174262046814e-01,
                      gt:4.9789872765541077e-01 }
                  - { var:34, quality:4.7660449147224426e-01,
                      gt:3.8908433914184570e-01 }
                  - { var:16, quality:4.7191861271858215e-01,
                      le:7.6849085092544556e-01 }
                  - { var:3, quality:4.6997338533401489e-01,
                      le:8.1205993890762329e-02 }
                  - { var:37, quality:4.6822053194046021e-01,
                      gt:5.9603095054626465e-02 }
                  - { var:36, quality:4.6780464053153992e-01,
                      gt:9.7634717822074890e-02 }
                  - { var:31, quality:4.6776986122131348e-01,
                      gt:6.6200524568557739e-02 }
                  - { var:2, quality:4.6763288974761963e-01,
                      gt:6.4043715596199036e-02 }
                  - { var:25, quality:4.6731579303741455e-01,
                      le:7.5000000000000000e-01 }
                  - { var:8, quality:4.6604806184768677e-01,
                      le:5.3279202431440353e-02 }
                  - { var:33, quality:4.6441107988357544e-01,
                      gt:4.1239213198423386e-02 }
                  - { var:27, quality:4.5916408300399780e-01,
                      gt:1.5000000596046448e-01 }
                  - { var:29, quality:4.5443311333656311e-01,
                      le:5.5000001192092896e-01 }
                  - { var:10, quality:4.5410788059234619e-01,
                      le:9.5444001257419586e-02 }
                  - { var:0, quality:4.4889342784881592e-01,
                      gt:3.7257380783557892e-02 }
                  - { var:28, quality:4.4630816578865051e-01,
                      le:6.4999997615814209e-01 }
                  - { var:32, quality:4.4518575072288513e-01,
                      gt:3.2819166779518127e-02 }
                  - { var:11, quality:4.4026237726211548e-01,
                      le:1.4078891277313232e-01 }
            -
               depth: 1
               sample_count: 141
               value: 1.1178390760027259e+00
               norm_class_idx: 1
               Tn: 0
               complexity: 0
               alpha: 0.
               node_risk: 0.
               tree_risk: 0.
               tree_error: 0.
            -
               depth: 1
               sample_count: 269
               value: -1.1178390760027259e+00
               norm_class_idx: 0
               Tn: 0
               complexity: 0
               alpha: 0.
               node_risk: 0.
               tree_risk: 0.
               tree_error: 0.
      -
         best_tree_idx: -1
         nodes:
            -
               depth: 0
               sample_count: 410
               value: -7.9688808626895402e-01
               norm_class_idx: 0
               Tn: 0
               complexity: 0
               alpha: 0.
               node_risk: 0.
               tree_risk: 0.
               tree_error: 0.
               splits:
                  - { var:5, quality:6.8930840492248535e-01,
                      le:4.2086578905582428e-02 }
                  - { var:23, quality:5.6251901388168335e-01,
                      gt:9.3733465671539307e-01 }
                  - { var:7, quality:5.6093561649322510e-01,
                      gt:2.7601635456085205e-01 }
                  - { var:1, quality:5.5919694900512695e-01,
                      gt:1.5239042043685913e-01 }
                  - { var:6, quality:5.5697286128997803e-01,
                      gt:1.2423057854175568e-01 }
                  - { var:18, quality:5.5639380216598511e-01,
                      gt:8.6096054315567017e-01 }
                  - { var:22, quality:5.4557484388351440e-01,
                      gt:8.1707572937011719e-01 }
                  - { var:19, quality:5.3870671987533569e-01,
                      gt:8.6404609680175781e-01 }
                  - { var:2, quality:5.3711801767349243e-01,
                      gt:2.4035057425498962e-01 }
                  - { var:17, quality:5.3251618146896362e-01,
                      gt:7.6714777946472168e-01 }
                  - { var:27, quality:5.3143185377120972e-01,
                      gt:9.4999998807907104e-01 }
                  - { var:3, quality:5.3133910894393921e-01,
                      le:1.9390080124139786e-02 }
                  - { var:10, quality:5.3133010864257812e-01,
                      le:1.4420852996408939e-02 }
                  - { var:38, quality:5.2831703424453735e-01,
                      gt:3.3864779397845268e-03 }
                  - { var:4, quality:5.2783823013305664e-01,
                      le:1.7397481948137283e-02 }
                  - { var:36, quality:5.2685856819152832e-01,
                      le:8.9323334395885468e-03 }
                  - { var:33, quality:5.2648967504501343e-01,
                      le:2.3036643862724304e-02 }
                  - { var:31, quality:5.2608203887939453e-01,
                      le:3.1917788088321686e-02 }
                  - { var:9, quality:5.2571350336074829e-01,
                      gt:2.1745291352272034e-01 }
                  - { var:35, quality:5.2567434310913086e-01,
                      le:1.3345195353031158e-01 }
                  - { var:34, quality:5.2567434310913086e-01,
                      le:1.1565896868705750e-01 }
                  - { var:37, quality:5.2485895156860352e-01,
                      le:1.1732997372746468e-02 }
                  - { var:32, quality:5.2442753314971924e-01,
                      le:1.9145337864756584e-02 }
                  - { var:30, quality:5.2442753314971924e-01,
                      le:3.2482360256835818e-04 }
                  - { var:8, quality:5.2436500787734985e-01,
                      gt:1.9148823618888855e-01 }
                  - { var:0, quality:5.2436500787734985e-01,
                      gt:4.1363632678985596e-01 }
                  - { var:39, quality:5.2401983737945557e-01,
                      le:1.1234061094000936e-04 }
            -
               depth: 1
               sample_count: 61
               value: 7.9688808626895402e-01
               norm_class_idx: 1
               Tn: 0
               complexity: 0
               alpha: 0.
               node_risk: 0.
               tree_risk: 0.
               tree_error: 0.
            -
               depth: 1
               sample_count: 349
               value: -7.9688808626895402e-01
               norm_class_idx: 0
               Tn: 0
               complexity: 0
               alpha: 0.
               node_risk: 0.
               tree_risk: 0.
               tree_error: 0.
      -
         best_tree_idx: -1
         nodes:
            -
               depth: 0
               sample_count: 410
               value: 8.0217729097087886e-01
               norm_class_idx: 1
               Tn: 0
               complexity: 0
               alpha: 0.
               node_risk: 0.
               tree_risk: 0.
               tree_error: 0.
               splits:
                  - { var:9, quality:6.9044005870819092e-01,
                      le:7.8118577599525452e-02 }
                  - { var:3, quality:5.5234736204147339e-01,
                      gt:3.8076303899288177e-02 }
                  - { var:15, quality:4.9843120574951172e-01,
                      le:7.3654329776763916e-01 }
                  - { var:2, quality:4.9784952402114868e-01,
                      gt:4.3816346675157547e-02 }
                  - { var:35, quality:4.8845228552818298e-01,
                      gt:3.7071129679679871e-01 }
                  - { var:25, quality:4.8589369654655457e-01,
                      le:5.5000001192092896e-01 }
                  - { var:37, quality:4.8510169982910156e-01,
                      gt:6.0795754194259644e-02 }
                  - { var:5, quality:4.8326656222343445e-01,
                      gt:3.0101519078016281e-02 }
                  - { var:27, quality:4.8271018266677856e-01,
                      le:9.4999998807907104e-01 }
                  - { var:1, quality:4.8124393820762634e-01,
                      gt:3.6596417427062988e-02 }
                  - { var:20, quality:4.8031353950500488e-01,
                      le:7.9838204383850098e-01 }
                  - { var:4, quality:4.7998070716857910e-01,
                      gt:3.1813248991966248e-02 }
                  - { var:33, quality:4.7975146770477295e-01,
                      gt:4.6547967940568924e-02 }
                  - { var:34, quality:4.7937941551208496e-01,
                      gt:2.9969853162765503e-01 }
                  - { var:8, quality:4.7888469696044922e-01,
                      le:9.0001672506332397e-02 }
                  - { var:31, quality:4.7782617807388306e-01,
                      gt:6.6955126821994781e-02 }
                  - { var:38, quality:4.7714665532112122e-01,
                      le:3.9140991866588593e-03 }
                  - { var:23, quality:4.7624078392982483e-01,
                      gt:3.7077181041240692e-02 }
                  - { var:30, quality:4.7591930627822876e-01,
                      gt:1.0107982903718948e-02 }
                  - { var:0, quality:4.7552677989006042e-01,
                      gt:7.0358023047447205e-02 }
                  - { var:10, quality:4.7439962625503540e-01,
                      gt:1.4618812128901482e-02 }
                  - { var:17, quality:4.7371590137481689e-01,
                      le:7.9849547147750854e-01 }
                  - { var:39, quality:4.7319453954696655e-01,
                      gt:1.4621255104430020e-04 }
                  - { var:18, quality:4.7156229615211487e-01,
                      gt:4.3241452425718307e-02 }
                  - { var:6, quality:4.7078824043273926e-01,
                      le:2.1487498283386230e-01 }
                  - { var:7, quality:4.7046786546707153e-01,
                      gt:1.2903973460197449e-02 }
                  - { var:28, quality:4.6923848986625671e-01,
                      le:9.4999998807907104e-01 }
                  - { var:19, quality:4.6911522746086121e-01,
                      le:9.9495285749435425e-01 }
                  - { var:11, quality:4.6870678663253784e-01,
                      gt:9.1808158904314041e-03 }
                  - { var:22, quality:4.6816188097000122e-01,
                      le:9.0067088603973389e-01 }
                  - { var:36, quality:4.6793872117996216e-01,
                      gt:1.0750971734523773e-02 }
            -
               depth: 1
               sample_count: 222
               value: 8.0217729097087886e-01
               norm_class_idx: 1
               Tn: 0
               complexity: 0
               alpha: 0.
               node_risk: 0.
               tree_risk: 0.
               tree_error: 0.
            -
               depth: 1
               sample_count: 188
               value: -8.0217729097087886e-01
               norm_class_idx: 0
               Tn: 0
               complexity: 0
               alpha: 0.
               node_risk: 0.
               tree_risk: 0.
               tree_error: 0.
      -
         best_tree_idx: -1
         nodes:
            -
               depth: 0
               sample_count: 304
               value: -6.7613915046306727e-01
               norm_class_idx: 0
               Tn: 0
               complexity: 0
               alpha: 0.
               node_risk: 0.
               tree_risk: 0.
               tree_error: 0.
               splits:
                  - { var:30, quality:6.3962447643280029e-01,
                      le:1.6966184601187706e-02 }
                  - { var:39, quality:5.8950144052505493e-01,
                      le:1.5445870812982321e-03 }
                  - { var:38, quality:5.6325012445449829e-01,
                      le:1.0634321952238679e-03 }
                  - { var:36, quality:5.3732860088348389e-01,
                      le:5.0284206867218018e-02 }
                  - { var:37, quality:5.2655434608459473e-01,
                      le:7.8559324145317078e-02 }
                  - { var:35, quality:5.2350372076034546e-01,
                      le:3.0726495385169983e-01 }
                  - { var:34, quality:5.1941150426864624e-01,
                      le:3.0013376474380493e-01 }
                  - { var:31, quality:5.1381671428680420e-01,
                      le:7.4364528059959412e-02 }
                  - { var:32, quality:5.0420939922332764e-01,
                      le:3.9344511926174164e-02 }
                  - { var:24, quality:4.9822133779525757e-01,
                      gt:8.1825023889541626e-01 }
                  - { var:33, quality:4.9566468596458435e-01,
                      le:5.0217941403388977e-02 }
                  - { var:17, quality:4.9351462721824646e-01,
                      gt:9.0986114740371704e-01 }
                  - { var:20, quality:4.9013561010360718e-01,
                      gt:7.6994073390960693e-01 }
                  - { var:0, quality:4.8983153700828552e-01,
                      gt:2.9289528727531433e-01 }
                  - { var:21, quality:4.8869362473487854e-01,
                      gt:9.3855822086334229e-01 }
                  - { var:10, quality:4.8818245530128479e-01,
                      gt:1.7108875513076782e-01 }
                  - { var:8, quality:4.8528233170509338e-01,
                      le:2.0348377525806427e-02 }
                  - { var:6, quality:4.8518833518028259e-01,
                      le:2.2604838013648987e-02 }
                  - { var:23, quality:4.8409235477447510e-01,
                      gt:8.3107626438140869e-01 }
                  - { var:4, quality:4.8194178938865662e-01,
                      le:2.1220855414867401e-02 }
                  - { var:22, quality:4.8010578751564026e-01,
                      gt:8.0135029554367065e-01 }
                  - { var:9, quality:4.7908729314804077e-01,
                      gt:2.2837360203266144e-01 }
                  - { var:1, quality:4.7888684272766113e-01,
                      le:3.2591864466667175e-02 }
                  - { var:5, quality:4.7706028819084167e-01,
                      gt:2.3006802797317505e-01 }
                  - { var:7, quality:4.7664415836334229e-01,
                      gt:3.0812311172485352e-01 }
                  - { var:19, quality:4.7650876641273499e-01,
                      gt:8.9847588539123535e-01 }
                  - { var:3, quality:4.7571083903312683e-01,
                      le:1.7618393525481224e-02 }
                  - { var:11, quality:4.7497561573982239e-01,
                      le:1.2148185633122921e-02 }
                  - { var:2, quality:4.7490507364273071e-01,
                      gt:3.0406212806701660e-01 }
                  - { var:28, quality:4.7372561693191528e-01,
                      gt:9.4999998807907104e-01 }
                  - { var:16, quality:4.7272017598152161e-01,
                      gt:9.9260294437408447e-01 }
            -
               depth: 1
               sample_count: 134
               value: -6.7613915046306727e-01
               norm_class_idx: 0
               Tn: 0
               complexity: 0
               alpha: 0.
               node_risk: 0.
               tree_risk: 0.
               tree_error: 0.
            -
               depth: 1
               sample_count: 170
               value: 6.7613915046306727e-01
               norm_class_idx: 1
               Tn: 0
               complexity: 0
               alpha: 0.
               node_risk: 0.
               tree_risk: 0.
               tree_error: 0.
      -
         best_tree_idx: -1
         nodes:
            -
               depth: 0
               sample_count: 314
               value: -8.2064298396123869e-01
               norm_class_idx: 0
               Tn: 0
               complexity: 0
               alpha: 0.
               node_risk: 0.
               tree_risk: 0.
               tree_error: 0.
               splits:
                  - { var:16, quality:6.6813677549362183e-01,
                      le:7.3131817579269409e-01 }
                  - { var:21, quality:5.6552290916442871e-01,
                      le:7.2325807809829712e-01 }
                  - { var:17, quality:5.5539166927337646e-01,
                      le:7.7070379257202148e-01 }
                  - { var:22, quality:5.4728794097900391e-01,
                      le:7.5791615247726440e-01 }
                  - { var:20, quality:5.4718619585037231e-01,
                      le:7.4764239788055420e-01 }
                  - { var:24, quality:5.2221935987472534e-01,
                      le:7.2082138061523438e-01 }
                  - { var:19, quality:5.1342487335205078e-01,
                      le:7.3757547140121460e-01 }
                  - { var:18, quality:5.0253838300704956e-01,
                      le:8.0817806720733643e-01 }
                  - { var:15, quality:4.9988928437232971e-01,
                      le:7.4184668064117432e-01 }
                  - { var:23, quality:4.9572229385375977e-01,
                      le:6.9069546461105347e-01 }
                  - { var:13, quality:4.8690372705459595e-01,
                      le:6.9569909572601318e-01 }
                  - { var:12, quality:4.7519794106483459e-01,
                      gt:3.0718737840652466e-01 }
                  - { var:8, quality:4.5690739154815674e-01,
                      gt:2.0382242277264595e-02 }
                  - { var:0, quality:4.5185005664825439e-01,
                      le:2.1008709073066711e-01 }
                  - { var:5, quality:4.5071241259574890e-01,
                      gt:3.1543135643005371e-02 }
                  - { var:10, quality:4.4614169001579285e-01,
                      gt:1.6124017536640167e-02 }
                  - { var:14, quality:4.4589930772781372e-01,
                      le:8.3268082141876221e-01 }
                  - { var:2, quality:4.4485378265380859e-01,
                      gt:3.2284930348396301e-02 }
                  - { var:38, quality:4.4007027149200439e-01,
                      gt:1.8287310376763344e-03 }
                  - { var:3, quality:4.3827590346336365e-01,
                      gt:5.5485725402832031e-02 }
                  - { var:7, quality:4.3725162744522095e-01,
                      le:1.3849988579750061e-01 }
                  - { var:26, quality:4.3686780333518982e-01,
                      le:5.5000001192092896e-01 }
                  - { var:32, quality:4.3659412860870361e-01,
                      gt:4.3958194553852081e-02 }
                  - { var:33, quality:4.3259063363075256e-01,
                      gt:4.6897873282432556e-02 }
                  - { var:39, quality:4.3039780855178833e-01,
                      gt:1.9501936621963978e-03 }
                  - { var:35, quality:4.2998212575912476e-01,
                      le:6.4757585525512695e-01 }
                  - { var:6, quality:4.2641952633857727e-01,
                      gt:3.3036835491657257e-02 }
                  - { var:30, quality:4.2474398016929626e-01,
                      gt:2.4075461551547050e-02 }
                  - { var:9, quality:4.2431995272636414e-01,
                      gt:2.9532313346862793e-02 }
                  - { var:31, quality:4.2233821749687195e-01,
                      gt:6.7974820733070374e-02 }
                  - { var:11, quality:4.2089337110519409e-01,
                      gt:1.3026567175984383e-02 }
                  - { var:27, quality:4.2071536183357239e-01,
                      le:9.4999998807907104e-01 }
                  - { var:1, quality:4.2070585489273071e-01,
                      le:3.0486291646957397e-01 }
                  - { var:34, quality:4.1965505480766296e-01,
                      le:7.4767988920211792e-01 }
            -
               depth: 1
               sample_count: 239
               value: -8.2064298396123869e-01
               norm_class_idx: 0
               Tn: 0
               complexity: 0
               alpha: 0.
               node_risk: 0.
               tree_risk: 0.
               tree_error: 0.
            -
               depth: 1
               sample_count: 75
               value: 8.2064298396123869e-01
               norm_class_idx: 1
               Tn: 0
               complexity: 0
               alpha: 0.
               node_risk: 0.
               tree_risk: 0.
               tree_error: 0.
      -
         best_tree_idx: -1
         nodes:
            -
               depth: 0
               sample_count: 265
               value: -8.6009086154646142e-01
               norm_class_idx: 0
               Tn: 0
               complexity: 0
               alpha: 0.
               node_risk: 0.
               tree_risk: 0.
               tree_error: 0.
               splits:
                  - { var:39, quality:6.5679687261581421e-01,
                      le:3.0233694706112146e-03 }
                  - { var:38, quality:5.7488662004470825e-01,
                      le:3.0764278490096331e-03 }
                  - { var:30, quality:5.6914728879928589e-01,
                      le:4.6846412122249603e-02 }
                  - { var:20, quality:5.6055063009262085e-01,
                      gt:2.3215070366859436e-01 }
                  - { var:15, quality:5.5782240629196167e-01,
                      gt:3.5870480537414551e-01 }
                  - { var:19, quality:5.5625778436660767e-01,
                      gt:2.5235015153884888e-01 }
                  - { var:23, quality:5.5525398254394531e-01,
                      gt:2.3902754485607147e-01 }
                  - { var:17, quality:5.5054455995559692e-01,
                      gt:9.7483739256858826e-02 }
                  - { var:16, quality:5.5037158727645874e-01,
                      gt:2.7523079514503479e-01 }
                  - { var:22, quality:5.4508930444717407e-01,
                      gt:2.2916452586650848e-01 }
                  - { var:21, quality:5.4173016548156738e-01,
                      gt:2.1111109852790833e-01 }
                  - { var:24, quality:5.3545564413070679e-01,
                      gt:2.6056164503097534e-01 }
                  - { var:18, quality:5.3076255321502686e-01,
                      gt:1.9327807426452637e-01 }
                  - { var:14, quality:5.2806758880615234e-01,
                      gt:1.2759466469287872e-01 }
                  - { var:13, quality:5.2206176519393921e-01,
                      gt:4.2605954408645630e-01 }
                  - { var:29, quality:5.2089607715606689e-01,
                      le:9.4999998807907104e-01 }
                  - { var:7, quality:5.1792609691619873e-01,
                      gt:1.4083792455494404e-02 }
                  - { var:12, quality:5.1743292808532715e-01,
                      le:3.3130833506584167e-01 }
                  - { var:4, quality:5.1716846227645874e-01,
                      le:2.4761188030242920e-01 }
                  - { var:1, quality:5.1597619056701660e-01,
                      le:2.0221844315528870e-01 }
                  - { var:26, quality:5.1358544826507568e-01,
                      le:9.4999998807907104e-01 }
                  - { var:32, quality:5.0698673725128174e-01,
                      le:1.4084470272064209e-01 }
                  - { var:35, quality:5.0534707307815552e-01,
                      le:7.2195935249328613e-01 }
                  - { var:34, quality:5.0364351272583008e-01,
                      le:7.4767988920211792e-01 }
                  - { var:31, quality:5.0214391946792603e-01,
                      le:2.1346077322959900e-01 }
                  - { var:33, quality:5.0204497575759888e-01,
                      le:1.5126425027847290e-01 }
                  - { var:3, quality:5.0047719478607178e-01,
                      le:2.5438219308853149e-01 }
                  - { var:8, quality:4.9934872984886169e-01,
                      le:1.4732365310192108e-01 }
            -
               depth: 1
               sample_count: 215
               value: -8.6009086154646142e-01
               norm_class_idx: 0
               Tn: 0
               complexity: 0
               alpha: 0.
               node_risk: 0.
               tree_risk: 0.
               tree_error: 0.
            -
               depth: 1
               sample_count: 50
               value: 8.6009086154646142e-01
               norm_class_idx: 1
               Tn: 0
               complexity: 0
               alpha: 0.
               node_risk: 0.
               tree_risk: 0.
               tree_error: 0.
      -
         best_tree_idx: -1
         nodes:
            -
               depth: 0
               sample_count: 245
               value: 8.9351216136811928e-01
               norm_class_idx: 1
               Tn: 0
               complexity: 0
               alpha: 0.
               node_risk: 0.
               tree_risk: 0.
               tree_error: 0.
               splits:
                  - { var:13, quality:6.9640529155731201e-01,
                      le:8.1670463085174561e-01 }
                  - { var:22, quality:6.2062501907348633e-01,
                      le:6.7422962188720703e-01 }
                  - { var:12, quality:6.0388749837875366e-01,
                      gt:3.2691660523414612e-01 }
                  - { var:24, quality:6.0148239135742188e-01,
                      le:6.3792157173156738e-01 }
                  - { var:19, quality:5.9828388690948486e-01,
                      le:6.5772968530654907e-01 }
                  - { var:23, quality:5.9704488515853882e-01,
                      le:6.6147392988204956e-01 }
                  - { var:18, quality:5.9563380479812622e-01,
                      le:6.6085410118103027e-01 }
                  - { var:16, quality:5.8479613065719604e-01,
                      le:5.7372069358825684e-01 }
                  - { var:38, quality:5.8245480060577393e-01,
                      gt:2.2364202886819839e-03 }
                  - { var:21, quality:5.7660090923309326e-01,
                      le:6.3098436594009399e-01 }
                  - { var:20, quality:5.7600718736648560e-01,
                      le:7.1543544530868530e-01 }
                  - { var:17, quality:5.6066852807998657e-01,
                      le:6.2611579895019531e-01 }
                  - { var:39, quality:5.5853366851806641e-01,
                      gt:2.8307631146162748e-03 }
                  - { var:30, quality:5.5818551778793335e-01,
                      gt:4.3417990207672119e-02 }
                  - { var:15, quality:5.5714339017868042e-01,
                      le:6.2293094396591187e-01 }
                  - { var:34, quality:5.5687701702117920e-01,
                      gt:5.0737112760543823e-01 }
                  - { var:14, quality:5.4967802762985229e-01,
                      le:6.6731131076812744e-01 }
                  - { var:35, quality:5.4480654001235962e-01,
                      gt:5.3793263435363770e-01 }
                  - { var:31, quality:5.4211193323135376e-01,
                      gt:1.0725845396518707e-01 }
                  - { var:36, quality:5.2755808830261230e-01,
                      gt:1.3957181572914124e-01 }
                  - { var:32, quality:5.2193737030029297e-01,
                      gt:7.3650360107421875e-02 }
                  - { var:37, quality:5.1894575357437134e-01,
                      gt:1.7668905854225159e-01 }
                  - { var:33, quality:5.0716167688369751e-01,
                      gt:9.2234231531620026e-02 }
                  - { var:0, quality:4.8390272259712219e-01,
                      le:9.8945349454879761e-02 }
                  - { var:8, quality:4.6781888604164124e-01,
                      gt:6.1308808624744415e-02 }
                  - { var:4, quality:4.5706838369369507e-01,
                      gt:5.4926805198192596e-02 }
                  - { var:29, quality:4.4793376326560974e-01,
                      gt:2.5000000000000000e-01 }
                  - { var:7, quality:4.4278028607368469e-01,
                      le:1.0446384549140930e-01 }
                  - { var:11, quality:4.4125992059707642e-01,
                      gt:1.1390316486358643e-01 }
                  - { var:2, quality:4.3586999177932739e-01,
                      gt:1.2606076896190643e-01 }
                  - { var:1, quality:4.3537825345993042e-01,
                      gt:5.7036336511373520e-02 }
                  - { var:9, quality:4.2892998456954956e-01,
                      gt:3.1704783439636230e-02 }
                  - { var:28, quality:4.2730671167373657e-01,
                      gt:6.4999997615814209e-01 }
                  - { var:5, quality:4.2201453447341919e-01,
                      gt:4.6785205602645874e-02 }
                  - { var:3, quality:4.1926416754722595e-01,
                      gt:1.0598046332597733e-01 }
                  - { var:6, quality:4.1483020782470703e-01,
                      gt:1.8528470396995544e-01 }
                  - { var:26, quality:4.1189596056938171e-01,
                      gt:9.4999998807907104e-01 }
                  - { var:27, quality:4.0610963106155396e-01,
                      gt:3.5000002384185791e-01 }
            -
               depth: 1
               sample_count: 113
               value: -8.9351216136811928e-01
               norm_class_idx: 0
               Tn: 0
               complexity: 0
               alpha: 0.
               node_risk: 0.
               tree_risk: 0.
               tree_error: 0.
            -
               depth: 1
               sample_count: 132
               value: 8.9351216136811928e-01
               norm_class_idx: 1
               Tn: 0
               complexity: 0
               alpha: 0.
               node_risk: 0.
               tree_risk: 0.
               tree_error: 0.
      -
         best_tree_idx: -1
         nodes:
            -
               depth: 0
               sample_count: 254
               value: 8.1779290080010802e-01
               norm_class_idx: 1
               Tn: 0
               complexity: 0
               alpha: 0.
               node_risk: 0.
               tree_risk: 0.
               tree_error: 0.
               splits:
                  - { var:15, quality:6.6720515489578247e-01,
                      le:7.4741137027740479e-01 }
                  - { var:17, quality:6.0266649723052979e-01,
                      le:7.7125740051269531e-01 }
                  - { var:20, quality:5.8954340219497681e-01,
                      le:7.6718592643737793e-01 }
                  - { var:21, quality:5.7742124795913696e-01,
                      le:7.8038227558135986e-01 }
                  - { var:22, quality:5.6984627246856689e-01,
                      le:7.9547393321990967e-01 }
                  - { var:23, quality:5.6894457340240479e-01,
                      le:8.0266904830932617e-01 }
                  - { var:24, quality:5.5281013250350952e-01,
                      le:7.8126728534698486e-01 }
                  - { var:19, quality:5.5002307891845703e-01,
                      le:7.9642945528030396e-01 }
                  - { var:14, quality:5.3499382734298706e-01,
                      le:8.6230921745300293e-01 }
                  - { var:16, quality:5.3134894371032715e-01,
                      le:7.8107368946075439e-01 }
                  - { var:5, quality:5.1904910802841187e-01,
                      gt:2.9105637222528458e-02 }
                  - { var:33, quality:5.1888787746429443e-01,
                      gt:5.4621405899524689e-02 }
                  - { var:32, quality:5.1753586530685425e-01,
                      gt:4.1813127696514130e-02 }
                  - { var:18, quality:5.1420378684997559e-01,
                      le:8.6181861162185669e-01 }
                  - { var:8, quality:5.1307100057601929e-01,
                      gt:2.0348377525806427e-02 }
                  - { var:0, quality:5.1195430755615234e-01,
                      le:1.7743231356143951e-01 }
                  - { var:31, quality:5.0320255756378174e-01,
                      gt:7.0846818387508392e-02 }
                  - { var:6, quality:5.0020760297775269e-01,
                      gt:3.3726930618286133e-02 }
                  - { var:38, quality:4.9490848183631897e-01,
                      gt:8.9376798132434487e-04 }
                  - { var:36, quality:4.8637756705284119e-01,
                      gt:4.1179507970809937e-02 }
                  - { var:25, quality:4.8518872261047363e-01,
                      le:6.4999997615814209e-01 }
                  - { var:37, quality:4.8452743887901306e-01,
                      gt:7.8826211392879486e-02 }
                  - { var:2, quality:4.8446762561798096e-01,
                      le:1.5201427042484283e-01 }
                  - { var:39, quality:4.8425409197807312e-01,
                      gt:1.5273179160431027e-03 }
                  - { var:34, quality:4.8393797874450684e-01,
                      le:6.9521391391754150e-01 }
                  - { var:30, quality:4.8199215531349182e-01,
                      gt:1.1040482670068741e-02 }
                  - { var:10, quality:4.8042696714401245e-01,
                      gt:2.0162280648946762e-02 }
                  - { var:1, quality:4.7463232278823853e-01,
                      le:2.0704731345176697e-01 }
                  - { var:11, quality:4.7259601950645447e-01,
                      gt:1.2148185633122921e-02 }
                  - { var:3, quality:4.7164085507392883e-01,
                      le:2.7499845623970032e-01 }
                  - { var:4, quality:4.7155392169952393e-01,
                      le:2.4813714623451233e-01 }
                  - { var:9, quality:4.7145652770996094e-01,
                      le:2.4682322144508362e-01 }
            -
               depth: 1
               sample_count: 146
               value: 8.1779290080010802e-01
               norm_class_idx: 1
               Tn: 0
               complexity: 0
               alpha: 0.
               node_risk: 0.
               tree_risk: 0.
               tree_error: 0.
            -
               depth: 1
               sample_count: 108
               value: -8.1779290080010802e-01
               norm_class_idx: 0
               Tn: 0
               complexity: 0
               alpha: 0.
               node_risk: 0.
               tree_risk: 0.
               tree_error: 0.
      -
         best_tree_idx: -1
         nodes:
            -
               depth: 0
               sample_count: 250
               value: -8.0237520915908433e-01
               norm_class_idx: 0
               Tn: 0
               complexity: 0
               alpha: 0.
               node_risk: 0.
               tree_risk: 0.
               tree_error: 0.
               splits:
                  - { var:9, quality:6.4527803659439087e-01,
                      le:3.2045908272266388e-02 }
                  - { var:32, quality:5.4380834102630615e-01,
                      le:3.2894730567932129e-02 }
                  - { var:1, quality:5.4377651214599609e-01,
                      gt:1.7986348271369934e-01 }
                  - { var:11, quality:5.3491902351379395e-01,
                      le:2.8725102543830872e-02 }
                  - { var:0, quality:5.3185331821441650e-01,
                      gt:2.5908970832824707e-01 }
                  - { var:38, quality:5.2600878477096558e-01,
                      le:6.9083424750715494e-04 }
                  - { var:36, quality:5.2361923456192017e-01,
                      le:3.9385385811328888e-02 }
                  - { var:6, quality:5.2329528331756592e-01,
                      gt:1.2090845406055450e-01 }
                  - { var:7, quality:5.2066266536712646e-01,
                      le:1.4083792455494404e-02 }
                  - { var:10, quality:5.1684957742691040e-01,
                      le:1.5492282807826996e-02 }
                  - { var:33, quality:5.1571524143218994e-01,
                      le:2.9376931488513947e-02 }
                  - { var:31, quality:5.1546800136566162e-01,
                      le:3.8081176578998566e-02 }
                  - { var:37, quality:5.1290160417556763e-01,
                      le:5.0306492485105991e-03 }
                  - { var:35, quality:5.1290160417556763e-01,
                      le:1.1153674125671387e-01 }
                  - { var:34, quality:5.1133829355239868e-01,
                      le:1.1565896868705750e-01 }
                  - { var:3, quality:5.1032084226608276e-01,
                      gt:1.7037975788116455e-01 }
                  - { var:24, quality:5.0923681259155273e-01,
                      gt:8.7666642665863037e-01 }
                  - { var:8, quality:5.0906944274902344e-01,
                      le:2.0348377525806427e-02 }
                  - { var:20, quality:5.0877028703689575e-01,
                      gt:9.1865396499633789e-01 }
                  - { var:19, quality:5.0865823030471802e-01,
                      gt:8.9313769340515137e-01 }
                  - { var:29, quality:5.0830060243606567e-01,
                      gt:9.4999998807907104e-01 }
                  - { var:22, quality:5.0776225328445435e-01,
                      gt:8.9118355512619019e-01 }
                  - { var:30, quality:5.0754058361053467e-01,
                      le:1.0421562183182687e-04 }
                  - { var:39, quality:5.0702792406082153e-01,
                      le:7.8403449151664972e-05 }
                  - { var:15, quality:5.0693845748901367e-01,
                      le:9.6905911341309547e-03 }
                  - { var:18, quality:5.0649219751358032e-01,
                      le:1.6710493713617325e-02 }
                  - { var:23, quality:5.0588274002075195e-01,
                      le:1.8246004357933998e-02 }
            -
               depth: 1
               sample_count: 40
               value: 8.0237520915908433e-01
               norm_class_idx: 1
               Tn: 0
               complexity: 0
               alpha: 0.
               node_risk: 0.
               tree_risk: 0.
               tree_error: 0.
            -
               depth: 1
               sample_count: 210
               value: -8.0237520915908433e-01
               norm_class_idx: 0
               Tn: 0
               complexity: 0
               alpha: 0.
               node_risk: 0.
               tree_risk: 0.
               tree_error: 0.
      -
         best_tree_idx: -1
         nodes:
            -
               depth: 0
               sample_count: 225
               value: 6.6542532871271798e-01
               norm_class_idx: 1
               Tn: 0
               complexity: 0
               alpha: 0.
               node_risk: 0.
               tree_risk: 0.
               tree_error: 0.
               splits:
                  - { var:37, quality:6.3341748714447021e-01,
                      le:1.0867896676063538e-01 }
                  - { var:36, quality:5.9454232454299927e-01,
                      le:8.8380575180053711e-02 }
                  - { var:31, quality:5.8363097906112671e-01,
                      le:8.8033109903335571e-02 }
                  - { var:33, quality:5.6629550457000732e-01,
                      le:6.7612528800964355e-02 }
                  - { var:39, quality:5.4882603883743286e-01,
                      le:1.8650467973202467e-03 }
                  - { var:32, quality:5.4400116205215454e-01,
                      le:5.4539009928703308e-02 }
                  - { var:34, quality:5.3929227590560913e-01,
                      le:4.3602302670478821e-01 }
                  - { var:35, quality:5.3554558753967285e-01,
                      le:3.9728558063507080e-01 }
                  - { var:38, quality:5.2704137563705444e-01,
                      le:1.5895287506282330e-03 }
                  - { var:30, quality:5.0849628448486328e-01,
                      le:2.2087406367063522e-02 }
                  - { var:9, quality:4.8614177107810974e-01,
                      le:3.0359540134668350e-02 }
                  - { var:13, quality:4.8293867707252502e-01,
                      gt:9.9939405918121338e-01 }
                  - { var:15, quality:4.6700835227966309e-01,
                      gt:6.7396968603134155e-01 }
                  - { var:17, quality:4.6071797609329224e-01,
                      gt:6.5934538841247559e-01 }
                  - { var:0, quality:4.5977270603179932e-01,
                      gt:1.9784462451934814e-01 }
                  - { var:14, quality:4.5934110879898071e-01,
                      gt:7.8229594230651855e-01 }
                  - { var:10, quality:4.5715650916099548e-01,
                      le:2.0162280648946762e-02 }
                  - { var:3, quality:4.5216035842895508e-01,
                      le:2.7366869151592255e-02 }
                  - { var:6, quality:4.5089164376258850e-01,
                      le:3.2405100762844086e-02 }
                  - { var:22, quality:4.4978481531143188e-01,
                      gt:6.4929234981536865e-01 }
                  - { var:11, quality:4.4747960567474365e-01,
                      le:2.8247091919183731e-02 }
                  - { var:24, quality:4.4663187861442566e-01,
                      gt:6.5618133544921875e-01 }
                  - { var:18, quality:4.4625210762023926e-01,
                      gt:7.0727884769439697e-01 }
                  - { var:12, quality:4.4596815109252930e-01,
                      le:4.0733244270086288e-02 }
                  - { var:23, quality:4.4596219062805176e-01,
                      gt:7.5905549526214600e-01 }
                  - { var:5, quality:4.4486573338508606e-01,
                      le:3.0101519078016281e-02 }
                  - { var:4, quality:4.4251158833503723e-01,
                      le:2.7640175074338913e-02 }
                  - { var:20, quality:4.4160088896751404e-01,
                      gt:5.9285128116607666e-01 }
                  - { var:19, quality:4.4125381112098694e-01,
                      gt:6.6656714677810669e-01 }
                  - { var:8, quality:4.3951138854026794e-01,
                      le:2.0348377525806427e-02 }
                  - { var:21, quality:4.3917196989059448e-01,
                      gt:5.3018629550933838e-01 }
                  - { var:2, quality:4.3701383471488953e-01,
                      gt:1.7125427722930908e-01 }
                  - { var:1, quality:4.2795869708061218e-01,
                      le:3.2591864466667175e-02 }
                  - { var:7, quality:4.1883385181427002e-01,
                      gt:1.3927379250526428e-01 }
                  - { var:26, quality:4.1621330380439758e-01,
                      gt:6.4999997615814209e-01 }
                  - { var:27, quality:4.1492137312889099e-01,
                      gt:9.4999998807907104e-01 }
                  - { var:16, quality:4.1370877623558044e-01,
                      gt:5.5252569913864136e-01 }
            -
               depth: 1
               sample_count: 113
               value: -6.6542532871271798e-01
               norm_class_idx: 0
               Tn: 0
               complexity: 0
               alpha: 0.
               node_risk: 0.
               tree_risk: 0.
               tree_error: 0.
            -
               depth: 1
               sample_count: 112
               value: 6.6542532871271798e-01
               norm_class_idx: 1
               Tn: 0
               complexity: 0
               alpha: 0.
               node_risk: 0.
               tree_risk: 0.
               tree_error: 0.
      -
         best_tree_idx: -1
         nodes:
            -
               depth: 0
               sample_count: 223
               value: -6.8309183749882474e-01
               norm_class_idx: 0
               Tn: 0
               complexity: 0
               alpha: 0.
               node_risk: 0.
               tree_risk: 0.
               tree_error: 0.
               splits:
                  - { var:25, quality:6.3374644517898560e-01,
                      le:2.5000000000000000e-01 }
                  - { var:28, quality:4.1742065548896790e-01,
                      gt:2.5000000000000000e-01 }
                  - { var:8, quality:4.1031387448310852e-01,
                      le:5.9909977018833160e-02 }
                  - { var:26, quality:4.0580317378044128e-01,
                      gt:4.4999998807907104e-01 }
                  - { var:27, quality:4.0045741200447083e-01,
                      gt:2.5000000000000000e-01 }
                  - { var:3, quality:3.9864587783813477e-01,
                      le:6.5529197454452515e-02 }
                  - { var:6, quality:3.9779537916183472e-01,
                      le:7.8217357397079468e-02 }
                  - { var:10, quality:3.9749604463577271e-01,
                      le:7.3158591985702515e-02 }
                  - { var:11, quality:3.9064908027648926e-01,
                      le:6.5624244511127472e-02 }
                  - { var:7, quality:3.8945108652114868e-01,
                      le:9.2121660709381104e-02 }
                  - { var:5, quality:3.8483962416648865e-01,
                      le:1.3795924186706543e-01 }
                  - { var:37, quality:3.8469579815864563e-01,
                      le:7.8949190676212311e-02 }
                  - { var:2, quality:3.8283574581146240e-01,
                      gt:1.1760731041431427e-01 }
                  - { var:14, quality:3.8211092352867126e-01,
                      gt:7.3928689956665039e-01 }
                  - { var:19, quality:3.8124540448188782e-01,
                      gt:2.3328718543052673e-01 }
                  - { var:34, quality:3.8095045089721680e-01,
                      gt:3.8850808143615723e-01 }
                  - { var:0, quality:3.7971037626266479e-01,
                      gt:1.3551795482635498e-01 }
                  - { var:33, quality:3.7952640652656555e-01,
                      le:6.7612528800964355e-02 }
                  - { var:32, quality:3.7854248285293579e-01,
                      le:6.6949963569641113e-02 }
                  - { var:31, quality:3.7666672468185425e-01,
                      le:1.0009013116359711e-01 }
                  - { var:1, quality:3.7615996599197388e-01,
                      gt:4.7749146819114685e-02 }
                  - { var:39, quality:3.7463033199310303e-01,
                      gt:2.4098940193653107e-03 }
                  - { var:35, quality:3.7353420257568359e-01,
                      le:6.1787188053131104e-01 }
                  - { var:18, quality:3.6972570419311523e-01,
                      gt:1.1789170652627945e-01 }
                  - { var:16, quality:3.6954426765441895e-01,
                      le:7.8919339179992676e-01 }
                  - { var:24, quality:3.6721003055572510e-01,
                      gt:1.6142681241035461e-01 }
                  - { var:22, quality:3.6713007092475891e-01,
                      gt:1.6713446378707886e-01 }
                  - { var:36, quality:3.6648845672607422e-01,
                      le:8.3747744560241699e-02 }
                  - { var:30, quality:3.6628276109695435e-01,
                      gt:2.9225466772913933e-02 }
                  - { var:4, quality:3.6403065919876099e-01,
                      gt:1.6953025758266449e-01 }
                  - { var:9, quality:3.6249670386314392e-01,
                      le:5.9432439506053925e-02 }
                  - { var:17, quality:3.6194238066673279e-01,
                      gt:7.7083742618560791e-01 }
                  - { var:38, quality:3.6094722151756287e-01,
                      gt:1.8080665031448007e-03 }
                  - { var:23, quality:3.5768991708755493e-01,
                      gt:2.0603694021701813e-01 }
                  - { var:20, quality:3.5714310407638550e-01,
                      gt:1.9533309340476990e-01 }
                  - { var:15, quality:3.5406628251075745e-01,
                      gt:7.7703285217285156e-01 }
                  - { var:13, quality:3.4772491455078125e-01,
                      gt:7.6179051399230957e-01 }
                  - { var:21, quality:3.4396445751190186e-01,
                      le:7.1744292974472046e-01 }
                  - { var:12, quality:3.2919329404830933e-01,
                      le:4.2329394817352295e-01 }
                  - { var:29, quality:3.2536104321479797e-01,
                      gt:8.5000002384185791e-01 }
            -
               depth: 1
               sample_count: 95
               value: 6.8309183749882474e-01
               norm_class_idx: 1
               Tn: 0
               complexity: 0
               alpha: 0.
               node_risk: 0.
               tree_risk: 0.
               tree_error: 0.
            -
               depth: 1
               sample_count: 128
               value: -6.8309183749882474e-01
               norm_class_idx: 0
               Tn: 0
               complexity: 0
               alpha: 0.
               node_risk: 0.
               tree_risk: 0.
               tree_error: 0.
      -
         best_tree_idx: -1
         nodes:
            -
               depth: 0
               sample_count: 221
               value: -6.9764591689887467e-01
               norm_class_idx: 0
               Tn: 0
               complexity: 0
               alpha: 0.
               node_risk: 0.
               tree_risk: 0.
               tree_error: 0.
               splits:
                  - { var:1, quality:6.3618922233581543e-01,
                      le:5.7959087193012238e-02 }
                  - { var:5, quality:4.7677314281463623e-01,
                      gt:1.3970270752906799e-01 }
                  - { var:31, quality:4.7387003898620605e-01,
                      le:1.0043023526668549e-01 }
                  - { var:33, quality:4.7087144851684570e-01,
                      le:8.1479057669639587e-02 }
                  - { var:36, quality:4.6203643083572388e-01,
                      le:5.5575288832187653e-02 }
                  - { var:35, quality:4.6091336011886597e-01,
                      le:4.5161783695220947e-01 }
                  - { var:37, quality:4.5948994159698486e-01,
                      le:1.1096963286399841e-01 }
                  - { var:7, quality:4.5291471481323242e-01,
                      gt:1.3664686679840088e-01 }
                  - { var:32, quality:4.5233178138732910e-01,
                      le:7.3650360107421875e-02 }
                  - { var:39, quality:4.5159769058227539e-01,
                      le:1.6107531264424324e-03 }
                  - { var:10, quality:4.4467577338218689e-01,
                      gt:7.9592078924179077e-02 }
                  - { var:30, quality:4.4290065765380859e-01,
                      le:2.3967135697603226e-02 }
                  - { var:0, quality:4.4213175773620605e-01,
                      le:5.7073723524808884e-02 }
                  - { var:21, quality:4.4156265258789062e-01,
                      le:1.3929249346256256e-01 }
                  - { var:24, quality:4.3736326694488525e-01,
                      le:3.3189371228218079e-02 }
                  - { var:34, quality:4.3716368079185486e-01,
                      le:4.7914114594459534e-01 }
                  - { var:2, quality:4.3420299887657166e-01,
                      le:4.6726267784833908e-02 }
                  - { var:16, quality:4.3314421176910400e-01,
                      le:1.3289399445056915e-01 }
                  - { var:38, quality:4.3314212560653687e-01,
                      le:1.0131469462066889e-03 }
                  - { var:20, quality:4.2972210049629211e-01,
                      le:2.1113723516464233e-01 }
                  - { var:11, quality:4.2880627512931824e-01,
                      gt:9.0884864330291748e-02 }
                  - { var:9, quality:4.2847988009452820e-01,
                      le:2.9133519157767296e-02 }
                  - { var:22, quality:4.2598497867584229e-01,
                      le:5.6194663047790527e-02 }
                  - { var:19, quality:4.2586535215377808e-01,
                      le:7.7754050493240356e-02 }
                  - { var:15, quality:4.2466264963150024e-01,
                      le:6.3331261277198792e-02 }
                  - { var:3, quality:4.2348232865333557e-01,
                      le:3.5302925854921341e-02 }
                  - { var:18, quality:4.2240411043167114e-01,
                      le:8.3217501640319824e-02 }
                  - { var:4, quality:4.1789302229881287e-01,
                      le:5.1478065550327301e-02 }
                  - { var:13, quality:4.1786926984786987e-01,
                      gt:9.9700671434402466e-01 }
                  - { var:23, quality:4.1375705599784851e-01,
                      le:2.1342742443084717e-01 }
                  - { var:25, quality:4.1272413730621338e-01,
                      gt:4.4999998807907104e-01 }
                  - { var:17, quality:4.0947735309600830e-01,
                      le:5.0037108361721039e-02 }
                  - { var:8, quality:4.0523219108581543e-01,
                      le:2.0348377525806427e-02 }
                  - { var:26, quality:4.0336444973945618e-01,
                      gt:8.5000002384185791e-01 }
                  - { var:6, quality:4.0075477957725525e-01,
                      gt:2.3049122095108032e-01 }
            -
               depth: 1
               sample_count: 59
               value: 6.9764591689887467e-01
               norm_class_idx: 1
               Tn: 0
               complexity: 0
               alpha: 0.
               node_risk: 0.
               tree_risk: 0.
               tree_error: 0.
            -
               depth: 1
               sample_count: 162
               value: -6.9764591689887467e-01
               norm_class_idx: 0
               Tn: 0
               complexity: 0
               alpha: 0.
               node_risk: 0.
               tree_risk: 0.
               tree_error: 0.
      -
         best_tree_idx: -1
         nodes:
            -
               depth: 0
               sample_count: 218
               value: 6.4216024379611658e-01
               norm_class_idx: 1
               Tn: 0
               complexity: 0
               alpha: 0.
               node_risk: 0.
               tree_risk: 0.
               tree_error: 0.
               splits:
                  - { var:0, quality:6.4574527740478516e-01,
                      le:8.5297092795372009e-02 }
                  - { var:36, quality:5.1457482576370239e-01,
                      gt:2.8090217709541321e-01 }
                  - { var:18, quality:5.0496840476989746e-01,
                      le:6.2642760574817657e-02 }
                  - { var:4, quality:5.0469923019409180e-01,
                      le:3.1813248991966248e-02 }
                  - { var:37, quality:5.0407338142395020e-01,
                      gt:2.5929015874862671e-01 }
                  - { var:24, quality:5.0024157762527466e-01,
                      le:1.9456394016742706e-02 }
                  - { var:11, quality:5.0024157762527466e-01,
                      gt:2.3243328928947449e-01 }
                  - { var:6, quality:4.9840778112411499e-01,
                      gt:2.0023013651371002e-01 }
                  - { var:9, quality:4.9798858165740967e-01,
                      gt:2.1633833646774292e-01 }
                  - { var:39, quality:4.9713036417961121e-01,
                      le:8.6657924111932516e-04 }
                  - { var:10, quality:4.9594098329544067e-01,
                      gt:1.5700563788414001e-01 }
                  - { var:33, quality:4.9428898096084595e-01,
                      gt:1.4930957555770874e-01 }
                  - { var:38, quality:4.9409139156341553e-01,
                      gt:3.9715925231575966e-03 }
                  - { var:7, quality:4.9260687828063965e-01,
                      gt:2.4530160427093506e-01 }
                  - { var:31, quality:4.9230211973190308e-01,
                      gt:1.8940435349941254e-01 }
                  - { var:30, quality:4.9198621511459351e-01,
                      le:2.1561235189437866e-03 }
                  - { var:2, quality:4.9187034368515015e-01,
                      gt:1.9421246647834778e-01 }
                  - { var:23, quality:4.9112007021903992e-01,
                      le:3.7077181041240692e-02 }
                  - { var:1, quality:4.9100252985954285e-01,
                      le:2.9790006577968597e-02 }
                  - { var:13, quality:4.9035993218421936e-01,
                      le:2.2567357867956161e-02 }
                  - { var:8, quality:4.8954477906227112e-01,
                      gt:1.5728804469108582e-01 }
                  - { var:3, quality:4.8810407519340515e-01,
                      gt:1.7948116362094879e-01 }
                  - { var:34, quality:4.8691436648368835e-01,
                      gt:6.9849085807800293e-01 }
                  - { var:35, quality:4.8660609126091003e-01,
                      le:2.6699611544609070e-01 }
                  - { var:5, quality:4.8648300766944885e-01,
                      gt:2.3442536592483521e-01 }
                  - { var:28, quality:4.8451218008995056e-01,
                      gt:6.4999997615814209e-01 }
                  - { var:19, quality:4.8443812131881714e-01,
                      gt:9.9495285749435425e-01 }
                  - { var:22, quality:4.8398235440254211e-01,
                      gt:8.7995302677154541e-01 }
                  - { var:32, quality:4.8348343372344971e-01,
                      gt:1.5376463532447815e-01 }
            -
               depth: 1
               sample_count: 62
               value: -6.4216024379611658e-01
               norm_class_idx: 0
               Tn: 0
               complexity: 0
               alpha: 0.
               node_risk: 0.
               tree_risk: 0.
               tree_error: 0.
            -
               depth: 1
               sample_count: 156
               value: 6.4216024379611658e-01
               norm_class_idx: 1
               Tn: 0
               complexity: 0
               alpha: 0.
               node_risk: 0.
               tree_risk: 0.
               tree_error: 0.
      -
         best_tree_idx: -1
         nodes:
            -
               depth: 0
               sample_count: 238
               value: -7.0240233676975916e-01
               norm_class_idx: 0
               Tn: 0
               complexity: 0
               alpha: 0.
               node_risk: 0.
               tree_risk: 0.
               tree_error: 0.
               splits:
                  - { var:23, quality:6.1969894170761108e-01,
                      le:2.3575532436370850e-01 }
                  - { var:22, quality:6.0775238275527954e-01,
                      le:2.2763067483901978e-01 }
                  - { var:19, quality:6.0256999731063843e-01,
                      le:2.4939796328544617e-01 }
                  - { var:20, quality:5.9938287734985352e-01,
                      le:2.4598088860511780e-01 }
                  - { var:24, quality:5.8991301059722900e-01,
                      le:2.0768728852272034e-01 }
                  - { var:18, quality:5.8588385581970215e-01,
                      le:1.9327807426452637e-01 }
                  - { var:17, quality:5.7486301660537720e-01,
                      le:1.8211355805397034e-01 }
                  - { var:15, quality:5.7457834482192993e-01,
                      le:3.1190362572669983e-01 }
                  - { var:16, quality:5.6096166372299194e-01,
                      le:2.5818863511085510e-01 }
                  - { var:14, quality:5.5992096662521362e-01,
                      le:1.4296975731849670e-01 }
                  - { var:21, quality:5.5747801065444946e-01,
                      le:1.9776380062103271e-01 }
                  - { var:11, quality:5.3620290756225586e-01,
                      gt:1.3915085792541504e-01 }
                  - { var:39, quality:5.2864068746566772e-01,
                      gt:3.8332724943757057e-03 }
                  - { var:4, quality:5.2723848819732666e-01,
                      gt:2.4761188030242920e-01 }
                  - { var:12, quality:5.2460587024688721e-01,
                      gt:9.6180170774459839e-01 }
                  - { var:38, quality:5.2292305231094360e-01,
                      gt:3.9715925231575966e-03 }
                  - { var:35, quality:5.2204877138137817e-01,
                      gt:7.3550879955291748e-01 }
                  - { var:34, quality:5.2057474851608276e-01,
                      gt:7.6701557636260986e-01 }
                  - { var:33, quality:5.2057474851608276e-01,
                      gt:1.9751232862472534e-01 }
                  - { var:31, quality:5.2057474851608276e-01,
                      gt:2.2238564491271973e-01 }
            -
               depth: 1
               sample_count: 21
               value: 7.0240233676975916e-01
               norm_class_idx: 1
               Tn: 0
               complexity: 0
               alpha: 0.
               node_risk: 0.
               tree_risk: 0.
               tree_error: 0.
            -
               depth: 1
               sample_count: 217
               value: -7.0240233676975916e-01
               norm_class_idx: 0
               Tn: 0
               complexity: 0
               alpha: 0.
               node_risk: 0.
               tree_risk: 0.
               tree_error: 0.
      -
         best_tree_idx: -1
         nodes:
            -
               depth: 0
               sample_count: 211
               value: 5.2100001693986775e-01
               norm_class_idx: 1
               Tn: 0
               complexity: 0
               alpha: 0.
               node_risk: 0.
               tree_risk: 0.
               tree_error: 0.
               splits:
                  - { var:28, quality:6.1596977710723877e-01,
                      le:6.4999997615814209e-01 }
                  - { var:11, quality:5.5400168895721436e-01,
                      le:1.9481614232063293e-01 }
                  - { var:24, quality:5.5328321456909180e-01,
                      gt:1.9456394016742706e-02 }
                  - { var:36, quality:5.4724895954132080e-01,
                      le:2.9226452112197876e-01 }
                  - { var:37, quality:5.4371935129165649e-01,
                      le:2.9191225767135620e-01 }
                  - { var:18, quality:5.3974735736846924e-01,
                      gt:6.2642760574817657e-02 }
                  - { var:0, quality:5.3700304031372070e-01,
                      gt:3.6180175840854645e-02 }
                  - { var:3, quality:5.3493171930313110e-01,
                      le:2.7499845623970032e-01 }
                  - { var:10, quality:5.3467303514480591e-01,
                      le:2.8399035334587097e-01 }
                  - { var:6, quality:5.3467303514480591e-01,
                      gt:1.2293736450374126e-02 }
                  - { var:2, quality:5.3465545177459717e-01,
                      le:2.4699687957763672e-01 }
                  - { var:1, quality:5.3452438116073608e-01,
                      gt:1.1012657545506954e-02 }
                  - { var:31, quality:5.3444737195968628e-01,
                      le:1.8527173995971680e-01 }
            -
               depth: 1
               sample_count: 172
               value: 5.2100001693986775e-01
               norm_class_idx: 1
               Tn: 0
               complexity: 0
               alpha: 0.
               node_risk: 0.
               tree_risk: 0.
               tree_error: 0.
            -
               depth: 1
               sample_count: 39
               value: -5.2100001693986775e-01
               norm_class_idx: 0
               Tn: 0
               complexity: 0
               alpha: 0.
               node_risk: 0.
               tree_risk: 0.
               tree_error: 0.
      -
         best_tree_idx: -1
         nodes:
            -
               depth: 0
               sample_count: 228
               value: -5.9895161626655002e-01
               norm_class_idx: 0
               Tn: 0
               complexity: 0
               alpha: 0.
               node_risk: 0.
               tree_risk: 0.
               tree_error: 0.
               splits:
                  - { var:4, quality:6.0656195878982544e-01,
                      le:5.3972065448760986e-02 }
                  - { var:18, quality:4.4719386100769043e-01,
                      gt:8.4470760822296143e-01 }
                  - { var:9, quality:4.4366714358329773e-01,
                      gt:1.2922456860542297e-01 }
                  - { var:2, quality:4.4061386585235596e-01,
                      le:5.8282997459173203e-02 }
                  - { var:19, quality:4.3480193614959717e-01,
                      gt:8.2450461387634277e-01 }
                  - { var:1, quality:4.3221795558929443e-01,
                      gt:1.7866674065589905e-01 }
                  - { var:0, quality:4.3169644474983215e-01,
                      le:4.6629726886749268e-02 }
                  - { var:3, quality:4.3081873655319214e-01,
                      le:3.4794978797435760e-02 }
                  - { var:7, quality:4.2866104841232300e-01,
                      gt:2.5349318981170654e-01 }
                  - { var:38, quality:4.2751210927963257e-01,
                      le:1.0641962289810181e-03 }
                  - { var:5, quality:4.2700067162513733e-01,
                      le:3.2975982874631882e-02 }
                  - { var:6, quality:4.2680668830871582e-01,
                      gt:1.1419339478015900e-01 }
                  - { var:10, quality:4.2419660091400146e-01,
                      gt:8.8922843337059021e-02 }
                  - { var:39, quality:4.2238751053810120e-01,
                      le:1.0114988544955850e-03 }
                  - { var:30, quality:4.2038798332214355e-01,
                      le:9.5524191856384277e-03 }
                  - { var:8, quality:4.1868191957473755e-01,
                      gt:1.1093862354755402e-01 }
                  - { var:37, quality:4.1662138700485229e-01,
                      le:4.8737548291683197e-02 }
                  - { var:14, quality:4.1516974568367004e-01,
                      gt:9.1284728050231934e-01 }
                  - { var:23, quality:4.1292670369148254e-01,
                      gt:9.3210685253143311e-01 }
                  - { var:28, quality:4.1138851642608643e-01,
                      gt:8.5000002384185791e-01 }
                  - { var:20, quality:4.1025185585021973e-01,
                      gt:7.1756386756896973e-01 }
                  - { var:36, quality:4.0773269534111023e-01,
                      gt:2.9898986220359802e-01 }
                  - { var:35, quality:4.0342158079147339e-01,
                      le:3.5898798704147339e-01 }
                  - { var:11, quality:4.0296792984008789e-01,
                      le:1.2148185633122921e-02 }
                  - { var:24, quality:4.0272292494773865e-01,
                      gt:9.1830837726593018e-01 }
                  - { var:32, quality:4.0254145860671997e-01,
                      gt:1.8128228187561035e-01 }
            -
               depth: 1
               sample_count: 56
               value: 5.9895161626655002e-01
               norm_class_idx: 1
               Tn: 0
               complexity: 0
               alpha: 0.
               node_risk: 0.
               tree_risk: 0.
               tree_error: 0.
            -
               depth: 1
               sample_count: 172
               value: -5.9895161626655002e-01
               norm_class_idx: 0
               Tn: 0
               complexity: 0
               alpha: 0.
               node_risk: 0.
               tree_risk: 0.
               tree_error: 0.
      -
         best_tree_idx: -1
         nodes:
            -
               depth: 0
               sample_count: 213
               value: 5.4579155082884967e-01
               norm_class_idx: 1
               Tn: 0
               complexity: 0
               alpha: 0.
               node_risk: 0.
               tree_risk: 0.
               tree_error: 0.
               splits:
                  - { var:6, quality:6.0888171195983887e-01,
                      le:5.4465390741825104e-02 }
                  - { var:3, quality:4.5167377591133118e-01,
                      gt:1.0771390795707703e-01 }
                  - { var:30, quality:4.2839425802230835e-01,
                      le:8.7160440161824226e-03 }
                  - { var:7, quality:4.2302104830741882e-01,
                      gt:1.6862899065017700e-01 }
                  - { var:35, quality:4.2271959781646729e-01,
                      le:3.5624727606773376e-01 }
                  - { var:34, quality:4.1778144240379333e-01,
                      le:2.5794443488121033e-01 }
                  - { var:0, quality:4.1754037141799927e-01,
                      gt:1.4550121128559113e-01 }
                  - { var:38, quality:4.1700309514999390e-01,
                      le:3.7119432818144560e-04 }
                  - { var:5, quality:4.1658523678779602e-01,
                      gt:1.8272697925567627e-01 }
                  - { var:39, quality:4.1624060273170471e-01,
                      le:6.5444118808954954e-04 }
                  - { var:10, quality:4.1562491655349731e-01,
                      gt:1.0675066709518433e-01 }
                  - { var:8, quality:4.1532394289970398e-01,
                      gt:1.1506148427724838e-01 }
                  - { var:18, quality:4.1524264216423035e-01,
                      gt:8.8147449493408203e-01 }
                  - { var:14, quality:4.1474127769470215e-01,
                      gt:9.1548168659210205e-01 }
                  - { var:1, quality:4.1379919648170471e-01,
                      gt:2.1398746967315674e-01 }
                  - { var:25, quality:4.1271537542343140e-01,
                      gt:7.5000000000000000e-01 }
                  - { var:36, quality:4.1194429993629456e-01,
                      le:2.5396201759576797e-02 }
                  - { var:37, quality:4.1111695766448975e-01,
                      le:3.6450698971748352e-02 }
                  - { var:28, quality:4.1100463271141052e-01,
                      gt:7.5000000000000000e-01 }
                  - { var:19, quality:4.1041806340217590e-01,
                      gt:8.5507380962371826e-01 }
                  - { var:23, quality:4.0986204147338867e-01,
                      le:3.7077181041240692e-02 }
                  - { var:11, quality:4.0880674123764038e-01,
                      le:1.3845053501427174e-02 }
                  - { var:21, quality:4.0614131093025208e-01,
                      le:8.2985078915953636e-03 }
                  - { var:4, quality:4.0590029954910278e-01,
                      le:4.2818799614906311e-02 }
                  - { var:31, quality:4.0482878684997559e-01,
                      le:6.1029110103845596e-02 }
                  - { var:9, quality:4.0367075800895691e-01,
                      le:2.5686487555503845e-02 }
                  - { var:15, quality:4.0331205725669861e-01,
                      gt:8.3796733617782593e-01 }
                  - { var:17, quality:4.0290352702140808e-01,
                      gt:8.5644060373306274e-01 }
                  - { var:2, quality:4.0175238251686096e-01,
                      gt:2.4699687957763672e-01 }
                  - { var:24, quality:4.0019232034683228e-01,
                      gt:8.3051025867462158e-01 }
            -
               depth: 1
               sample_count: 101
               value: -5.4579155082884967e-01
               norm_class_idx: 0
               Tn: 0
               complexity: 0
               alpha: 0.
               node_risk: 0.
               tree_risk: 0.
               tree_error: 0.
            -
               depth: 1
               sample_count: 112
               value: 5.4579155082884967e-01
               norm_class_idx: 1
               Tn: 0
               complexity: 0
               alpha: 0.
               node_risk: 0.
               tree_risk: 0.
               tree_error: 0.
      -
         best_tree_idx: -1
         nodes:
            -
               depth: 0
               sample_count: 219
               value: -5.0203580533760639e-01
               norm_class_idx: 0
               Tn: 0
               complexity: 0
               alpha: 0.
               node_risk: 0.
               tree_risk: 0.
               tree_error: 0.
               splits:
                  - { var:0, quality:6.0108834505081177e-01,
                      le:1.2113435566425323e-01 }
                  - { var:22, quality:4.4597911834716797e-01,
                      le:7.3666715621948242e-01 }
                  - { var:24, quality:4.3785738945007324e-01,
                      le:7.5139558315277100e-01 }
                  - { var:23, quality:4.3505135178565979e-01,
                      le:7.4306815862655640e-01 }
                  - { var:18, quality:4.2824229598045349e-01,
                      le:8.1587511301040649e-01 }
                  - { var:17, quality:4.1823580861091614e-01,
                      le:7.3630028963088989e-01 }
                  - { var:13, quality:4.1633921861648560e-01,
                      le:5.3283071517944336e-01 }
                  - { var:21, quality:4.0894025564193726e-01,
                      le:6.4632749557495117e-01 }
                  - { var:20, quality:4.0820974111557007e-01,
                      le:7.4731194972991943e-01 }
                  - { var:38, quality:4.0765506029129028e-01,
                      gt:1.5946894418448210e-03 }
                  - { var:15, quality:4.0665382146835327e-01,
                      le:6.2293094396591187e-01 }
                  - { var:1, quality:4.0640267729759216e-01,
                      le:5.4089322686195374e-02 }
                  - { var:19, quality:4.0283608436584473e-01,
                      le:7.4009597301483154e-01 }
                  - { var:12, quality:3.9898285269737244e-01,
                      gt:6.9098517298698425e-02 }
                  - { var:8, quality:3.9682975411415100e-01,
                      gt:6.4178556203842163e-02 }
                  - { var:16, quality:3.9506217837333679e-01,
                      le:5.8750432729721069e-01 }
                  - { var:34, quality:3.9065405726432800e-01,
                      gt:4.4296509027481079e-01 }
                  - { var:14, quality:3.8891947269439697e-01,
                      le:8.0562591552734375e-01 }
                  - { var:26, quality:3.8833940029144287e-01,
                      le:3.5000002384185791e-01 }
                  - { var:30, quality:3.8219451904296875e-01,
                      gt:5.0775639712810516e-02 }
                  - { var:9, quality:3.8171041011810303e-01,
                      gt:3.1704783439636230e-02 }
                  - { var:6, quality:3.8063290715217590e-01,
                      gt:8.0282293260097504e-02 }
                  - { var:11, quality:3.7791284918785095e-01,
                      gt:5.7280123233795166e-02 }
                  - { var:2, quality:3.7361869215965271e-01,
                      le:7.7783837914466858e-02 }
                  - { var:36, quality:3.7065365910530090e-01,
                      gt:1.1032495647668839e-01 }
                  - { var:10, quality:3.7013578414916992e-01,
                      gt:4.9850419163703918e-02 }
                  - { var:7, quality:3.6799246072769165e-01,
                      gt:4.3790176510810852e-02 }
                  - { var:31, quality:3.6705920100212097e-01,
                      gt:1.2422742694616318e-01 }
                  - { var:39, quality:3.6635947227478027e-01,
                      gt:2.1346989087760448e-03 }
                  - { var:32, quality:3.6379975080490112e-01,
                      gt:5.6109599769115448e-02 }
                  - { var:33, quality:3.6222958564758301e-01,
                      gt:6.3882336020469666e-02 }
                  - { var:5, quality:3.6121329665184021e-01,
                      gt:4.3749623000621796e-02 }
                  - { var:35, quality:3.5286521911621094e-01,
                      gt:3.9637249708175659e-01 }
                  - { var:37, quality:3.5123196244239807e-01,
                      gt:1.7617148160934448e-01 }
                  - { var:4, quality:3.4692594408988953e-01,
                      le:5.1927417516708374e-02 }
                  - { var:3, quality:3.3448937535285950e-01,
                      gt:5.5579978972673416e-02 }
                  - { var:25, quality:3.3432668447494507e-01,
                      gt:3.5000002384185791e-01 }
                  - { var:27, quality:3.3274468779563904e-01,
                      gt:1.5000000596046448e-01 }
                  - { var:28, quality:3.2420346140861511e-01,
                      le:8.5000002384185791e-01 }
                  - { var:29, quality:3.1780600547790527e-01,
                      le:5.5000001192092896e-01 }
            -
               depth: 1
               sample_count: 116
               value: -5.0203580533760639e-01
               norm_class_idx: 0
               Tn: 0
               complexity: 0
               alpha: 0.
               node_risk: 0.
               tree_risk: 0.
               tree_error: 0.
            -
               depth: 1
               sample_count: 103
               value: 5.0203580533760639e-01
               norm_class_idx: 1
               Tn: 0
               complexity: 0
               alpha: 0.
               node_risk: 0.
               tree_risk: 0.
               tree_error: 0.
      -
         best_tree_idx: -1
         nodes:
            -
               depth: 0
               sample_count: 221
               value: -6.7293409811279092e-01
               norm_class_idx: 0
               Tn: 0
               complexity: 0
               alpha: 0.
               node_risk: 0.
               tree_risk: 0.
               tree_error: 0.
               splits:
                  - { var:15, quality:6.1239480972290039e-01,
                      le:4.4329369068145752e-01 }
                  - { var:17, quality:5.6565409898757935e-01,
                      le:3.9818215370178223e-01 }
                  - { var:21, quality:5.5678945779800415e-01,
                      le:4.0012952685356140e-01 }
                  - { var:14, quality:5.5562347173690796e-01,
                      le:4.7096115350723267e-01 }
                  - { var:20, quality:5.5438429117202759e-01,
                      le:5.4917597770690918e-01 }
                  - { var:24, quality:5.5365920066833496e-01,
                      le:3.6195951700210571e-01 }
                  - { var:23, quality:5.5285251140594482e-01,
                      le:3.4510010480880737e-01 }
                  - { var:18, quality:5.5234289169311523e-01,
                      le:4.7223314642906189e-01 }
                  - { var:19, quality:5.5231732130050659e-01,
                      le:3.9076226949691772e-01 }
                  - { var:22, quality:5.5136477947235107e-01,
                      le:3.5264477133750916e-01 }
                  - { var:12, quality:5.3437525033950806e-01,
                      gt:9.6180170774459839e-01 }
                  - { var:16, quality:5.2252131700515747e-01,
                      le:3.1958332657814026e-01 }
                  - { var:13, quality:5.0565361976623535e-01,
                      le:2.7730411291122437e-01 }
                  - { var:36, quality:5.0120842456817627e-01,
                      gt:2.1805548667907715e-01 }
                  - { var:39, quality:4.9713796377182007e-01,
                      gt:3.6166824866086245e-03 }
                  - { var:37, quality:4.9620625376701355e-01,
                      gt:1.8547895550727844e-01 }
                  - { var:31, quality:4.9113479256629944e-01,
                      gt:1.2363091856241226e-01 }
                  - { var:30, quality:4.8774978518486023e-01,
                      gt:4.4607724994421005e-02 }
                  - { var:5, quality:4.8364791274070740e-01,
                      gt:1.9973284006118774e-01 }
                  - { var:38, quality:4.8199167847633362e-01,
                      gt:3.5723124165087938e-03 }
                  - { var:32, quality:4.7790655493736267e-01,
                      gt:1.1079013347625732e-01 }
                  - { var:33, quality:4.7725996375083923e-01,
                      gt:9.9731549620628357e-02 }
                  - { var:4, quality:4.7483223676681519e-01,
                      gt:2.4761188030242920e-01 }
                  - { var:35, quality:4.7393265366554260e-01,
                      gt:7.3550879955291748e-01 }
                  - { var:28, quality:4.7202131152153015e-01,
                      gt:9.4999998807907104e-01 }
                  - { var:34, quality:4.7134336829185486e-01,
                      gt:7.5903165340423584e-01 }
                  - { var:9, quality:4.6785014867782593e-01,
                      gt:2.8711923956871033e-01 }
                  - { var:8, quality:4.6750482916831970e-01,
                      le:1.5255516394972801e-02 }
            -
               depth: 1
               sample_count: 49
               value: 6.7293409811279092e-01
               norm_class_idx: 1
               Tn: 0
               complexity: 0
               alpha: 0.
               node_risk: 0.
               tree_risk: 0.
               tree_error: 0.
            -
               depth: 1
               sample_count: 172
               value: -6.7293409811279092e-01
               norm_class_idx: 0
               Tn: 0
               complexity: 0
               alpha: 0.
               node_risk: 0.
               tree_risk: 0.
               tree_error: 0.
      -
         best_tree_idx: -1
         nodes:
            -
               depth: 0
               sample_count: 197
               value: 4.9863710117318499e-01
               norm_class_idx: 1
               Tn: 0
               complexity: 0
               alpha: 0.
               node_risk: 0.
               tree_risk: 0.
               tree_error: 0.
               splits:
                  - { var:16, quality:6.0967379808425903e-01,
                      le:4.4953796267509460e-01 }
                  - { var:20, quality:5.8952611684799194e-01,
                      le:3.6086398363113403e-01 }
                  - { var:21, quality:5.8259612321853638e-01,
                      le:4.1047570109367371e-01 }
                  - { var:22, quality:5.7903724908828735e-01,
                      le:3.7517446279525757e-01 }
                  - { var:19, quality:5.7029432058334351e-01,
                      le:3.3989313244819641e-01 }
                  - { var:24, quality:5.6984317302703857e-01,
                      le:3.4627410769462585e-01 }
                  - { var:23, quality:5.6551253795623779e-01,
                      le:3.1262809038162231e-01 }
                  - { var:17, quality:5.6217461824417114e-01,
                      le:3.2119372487068176e-01 }
                  - { var:18, quality:5.6106144189834595e-01,
                      le:3.0205315351486206e-01 }
                  - { var:12, quality:5.6083750724792480e-01,
                      gt:9.6180170774459839e-01 }
                  - { var:15, quality:5.5167597532272339e-01,
                      le:4.1568931937217712e-01 }
                  - { var:13, quality:5.4577803611755371e-01,
                      le:1.4376896619796753e-01 }
                  - { var:14, quality:5.2609914541244507e-01,
                      le:2.9283964633941650e-01 }
                  - { var:36, quality:5.1059395074844360e-01,
                      gt:2.1805548667907715e-01 }
                  - { var:37, quality:5.0512152910232544e-01,
                      gt:2.5659567117691040e-01 }
                  - { var:11, quality:4.9582323431968689e-01,
                      gt:1.2694306671619415e-01 }
                  - { var:4, quality:4.8366528749465942e-01,
                      gt:2.3897539079189301e-01 }
                  - { var:38, quality:4.8240178823471069e-01,
                      gt:3.9715925231575966e-03 }
                  - { var:6, quality:4.8157811164855957e-01,
                      gt:1.8528470396995544e-01 }
                  - { var:39, quality:4.8110598325729370e-01,
                      gt:3.6521770525723696e-03 }
                  - { var:0, quality:4.8104199767112732e-01,
                      le:4.0925443172454834e-02 }
                  - { var:32, quality:4.7931012511253357e-01,
                      gt:1.1079013347625732e-01 }
                  - { var:33, quality:4.7831153869628906e-01,
                      gt:1.5497468411922455e-01 }
                  - { var:1, quality:4.7765639424324036e-01,
                      le:2.9790006577968597e-02 }
                  - { var:35, quality:4.7744017839431763e-01,
                      gt:7.7454257011413574e-01 }
                  - { var:34, quality:4.7744017839431763e-01,
                      gt:7.6701557636260986e-01 }
                  - { var:31, quality:4.7744017839431763e-01,
                      gt:2.2238564491271973e-01 }
                  - { var:8, quality:4.7724843025207520e-01,
                      le:1.5744442120194435e-02 }
                  - { var:9, quality:4.7712650895118713e-01,
                      gt:2.8711923956871033e-01 }
                  - { var:26, quality:4.7663906216621399e-01,
                      gt:9.4999998807907104e-01 }
            -
               depth: 1
               sample_count: 55
               value: -4.9863710117318499e-01
               norm_class_idx: 0
               Tn: 0
               complexity: 0
               alpha: 0.
               node_risk: 0.
               tree_risk: 0.
               tree_error: 0.
            -
               depth: 1
               sample_count: 142
               value: 4.9863710117318499e-01
               norm_class_idx: 1
               Tn: 0
               complexity: 0
               alpha: 0.
               node_risk: 0.
               tree_risk: 0.
               tree_error: 0.
      -
         best_tree_idx: -1
         nodes:
            -
               depth: 0
               sample_count: 210
               value: -5.3116675086025622e-01
               norm_class_idx: 0
               Tn: 0
               complexity: 0
               alpha: 0.
               node_risk: 0.
               tree_risk: 0.
               tree_error: 0.
               splits:
                  - { var:29, quality:6.0022020339965820e-01,
                      le:1.5000000596046448e-01 }
                  - { var:1, quality:3.9900815486907959e-01,
                      le:6.6834561526775360e-02 }
                  - { var:31, quality:3.9334562420845032e-01,
                      le:1.3655245304107666e-01 }
                  - { var:36, quality:3.8807919621467590e-01,
                      le:1.8627327680587769e-01 }
                  - { var:37, quality:3.8657540082931519e-01,
                      le:1.9385780394077301e-01 }
                  - { var:30, quality:3.7993264198303223e-01,
                      gt:1.6244554892182350e-02 }
                  - { var:34, quality:3.7743273377418518e-01,
                      le:6.2600749731063843e-01 }
                  - { var:21, quality:3.7429335713386536e-01,
                      le:7.8755986690521240e-01 }
                  - { var:4, quality:3.7278398871421814e-01,
                      le:8.4664493799209595e-02 }
                  - { var:0, quality:3.7054488062858582e-01,
                      le:1.2949943542480469e-01 }
                  - { var:32, quality:3.7046173214912415e-01,
                      le:9.3514606356620789e-02 }
                  - { var:35, quality:3.6842283606529236e-01,
                      le:5.1964914798736572e-01 }
                  - { var:17, quality:3.6758604645729065e-01,
                      le:7.9566287994384766e-01 }
                  - { var:16, quality:3.6736819148063660e-01,
                      le:9.3012571334838867e-01 }
                  - { var:9, quality:3.6657974123954773e-01,
                      gt:7.3890492320060730e-02 }
                  - { var:33, quality:3.6653786897659302e-01,
                      le:1.1463548243045807e-01 }
                  - { var:24, quality:3.6560416221618652e-01,
                      le:8.5697996616363525e-01 }
                  - { var:11, quality:3.6535635590553284e-01,
                      gt:5.4045312106609344e-02 }
                  - { var:20, quality:3.6389353871345520e-01,
                      le:8.0566024780273438e-01 }
                  - { var:26, quality:3.6130306124687195e-01,
                      gt:1.5000000596046448e-01 }
                  - { var:10, quality:3.5793289542198181e-01,
                      gt:4.6170301735401154e-02 }
                  - { var:13, quality:3.5730642080307007e-01,
                      gt:7.1411234140396118e-01 }
                  - { var:22, quality:3.5635405778884888e-01,
                      le:8.0947351455688477e-01 }
                  - { var:15, quality:3.5601398348808289e-01,
                      le:8.3962607383728027e-01 }
                  - { var:3, quality:3.5496193170547485e-01,
                      le:1.4705386757850647e-01 }
                  - { var:7, quality:3.5370570421218872e-01,
                      gt:8.6761146783828735e-02 }
                  - { var:39, quality:3.5312306880950928e-01,
                      gt:4.1871692519634962e-04 }
                  - { var:6, quality:3.5300824046134949e-01,
                      le:2.1054503321647644e-01 }
                  - { var:23, quality:3.5201609134674072e-01,
                      le:8.5188043117523193e-01 }
                  - { var:38, quality:3.5189911723136902e-01,
                      gt:6.6665653139352798e-04 }
                  - { var:25, quality:3.4210035204887390e-01,
                      le:8.5000002384185791e-01 }
                  - { var:5, quality:3.4090843796730042e-01,
                      gt:2.5608936324715614e-02 }
                  - { var:18, quality:3.3998513221740723e-01,
                      le:8.3361566066741943e-01 }
                  - { var:8, quality:3.3921316266059875e-01,
                      gt:1.9318999722599983e-02 }
                  - { var:2, quality:3.3917450904846191e-01,
