%YAML:1.0
my_boost_tree: !!opencv-ml-boost-tree
   boosting_type: DiscreteAdaboost
   splitting_criteria: 3
   ntrees: 100
   weight_trimming_rate: 9.4999999999999996e-01
   is_classifier: 1
   var_all: 40
   var_count: 40
   ord_var_count: 40
   cat_var_count: 0
   training_params:
      use_surrogates: 1
      max_categories: 10
      max_depth: 1
      min_sample_count: 10
      cross_validation_folds: 0
      priors: !!opencv-matrix
         rows: 1
         cols: 2
         dt: d
         data: [ 1., 1. ]
   var_type: [ 0, 0, 0, 0, 0, 0, 0, 0, 0, 0, 0, 0, 0, 0, 0, 0, 0, 0, 0,
       0, 0, 0, 0, 0, 0, 0, 0, 0, 0, 0, 0, 0, 0, 0, 0, 0, 0, 0, 0, 0 ]
   cat_count: !!opencv-matrix
      rows: 1
      cols: 1
      dt: i
      data: [ 2 ]
   cat_map: !!opencv-matrix
      rows: 1
      cols: 2
      dt: i
      data: [ -1, 1 ]
   trees:
      -
         best_tree_idx: -1
         nodes:
            -
               depth: 0
               sample_count: 410
               value: -2.0204432009178803e+00
               norm_class_idx: 0
               Tn: 0
               complexity: 0
               alpha: 0.
               node_risk: 0.
               tree_risk: 0.
               tree_error: 0.
               splits:
                  - { var:4, quality:8.8292682170867920e-01,
                      le:2.3631297051906586e-02 }
            -
               depth: 1
               sample_count: 2
               value: 2.0204432009178803e+00
               norm_class_idx: 1
               Tn: 0
               complexity: 0
               alpha: 0.
               node_risk: 0.
               tree_risk: 0.
               tree_error: 0.
            -
               depth: 1
               sample_count: 408
               value: -2.0204432009178803e+00
               norm_class_idx: 0
               Tn: 0
               complexity: 0
               alpha: 0.
               node_risk: 0.
               tree_risk: 0.
               tree_error: 0.
      -
         best_tree_idx: -1
         nodes:
            -
               depth: 0
               sample_count: 410
               value: 1.2055446021122080e+00
               norm_class_idx: 1
               Tn: 0
               complexity: 0
               alpha: 0.
               node_risk: 0.
               tree_risk: 0.
               tree_error: 0.
               splits:
                  - { var:20, quality:7.6950967311859131e-01,
                      le:7.5093829631805420e-01 }
                  - { var:22, quality:7.1463960409164429e-01,
                      le:7.8693401813507080e-01 }
                  - { var:21, quality:6.9608384370803833e-01,
                      le:7.0656508207321167e-01 }
                  - { var:17, quality:6.7956525087356567e-01,
                      le:7.3454988002777100e-01 }
                  - { var:24, quality:6.7416238784790039e-01,
                      le:7.9568755626678467e-01 }
                  - { var:15, quality:6.6100949048995972e-01,
                      le:7.3499870300292969e-01 }
                  - { var:16, quality:6.5706807374954224e-01,
                      le:7.0357155799865723e-01 }
                  - { var:23, quality:6.1889374256134033e-01,
                      le:7.7871483564376831e-01 }
                  - { var:19, quality:6.1357945203781128e-01,
                      le:7.7880859375000000e-01 }
                  - { var:18, quality:6.1340230703353882e-01,
                      le:8.3215284347534180e-01 }
                  - { var:13, quality:5.7358938455581665e-01,
                      le:8.7060904502868652e-01 }
                  - { var:14, quality:5.3435218334197998e-01,
                      le:8.2697582244873047e-01 }
                  - { var:30, quality:5.3368794918060303e-01,
                      gt:2.7773931622505188e-02 }
                  - { var:39, quality:5.3098648786544800e-01,
                      gt:1.7997327959164977e-03 }
                  - { var:38, quality:5.2615934610366821e-01,
                      gt:1.6661495901644230e-03 }
                  - { var:12, quality:5.1938360929489136e-01,
                      gt:4.1028289124369621e-03 }
                  - { var:31, quality:4.9883499741554260e-01,
                      gt:8.8426142930984497e-02 }
                  - { var:33, quality:4.9197068810462952e-01,
                      gt:6.4160577952861786e-02 }
                  - { var:32, quality:4.8656785488128662e-01,
                      gt:6.2577329576015472e-02 }
                  - { var:36, quality:4.7611638903617859e-01,
                      gt:1.3213980197906494e-01 }
                  - { var:37, quality:4.7465494275093079e-01,
                      gt:1.6032153367996216e-01 }
                  - { var:8, quality:4.7155496478080750e-01,
                      gt:8.3685517311096191e-02 }
                  - { var:1, quality:4.7155496478080750e-01,
                      le:4.9591533839702606e-02 }
                  - { var:35, quality:4.6624067425727844e-01,
                      le:3.0484169721603394e-01 }
                  - { var:0, quality:4.6460211277008057e-01,
                      le:8.6331278085708618e-02 }
                  - { var:11, quality:4.6327352523803711e-01,
                      gt:6.1670616269111633e-02 }
                  - { var:3, quality:4.5592206716537476e-01,
                      gt:8.9408576488494873e-02 }
                  - { var:34, quality:4.5029780268669128e-01,
                      le:2.2967870533466339e-01 }
                  - { var:6, quality:4.4963350892066956e-01,
                      le:4.2938299477100372e-02 }
                  - { var:7, quality:4.4710922241210938e-01,
                      gt:1.7021432518959045e-01 }
                  - { var:5, quality:4.4684350490570068e-01,
                      gt:8.3726726472377777e-02 }
                  - { var:10, quality:4.4502776861190796e-01,
                      gt:3.7958879023790359e-02 }
                  - { var:2, quality:4.3891635537147522e-01,
                      le:8.0568231642246246e-02 }
                  - { var:27, quality:4.3426632881164551e-01,
                      gt:7.5000000000000000e-01 }
                  - { var:28, quality:4.3377918004989624e-01,
                      gt:8.5000002384185791e-01 }
                  - { var:4, quality:4.3377918004989624e-01,
                      gt:1.6694507002830505e-01 }
                  - { var:9, quality:4.3169775605201721e-01,
                      le:7.6226696372032166e-02 }
                  - { var:26, quality:4.2580774426460266e-01,
                      gt:1.5000000596046448e-01 }
            -
               depth: 1
               sample_count: 272
               value: -1.2055446021122080e+00
               norm_class_idx: 0
               Tn: 0
               complexity: 0
               alpha: 0.
               node_risk: 0.
               tree_risk: 0.
               tree_error: 0.
            -
               depth: 1
               sample_count: 138
               value: 1.2055446021122080e+00
               norm_class_idx: 1
               Tn: 0
               complexity: 0
               alpha: 0.
               node_risk: 0.
               tree_risk: 0.
               tree_error: 0.
      -
         best_tree_idx: -1
         nodes:
            -
               depth: 0
               sample_count: 410
               value: -6.6722603942275904e-01
               norm_class_idx: 0
               Tn: 0
               complexity: 0
               alpha: 0.
               node_risk: 0.
               tree_risk: 0.
               tree_error: 0.
               splits:
                  - { var:31, quality:6.6088175773620605e-01,
                      le:9.9551260471343994e-02 }
                  - { var:32, quality:6.1853224039077759e-01,
                      le:7.1483753621578217e-02 }
                  - { var:33, quality:6.0594016313552856e-01,
                      le:7.3978990316390991e-02 }
                  - { var:37, quality:5.7933998107910156e-01,
                      le:1.1819329857826233e-01 }
                  - { var:34, quality:5.7527780532836914e-01,
                      le:4.3633085489273071e-01 }
                  - { var:36, quality:5.7200556993484497e-01,
                      le:9.6141889691352844e-02 }
                  - { var:35, quality:5.6301385164260864e-01,
                      le:4.5356339216232300e-01 }
                  - { var:13, quality:5.1950496435165405e-01,
                      gt:8.1225347518920898e-01 }
                  - { var:22, quality:4.9936738610267639e-01,
                      gt:6.4539659023284912e-01 }
                  - { var:17, quality:4.9679410457611084e-01,
                      gt:5.2714359760284424e-01 }
                  - { var:24, quality:4.9521556496620178e-01,
                      gt:6.7736959457397461e-01 }
                  - { var:38, quality:4.9504274129867554e-01,
                      le:2.3013695608824492e-03 }
                  - { var:39, quality:4.9405732750892639e-01,
                      le:2.3431165609508753e-03 }
                  - { var:23, quality:4.8948517441749573e-01,
                      gt:7.1233558654785156e-01 }
                  - { var:19, quality:4.8829895257949829e-01,
                      gt:7.0643860101699829e-01 }
                  - { var:20, quality:4.8808881640434265e-01,
                      gt:5.7344895601272583e-01 }
                  - { var:15, quality:4.8691192269325256e-01,
                      gt:6.4874458312988281e-01 }
                  - { var:18, quality:4.8651963472366333e-01,
                      gt:6.9037389755249023e-01 }
                  - { var:12, quality:4.8572570085525513e-01,
                      le:8.8781174272298813e-03 }
                  - { var:30, quality:4.8198482394218445e-01,
                      le:3.7266537547111511e-02 }
                  - { var:16, quality:4.7738131880760193e-01,
                      le:7.8924232721328735e-01 }
                  - { var:21, quality:4.7315502166748047e-01,
                      gt:5.0751042366027832e-01 }
                  - { var:14, quality:4.6891754865646362e-01,
                      gt:6.8993806838989258e-01 }
                  - { var:1, quality:4.3672862648963928e-01,
                      le:1.3941086828708649e-01 }
                  - { var:0, quality:4.3478173017501831e-01,
                      gt:1.0259291529655457e-01 }
                  - { var:10, quality:4.3281769752502441e-01,
                      le:6.6119067370891571e-02 }
                  - { var:11, quality:4.2900177836418152e-01,
                      le:1.4554290473461151e-01 }
                  - { var:26, quality:4.2532262206077576e-01,
                      le:9.4999998807907104e-01 }
                  - { var:6, quality:4.2116147279739380e-01,
                      le:9.9556460976600647e-02 }
                  - { var:7, quality:4.1938212513923645e-01,
                      le:2.0807629823684692e-01 }
                  - { var:5, quality:4.1938212513923645e-01,
                      gt:1.7725422978401184e-02 }
                  - { var:8, quality:4.1898980736732483e-01,
                      gt:1.1950977146625519e-02 }
                  - { var:2, quality:4.1870865225791931e-01,
                      le:2.5638204813003540e-01 }
                  - { var:4, quality:4.1839671134948730e-01,
                      gt:3.2394036650657654e-02 }
            -
               depth: 1
               sample_count: 197
               value: 6.6722603942275904e-01
               norm_class_idx: 1
               Tn: 0
               complexity: 0
               alpha: 0.
               node_risk: 0.
               tree_risk: 0.
               tree_error: 0.
            -
               depth: 1
               sample_count: 213
               value: -6.6722603942275904e-01
               norm_class_idx: 0
               Tn: 0
               complexity: 0
               alpha: 0.
               node_risk: 0.
               tree_risk: 0.
               tree_error: 0.
      -
         best_tree_idx: -1
         nodes:
            -
               depth: 0
               sample_count: 410
               value: -5.6255469956324811e-01
               norm_class_idx: 0
               Tn: 0
               complexity: 0
               alpha: 0.
               node_risk: 0.
               tree_risk: 0.
               tree_error: 0.
               splits:
                  - { var:4, quality:6.3704341650009155e-01,
                      le:4.4465884566307068e-02 }
                  - { var:39, quality:5.6034970283508301e-01,
                      gt:6.4226868562400341e-03 }
                  - { var:38, quality:5.6034970283508301e-01,
                      gt:4.8432894982397556e-03 }
                  - { var:37, quality:5.6034970283508301e-01,
                      gt:6.3064694404602051e-01 }
                  - { var:36, quality:5.6034970283508301e-01,
                      gt:4.3081015348434448e-01 }
                  - { var:33, quality:5.6034970283508301e-01,
                      gt:3.4174522757530212e-01 }
                  - { var:32, quality:5.6034970283508301e-01,
                      gt:2.5057542324066162e-01 }
                  - { var:30, quality:5.6034970283508301e-01,
                      gt:1.3177134096622467e-01 }
                  - { var:35, quality:5.5991715192794800e-01,
                      gt:8.0979406833648682e-01 }
                  - { var:31, quality:5.5890560150146484e-01,
                      gt:2.4230843782424927e-01 }
                  - { var:23, quality:5.5342900753021240e-01,
                      le:2.2316846251487732e-01 }
                  - { var:14, quality:5.5342900753021240e-01,
                      le:1.1973799765110016e-01 }
                  - { var:24, quality:5.5258601903915405e-01,
                      le:2.3978593945503235e-01 }
                  - { var:18, quality:5.5213135480880737e-01,
                      le:1.9722113013267517e-01 }
                  - { var:22, quality:5.5131053924560547e-01,
                      le:2.3140311241149902e-01 }
                  - { var:19, quality:5.5085581541061401e-01,
                      le:2.4287448823451996e-01 }
                  - { var:15, quality:5.4897922277450562e-01,
                      le:2.9261264204978943e-01 }
                  - { var:10, quality:5.4717445373535156e-01,
                      gt:1.4412149786949158e-01 }
                  - { var:20, quality:5.4657465219497681e-01,
                      le:2.7987769246101379e-01 }
                  - { var:8, quality:5.4435664415359497e-01,
                      gt:1.2842726707458496e-01 }
                  - { var:1, quality:5.4311019182205200e-01,
                      gt:1.8398401141166687e-01 }
                  - { var:11, quality:5.4276311397552490e-01,
                      gt:1.7741690576076508e-01 }
                  - { var:6, quality:5.4193967580795288e-01,
                      le:9.3370676040649414e-03 }
                  - { var:2, quality:5.4049557447433472e-01,
                      le:1.7670650035142899e-02 }
                  - { var:3, quality:5.4025375843048096e-01,
                      le:7.3646698147058487e-03 }
                  - { var:17, quality:5.3924351930618286e-01,
                      le:2.3512755334377289e-01 }
            -
               depth: 1
               sample_count: 38
               value: 5.6255469956324811e-01
               norm_class_idx: 1
               Tn: 0
               complexity: 0
               alpha: 0.
               node_risk: 0.
               tree_risk: 0.
               tree_error: 0.
            -
               depth: 1
               sample_count: 372
               value: -5.6255469956324811e-01
               norm_class_idx: 0
               Tn: 0
               complexity: 0
               alpha: 0.
               node_risk: 0.
               tree_risk: 0.
               tree_error: 0.
      -
         best_tree_idx: -1
         nodes:
            -
               depth: 0
               sample_count: 410
               value: 7.5209334672104544e-01
               norm_class_idx: 1
               Tn: 0
               complexity: 0
               alpha: 0.
               node_risk: 0.
               tree_risk: 0.
               tree_error: 0.
               splits:
                  - { var:38, quality:6.7963463068008423e-01,
                      le:8.7246840121224523e-04 }
                  - { var:39, quality:6.5032219886779785e-01,
                      le:8.1846950342878699e-04 }
                  - { var:30, quality:6.4432746171951294e-01,
                      le:5.2562905475497246e-03 }
                  - { var:36, quality:5.7989585399627686e-01,
                      le:3.5935875028371811e-02 }
                  - { var:34, quality:5.7289600372314453e-01,
                      le:2.5506782531738281e-01 }
                  - { var:0, quality:5.7274496555328369e-01,
                      le:5.5689930915832520e-02 }
                  - { var:1, quality:5.6789612770080566e-01,
                      le:2.7494836598634720e-02 }
                  - { var:37, quality:5.6746166944503784e-01,
                      le:3.1919911503791809e-02 }
                  - { var:35, quality:5.6721228361129761e-01,
                      le:1.7605939507484436e-01 }
                  - { var:3, quality:5.6386268138885498e-01,
                      le:1.8562659621238708e-02 }
                  - { var:9, quality:5.6384843587875366e-01,
                      le:2.0172942429780960e-02 }
                  - { var:10, quality:5.6190907955169678e-01,
                      gt:1.9990821182727814e-01 }
                  - { var:6, quality:5.6173694133758545e-01,
                      le:2.2069059312343597e-02 }
                  - { var:8, quality:5.5984228849411011e-01,
                      le:1.4005945064127445e-02 }
                  - { var:2, quality:5.5915391445159912e-01,
                      le:3.4822378307580948e-02 }
                  - { var:11, quality:5.5830067396163940e-01,
                      le:1.4168892055749893e-02 }
                  - { var:5, quality:5.5801206827163696e-01,
                      gt:1.9237300753593445e-01 }
                  - { var:32, quality:5.5729317665100098e-01,
                      le:2.7777422219514847e-02 }
                  - { var:31, quality:5.5634832382202148e-01,
                      le:3.7339974194765091e-02 }
                  - { var:7, quality:5.5597430467605591e-01,
                      le:1.6038380563259125e-02 }
                  - { var:4, quality:5.5421692132949829e-01,
                      le:2.9985908418893814e-02 }
                  - { var:24, quality:5.5393242835998535e-01,
                      gt:9.3311941623687744e-01 }
                  - { var:22, quality:5.5151396989822388e-01,
                      gt:9.2217618227005005e-01 }
                  - { var:21, quality:5.5151396989822388e-01,
                      gt:9.4784784317016602e-01 }
                  - { var:19, quality:5.5151396989822388e-01,
                      gt:9.9577820301055908e-01 }
                  - { var:17, quality:5.5151396989822388e-01,
                      gt:9.6539074182510376e-01 }
            -
               depth: 1
               sample_count: 79
               value: -7.5209334672104544e-01
               norm_class_idx: 0
               Tn: 0
               complexity: 0
               alpha: 0.
               node_risk: 0.
               tree_risk: 0.
               tree_error: 0.
            -
               depth: 1
               sample_count: 331
               value: 7.5209334672104544e-01
               norm_class_idx: 1
               Tn: 0
               complexity: 0
               alpha: 0.
               node_risk: 0.
               tree_risk: 0.
               tree_error: 0.
      -
         best_tree_idx: -1
         nodes:
            -
               depth: 0
               sample_count: 379
               value: -6.9213914318616521e-01
               norm_class_idx: 0
               Tn: 0
               complexity: 0
               alpha: 0.
               node_risk: 0.
               tree_risk: 0.
               tree_error: 0.
               splits:
                  - { var:24, quality:6.4352059364318848e-01,
                      le:8.5609197616577148e-01 }
                  - { var:23, quality:5.9594386816024780e-01,
                      le:8.9506685733795166e-01 }
                  - { var:15, quality:5.9274154901504517e-01,
                      le:8.3619320392608643e-01 }
                  - { var:22, quality:5.8496266603469849e-01,
                      le:8.5762453079223633e-01 }
                  - { var:19, quality:5.8495736122131348e-01,
                      le:8.7685042619705200e-01 }
                  - { var:18, quality:5.8352392911911011e-01,
                      le:8.9196848869323730e-01 }
                  - { var:20, quality:5.7026040554046631e-01,
                      le:8.3367758989334106e-01 }
                  - { var:17, quality:5.5763036012649536e-01,
                      le:8.8063800334930420e-01 }
                  - { var:21, quality:5.5462586879730225e-01,
                      le:8.6146390438079834e-01 }
                  - { var:16, quality:5.4248762130737305e-01,
                      le:8.5522729158401489e-01 }
                  - { var:10, quality:5.4061514139175415e-01,
                      gt:8.3525292575359344e-03 }
                  - { var:2, quality:5.3970038890838623e-01,
                      le:2.5638204813003540e-01 }
                  - { var:0, quality:5.3847116231918335e-01,
                      le:3.3731651306152344e-01 }
                  - { var:6, quality:5.3776156902313232e-01,
                      le:2.4244926869869232e-01 }
                  - { var:31, quality:5.3774374723434448e-01,
                      le:2.6125013828277588e-01 }
                  - { var:7, quality:5.3774374723434448e-01,
                      le:2.9084795713424683e-01 }
                  - { var:1, quality:5.3774374723434448e-01,
                      gt:1.0563598014414310e-02 }
                  - { var:34, quality:5.3709775209426880e-01,
                      le:6.8394857645034790e-01 }
            -
               depth: 1
               sample_count: 341
               value: -6.9213914318616521e-01
               norm_class_idx: 0
               Tn: 0
               complexity: 0
               alpha: 0.
               node_risk: 0.
               tree_risk: 0.
               tree_error: 0.
            -
               depth: 1
               sample_count: 38
               value: 6.9213914318616521e-01
               norm_class_idx: 1
               Tn: 0
               complexity: 0
               alpha: 0.
               node_risk: 0.
               tree_risk: 0.
               tree_error: 0.
      -
         best_tree_idx: -1
         nodes:
            -
               depth: 0
               sample_count: 379
               value: 5.5652574415784051e-01
               norm_class_idx: 1
               Tn: 0
               complexity: 0
               alpha: 0.
               node_risk: 0.
               tree_risk: 0.
               tree_error: 0.
               splits:
                  - { var:5, quality:6.2588870525360107e-01,
                      le:8.5737571120262146e-02 }
                  - { var:11, quality:4.7431552410125732e-01,
                      gt:3.3762916922569275e-02 }
                  - { var:1, quality:4.6027407050132751e-01,
                      gt:4.5088998973369598e-02 }
                  - { var:3, quality:4.4615948200225830e-01,
                      gt:3.4557156264781952e-02 }
                  - { var:39, quality:4.4467151165008545e-01,
                      gt:4.3281394755467772e-04 }
                  - { var:10, quality:4.4393777847290039e-01,
                      le:9.9758915603160858e-02 }
                  - { var:36, quality:4.4267603754997253e-01,
                      gt:3.5935875028371811e-02 }
                  - { var:38, quality:4.4240987300872803e-01,
                      gt:2.4740258231759071e-04 }
                  - { var:30, quality:4.4240987300872803e-01,
                      gt:1.4543338911607862e-03 }
                  - { var:37, quality:4.4225355982780457e-01,
                      gt:2.3641381412744522e-02 }
                  - { var:0, quality:4.4042235612869263e-01,
                      gt:4.9718543887138367e-02 }
                  - { var:2, quality:4.3834879994392395e-01,
                      gt:4.1339561343193054e-02 }
                  - { var:34, quality:4.3693739175796509e-01,
                      gt:1.6463267803192139e-01 }
                  - { var:21, quality:4.3648386001586914e-01,
                      le:8.7427771091461182e-01 }
                  - { var:22, quality:4.3515631556510925e-01,
                      le:9.2217618227005005e-01 }
                  - { var:9, quality:4.3508896231651306e-01,
                      gt:1.9555475562810898e-02 }
                  - { var:35, quality:4.3508353829383850e-01,
                      gt:1.5833011269569397e-01 }
                  - { var:6, quality:4.3464437127113342e-01,
                      gt:9.3370676040649414e-03 }
                  - { var:8, quality:4.3385517597198486e-01,
                      le:1.6213996708393097e-01 }
                  - { var:20, quality:4.3383145332336426e-01,
                      le:9.7127294540405273e-01 }
                  - { var:24, quality:4.3375417590141296e-01,
                      le:9.3311941623687744e-01 }
                  - { var:7, quality:4.3372341990470886e-01,
                      gt:6.8571474403142929e-03 }
                  - { var:19, quality:4.3329918384552002e-01,
                      gt:7.7966801822185516e-02 }
                  - { var:17, quality:4.3290153145790100e-01,
                      gt:2.1242309361696243e-02 }
                  - { var:23, quality:4.3250390887260437e-01,
                      gt:6.4232453703880310e-02 }
                  - { var:18, quality:4.3250390887260437e-01,
                      le:9.8190957307815552e-01 }
            -
               depth: 1
               sample_count: 232
               value: 5.5652574415784051e-01
               norm_class_idx: 1
               Tn: 0
               complexity: 0
               alpha: 0.
               node_risk: 0.
               tree_risk: 0.
               tree_error: 0.
            -
               depth: 1
               sample_count: 147
               value: -5.5652574415784051e-01
               norm_class_idx: 0
               Tn: 0
               complexity: 0
               alpha: 0.
               node_risk: 0.
               tree_risk: 0.
               tree_error: 0.
      -
         best_tree_idx: -1
         nodes:
            -
               depth: 0
               sample_count: 323
               value: -5.5353450122650627e-01
               norm_class_idx: 0
               Tn: 0
               complexity: 0
               alpha: 0.
               node_risk: 0.
               tree_risk: 0.
               tree_error: 0.
               splits:
                  - { var:3, quality:6.0407072305679321e-01,
                      le:5.2942343056201935e-02 }
                  - { var:24, quality:3.9151862263679504e-01,
                      le:8.0069786310195923e-01 }
                  - { var:9, quality:3.8762292265892029e-01,
                      gt:8.4442198276519775e-02 }
                  - { var:36, quality:3.7924921512603760e-01,
                      gt:6.9653153419494629e-02 }
                  - { var:22, quality:3.7678351998329163e-01,
                      le:7.8983569145202637e-01 }
                  - { var:15, quality:3.7367808818817139e-01,
                      le:6.9903647899627686e-01 }
                  - { var:5, quality:3.6921745538711548e-01,
                      gt:1.0311260819435120e-01 }
                  - { var:20, quality:3.6842402815818787e-01,
                      le:7.6429718732833862e-01 }
                  - { var:7, quality:3.6653915047645569e-01,
                      gt:1.1014568805694580e-01 }
                  - { var:0, quality:3.6461296677589417e-01,
                      gt:1.4265581965446472e-01 }
                  - { var:11, quality:3.6273008584976196e-01,
                      gt:7.4729964137077332e-02 }
                  - { var:19, quality:3.6195778846740723e-01,
                      le:8.6090886592864990e-01 }
                  - { var:23, quality:3.5930714011192322e-01,
                      le:8.1154900789260864e-01 }
                  - { var:16, quality:3.5893821716308594e-01,
                      le:7.0357155799865723e-01 }
                  - { var:31, quality:3.5832735896110535e-01,
                      gt:7.8927040100097656e-02 }
                  - { var:37, quality:3.5805127024650574e-01,
                      gt:8.0042608082294464e-02 }
                  - { var:1, quality:3.5731509327888489e-01,
                      le:5.1031876355409622e-02 }
                  - { var:35, quality:3.5541617870330811e-01,
                      gt:3.6325103044509888e-01 }
                  - { var:13, quality:3.5534331202507019e-01,
                      le:9.5648443698883057e-01 }
                  - { var:21, quality:3.5442727804183960e-01,
                      le:6.9609773159027100e-01 }
                  - { var:34, quality:3.5362988710403442e-01,
                      gt:3.2812651991844177e-01 }
                  - { var:32, quality:3.5312917828559875e-01,
                      gt:5.1587902009487152e-02 }
                  - { var:10, quality:3.5264563560485840e-01,
                      le:4.0706604719161987e-02 }
                  - { var:8, quality:3.5235139727592468e-01,
                      le:6.9274909794330597e-02 }
                  - { var:33, quality:3.5174497961997986e-01,
                      gt:6.5784990787506104e-02 }
                  - { var:18, quality:3.5135594010353088e-01,
                      le:8.5259759426116943e-01 }
                  - { var:17, quality:3.5073375701904297e-01,
                      le:7.2752225399017334e-01 }
                  - { var:14, quality:3.4833300113677979e-01,
                      gt:9.9113214015960693e-01 }
                  - { var:27, quality:3.4424224495887756e-01,
                      le:2.5000000000000000e-01 }
                  - { var:26, quality:3.3950769901275635e-01,
                      gt:2.5000000000000000e-01 }
                  - { var:4, quality:3.3762753009796143e-01,
                      gt:8.4060430526733398e-02 }
                  - { var:39, quality:3.3676391839981079e-01,
                      gt:1.3323677703738213e-03 }
                  - { var:2, quality:3.3417510986328125e-01,
                      le:7.5760915875434875e-02 }
                  - { var:30, quality:3.3096006512641907e-01,
                      gt:1.0466778650879860e-02 }
                  - { var:38, quality:3.2826128602027893e-01,
                      gt:4.0802285075187683e-03 }
                  - { var:28, quality:3.2819208502769470e-01,
                      le:4.4999998807907104e-01 }
                  - { var:6, quality:3.2760387659072876e-01,
                      gt:5.1009967923164368e-02 }
                  - { var:12, quality:3.2116985321044922e-01,
                      gt:8.9932370185852051e-01 }
                  - { var:29, quality:3.1445652246475220e-01,
                      le:5.5000001192092896e-01 }
            -
               depth: 1
               sample_count: 119
               value: 5.5353450122650627e-01
               norm_class_idx: 1
               Tn: 0
               complexity: 0
               alpha: 0.
               node_risk: 0.
               tree_risk: 0.
               tree_error: 0.
            -
               depth: 1
               sample_count: 204
               value: -5.5353450122650627e-01
               norm_class_idx: 0
               Tn: 0
               complexity: 0
               alpha: 0.
               node_risk: 0.
               tree_risk: 0.
               tree_error: 0.
      -
         best_tree_idx: -1
         nodes:
            -
               depth: 0
               sample_count: 333
               value: -4.4459861093148439e-01
               norm_class_idx: 0
               Tn: 0
               complexity: 0
               alpha: 0.
               node_risk: 0.
               tree_risk: 0.
               tree_error: 0.
               splits:
                  - { var:7, quality:5.9159129858016968e-01,
                      le:9.3740478157997131e-02 }
                  - { var:1, quality:4.3898040056228638e-01,
                      gt:9.4572536647319794e-02 }
                  - { var:4, quality:3.8080388307571411e-01,
                      gt:9.4977691769599915e-02 }
                  - { var:2, quality:3.7917834520339966e-01,
                      le:9.6761435270309448e-02 }
                  - { var:5, quality:3.6604678630828857e-01,
                      le:7.6720818877220154e-02 }
                  - { var:28, quality:3.5940107703208923e-01,
                      le:7.5000000000000000e-01 }
                  - { var:9, quality:3.5764753818511963e-01,
                      gt:4.2124696075916290e-02 }
                  - { var:0, quality:3.5614350438117981e-01,
                      gt:1.3953623175621033e-01 }
                  - { var:32, quality:3.4994667768478394e-01,
                      gt:3.4714739769697189e-02 }
                  - { var:35, quality:3.4978666901588440e-01,
                      gt:4.2549851536750793e-01 }
                  - { var:10, quality:3.4895893931388855e-01,
                      le:6.3679039478302002e-02 }
                  - { var:33, quality:3.4849214553833008e-01,
                      gt:3.2740525901317596e-02 }
                  - { var:15, quality:3.4791269898414612e-01,
                      gt:7.8086495399475098e-01 }
                  - { var:30, quality:3.4743174910545349e-01,
                      gt:6.7443912848830223e-03 }
                  - { var:29, quality:3.4703209996223450e-01,
                      le:8.5000002384185791e-01 }
                  - { var:34, quality:3.4598866105079651e-01,
                      le:5.7429492473602295e-01 }
                  - { var:3, quality:3.4585288166999817e-01,
                      le:1.4016434550285339e-01 }
                  - { var:19, quality:3.4571459889411926e-01,
                      gt:7.9628109931945801e-01 }
                  - { var:21, quality:3.4434553980827332e-01,
                      le:7.9506409168243408e-01 }
                  - { var:31, quality:3.4347629547119141e-01,
                      gt:4.5083515346050262e-02 }
                  - { var:17, quality:3.4287908673286438e-01,
                      le:8.7243342399597168e-01 }
                  - { var:6, quality:3.4224966168403625e-01,
                      gt:7.5295865535736084e-02 }
                  - { var:20, quality:3.4222429990768433e-01,
                      le:9.0406006574630737e-01 }
                  - { var:26, quality:3.3909815549850464e-01,
                      gt:2.5000000000000000e-01 }
                  - { var:16, quality:3.3909472823143005e-01,
                      le:8.0776000022888184e-01 }
                  - { var:22, quality:3.3882033824920654e-01,
                      le:9.0788012742996216e-01 }
                  - { var:11, quality:3.3708316087722778e-01,
                      gt:3.5384450107812881e-02 }
                  - { var:24, quality:3.3648335933685303e-01,
                      le:9.0750885009765625e-01 }
                  - { var:8, quality:3.3473059535026550e-01,
                      gt:2.6839943602681160e-02 }
                  - { var:38, quality:3.3344420790672302e-01,
                      gt:3.9940976421348751e-04 }
                  - { var:13, quality:3.3325430750846863e-01,
                      le:9.9994707107543945e-01 }
                  - { var:39, quality:3.3296483755111694e-01,
                      gt:1.0478789918124676e-03 }
                  - { var:23, quality:3.3150130510330200e-01,
                      le:8.7185466289520264e-01 }
                  - { var:18, quality:3.2925796508789062e-01,
                      gt:4.7198324464261532e-03 }
                  - { var:36, quality:3.2886713743209839e-01,
                      gt:5.0921522080898285e-02 }
                  - { var:14, quality:3.2791423797607422e-01,
                      gt:7.4999117851257324e-01 }
                  - { var:37, quality:3.2782423496246338e-01,
                      gt:4.6580750495195389e-03 }
            -
               depth: 1
               sample_count: 217
               value: -4.4459861093148439e-01
               norm_class_idx: 0
               Tn: 0
               complexity: 0
               alpha: 0.
               node_risk: 0.
               tree_risk: 0.
               tree_error: 0.
            -
               depth: 1
               sample_count: 116
               value: 4.4459861093148439e-01
               norm_class_idx: 1
               Tn: 0
               complexity: 0
               alpha: 0.
               node_risk: 0.
               tree_risk: 0.
               tree_error: 0.
      -
         best_tree_idx: -1
         nodes:
            -
               depth: 0
               sample_count: 348
               value: -4.4313622537892755e-01
               norm_class_idx: 0
               Tn: 0
               complexity: 0
               alpha: 0.
               node_risk: 0.
               tree_risk: 0.
               tree_error: 0.
               splits:
                  - { var:0, quality:5.9794235229492188e-01,
                      le:1.0335314273834229e-01 }
                  - { var:2, quality:4.5881614089012146e-01,
                      le:6.8013608455657959e-02 }
                  - { var:4, quality:4.5702764391899109e-01,
                      gt:1.7190349102020264e-01 }
                  - { var:19, quality:4.5678558945655823e-01,
                      gt:9.6750819683074951e-01 }
                  - { var:8, quality:4.5650088787078857e-01,
                      gt:1.3518394529819489e-01 }
                  - { var:24, quality:4.5545467734336853e-01,
                      gt:9.1849595308303833e-01 }
                  - { var:9, quality:4.5400738716125488e-01,
                      gt:1.7815718054771423e-01 }
                  - { var:32, quality:4.5340177416801453e-01,
                      le:2.0639639347791672e-02 }
                  - { var:31, quality:4.5286235213279724e-01,
                      le:3.1854324042797089e-02 }
                  - { var:17, quality:4.5263046026229858e-01,
                      le:1.9088447093963623e-01 }
                  - { var:33, quality:4.5226699113845825e-01,
                      le:1.7481684684753418e-02 }
                  - { var:7, quality:4.5129707455635071e-01,
                      gt:2.4284479022026062e-01 }
                  - { var:11, quality:4.5118719339370728e-01,
                      gt:1.7423307895660400e-01 }
                  - { var:34, quality:4.5114269852638245e-01,
                      gt:7.0127046108245850e-01 }
                  - { var:21, quality:4.5108115673065186e-01,
                      le:2.6135405898094177e-01 }
                  - { var:18, quality:4.5103755593299866e-01,
                      gt:9.8029416799545288e-01 }
                  - { var:20, quality:4.5063504576683044e-01,
                      le:2.5599199533462524e-01 }
                  - { var:22, quality:4.5060545206069946e-01,
                      gt:9.3736481666564941e-01 }
                  - { var:15, quality:4.4953685998916626e-01,
                      le:2.9012534022331238e-01 }
                  - { var:1, quality:4.4916269183158875e-01,
                      le:3.7413470447063446e-02 }
                  - { var:5, quality:4.4902575016021729e-01,
                      le:2.3092750459909439e-02 }
                  - { var:14, quality:4.4898414611816406e-01,
                      le:1.1743821203708649e-01 }
                  - { var:16, quality:4.4865101575851440e-01,
                      le:1.9546154141426086e-01 }
                  - { var:23, quality:4.4822534918785095e-01,
                      le:2.2147010266780853e-01 }
                  - { var:6, quality:4.4801804423332214e-01,
                      gt:2.3049122095108032e-01 }
                  - { var:39, quality:4.4799456000328064e-01,
                      le:1.0397050064057112e-03 }
                  - { var:10, quality:4.4761329889297485e-01,
                      gt:1.9217836856842041e-01 }
                  - { var:38, quality:4.4756773114204407e-01,
                      le:1.0794245463330299e-04 }
                  - { var:30, quality:4.4730752706527710e-01,
                      le:7.1604721597395837e-05 }
                  - { var:3, quality:4.4723743200302124e-01,
                      gt:1.9216546416282654e-01 }
                  - { var:37, quality:4.4622552394866943e-01,
                      le:3.5005414392799139e-03 }
                  - { var:35, quality:4.4602906703948975e-01,
                      le:1.6249939799308777e-01 }
            -
               depth: 1
               sample_count: 124
               value: -4.4313622537892755e-01
               norm_class_idx: 0
               Tn: 0
               complexity: 0
               alpha: 0.
               node_risk: 0.
               tree_risk: 0.
               tree_error: 0.
            -
               depth: 1
               sample_count: 224
               value: 4.4313622537892755e-01
               norm_class_idx: 1
               Tn: 0
               complexity: 0
               alpha: 0.
               node_risk: 0.
               tree_risk: 0.
               tree_error: 0.
      -
         best_tree_idx: -1
         nodes:
            -
               depth: 0
               sample_count: 321
               value: -5.1653344739445217e-01
               norm_class_idx: 0
               Tn: 0
               complexity: 0
               alpha: 0.
               node_risk: 0.
               tree_risk: 0.
               tree_error: 0.
               splits:
                  - { var:8, quality:5.9359419345855713e-01,
                      le:9.3200460076332092e-02 }
                  - { var:3, quality:5.0983911752700806e-01,
                      le:1.7188245058059692e-01 }
                  - { var:35, quality:5.0665289163589478e-01,
                      le:7.6671189069747925e-01 }
                  - { var:39, quality:5.0621461868286133e-01,
                      le:4.2253071442246437e-03 }
                  - { var:38, quality:5.0621461868286133e-01,
                      le:4.8432894982397556e-03 }
                  - { var:37, quality:5.0621461868286133e-01,
                      le:6.2509357929229736e-01 }
                  - { var:36, quality:5.0621461868286133e-01,
                      le:4.3081015348434448e-01 }
                  - { var:33, quality:5.0621461868286133e-01,
                      le:3.3806335926055908e-01 }
                  - { var:32, quality:5.0621461868286133e-01,
                      le:2.5057542324066162e-01 }
                  - { var:30, quality:5.0621461868286133e-01,
                      le:1.3177134096622467e-01 }
                  - { var:31, quality:5.0381433963775635e-01,
                      le:2.4230843782424927e-01 }
                  - { var:23, quality:5.0364714860916138e-01,
                      gt:2.2794467210769653e-01 }
                  - { var:14, quality:5.0294679403305054e-01,
                      gt:1.1973799765110016e-01 }
                  - { var:18, quality:5.0149905681610107e-01,
                      le:9.8029416799545288e-01 }
                  - { var:22, quality:5.0113487243652344e-01,
                      gt:2.3778700828552246e-01 }
                  - { var:24, quality:5.0072622299194336e-01,
                      gt:2.3978593945503235e-01 }
                  - { var:4, quality:5.0014662742614746e-01,
                      gt:4.8721849918365479e-02 }
                  - { var:19, quality:4.9981117248535156e-01,
                      gt:2.4287448823451996e-01 }
                  - { var:20, quality:4.9938541650772095e-01,
                      gt:2.7987769246101379e-01 }
                  - { var:2, quality:4.9912127852439880e-01,
                      gt:4.4722445309162140e-02 }
                  - { var:17, quality:4.9738144874572754e-01,
                      gt:2.3583631217479706e-01 }
                  - { var:15, quality:4.9725851416587830e-01,
                      gt:2.9333132505416870e-01 }
                  - { var:6, quality:4.9694100022315979e-01,
                      gt:9.3370676040649414e-03 }
                  - { var:10, quality:4.9562171101570129e-01,
                      le:2.1399331092834473e-01 }
                  - { var:0, quality:4.9551382660865784e-01,
                      gt:3.9759412407875061e-02 }
                  - { var:5, quality:4.9503183364868164e-01,
                      gt:1.3017965480685234e-02 }
                  - { var:34, quality:4.9502727389335632e-01,
                      le:7.5806272029876709e-01 }
                  - { var:1, quality:4.9479606747627258e-01,
                      gt:1.3680621050298214e-02 }
            -
               depth: 1
               sample_count: 276
               value: -5.1653344739445217e-01
               norm_class_idx: 0
               Tn: 0
               complexity: 0
               alpha: 0.
               node_risk: 0.
               tree_risk: 0.
               tree_error: 0.
            -
               depth: 1
               sample_count: 45
               value: 5.1653344739445217e-01
               norm_class_idx: 1
               Tn: 0
               complexity: 0
               alpha: 0.
               node_risk: 0.
               tree_risk: 0.
               tree_error: 0.
      -
         best_tree_idx: -1
         nodes:
            -
               depth: 0
               sample_count: 297
               value: 4.9787483047180026e-01
               norm_class_idx: 1
               Tn: 0
               complexity: 0
               alpha: 0.
               node_risk: 0.
               tree_risk: 0.
               tree_error: 0.
               splits:
                  - { var:35, quality:5.9035319089889526e-01,
                      le:4.5423609018325806e-01 }
                  - { var:34, quality:5.4938662052154541e-01,
                      le:4.7438040375709534e-01 }
                  - { var:37, quality:5.0611698627471924e-01,
                      le:1.1891923844814301e-01 }
                  - { var:33, quality:4.9944740533828735e-01,
                      le:9.3480855226516724e-02 }
                  - { var:31, quality:4.8915669322013855e-01,
                      le:9.9619120359420776e-02 }
                  - { var:36, quality:4.8873963952064514e-01,
                      le:1.3663855195045471e-01 }
                  - { var:32, quality:4.8696160316467285e-01,
                      le:7.3300018906593323e-02 }
                  - { var:16, quality:4.7706654667854309e-01,
                      le:8.1303715705871582e-01 }
                  - { var:15, quality:4.6393162012100220e-01,
                      le:8.8069331645965576e-01 }
                  - { var:21, quality:4.6326202154159546e-01,
                      le:7.9992848634719849e-01 }
                  - { var:38, quality:4.6163514256477356e-01,
                      le:2.3057567887008190e-03 }
                  - { var:39, quality:4.6072778105735779e-01,
                      le:2.6004186365753412e-03 }
                  - { var:20, quality:4.5960098505020142e-01,
                      le:8.3367758989334106e-01 }
                  - { var:13, quality:4.5877170562744141e-01,
                      gt:6.2216079235076904e-01 }
                  - { var:23, quality:4.5282459259033203e-01,
                      gt:6.2362456321716309e-01 }
                  - { var:30, quality:4.5246979594230652e-01,
                      le:4.0054425597190857e-02 }
                  - { var:12, quality:4.5141249895095825e-01,
                      le:1.6783770173788071e-02 }
                  - { var:18, quality:4.5061987638473511e-01,
                      gt:6.6920083761215210e-01 }
                  - { var:14, quality:4.5016813278198242e-01,
                      gt:7.8229594230651855e-01 }
                  - { var:24, quality:4.4978061318397522e-01,
                      gt:5.3112393617630005e-01 }
                  - { var:19, quality:4.4679054617881775e-01,
                      gt:6.1609864234924316e-01 }
                  - { var:22, quality:4.4531250000000000e-01,
                      gt:5.8975809812545776e-01 }
                  - { var:17, quality:4.3986940383911133e-01,
                      le:8.8063800334930420e-01 }
                  - { var:0, quality:4.3743598461151123e-01,
                      le:2.7866339683532715e-01 }
                  - { var:8, quality:4.2860099673271179e-01,
                      le:1.8685007095336914e-01 }
                  - { var:26, quality:4.2662623524665833e-01,
                      le:9.4999998807907104e-01 }
                  - { var:4, quality:4.2569762468338013e-01,
                      gt:3.1760245561599731e-02 }
                  - { var:7, quality:4.2546814680099487e-01,
                      le:2.9084795713424683e-01 }
                  - { var:1, quality:4.2492002248764038e-01,
                      le:1.8398401141166687e-01 }
                  - { var:5, quality:4.2417410016059875e-01,
                      gt:1.7725422978401184e-02 }
                  - { var:11, quality:4.2394122481346130e-01,
                      le:2.3035764694213867e-01 }
            -
               depth: 1
               sample_count: 203
               value: 4.9787483047180026e-01
               norm_class_idx: 1
               Tn: 0
               complexity: 0
               alpha: 0.
               node_risk: 0.
               tree_risk: 0.
               tree_error: 0.
            -
               depth: 1
               sample_count: 94
               value: -4.9787483047180026e-01
               norm_class_idx: 0
               Tn: 0
               complexity: 0
               alpha: 0.
               node_risk: 0.
               tree_risk: 0.
               tree_error: 0.
      -
         best_tree_idx: -1
         nodes:
            -
               depth: 0
               sample_count: 293
               value: -3.8115918289894857e-01
               norm_class_idx: 0
               Tn: 0
               complexity: 0
               alpha: 0.
               node_risk: 0.
               tree_risk: 0.
               tree_error: 0.
               splits:
                  - { var:36, quality:5.8506739139556885e-01,
                      le:5.9037357568740845e-02 }
                  - { var:34, quality:5.2897459268569946e-01,
                      le:3.2647669315338135e-01 }
                  - { var:37, quality:5.2795946598052979e-01,
                      le:5.3027473390102386e-02 }
                  - { var:35, quality:5.0964897871017456e-01,
                      le:2.9999667406082153e-01 }
                  - { var:31, quality:4.9774944782257080e-01,
                      le:6.4151376485824585e-02 }
                  - { var:32, quality:4.8277148604393005e-01,
                      le:4.0050625801086426e-02 }
                  - { var:38, quality:4.5828366279602051e-01,
                      le:5.9639767277985811e-04 }
                  - { var:39, quality:4.5388239622116089e-01,
                      le:6.2170589808374643e-04 }
                  - { var:33, quality:4.4959276914596558e-01,
                      le:3.6717981100082397e-02 }
                  - { var:30, quality:4.4669491052627563e-01,
                      le:2.9445863328874111e-03 }
                  - { var:9, quality:4.2680540680885315e-01,
                      le:3.8786500692367554e-02 }
                  - { var:10, quality:4.2621767520904541e-01,
                      le:1.8087700009346008e-02 }
                  - { var:3, quality:4.2396682500839233e-01,
                      le:2.1209079772233963e-02 }
                  - { var:6, quality:4.2372256517410278e-01,
                      le:2.4038221687078476e-02 }
                  - { var:2, quality:4.2365223169326782e-01,
                      le:6.2630966305732727e-02 }
                  - { var:1, quality:4.2230114340782166e-01,
                      le:3.0475988984107971e-02 }
                  - { var:28, quality:4.1797772049903870e-01,
                      gt:9.4999998807907104e-01 }
                  - { var:5, quality:4.1678133606910706e-01,
                      le:2.8761565685272217e-02 }
                  - { var:7, quality:4.1639736294746399e-01,
                      le:1.8409892916679382e-02 }
                  - { var:8, quality:4.1639193892478943e-01,
                      gt:1.2077702581882477e-01 }
                  - { var:0, quality:4.1462376713752747e-01,
                      le:5.3775049746036530e-02 }
                  - { var:11, quality:4.1282197833061218e-01,
                      le:1.4203664846718311e-02 }
                  - { var:4, quality:4.1108602285385132e-01,
                      gt:2.7651593089103699e-01 }
                  - { var:19, quality:4.1077473759651184e-01,
                      gt:9.9577820301055908e-01 }
                  - { var:18, quality:4.0881848335266113e-01,
                      gt:9.8337101936340332e-01 }
            -
               depth: 1
               sample_count: 105
               value: -3.8115918289894857e-01
               norm_class_idx: 0
               Tn: 0
               complexity: 0
               alpha: 0.
               node_risk: 0.
               tree_risk: 0.
               tree_error: 0.
            -
               depth: 1
               sample_count: 188
               value: 3.8115918289894857e-01
               norm_class_idx: 1
               Tn: 0
               complexity: 0
               alpha: 0.
               node_risk: 0.
               tree_risk: 0.
               tree_error: 0.
      -
         best_tree_idx: -1
         nodes:
            -
               depth: 0
               sample_count: 302
               value: -5.9124900272739800e-01
               norm_class_idx: 0
               Tn: 0
               complexity: 0
               alpha: 0.
               node_risk: 0.
               tree_risk: 0.
               tree_error: 0.
               splits:
                  - { var:2, quality:5.9806799888610840e-01,
                      le:1.7520204186439514e-01 }
                  - { var:3, quality:5.0607931613922119e-01,
                      le:1.8024510145187378e-01 }
                  - { var:18, quality:5.0484889745712280e-01,
                      gt:3.1810596585273743e-02 }
                  - { var:5, quality:5.0474601984024048e-01,
                      gt:2.3811463266611099e-02 }
                  - { var:14, quality:5.0374007225036621e-01,
                      gt:7.8948371112346649e-02 }
            -
               depth: 1
               sample_count: 269
               value: -5.9124900272739800e-01
               norm_class_idx: 0
               Tn: 0
               complexity: 0
               alpha: 0.
               node_risk: 0.
               tree_risk: 0.
               tree_error: 0.
            -
               depth: 1
               sample_count: 33
               value: 5.9124900272739800e-01
               norm_class_idx: 1
               Tn: 0
               complexity: 0
               alpha: 0.
               node_risk: 0.
               tree_risk: 0.
               tree_error: 0.
      -
         best_tree_idx: -1
         nodes:
            -
               depth: 0
               sample_count: 286
               value: 5.8468039123051041e-01
               norm_class_idx: 1
               Tn: 0
               complexity: 0
               alpha: 0.
               node_risk: 0.
               tree_risk: 0.
               tree_error: 0.
               splits:
                  - { var:16, quality:6.0037183761596680e-01,
                      le:6.8630206584930420e-01 }
                  - { var:21, quality:5.5544370412826538e-01,
                      le:6.9037276506423950e-01 }
                  - { var:20, quality:5.4397511482238770e-01,
                      le:7.2431421279907227e-01 }
                  - { var:22, quality:5.3885054588317871e-01,
                      le:7.5328093767166138e-01 }
                  - { var:17, quality:5.3561097383499146e-01,
                      le:7.2006177902221680e-01 }
                  - { var:24, quality:5.1625275611877441e-01,
                      le:7.6125133037567139e-01 }
                  - { var:13, quality:4.9819040298461914e-01,
                      le:6.9127619266510010e-01 }
                  - { var:15, quality:4.9805018305778503e-01,
                      le:6.5019792318344116e-01 }
                  - { var:23, quality:4.9795544147491455e-01,
                      le:7.0808988809585571e-01 }
                  - { var:18, quality:4.9743583798408508e-01,
                      le:7.8647923469543457e-01 }
                  - { var:19, quality:4.9715507030487061e-01,
                      le:6.8552863597869873e-01 }
                  - { var:12, quality:4.8551607131958008e-01,
                      gt:4.7832228243350983e-02 }
                  - { var:38, quality:4.7824212908744812e-01,
                      gt:2.2244350984692574e-03 }
                  - { var:30, quality:4.7651320695877075e-01,
                      gt:2.7676314115524292e-02 }
                  - { var:14, quality:4.7026342153549194e-01,
                      le:6.7469739913940430e-01 }
                  - { var:39, quality:4.6942681074142456e-01,
                      gt:2.8574680909514427e-03 }
                  - { var:35, quality:4.6582511067390442e-01,
                      gt:7.6671189069747925e-01 }
                  - { var:37, quality:4.6536463499069214e-01,
                      gt:6.2509357929229736e-01 }
                  - { var:36, quality:4.6536463499069214e-01,
                      gt:4.3081015348434448e-01 }
                  - { var:33, quality:4.6536463499069214e-01,
                      gt:3.3806335926055908e-01 }
                  - { var:32, quality:4.6536463499069214e-01,
                      gt:2.5057542324066162e-01 }
                  - { var:31, quality:4.6385991573333740e-01,
                      gt:2.4230843782424927e-01 }
                  - { var:1, quality:4.6150660514831543e-01,
                      gt:1.8282970786094666e-01 }
                  - { var:0, quality:4.5831900835037231e-01,
                      le:8.1616133451461792e-02 }
                  - { var:3, quality:4.5616316795349121e-01,
                      gt:1.7990878224372864e-01 }
                  - { var:7, quality:4.5460554957389832e-01,
                      gt:2.2343349456787109e-01 }
                  - { var:8, quality:4.5443633198738098e-01,
                      gt:1.8685007095336914e-01 }
                  - { var:5, quality:4.5440760254859924e-01,
                      le:2.4663262069225311e-02 }
                  - { var:2, quality:4.5305496454238892e-01,
                      gt:2.9897090792655945e-01 }
                  - { var:10, quality:4.5217159390449524e-01,
                      le:1.2136078439652920e-02 }
                  - { var:6, quality:4.5204856991767883e-01,
                      gt:2.4727886915206909e-01 }
                  - { var:34, quality:4.5196017622947693e-01,
                      le:1.9160489737987518e-01 }
                  - { var:11, quality:4.5167803764343262e-01,
                      gt:1.8691125512123108e-01 }
                  - { var:4, quality:4.5159712433815002e-01,
                      le:2.3631297051906586e-02 }
            -
               depth: 1
               sample_count: 120
               value: -5.8468039123051041e-01
               norm_class_idx: 0
               Tn: 0
               complexity: 0
               alpha: 0.
               node_risk: 0.
               tree_risk: 0.
               tree_error: 0.
            -
               depth: 1
               sample_count: 166
               value: 5.8468039123051041e-01
               norm_class_idx: 1
               Tn: 0
               complexity: 0
               alpha: 0.
               node_risk: 0.
               tree_risk: 0.
               tree_error: 0.
      -
         best_tree_idx: -1
         nodes:
            -
               depth: 0
               sample_count: 273
               value: -3.7445052539832530e-01
               norm_class_idx: 0
               Tn: 0
               complexity: 0
               alpha: 0.
               node_risk: 0.
               tree_risk: 0.
               tree_error: 0.
               splits:
                  - { var:39, quality:5.8266055583953857e-01,
                      le:1.3144573895260692e-03 }
                  - { var:30, quality:5.4090332984924316e-01,
                      le:1.1534458026289940e-02 }
                  - { var:38, quality:5.1071488857269287e-01,
                      le:1.1747491080313921e-03 }
                  - { var:37, quality:4.3119996786117554e-01,
                      le:5.8163084089756012e-02 }
                  - { var:31, quality:4.1684189438819885e-01,
                      le:7.0785626769065857e-02 }
                  - { var:35, quality:4.1233009099960327e-01,
                      le:3.1777435541152954e-01 }
                  - { var:13, quality:4.0556615591049194e-01,
                      gt:9.9735933542251587e-01 }
                  - { var:34, quality:4.0519404411315918e-01,
                      le:3.0017316341400146e-01 }
                  - { var:36, quality:3.9964926242828369e-01,
                      le:5.2057202905416489e-02 }
                  - { var:24, quality:3.9428925514221191e-01,
                      gt:8.1321787834167480e-01 }
                  - { var:33, quality:3.9364361763000488e-01,
                      le:4.0795911103487015e-02 }
                  - { var:9, quality:3.9189794659614563e-01,
                      le:2.9133519157767296e-02 }
                  - { var:18, quality:3.8695254921913147e-01,
                      gt:8.5331779718399048e-01 }
                  - { var:2, quality:3.8563543558120728e-01,
                      le:6.8332031369209290e-02 }
                  - { var:3, quality:3.8438126444816589e-01,
                      le:2.4525083601474762e-02 }
                  - { var:1, quality:3.8286188244819641e-01,
                      le:3.9197772741317749e-02 }
                  - { var:0, quality:3.8080608844757080e-01,
                      le:7.2091527283191681e-02 }
                  - { var:6, quality:3.7992730736732483e-01,
                      le:2.4481225758790970e-02 }
                  - { var:19, quality:3.7983766198158264e-01,
                      gt:8.4499484300613403e-01 }
                  - { var:8, quality:3.7977886199951172e-01,
                      gt:1.1304366588592529e-01 }
                  - { var:22, quality:3.7976479530334473e-01,
                      gt:8.1172537803649902e-01 }
                  - { var:23, quality:3.7955710291862488e-01,
                      gt:8.2458746433258057e-01 }
                  - { var:11, quality:3.7719830870628357e-01,
                      gt:1.1872141063213348e-01 }
                  - { var:32, quality:3.7429708242416382e-01,
                      le:5.1855966448783875e-02 }
                  - { var:7, quality:3.7188005447387695e-01,
                      le:1.8409892916679382e-02 }
                  - { var:5, quality:3.7120726704597473e-01,
                      gt:1.9237300753593445e-01 }
                  - { var:4, quality:3.7092188000679016e-01,
                      le:4.4061720371246338e-02 }
                  - { var:21, quality:3.6938261985778809e-01,
                      gt:7.8485435247421265e-01 }
                  - { var:10, quality:3.6904901266098022e-01,
                      gt:1.0468080639839172e-01 }
                  - { var:28, quality:3.6671316623687744e-01,
                      gt:9.4999998807907104e-01 }
                  - { var:15, quality:3.6543583869934082e-01,
                      gt:7.7440977096557617e-01 }
                  - { var:17, quality:3.6469557881355286e-01,
                      gt:7.7823150157928467e-01 }
                  - { var:25, quality:3.6269459128379822e-01,
                      gt:9.4999998807907104e-01 }
                  - { var:20, quality:3.6186251044273376e-01,
                      gt:9.3159699440002441e-01 }
                  - { var:27, quality:3.6073213815689087e-01,
                      gt:6.4999997615814209e-01 }
            -
               depth: 1
               sample_count: 113
               value: -3.7445052539832530e-01
               norm_class_idx: 0
               Tn: 0
               complexity: 0
               alpha: 0.
               node_risk: 0.
               tree_risk: 0.
               tree_error: 0.
            -
               depth: 1
               sample_count: 160
               value: 3.7445052539832530e-01
               norm_class_idx: 1
               Tn: 0
               complexity: 0
               alpha: 0.
               node_risk: 0.
               tree_risk: 0.
               tree_error: 0.
      -
         best_tree_idx: -1
         nodes:
            -
               depth: 0
               sample_count: 282
               value: -5.5948594121330975e-01
               norm_class_idx: 0
               Tn: 0
               complexity: 0
               alpha: 0.
               node_risk: 0.
               tree_risk: 0.
               tree_error: 0.
               splits:
                  - { var:17, quality:5.8580160140991211e-01,
                      le:8.4386634826660156e-01 }
                  - { var:21, quality:5.5926412343978882e-01,
                      le:8.2517755031585693e-01 }
                  - { var:20, quality:5.4920971393585205e-01,
                      le:8.9302468299865723e-01 }
                  - { var:22, quality:5.4689592123031616e-01,
                      le:8.5399031639099121e-01 }
                  - { var:6, quality:5.4317927360534668e-01,
                      le:2.1624407172203064e-01 }
                  - { var:8, quality:5.4164534807205200e-01,
                      gt:1.4436738565564156e-02 }
                  - { var:24, quality:5.3981447219848633e-01,
                      le:9.1449010372161865e-01 }
                  - { var:31, quality:5.3779464960098267e-01,
                      le:2.6125013828277588e-01 }
                  - { var:7, quality:5.3779464960098267e-01,
                      le:2.9084795713424683e-01 }
                  - { var:11, quality:5.3651773929595947e-01,
                      le:1.7741690576076508e-01 }
            -
               depth: 1
               sample_count: 264
               value: -5.5948594121330975e-01
               norm_class_idx: 0
               Tn: 0
               complexity: 0
               alpha: 0.
               node_risk: 0.
               tree_risk: 0.
               tree_error: 0.
            -
               depth: 1
               sample_count: 18
               value: 5.5948594121330975e-01
               norm_class_idx: 1
               Tn: 0
               complexity: 0
               alpha: 0.
               node_risk: 0.
               tree_risk: 0.
               tree_error: 0.
      -
         best_tree_idx: -1
         nodes:
            -
               depth: 0
               sample_count: 263
               value: 4.3127170263793574e-01
               norm_class_idx: 1
               Tn: 0
               complexity: 0
               alpha: 0.
               node_risk: 0.
               tree_risk: 0.
               tree_error: 0.
               splits:
                  - { var:38, quality:6.0124737024307251e-01,
                      le:8.4946223068982363e-04 }
                  - { var:39, quality:5.9026747941970825e-01,
                      le:8.1846950342878699e-04 }
                  - { var:30, quality:5.8746731281280518e-01,
                      le:5.1258560270071030e-03 }
                  - { var:3, quality:5.4197084903717041e-01,
                      le:1.8562659621238708e-02 }
                  - { var:8, quality:5.4125756025314331e-01,
                      le:1.4436738565564156e-02 }
                  - { var:34, quality:5.4030233621597290e-01,
                      le:1.8940308690071106e-01 }
                  - { var:1, quality:5.3936791419982910e-01,
                      le:2.7031809091567993e-02 }
                  - { var:6, quality:5.3854244947433472e-01,
                      gt:2.1624407172203064e-01 }
                  - { var:35, quality:5.3846281766891479e-01,
                      le:1.6715393960475922e-01 }
                  - { var:9, quality:5.3818976879119873e-01,
                      le:2.0172942429780960e-02 }
                  - { var:2, quality:5.3759038448333740e-01,
                      le:2.0152471959590912e-02 }
                  - { var:0, quality:5.3732991218566895e-01,
                      le:5.6679461151361465e-02 }
                  - { var:37, quality:5.3701674938201904e-01,
                      le:9.6390992403030396e-03 }
                  - { var:36, quality:5.3672039508819580e-01,
                      le:9.5101622864603996e-03 }
                  - { var:28, quality:5.3571420907974243e-01,
                      gt:9.4999998807907104e-01 }
                  - { var:24, quality:5.3550368547439575e-01,
                      gt:9.3311941623687744e-01 }
                  - { var:10, quality:5.3528046607971191e-01,
                      gt:2.1399331092834473e-01 }
                  - { var:11, quality:5.3527337312698364e-01,
                      le:1.4203664846718311e-02 }
                  - { var:31, quality:5.3523248434066772e-01,
                      gt:2.6125013828277588e-01 }
                  - { var:21, quality:5.3523248434066772e-01,
                      gt:9.4784784317016602e-01 }
                  - { var:17, quality:5.3523248434066772e-01,
                      gt:9.6539074182510376e-01 }
                  - { var:7, quality:5.3523248434066772e-01,
                      gt:2.9084795713424683e-01 }
                  - { var:22, quality:5.3498220443725586e-01,
                      gt:9.2217618227005005e-01 }
                  - { var:20, quality:5.3452336788177490e-01,
                      gt:9.3159699440002441e-01 }
                  - { var:19, quality:5.3435659408569336e-01,
                      gt:9.9577820301055908e-01 }
                  - { var:5, quality:5.3432381153106689e-01,
                      gt:2.8817853331565857e-01 }
                  - { var:4, quality:5.3335428237915039e-01,
                      gt:3.2789087295532227e-01 }
            -
               depth: 1
               sample_count: 58
               value: -4.3127170263793574e-01
               norm_class_idx: 0
               Tn: 0
               complexity: 0
               alpha: 0.
               node_risk: 0.
               tree_risk: 0.
               tree_error: 0.
            -
               depth: 1
               sample_count: 205
               value: 4.3127170263793574e-01
               norm_class_idx: 1
               Tn: 0
               complexity: 0
               alpha: 0.
               node_risk: 0.
               tree_risk: 0.
               tree_error: 0.
      -
         best_tree_idx: -1
         nodes:
            -
               depth: 0
               sample_count: 278
               value: -4.7847452725761036e-01
               norm_class_idx: 0
               Tn: 0
               complexity: 0
               alpha: 0.
               node_risk: 0.
               tree_risk: 0.
               tree_error: 0.
               splits:
                  - { var:38, quality:5.8491516113281250e-01,
                      le:1.4412215678021312e-03 }
                  - { var:39, quality:5.3542983531951904e-01,
                      le:1.5168171375989914e-03 }
                  - { var:30, quality:5.2258586883544922e-01,
                      le:1.5650715678930283e-02 }
                  - { var:13, quality:4.0573108196258545e-01,
                      gt:9.9056804180145264e-01 }
                  - { var:37, quality:3.9863756299018860e-01,
                      le:8.3233803510665894e-02 }
                  - { var:34, quality:3.9851275086402893e-01,
                      le:4.3895119428634644e-01 }
                  - { var:22, quality:3.9570394158363342e-01,
                      gt:7.6354479789733887e-01 }
                  - { var:35, quality:3.8960981369018555e-01,
                      le:3.9546397328376770e-01 }
                  - { var:24, quality:3.8880899548530579e-01,
                      gt:7.7296763658523560e-01 }
                  - { var:23, quality:3.8822880387306213e-01,
                      gt:7.9373717308044434e-01 }
                  - { var:17, quality:3.8604640960693359e-01,
                      gt:7.6227998733520508e-01 }
                  - { var:31, quality:3.8249433040618896e-01,
                      le:6.6081903874874115e-02 }
                  - { var:16, quality:3.8221776485443115e-01,
                      gt:6.8734073638916016e-01 }
                  - { var:21, quality:3.8099545240402222e-01,
                      gt:7.0905935764312744e-01 }
                  - { var:18, quality:3.7568324804306030e-01,
                      gt:8.1924974918365479e-01 }
                  - { var:36, quality:3.7538823485374451e-01,
                      le:8.8769793510437012e-02 }
                  - { var:19, quality:3.7507116794586182e-01,
                      gt:7.9396963119506836e-01 }
                  - { var:20, quality:3.6914449930191040e-01,
                      gt:7.2431421279907227e-01 }
                  - { var:1, quality:3.6625096201896667e-01,
                      le:8.1141829490661621e-02 }
                  - { var:2, quality:3.6445078253746033e-01,
                      le:7.1700721979141235e-02 }
                  - { var:33, quality:3.5738199949264526e-01,
                      le:7.1630224585533142e-02 }
                  - { var:32, quality:3.5610625147819519e-01,
                      le:5.1697030663490295e-02 }
                  - { var:5, quality:3.5572370886802673e-01,
                      gt:6.1705149710178375e-02 }
                  - { var:14, quality:3.5317829251289368e-01,
                      le:8.9846950769424438e-01 }
                  - { var:9, quality:3.5119184851646423e-01,
                      gt:1.1010742932558060e-01 }
                  - { var:11, quality:3.4844946861267090e-01,
                      le:3.4251227974891663e-02 }
                  - { var:0, quality:3.4536474943161011e-01,
                      gt:2.1319089829921722e-01 }
                  - { var:15, quality:3.4179896116256714e-01,
                      gt:7.7440977096557617e-01 }
                  - { var:27, quality:3.4100028872489929e-01,
                      gt:6.4999997615814209e-01 }
                  - { var:6, quality:3.3807134628295898e-01,
                      le:2.5276895612478256e-02 }
                  - { var:12, quality:3.3534881472587585e-01,
                      le:3.1495139002799988e-02 }
                  - { var:3, quality:3.3138725161552429e-01,
                      gt:5.2839130163192749e-02 }
                  - { var:26, quality:3.2985317707061768e-01,
                      le:2.5000000000000000e-01 }
                  - { var:4, quality:3.2872787117958069e-01,
                      gt:9.2791900038719177e-02 }
                  - { var:8, quality:3.2673963904380798e-01,
                      gt:5.4131798446178436e-02 }
                  - { var:10, quality:3.2302978634834290e-01,
                      le:5.1823828369379044e-02 }
                  - { var:7, quality:3.1797584891319275e-01,
                      le:8.2128770649433136e-02 }
                  - { var:28, quality:3.1058093905448914e-01,
                      le:1.5000000596046448e-01 }
                  - { var:25, quality:3.0932855606079102e-01,
                      gt:7.5000000000000000e-01 }
            -
               depth: 1
               sample_count: 128
               value: 4.7847452725761036e-01
               norm_class_idx: 1
               Tn: 0
               complexity: 0
               alpha: 0.
               node_risk: 0.
               tree_risk: 0.
               tree_error: 0.
            -
               depth: 1
               sample_count: 150
               value: -4.7847452725761036e-01
               norm_class_idx: 0
               Tn: 0
               complexity: 0
               alpha: 0.
               node_risk: 0.
               tree_risk: 0.
               tree_error: 0.
      -
         best_tree_idx: -1
         nodes:
            -
               depth: 0
               sample_count: 272
               value: -3.0469541785834203e-01
               norm_class_idx: 0
               Tn: 0
               complexity: 0
               alpha: 0.
               node_risk: 0.
               tree_risk: 0.
               tree_error: 0.
               splits:
                  - { var:16, quality:5.7107442617416382e-01,
                      le:6.9008719921112061e-01 }
                  - { var:21, quality:5.0536882877349854e-01,
                      le:7.0820403099060059e-01 }
                  - { var:22, quality:4.9583277106285095e-01,
                      le:7.6989430189132690e-01 }
                  - { var:20, quality:4.9295362830162048e-01,
                      le:7.4057555198669434e-01 }
                  - { var:17, quality:4.6780070662498474e-01,
                      le:7.3758029937744141e-01 }
                  - { var:24, quality:4.6255746483802795e-01,
                      le:7.8082031011581421e-01 }
                  - { var:13, quality:4.4618830084800720e-01,
                      le:8.7478190660476685e-01 }
                  - { var:15, quality:4.4437617063522339e-01,
                      le:6.9138681888580322e-01 }
                  - { var:23, quality:4.3027496337890625e-01,
                      le:7.8549158573150635e-01 }
                  - { var:19, quality:4.2295005917549133e-01,
                      le:6.8552863597869873e-01 }
                  - { var:18, quality:4.2238050699234009e-01,
                      le:7.8647685050964355e-01 }
                  - { var:12, quality:4.1349107027053833e-01,
                      gt:4.7832228243350983e-02 }
                  - { var:30, quality:4.0892913937568665e-01,
                      gt:7.6027706265449524e-02 }
                  - { var:38, quality:4.0870943665504456e-01,
                      gt:3.3983984030783176e-03 }
                  - { var:1, quality:4.0750339627265930e-01,
                      gt:1.8147189915180206e-01 }
                  - { var:39, quality:4.0650779008865356e-01,
                      gt:3.4721395932137966e-03 }
                  - { var:14, quality:4.0536275506019592e-01,
                      le:3.3875125646591187e-01 }
                  - { var:37, quality:4.0500777959823608e-01,
                      gt:6.2509357929229736e-01 }
                  - { var:36, quality:4.0500777959823608e-01,
                      gt:4.3081015348434448e-01 }
                  - { var:35, quality:4.0500777959823608e-01,
                      gt:7.9528319835662842e-01 }
                  - { var:33, quality:4.0500777959823608e-01,
                      gt:3.3806335926055908e-01 }
                  - { var:32, quality:4.0500777959823608e-01,
                      gt:2.5057542324066162e-01 }
                  - { var:31, quality:4.0250813961029053e-01,
                      gt:2.4230843782424927e-01 }
                  - { var:8, quality:3.9438483119010925e-01,
                      gt:1.0223244130611420e-01 }
                  - { var:2, quality:3.9191102981567383e-01,
                      gt:1.4913180470466614e-01 }
                  - { var:5, quality:3.9157298207283020e-01,
                      gt:1.5962389111518860e-01 }
                  - { var:11, quality:3.9147812128067017e-01,
                      le:1.5808034688234329e-02 }
                  - { var:6, quality:3.9017087221145630e-01,
                      le:3.7761110812425613e-02 }
                  - { var:4, quality:3.9012491703033447e-01,
                      le:4.6227477490901947e-02 }
                  - { var:3, quality:3.8933989405632019e-01,
                      gt:1.7990878224372864e-01 }
                  - { var:10, quality:3.8858252763748169e-01,
                      gt:8.4470860660076141e-02 }
                  - { var:34, quality:3.8611242175102234e-01,
                      le:1.9160489737987518e-01 }
                  - { var:26, quality:3.8490208983421326e-01,
                      gt:7.5000000000000000e-01 }
                  - { var:7, quality:3.8230267167091370e-01,
                      gt:2.2343349456787109e-01 }
                  - { var:0, quality:3.8111433386802673e-01,
                      le:3.3555001020431519e-02 }
            -
               depth: 1
               sample_count: 106
               value: 3.0469541785834203e-01
               norm_class_idx: 1
               Tn: 0
               complexity: 0
               alpha: 0.
               node_risk: 0.
               tree_risk: 0.
               tree_error: 0.
            -
               depth: 1
               sample_count: 166
               value: -3.0469541785834203e-01
               norm_class_idx: 0
               Tn: 0
               complexity: 0
               alpha: 0.
               node_risk: 0.
               tree_risk: 0.
               tree_error: 0.
      -
         best_tree_idx: -1
         nodes:
            -
               depth: 0
               sample_count: 281
               value: -3.0801761575184533e-01
               norm_class_idx: 0
               Tn: 0
               complexity: 0
               alpha: 0.
               node_risk: 0.
               tree_risk: 0.
               tree_error: 0.
               splits:
                  - { var:3, quality:5.6943839788436890e-01,
                      le:4.9004942178726196e-02 }
                  - { var:5, quality:3.8697573542594910e-01,
                      gt:1.0311260819435120e-01 }
                  - { var:9, quality:3.8083058595657349e-01,
                      gt:8.4442198276519775e-02 }
                  - { var:1, quality:3.8014903664588928e-01,
                      le:5.1031876355409622e-02 }
                  - { var:7, quality:3.7372031807899475e-01,
                      gt:1.0874960571527481e-01 }
                  - { var:11, quality:3.6708760261535645e-01,
                      gt:9.1990575194358826e-02 }
                  - { var:24, quality:3.6390215158462524e-01,
                      le:7.8853958845138550e-01 }
                  - { var:0, quality:3.6049640178680420e-01,
                      gt:2.1760992705821991e-01 }
                  - { var:15, quality:3.5467499494552612e-01,
                      le:6.9919681549072266e-01 }
                  - { var:8, quality:3.5459110140800476e-01,
                      le:4.8109058290719986e-02 }
                  - { var:4, quality:3.5401046276092529e-01,
                      gt:1.5322732925415039e-01 }
                  - { var:10, quality:3.4948468208312988e-01,
                      le:2.8479626402258873e-02 }
                  - { var:37, quality:3.4835460782051086e-01,
                      le:1.6063090413808823e-02 }
                  - { var:23, quality:3.4743556380271912e-01,
                      le:8.2091695070266724e-01 }
                  - { var:14, quality:3.4657159447669983e-01,
                      gt:9.9113214015960693e-01 }
                  - { var:19, quality:3.4620240330696106e-01,
                      le:7.7880859375000000e-01 }
                  - { var:34, quality:3.4531587362289429e-01,
                      gt:5.7508158683776855e-01 }
                  - { var:36, quality:3.4528693556785583e-01,
                      le:2.3137308657169342e-02 }
                  - { var:2, quality:3.4432530403137207e-01,
                      le:2.7855802327394485e-02 }
                  - { var:35, quality:3.4417030215263367e-01,
                      le:1.7809265851974487e-01 }
                  - { var:17, quality:3.4343010187149048e-01,
                      gt:8.6707305908203125e-01 }
                  - { var:16, quality:3.4290093183517456e-01,
                      gt:8.0614614486694336e-01 }
                  - { var:18, quality:3.4183096885681152e-01,
                      le:7.8534418344497681e-01 }
                  - { var:28, quality:3.4159409999847412e-01,
                      gt:8.5000002384185791e-01 }
                  - { var:21, quality:3.4098199009895325e-01,
                      gt:8.1962025165557861e-01 }
                  - { var:30, quality:3.4009796380996704e-01,
                      le:3.3381558023393154e-03 }
                  - { var:39, quality:3.4005033969879150e-01,
                      le:6.3285906799137592e-04 }
                  - { var:22, quality:3.3962643146514893e-01,
                      gt:8.3863842487335205e-01 }
                  - { var:6, quality:3.3916351199150085e-01,
                      le:9.3370676040649414e-03 }
                  - { var:31, quality:3.3904463052749634e-01,
                      gt:2.6125013828277588e-01 }
                  - { var:38, quality:3.3849093317985535e-01,
                      le:2.2064725635573268e-04 }
                  - { var:20, quality:3.3844441175460815e-01,
                      gt:9.3159699440002441e-01 }
            -
               depth: 1
               sample_count: 113
               value: -3.0801761575184533e-01
               norm_class_idx: 0
               Tn: 0
               complexity: 0
               alpha: 0.
               node_risk: 0.
               tree_risk: 0.
               tree_error: 0.
            -
               depth: 1
               sample_count: 168
               value: 3.0801761575184533e-01
               norm_class_idx: 1
               Tn: 0
               complexity: 0
               alpha: 0.
               node_risk: 0.
               tree_risk: 0.
               tree_error: 0.
      -
         best_tree_idx: -1
         nodes:
            -
               depth: 0
               sample_count: 292
               value: -4.2124309638072371e-01
               norm_class_idx: 0
               Tn: 0
               complexity: 0
               alpha: 0.
               node_risk: 0.
               tree_risk: 0.
               tree_error: 0.
               splits:
                  - { var:0, quality:5.6367892026901245e-01,
                      le:1.6456243395805359e-01 }
                  - { var:6, quality:3.9749747514724731e-01,
                      gt:2.8177317231893539e-02 }
                  - { var:9, quality:3.8551756739616394e-01,
                      gt:2.9094502329826355e-02 }
                  - { var:11, quality:3.8318365812301636e-01,
                      gt:1.6747731715440750e-02 }
                  - { var:24, quality:3.7826979160308838e-01,
                      le:8.8201075792312622e-01 }
                  - { var:18, quality:3.7719145417213440e-01,
                      le:9.1819036006927490e-01 }
                  - { var:5, quality:3.7264364957809448e-01,
                      le:1.8842434883117676e-01 }
                  - { var:23, quality:3.7248092889785767e-01,
                      le:9.2316782474517822e-01 }
                  - { var:26, quality:3.7236914038658142e-01,
                      le:7.5000000000000000e-01 }
                  - { var:35, quality:3.7148690223693848e-01,
                      gt:1.7809265851974487e-01 }
                  - { var:15, quality:3.7146598100662231e-01,
                      le:9.8545503616333008e-01 }
                  - { var:2, quality:3.7127453088760376e-01,
                      gt:2.7855802327394485e-02 }
                  - { var:3, quality:3.7086254358291626e-01,
                      gt:3.3028744161128998e-02 }
                  - { var:1, quality:3.7010723352432251e-01,
                      le:2.2705982625484467e-01 }
                  - { var:19, quality:3.6920437216758728e-01,
                      le:9.1360127925872803e-01 }
                  - { var:14, quality:3.6867219209671021e-01,
                      le:9.6294736862182617e-01 }
                  - { var:17, quality:3.6816552281379700e-01,
                      le:9.4782829284667969e-01 }
                  - { var:4, quality:3.6786615848541260e-01,
                      gt:2.3631297051906586e-02 }
                  - { var:22, quality:3.6754560470581055e-01,
                      le:8.5583436489105225e-01 }
                  - { var:20, quality:3.6746534705162048e-01,
                      le:9.1957581043243408e-01 }
                  - { var:10, quality:3.6733478307723999e-01,
                      gt:4.7648837789893150e-03 }
                  - { var:37, quality:3.6671185493469238e-01,
                      gt:1.6063090413808823e-02 }
                  - { var:38, quality:3.6666443943977356e-01,
                      gt:4.3291351175867021e-05 }
                  - { var:7, quality:3.6666443943977356e-01,
                      gt:6.8571474403142929e-03 }
                  - { var:33, quality:3.6663347482681274e-01,
                      gt:2.9212586581707001e-02 }
                  - { var:21, quality:3.6659833788871765e-01,
                      gt:1.1646243743598461e-02 }
                  - { var:8, quality:3.6658158898353577e-01,
                      gt:2.2321049124002457e-02 }
                  - { var:30, quality:3.6656826734542847e-01,
                      gt:5.6413025595247746e-04 }
                  - { var:31, quality:3.6656814813613892e-01,
                      gt:2.5822989642620087e-02 }
                  - { var:39, quality:3.6638066172599792e-01,
                      gt:1.3530506112147123e-04 }
            -
               depth: 1
               sample_count: 211
               value: -4.2124309638072371e-01
               norm_class_idx: 0
               Tn: 0
               complexity: 0
               alpha: 0.
               node_risk: 0.
               tree_risk: 0.
               tree_error: 0.
            -
               depth: 1
               sample_count: 81
               value: 4.2124309638072371e-01
               norm_class_idx: 1
               Tn: 0
               complexity: 0
               alpha: 0.
               node_risk: 0.
               tree_risk: 0.
               tree_error: 0.
      -
         best_tree_idx: -1
         nodes:
            -
               depth: 0
               sample_count: 281
               value: -4.0785069648424094e-01
               norm_class_idx: 0
               Tn: 0
               complexity: 0
               alpha: 0.
               node_risk: 0.
               tree_risk: 0.
               tree_error: 0.
               splits:
                  - { var:14, quality:5.8160418272018433e-01,
                      le:9.2913907766342163e-01 }
                  - { var:13, quality:4.3215513229370117e-01,
                      gt:9.9994707107543945e-01 }
                  - { var:19, quality:4.2692247033119202e-01,
                      le:8.5277557373046875e-01 }
                  - { var:23, quality:4.1606348752975464e-01,
                      le:8.5881400108337402e-01 }
                  - { var:18, quality:4.0859133005142212e-01,
                      le:8.6842519044876099e-01 }
                  - { var:24, quality:4.0014478564262390e-01,
                      le:8.3468359708786011e-01 }
                  - { var:22, quality:3.8459703326225281e-01,
                      le:8.1924331188201904e-01 }
                  - { var:5, quality:3.6845892667770386e-01,
                      le:7.5058780610561371e-02 }
                  - { var:15, quality:3.6600530147552490e-01,
                      le:7.9401868581771851e-01 }
                  - { var:28, quality:3.6384207010269165e-01,
                      gt:3.5000002384185791e-01 }
                  - { var:0, quality:3.6086538434028625e-01,
                      le:1.4769847691059113e-01 }
                  - { var:20, quality:3.5882356762886047e-01,
                      le:8.0341142416000366e-01 }
                  - { var:1, quality:3.5710522532463074e-01,
                      gt:9.3490630388259888e-02 }
                  - { var:31, quality:3.5650959610939026e-01,
                      le:6.5020889043807983e-02 }
                  - { var:35, quality:3.5594493150711060e-01,
                      le:3.0484169721603394e-01 }
                  - { var:4, quality:3.5220485925674438e-01,
                      le:9.6131280064582825e-02 }
                  - { var:8, quality:3.5179096460342407e-01,
                      gt:5.9562444686889648e-02 }
                  - { var:34, quality:3.4654664993286133e-01,
                      le:3.0017316341400146e-01 }
                  - { var:36, quality:3.4387475252151489e-01,
                      le:5.3872413933277130e-02 }
                  - { var:33, quality:3.4369987249374390e-01,
                      le:3.7351064383983612e-02 }
                  - { var:38, quality:3.4227365255355835e-01,
                      le:1.2569760438054800e-03 }
                  - { var:32, quality:3.4200128912925720e-01,
                      le:3.4714739769697189e-02 }
                  - { var:21, quality:3.4108746051788330e-01,
                      le:7.1874344348907471e-01 }
                  - { var:39, quality:3.3924257755279541e-01,
                      le:1.0357946157455444e-03 }
                  - { var:17, quality:3.3915823698043823e-01,
                      le:7.6290011405944824e-01 }
                  - { var:3, quality:3.3600366115570068e-01,
                      le:2.9471378773450851e-02 }
                  - { var:30, quality:3.3383795619010925e-01,
                      le:1.3255495578050613e-02 }
                  - { var:37, quality:3.3320581912994385e-01,
                      le:3.9511218667030334e-02 }
                  - { var:7, quality:3.3299168944358826e-01,
                      gt:8.2265183329582214e-02 }
                  - { var:10, quality:3.2891130447387695e-01,
                      le:2.1929178386926651e-02 }
                  - { var:12, quality:3.2889202237129211e-01,
                      gt:7.8296852111816406e-01 }
                  - { var:9, quality:3.2841578125953674e-01,
                      gt:7.7669732272624969e-02 }
                  - { var:6, quality:3.2494115829467773e-01,
                      gt:8.9245393872261047e-02 }
                  - { var:2, quality:3.2225808501243591e-01,
                      le:1.0640516877174377e-01 }
                  - { var:11, quality:3.2110604643821716e-01,
                      le:4.0771782398223877e-02 }
                  - { var:16, quality:3.2080250978469849e-01,
                      gt:6.5955811738967896e-01 }
                  - { var:26, quality:3.1425738334655762e-01,
                      le:6.4999997615814209e-01 }
                  - { var:25, quality:3.1105306744575500e-01,
                      gt:2.5000000000000000e-01 }
                  - { var:27, quality:3.0190911889076233e-01,
                      gt:3.5000002384185791e-01 }
                  - { var:29, quality:3.0164381861686707e-01,
                      le:4.4999998807907104e-01 }
            -
               depth: 1
               sample_count: 127
               value: 4.0785069648424094e-01
               norm_class_idx: 1
               Tn: 0
               complexity: 0
               alpha: 0.
               node_risk: 0.
               tree_risk: 0.
               tree_error: 0.
            -
               depth: 1
               sample_count: 154
               value: -4.0785069648424094e-01
               norm_class_idx: 0
               Tn: 0
               complexity: 0
               alpha: 0.
               node_risk: 0.
               tree_risk: 0.
               tree_error: 0.
      -
         best_tree_idx: -1
         nodes:
            -
               depth: 0
               sample_count: 285
               value: -4.4703226330680751e-01
               norm_class_idx: 0
               Tn: 0
               complexity: 0
               alpha: 0.
               node_risk: 0.
               tree_risk: 0.
               tree_error: 0.
               splits:
                  - { var:22, quality:5.6347167491912842e-01,
                      le:8.0222189426422119e-01 }
                  - { var:20, quality:5.2142578363418579e-01,
                      le:7.7665257453918457e-01 }
                  - { var:24, quality:5.1555883884429932e-01,
                      le:8.1983637809753418e-01 }
                  - { var:21, quality:4.7505053877830505e-01,
                      le:7.5677299499511719e-01 }
                  - { var:15, quality:4.7164681553840637e-01,
                      le:7.7578723430633545e-01 }
                  - { var:17, quality:4.6980127692222595e-01,
                      le:7.7634859085083008e-01 }
                  - { var:18, quality:4.6747440099716187e-01,
                      le:8.6669647693634033e-01 }
                  - { var:23, quality:4.6720778942108154e-01,
                      le:8.3978599309921265e-01 }
                  - { var:19, quality:4.6432942152023315e-01,
                      le:8.3249235153198242e-01 }
                  - { var:16, quality:4.4712996482849121e-01,
                      le:7.0618009567260742e-01 }
                  - { var:30, quality:3.9972224831581116e-01,
                      gt:1.0640765540301800e-02 }
                  - { var:39, quality:3.7109121680259705e-01,
                      gt:1.3505311217159033e-03 }
                  - { var:38, quality:3.6529672145843506e-01,
                      gt:1.2829264160245657e-03 }
                  - { var:14, quality:3.6307346820831299e-01,
                      le:8.7344831228256226e-01 }
                  - { var:3, quality:3.6227235198020935e-01,
                      le:5.4170366376638412e-02 }
                  - { var:0, quality:3.5705706477165222e-01,
                      gt:1.2616480886936188e-01 }
                  - { var:6, quality:3.4770292043685913e-01,
                      le:9.5984995365142822e-02 }
                  - { var:27, quality:3.4564900398254395e-01,
                      le:6.4999997615814209e-01 }
                  - { var:9, quality:3.4435021877288818e-01,
                      le:1.7544665932655334e-01 }
                  - { var:35, quality:3.4323760867118835e-01,
                      le:4.2439651489257812e-01 }
                  - { var:8, quality:3.4266164898872375e-01,
                      gt:2.7158597484230995e-02 }
                  - { var:13, quality:3.4118273854255676e-01,
                      le:9.8110240697860718e-01 }
                  - { var:7, quality:3.3824062347412109e-01,
                      gt:3.2357208430767059e-02 }
                  - { var:33, quality:3.3648467063903809e-01,
                      gt:4.0795911103487015e-02 }
                  - { var:29, quality:3.3484545350074768e-01,
                      le:4.4999998807907104e-01 }
                  - { var:32, quality:3.3480477333068848e-01,
                      gt:4.8881091177463531e-02 }
                  - { var:5, quality:3.3470132946968079e-01,
                      le:6.1705149710178375e-02 }
                  - { var:34, quality:3.3265542984008789e-01,
