%YAML:1.0
my_boost_tree: !!opencv-ml-boost-tree
   boosting_type: DiscreteAdaboost
   splitting_criteria: 3
   ntrees: 100
   weight_trimming_rate: 9.4999999999999996e-01
   is_classifier: 1
   var_all: 40
   var_count: 40
   ord_var_count: 40
   cat_var_count: 0
   training_params:
      use_surrogates: 1
      max_categories: 10
      max_depth: 1
      min_sample_count: 10
      cross_validation_folds: 0
      priors: !!opencv-matrix
         rows: 1
         cols: 2
         dt: d
         data: [ 1., 1. ]
   var_type: [ 0, 0, 0, 0, 0, 0, 0, 0, 0, 0, 0, 0, 0, 0, 0, 0, 0, 0, 0,
       0, 0, 0, 0, 0, 0, 0, 0, 0, 0, 0, 0, 0, 0, 0, 0, 0, 0, 0, 0, 0 ]
   cat_count: !!opencv-matrix
      rows: 1
      cols: 1
      dt: i
      data: [ 2 ]
   cat_map: !!opencv-matrix
      rows: 1
      cols: 2
      dt: i
      data: [ -1, 1 ]
   trees:
      -
         best_tree_idx: -1
         nodes:
            -
               depth: 0
               sample_count: 410
               value: -2.0685124711476459e+00
               norm_class_idx: 0
               Tn: 0
               complexity: 0
               alpha: 0.
               node_risk: 0.
               tree_risk: 0.
               tree_error: 0.
               splits:
                  - { var:15, quality:8.8780486583709717e-01,
                      le:1.6166144609451294e-01 }
                  - { var:24, quality:8.7048184871673584e-01,
                      le:1.4272378385066986e-01 }
                  - { var:19, quality:8.7048184871673584e-01,
                      le:1.0475553572177887e-01 }
                  - { var:20, quality:8.6615109443664551e-01,
                      le:8.4789752960205078e-02 }
                  - { var:23, quality:8.6398571729660034e-01,
                      le:4.9938365817070007e-02 }
                  - { var:22, quality:8.6398571729660034e-01,
                      le:7.0819169282913208e-02 }
                  - { var:21, quality:8.6398571729660034e-01,
                      le:4.4224254786968231e-02 }
                  - { var:17, quality:8.6398571729660034e-01,
                      le:1.0275583714246750e-02 }
            -
               depth: 1
               sample_count: 12
               value: 2.0685124711476459e+00
               norm_class_idx: 1
               Tn: 0
               complexity: 0
               alpha: 0.
               node_risk: 0.
               tree_risk: 0.
               tree_error: 0.
            -
               depth: 1
               sample_count: 398
               value: -2.0685124711476459e+00
               norm_class_idx: 0
               Tn: 0
               complexity: 0
               alpha: 0.
               node_risk: 0.
               tree_risk: 0.
               tree_error: 0.
      -
         best_tree_idx: -1
         nodes:
            -
               depth: 0
               sample_count: 410
               value: -9.0083176862818959e-01
               norm_class_idx: 0
               Tn: 0
               complexity: 0
               alpha: 0.
               node_risk: 0.
               tree_risk: 0.
               tree_error: 0.
               splits:
                  - { var:13, quality:7.1112042665481567e-01,
                      le:9.1610705852508545e-01 }
                  - { var:31, quality:6.0125011205673218e-01,
                      gt:1.0340906679630280e-01 }
                  - { var:16, quality:5.9645098447799683e-01,
                      le:5.8453631401062012e-01 }
                  - { var:17, quality:5.9173679351806641e-01,
                      le:6.4977025985717773e-01 }
                  - { var:21, quality:5.8978313207626343e-01,
                      le:6.1499530076980591e-01 }
                  - { var:36, quality:5.8765965700149536e-01,
                      gt:1.0959665477275848e-01 }
                  - { var:32, quality:5.7976019382476807e-01,
                      gt:6.5894566476345062e-02 }
                  - { var:35, quality:5.7878339290618896e-01,
                      gt:3.7390398979187012e-01 }
                  - { var:37, quality:5.7797646522521973e-01,
                      gt:1.0817380249500275e-01 }
                  - { var:20, quality:5.7716953754425049e-01,
                      le:6.8447184562683105e-01 }
                  - { var:34, quality:5.6536281108856201e-01,
                      gt:3.9378064870834351e-01 }
                  - { var:33, quality:5.5844014883041382e-01,
                      gt:6.9816246628761292e-02 }
                  - { var:22, quality:5.5576455593109131e-01,
                      le:7.3932021856307983e-01 }
                  - { var:38, quality:5.3435963392257690e-01,
                      gt:1.6658382955938578e-03 }
                  - { var:24, quality:5.1783871650695801e-01,
                      le:7.7135962247848511e-01 }
                  - { var:30, quality:5.1439863443374634e-01,
                      gt:6.4566470682621002e-03 }
                  - { var:39, quality:5.1189285516738892e-01,
                      gt:1.2412125943228602e-03 }
                  - { var:15, quality:5.0237959623336792e-01,
                      le:6.4788031578063965e-01 }
                  - { var:12, quality:5.0051093101501465e-01,
                      gt:7.7033326029777527e-02 }
                  - { var:19, quality:4.9448013305664062e-01,
                      le:7.7271848917007446e-01 }
                  - { var:6, quality:4.8517912626266479e-01,
                      gt:3.7661384791135788e-02 }
                  - { var:23, quality:4.8505172133445740e-01,
                      le:7.4316477775573730e-01 }
                  - { var:3, quality:4.8127189278602600e-01,
                      gt:3.4197483211755753e-02 }
                  - { var:18, quality:4.7821405529975891e-01,
                      le:7.9692399501800537e-01 }
                  - { var:11, quality:4.7345739603042603e-01,
                      gt:2.8997827321290970e-02 }
                  - { var:5, quality:4.6963506937026978e-01,
                      le:1.1260185390710831e-01 }
                  - { var:9, quality:4.6742662787437439e-01,
                      le:1.9215893745422363e-01 }
                  - { var:1, quality:4.6385914087295532e-01,
                      gt:3.7703473120927811e-02 }
                  - { var:10, quality:4.6271243691444397e-01,
                      le:1.3337251543998718e-01 }
                  - { var:8, quality:4.5995187759399414e-01,
                      gt:2.3070193827152252e-02 }
                  - { var:2, quality:4.5897504687309265e-01,
                      gt:7.6637253165245056e-02 }
                  - { var:7, quality:4.5880520343780518e-01,
                      gt:2.4553202092647552e-02 }
                  - { var:14, quality:4.5697894692420959e-01,
                      gt:9.9910724163055420e-01 }
                  - { var:0, quality:4.5587477087974548e-01,
                      le:2.1567714214324951e-01 }
                  - { var:4, quality:4.5099064707756042e-01,
                      gt:2.7178907766938210e-02 }
                  - { var:26, quality:4.4521474838256836e-01,
                      le:7.5000000000000000e-01 }
            -
               depth: 1
               sample_count: 193
               value: 9.0083176862818959e-01
               norm_class_idx: 1
               Tn: 0
               complexity: 0
               alpha: 0.
               node_risk: 0.
               tree_risk: 0.
               tree_error: 0.
            -
               depth: 1
               sample_count: 217
               value: -9.0083176862818959e-01
               norm_class_idx: 0
               Tn: 0
               complexity: 0
               alpha: 0.
               node_risk: 0.
               tree_risk: 0.
               tree_error: 0.
      -
         best_tree_idx: -1
         nodes:
            -
               depth: 0
               sample_count: 410
               value: -8.6324757408096497e-01
               norm_class_idx: 0
               Tn: 0
               complexity: 0
               alpha: 0.
               node_risk: 0.
               tree_risk: 0.
               tree_error: 0.
               splits:
                  - { var:4, quality:7.0333874225616455e-01,
                      le:1.5323363244533539e-01 }
                  - { var:9, quality:5.7630097866058350e-01,
                      le:2.0347175002098083e-01 }
                  - { var:7, quality:5.7387852668762207e-01,
                      gt:1.8245669081807137e-02 }
                  - { var:36, quality:5.6032580137252808e-01,
                      le:2.9034897685050964e-01 }
                  - { var:8, quality:5.6028068065643311e-01,
                      gt:1.2528106570243835e-02 }
                  - { var:2, quality:5.5892211198806763e-01,
                      gt:3.6051571369171143e-02 }
                  - { var:11, quality:5.5861544609069824e-01,
                      gt:7.0565417408943176e-03 }
                  - { var:19, quality:5.5762255191802979e-01,
                      gt:6.1256773769855499e-02 }
                  - { var:30, quality:5.5730199813842773e-01,
                      le:9.1840013861656189e-02 }
                  - { var:10, quality:5.5725687742233276e-01,
                      gt:1.0205164551734924e-02 }
            -
               depth: 1
               sample_count: 358
               value: -8.6324757408096497e-01
               norm_class_idx: 0
               Tn: 0
               complexity: 0
               alpha: 0.
               node_risk: 0.
               tree_risk: 0.
               tree_error: 0.
            -
               depth: 1
               sample_count: 52
               value: 8.6324757408096497e-01
               norm_class_idx: 1
               Tn: 0
               complexity: 0
               alpha: 0.
               node_risk: 0.
               tree_risk: 0.
               tree_error: 0.
      -
         best_tree_idx: -1
         nodes:
            -
               depth: 0
               sample_count: 410
               value: 7.3615124207341898e-01
               norm_class_idx: 1
               Tn: 0
               complexity: 0
               alpha: 0.
               node_risk: 0.
               tree_risk: 0.
               tree_error: 0.
               splits:
                  - { var:9, quality:6.7615365982055664e-01,
                      le:7.9818964004516602e-02 }
                  - { var:3, quality:5.0910246372222900e-01,
                      gt:8.1043019890785217e-02 }
                  - { var:8, quality:4.4244003295898438e-01,
                      gt:5.8363366872072220e-02 }
                  - { var:10, quality:4.3928337097167969e-01,
                      gt:4.8903845250606537e-02 }
                  - { var:4, quality:4.2582845687866211e-01,
                      le:9.1231085360050201e-02 }
                  - { var:1, quality:4.1732302308082581e-01,
                      gt:8.5815712809562683e-02 }
                  - { var:16, quality:4.0002113580703735e-01,
                      gt:6.9705891609191895e-01 }
                  - { var:39, quality:3.9830708503723145e-01,
                      gt:3.4790774807333946e-03 }
                  - { var:15, quality:3.9727988839149475e-01,
                      le:2.3313628137111664e-01 }
                  - { var:17, quality:3.9683124423027039e-01,
                      le:2.3592533171176910e-01 }
                  - { var:33, quality:3.9668223261833191e-01,
                      le:5.0087969750165939e-02 }
                  - { var:11, quality:3.9610052108764648e-01,
                      le:2.7779782190918922e-02 }
                  - { var:21, quality:3.9462435245513916e-01,
                      le:1.4755091071128845e-01 }
                  - { var:23, quality:3.9412185549736023e-01,
                      gt:8.8111996650695801e-01 }
                  - { var:22, quality:3.9392584562301636e-01,
                      gt:7.8426754474639893e-01 }
                  - { var:6, quality:3.9356300234794617e-01,
                      le:4.6362124383449554e-02 }
                  - { var:24, quality:3.9356213808059692e-01,
                      gt:7.7260339260101318e-01 }
                  - { var:13, quality:3.9310419559478760e-01,
                      le:4.9584859609603882e-01 }
                  - { var:18, quality:3.9301511645317078e-01,
                      le:1.3144642114639282e-01 }
                  - { var:2, quality:3.9276957511901855e-01,
                      gt:1.6818968951702118e-01 }
                  - { var:7, quality:3.9226114749908447e-01,
                      le:5.0963327288627625e-02 }
                  - { var:36, quality:3.9222335815429688e-01,
                      gt:2.4105319380760193e-01 }
                  - { var:30, quality:3.9219614863395691e-01,
                      gt:5.2229091525077820e-02 }
                  - { var:12, quality:3.9038518071174622e-01,
                      gt:6.9773477315902710e-01 }
                  - { var:32, quality:3.9007431268692017e-01,
                      gt:7.9380616545677185e-02 }
                  - { var:38, quality:3.8976868987083435e-01,
                      gt:3.2769157551229000e-03 }
                  - { var:19, quality:3.8734322786331177e-01,
                      le:1.0720683634281158e-01 }
                  - { var:20, quality:3.8699764013290405e-01,
                      le:4.8671215772628784e-01 }
                  - { var:37, quality:3.8316711783409119e-01,
                      le:5.5325657129287720e-02 }
                  - { var:0, quality:3.8240557909011841e-01,
                      gt:2.1567714214324951e-01 }
                  - { var:34, quality:3.8127300143241882e-01,
                      gt:5.3347909450531006e-01 }
                  - { var:29, quality:3.8101875782012939e-01,
                      gt:7.5000000000000000e-01 }
                  - { var:31, quality:3.7766742706298828e-01,
                      le:5.2144624292850494e-02 }
                  - { var:35, quality:3.7752920389175415e-01,
                      le:2.3131681978702545e-01 }
                  - { var:26, quality:3.7679249048233032e-01,
                      gt:6.4999997615814209e-01 }
                  - { var:5, quality:3.7677839398384094e-01,
                      gt:1.1007684469223022e-01 }
                  - { var:25, quality:3.7344014644622803e-01,
                      gt:9.4999998807907104e-01 }
                  - { var:28, quality:3.7180677056312561e-01,
                      le:1.5000000596046448e-01 }
                  - { var:14, quality:3.7054884433746338e-01,
                      gt:8.6705052852630615e-01 }
            -
               depth: 1
               sample_count: 236
               value: -7.3615124207341898e-01
               norm_class_idx: 0
               Tn: 0
               complexity: 0
               alpha: 0.
               node_risk: 0.
               tree_risk: 0.
               tree_error: 0.
            -
               depth: 1
               sample_count: 174
               value: 7.3615124207341898e-01
               norm_class_idx: 1
               Tn: 0
               complexity: 0
               alpha: 0.
               node_risk: 0.
               tree_risk: 0.
               tree_error: 0.
      -
         best_tree_idx: -1
         nodes:
            -
               depth: 0
               sample_count: 410
               value: 7.6247558134914784e-01
               norm_class_idx: 1
               Tn: 0
               complexity: 0
               alpha: 0.
               node_risk: 0.
               tree_risk: 0.
               tree_error: 0.
               splits:
                  - { var:31, quality:6.8189096450805664e-01,
                      le:1.1561596393585205e-01 }
                  - { var:32, quality:6.4430350065231323e-01,
                      le:7.7384673058986664e-02 }
                  - { var:36, quality:6.2540352344512939e-01,
                      le:1.1011034250259399e-01 }
                  - { var:33, quality:6.1555868387222290e-01,
                      le:8.0435015261173248e-02 }
                  - { var:37, quality:6.1084312200546265e-01,
                      le:1.2134046107530594e-01 }
                  - { var:35, quality:5.5022513866424561e-01,
                      le:3.7611716985702515e-01 }
                  - { var:13, quality:5.4702454805374146e-01,
                      gt:8.6303156614303589e-01 }
                  - { var:34, quality:5.4634386301040649e-01,
                      le:3.9529475569725037e-01 }
                  - { var:21, quality:5.1719707250595093e-01,
                      gt:6.2007981538772583e-01 }
                  - { var:17, quality:5.1148605346679688e-01,
                      gt:6.2279188632965088e-01 }
                  - { var:22, quality:5.0066846609115601e-01,
                      gt:7.3213779926300049e-01 }
                  - { var:16, quality:4.9652895331382751e-01,
                      gt:5.8453631401062012e-01 }
                  - { var:20, quality:4.9357783794403076e-01,
                      gt:6.8220227956771851e-01 }
                  - { var:3, quality:4.9181142449378967e-01,
                      le:3.4197483211755753e-02 }
                  - { var:24, quality:4.7478151321411133e-01,
                      gt:7.9386103153228760e-01 }
                  - { var:10, quality:4.6797692775726318e-01,
                      le:2.5156119838356972e-02 }
                  - { var:38, quality:4.6591475605964661e-01,
                      le:1.0366807691752911e-03 }
                  - { var:39, quality:4.6411913633346558e-01,
                      le:1.0308059863746166e-03 }
                  - { var:9, quality:4.5865309238433838e-01,
                      gt:1.3722060620784760e-01 }
                  - { var:23, quality:4.5560005307197571e-01,
                      gt:7.3464369773864746e-01 }
                  - { var:4, quality:4.5484045147895813e-01,
                      gt:1.3960111141204834e-01 }
                  - { var:30, quality:4.5382249355316162e-01,
                      le:6.8344315513968468e-03 }
                  - { var:11, quality:4.5362466573715210e-01,
                      le:3.5103231668472290e-02 }
                  - { var:6, quality:4.4591027498245239e-01,
                      le:3.7661384791135788e-02 }
                  - { var:15, quality:4.4584035873413086e-01,
                      gt:7.6246774196624756e-01 }
                  - { var:5, quality:4.4561555981636047e-01,
                      le:4.4712450355291367e-02 }
                  - { var:19, quality:4.4551366567611694e-01,
                      gt:7.4779188632965088e-01 }
                  - { var:8, quality:4.4451108574867249e-01,
                      le:2.6587227359414101e-02 }
                  - { var:2, quality:4.4260486960411072e-01,
                      le:7.6309442520141602e-02 }
                  - { var:1, quality:4.4198161363601685e-01,
                      le:3.1901873648166656e-02 }
                  - { var:7, quality:4.4138258695602417e-01,
                      gt:1.5127229690551758e-01 }
                  - { var:18, quality:4.3585360050201416e-01,
                      gt:7.0262682437896729e-01 }
                  - { var:0, quality:4.2896100878715515e-01,
                      gt:1.8868955969810486e-01 }
                  - { var:29, quality:4.2251574993133545e-01,
                      gt:6.4999997615814209e-01 }
                  - { var:12, quality:4.1762718558311462e-01,
                      le:3.3365890383720398e-01 }
            -
               depth: 1
               sample_count: 246
               value: -7.6247558134914784e-01
               norm_class_idx: 0
               Tn: 0
               complexity: 0
               alpha: 0.
               node_risk: 0.
               tree_risk: 0.
               tree_error: 0.
            -
               depth: 1
               sample_count: 164
               value: 7.6247558134914784e-01
               norm_class_idx: 1
               Tn: 0
               complexity: 0
               alpha: 0.
               node_risk: 0.
               tree_risk: 0.
               tree_error: 0.
      -
         best_tree_idx: -1
         nodes:
            -
               depth: 0
               sample_count: 313
               value: -6.8814349897529647e-01
               norm_class_idx: 0
               Tn: 0
               complexity: 0
               alpha: 0.
               node_risk: 0.
               tree_risk: 0.
               tree_error: 0.
               splits:
                  - { var:2, quality:6.4247184991836548e-01,
                      le:1.2124958634376526e-01 }
                  - { var:8, quality:4.7037401795387268e-01,
                      gt:3.3389873802661896e-02 }
                  - { var:16, quality:4.4567334651947021e-01,
                      gt:4.2501725256443024e-02 }
                  - { var:28, quality:4.4027233123779297e-01,
                      le:7.5000000000000000e-01 }
                  - { var:0, quality:4.3351772427558899e-01,
                      gt:6.0900360345840454e-02 }
                  - { var:3, quality:4.3347620964050293e-01,
                      le:2.5129911303520203e-01 }
                  - { var:10, quality:4.3207967281341553e-01,
                      gt:3.5819608718156815e-02 }
                  - { var:33, quality:4.3175143003463745e-01,
                      gt:4.1090250015258789e-02 }
                  - { var:5, quality:4.2716178297996521e-01,
                      gt:2.6159577071666718e-02 }
                  - { var:36, quality:4.2595005035400391e-01,
                      gt:6.9479942321777344e-02 }
                  - { var:21, quality:4.2456117272377014e-01,
                      gt:1.4253234863281250e-01 }
                  - { var:29, quality:4.2248943448066711e-01,
                      le:8.5000002384185791e-01 }
                  - { var:17, quality:4.2095512151718140e-01,
                      le:8.6867487430572510e-01 }
                  - { var:11, quality:4.1931426525115967e-01,
                      le:1.6218654811382294e-01 }
                  - { var:19, quality:4.1869175434112549e-01,
                      le:9.9577820301055908e-01 }
                  - { var:24, quality:4.1714426875114441e-01,
                      le:7.8179752826690674e-01 }
                  - { var:23, quality:4.1708683967590332e-01,
                      le:8.5332065820693970e-01 }
                  - { var:35, quality:4.1646099090576172e-01,
                      le:6.9485747814178467e-01 }
                  - { var:38, quality:4.1622990369796753e-01,
                      gt:1.1189626529812813e-03 }
                  - { var:34, quality:4.1568347811698914e-01,
                      le:6.8623983860015869e-01 }
                  - { var:30, quality:4.1567498445510864e-01,
                      le:9.1840013861656189e-02 }
                  - { var:32, quality:4.1563105583190918e-01,
                      gt:3.1426500529050827e-02 }
                  - { var:1, quality:4.1534578800201416e-01,
                      le:2.0351478457450867e-01 }
                  - { var:39, quality:4.1521301865577698e-01,
                      gt:3.5515741910785437e-04 }
                  - { var:4, quality:4.1507256031036377e-01,
                      gt:2.0167138427495956e-02 }
                  - { var:20, quality:4.1502791643142700e-01,
                      le:7.7286434173583984e-01 }
                  - { var:37, quality:4.1481682658195496e-01,
                      gt:1.2374464422464371e-02 }
                  - { var:31, quality:4.1481384634971619e-01,
                      le:2.1980416774749756e-01 }
                  - { var:7, quality:4.1424793004989624e-01,
                      le:2.6642763614654541e-01 }
            -
               depth: 1
               sample_count: 226
               value: -6.8814349897529647e-01
               norm_class_idx: 0
               Tn: 0
               complexity: 0
               alpha: 0.
               node_risk: 0.
               tree_risk: 0.
               tree_error: 0.
            -
               depth: 1
               sample_count: 87
               value: 6.8814349897529647e-01
               norm_class_idx: 1
               Tn: 0
               complexity: 0
               alpha: 0.
               node_risk: 0.
               tree_risk: 0.
               tree_error: 0.
      -
         best_tree_idx: -1
         nodes:
            -
               depth: 0
               sample_count: 313
               value: 7.0303049645020887e-01
               norm_class_idx: 1
               Tn: 0
               complexity: 0
               alpha: 0.
               node_risk: 0.
               tree_risk: 0.
               tree_error: 0.
               splits:
                  - { var:19, quality:6.3873720169067383e-01,
                      le:7.7691805362701416e-01 }
                  - { var:18, quality:5.7319259643554688e-01,
                      le:8.1583261489868164e-01 }
                  - { var:23, quality:5.6977105140686035e-01,
                      le:8.1925237178802490e-01 }
                  - { var:15, quality:5.5505645275115967e-01,
                      le:7.1865093708038330e-01 }
                  - { var:24, quality:5.5251353979110718e-01,
                      le:7.3088383674621582e-01 }
                  - { var:22, quality:5.3256934881210327e-01,
                      le:6.9261848926544189e-01 }
                  - { var:30, quality:5.2364164590835571e-01,
                      gt:1.1566171422600746e-02 }
                  - { var:20, quality:5.1024931669235229e-01,
                      le:6.4169865846633911e-01 }
                  - { var:38, quality:5.0644356012344360e-01,
                      gt:1.1867510620504618e-03 }
                  - { var:17, quality:4.9358075857162476e-01,
                      le:6.6623580455780029e-01 }
                  - { var:39, quality:4.8842358589172363e-01,
                      gt:1.3531153090298176e-03 }
                  - { var:21, quality:4.7800135612487793e-01,
                      le:6.7788624763488770e-01 }
                  - { var:36, quality:4.6029245853424072e-01,
                      gt:6.4978748559951782e-02 }
                  - { var:16, quality:4.6029043197631836e-01,
                      le:6.1020052433013916e-01 }
                  - { var:14, quality:4.5542082190513611e-01,
                      le:8.4442698955535889e-01 }
                  - { var:5, quality:4.4802194833755493e-01,
                      gt:2.9145363718271255e-02 }
                  - { var:7, quality:4.4774454832077026e-01,
                      gt:2.5240022689104080e-02 }
                  - { var:32, quality:4.4731071591377258e-01,
                      gt:4.7106068581342697e-02 }
                  - { var:37, quality:4.4692921638488770e-01,
                      gt:5.4665751755237579e-02 }
                  - { var:34, quality:4.4608351588249207e-01,
                      gt:3.5019320249557495e-01 }
                  - { var:8, quality:4.4534373283386230e-01,
                      gt:2.6295073330402374e-02 }
                  - { var:31, quality:4.4478768110275269e-01,
                      gt:6.8040810525417328e-02 }
                  - { var:9, quality:4.4417279958724976e-01,
                      le:2.1432776749134064e-01 }
                  - { var:35, quality:4.4217720627784729e-01,
                      gt:2.6566731929779053e-01 }
                  - { var:0, quality:4.4089815020561218e-01,
                      gt:3.7257380783557892e-02 }
                  - { var:13, quality:4.3961769342422485e-01,
                      le:5.8664119243621826e-01 }
                  - { var:2, quality:4.3872302770614624e-01,
                      le:3.0092859268188477e-01 }
                  - { var:33, quality:4.3741706013679504e-01,
                      gt:3.9188615977764130e-02 }
                  - { var:1, quality:4.3728399276733398e-01,
                      le:1.2043191492557526e-01 }
                  - { var:4, quality:4.3553254008293152e-01,
                      le:2.4176304042339325e-01 }
                  - { var:12, quality:4.3518450856208801e-01,
                      gt:4.7752889804542065e-03 }
                  - { var:11, quality:4.3381619453430176e-01,
                      gt:1.8279930576682091e-02 }
                  - { var:26, quality:4.3301591277122498e-01,
                      le:6.4999997615814209e-01 }
                  - { var:25, quality:4.3114414811134338e-01,
                      le:9.4999998807907104e-01 }
                  - { var:3, quality:4.3101307749748230e-01,
                      gt:1.8268719315528870e-02 }
                  - { var:6, quality:4.3054768443107605e-01,
                      gt:1.6212705522775650e-02 }
                  - { var:10, quality:4.3016043305397034e-01,
                      le:2.0922887325286865e-01 }
            -
               depth: 1
               sample_count: 151
               value: 7.0303049645020887e-01
               norm_class_idx: 1
               Tn: 0
               complexity: 0
               alpha: 0.
               node_risk: 0.
               tree_risk: 0.
               tree_error: 0.
            -
               depth: 1
               sample_count: 162
               value: -7.0303049645020887e-01
               norm_class_idx: 0
               Tn: 0
               complexity: 0
               alpha: 0.
               node_risk: 0.
               tree_risk: 0.
               tree_error: 0.
      -
         best_tree_idx: -1
         nodes:
            -
               depth: 0
               sample_count: 271
               value: -6.7611794485291798e-01
               norm_class_idx: 0
               Tn: 0
               complexity: 0
               alpha: 0.
               node_risk: 0.
               tree_risk: 0.
               tree_error: 0.
               splits:
                  - { var:3, quality:6.2282752990722656e-01,
                      le:4.1445717215538025e-02 }
                  - { var:13, quality:5.0877600908279419e-01,
                      gt:8.7870192527770996e-01 }
                  - { var:32, quality:5.0843352079391479e-01,
                      le:5.9129118919372559e-02 }
                  - { var:31, quality:5.0446712970733643e-01,
                      le:9.8968490958213806e-02 }
                  - { var:33, quality:5.0145077705383301e-01,
                      le:6.8186387419700623e-02 }
                  - { var:37, quality:5.0116187334060669e-01,
                      le:1.0993282496929169e-01 }
                  - { var:35, quality:4.9445268511772156e-01,
                      le:4.0590381622314453e-01 }
                  - { var:36, quality:4.9307134747505188e-01,
                      le:9.0358614921569824e-02 }
                  - { var:10, quality:4.9071002006530762e-01,
                      le:1.6343332827091217e-02 }
                  - { var:34, quality:4.9008625745773315e-01,
                      le:3.9529475569725037e-01 }
                  - { var:9, quality:4.7810396552085876e-01,
                      gt:1.3632750511169434e-01 }
                  - { var:38, quality:4.7512674331665039e-01,
                      le:1.2022571172565222e-03 }
                  - { var:7, quality:4.7433385252952576e-01,
                      gt:1.3664686679840088e-01 }
                  - { var:17, quality:4.7139534354209900e-01,
                      gt:6.5752381086349487e-01 }
                  - { var:21, quality:4.6808201074600220e-01,
                      gt:6.1548101902008057e-01 }
                  - { var:39, quality:4.6231958270072937e-01,
                      le:1.0308059863746166e-03 }
                  - { var:5, quality:4.6128386259078979e-01,
                      le:3.6340698599815369e-02 }
                  - { var:20, quality:4.5632630586624146e-01,
                      gt:6.9453442096710205e-01 }
                  - { var:1, quality:4.5349693298339844e-01,
                      le:3.1901873648166656e-02 }
                  - { var:22, quality:4.5321244001388550e-01,
                      gt:7.7742922306060791e-01 }
                  - { var:30, quality:4.5248323678970337e-01,
                      le:8.8524520397186279e-03 }
                  - { var:16, quality:4.5206138491630554e-01,
                      gt:5.8750432729721069e-01 }
                  - { var:4, quality:4.4718366861343384e-01,
                      gt:2.4286329746246338e-01 }
                  - { var:8, quality:4.4393450021743774e-01,
                      le:2.2700354456901550e-02 }
                  - { var:2, quality:4.4278201460838318e-01,
                      gt:2.0980885624885559e-01 }
                  - { var:6, quality:4.4096958637237549e-01,
                      gt:1.1918425559997559e-01 }
                  - { var:24, quality:4.3999502062797546e-01,
                      gt:7.9982030391693115e-01 }
                  - { var:18, quality:4.3706166744232178e-01,
                      gt:8.8869243860244751e-01 }
                  - { var:0, quality:4.3535742163658142e-01,
                      le:3.8356516510248184e-02 }
                  - { var:11, quality:4.3395325541496277e-01,
                      gt:1.3459989428520203e-01 }
                  - { var:15, quality:4.2488151788711548e-01,
                      gt:7.6028227806091309e-01 }
                  - { var:23, quality:4.2479839920997620e-01,
                      gt:8.7611889839172363e-01 }
            -
               depth: 1
               sample_count: 73
               value: 6.7611794485291798e-01
               norm_class_idx: 1
               Tn: 0
               complexity: 0
               alpha: 0.
               node_risk: 0.
               tree_risk: 0.
               tree_error: 0.
            -
               depth: 1
               sample_count: 198
               value: -6.7611794485291798e-01
               norm_class_idx: 0
               Tn: 0
               complexity: 0
               alpha: 0.
               node_risk: 0.
               tree_risk: 0.
               tree_error: 0.
      -
         best_tree_idx: -1
         nodes:
            -
               depth: 0
               sample_count: 263
               value: 5.0557121251693704e-01
               norm_class_idx: 1
               Tn: 0
               complexity: 0
               alpha: 0.
               node_risk: 0.
               tree_risk: 0.
               tree_error: 0.
               splits:
                  - { var:39, quality:6.2329143285751343e-01,
                      le:2.6805980596691370e-03 }
                  - { var:38, quality:5.8187228441238403e-01,
                      le:2.8740644920617342e-03 }
                  - { var:30, quality:5.7171469926834106e-01,
                      le:5.2438519895076752e-02 }
                  - { var:15, quality:5.3847986459732056e-01,
                      gt:2.2936487197875977e-01 }
                  - { var:23, quality:5.3601062297821045e-01,
                      gt:1.3151368498802185e-01 }
                  - { var:24, quality:5.3597223758697510e-01,
                      gt:1.8897636234760284e-01 }
                  - { var:18, quality:5.3556638956069946e-01,
                      gt:8.1092074513435364e-02 }
                  - { var:22, quality:5.3271079063415527e-01,
                      gt:9.7125403583049774e-02 }
                  - { var:19, quality:5.3169715404510498e-01,
                      gt:9.1517433524131775e-02 }
                  - { var:20, quality:5.3116655349731445e-01,
                      gt:8.4789752960205078e-02 }
                  - { var:17, quality:5.3071755170822144e-01,
                      gt:9.7483739256858826e-02 }
                  - { var:35, quality:5.3025865554809570e-01,
                      le:6.1277484893798828e-01 }
                  - { var:32, quality:5.2535182237625122e-01,
                      le:1.3822382688522339e-01 }
                  - { var:33, quality:5.2307844161987305e-01,
                      le:1.5330359339714050e-01 }
                  - { var:36, quality:5.2274441719055176e-01,
                      le:2.3772546648979187e-01 }
                  - { var:16, quality:5.2185910940170288e-01,
                      le:8.5576784610748291e-01 }
                  - { var:31, quality:5.2021437883377075e-01,
                      le:1.8558818101882935e-01 }
                  - { var:21, quality:5.1995062828063965e-01,
                      gt:4.4224254786968231e-02 }
                  - { var:1, quality:5.1944869756698608e-01,
                      le:1.8276491761207581e-01 }
                  - { var:34, quality:5.1910358667373657e-01,
                      le:6.3843834400177002e-01 }
                  - { var:14, quality:5.1908391714096069e-01,
                      gt:2.0620133727788925e-03 }
                  - { var:28, quality:5.1730746030807495e-01,
                      le:9.4999998807907104e-01 }
                  - { var:7, quality:5.1626908779144287e-01,
                      le:2.7216443419456482e-01 }
                  - { var:26, quality:5.1569378376007080e-01,
                      le:9.4999998807907104e-01 }
                  - { var:37, quality:5.1485860347747803e-01,
                      le:3.6828231811523438e-01 }
                  - { var:9, quality:5.1484316587448120e-01,
                      gt:2.0291674882173538e-02 }
                  - { var:8, quality:5.1439934968948364e-01,
                      le:1.7748847603797913e-01 }
                  - { var:0, quality:5.1391816139221191e-01,
                      le:2.3610930144786835e-01 }
                  - { var:11, quality:5.1378315687179565e-01,
                      le:1.8397450447082520e-01 }
            -
               depth: 1
               sample_count: 199
               value: 5.0557121251693704e-01
               norm_class_idx: 1
               Tn: 0
               complexity: 0
               alpha: 0.
               node_risk: 0.
               tree_risk: 0.
               tree_error: 0.
            -
               depth: 1
               sample_count: 64
               value: -5.0557121251693704e-01
               norm_class_idx: 0
               Tn: 0
               complexity: 0
               alpha: 0.
               node_risk: 0.
               tree_risk: 0.
               tree_error: 0.
      -
         best_tree_idx: -1
         nodes:
            -
               depth: 0
               sample_count: 276
               value: -5.6163901165846564e-01
               norm_class_idx: 0
               Tn: 0
               complexity: 0
               alpha: 0.
               node_risk: 0.
               tree_risk: 0.
               tree_error: 0.
               splits:
                  - { var:1, quality:5.9250724315643311e-01,
                      le:3.2133020460605621e-02 }
                  - { var:3, quality:5.5399143695831299e-01,
                      gt:2.1352364122867584e-01 }
                  - { var:0, quality:5.4828727245330811e-01,
                      le:4.5049700886011124e-02 }
                  - { var:10, quality:5.4827684164047241e-01,
                      le:1.0756469331681728e-02 }
                  - { var:7, quality:5.4803431034088135e-01,
                      gt:2.2657263278961182e-01 }
                  - { var:11, quality:5.4413229227066040e-01,
                      le:2.9101096093654633e-02 }
                  - { var:6, quality:5.4209995269775391e-01,
                      gt:2.1206545829772949e-01 }
                  - { var:4, quality:5.4154193401336670e-01,
                      le:3.0408944934606552e-02 }
                  - { var:2, quality:5.3963035345077515e-01,
                      le:1.3993841595947742e-02 }
                  - { var:8, quality:5.3931325674057007e-01,
                      gt:1.9117194414138794e-01 }
                  - { var:39, quality:5.3859227895736694e-01,
                      gt:5.5044293403625488e-03 }
                  - { var:38, quality:5.3859227895736694e-01,
                      gt:5.5921701714396477e-03 }
                  - { var:30, quality:5.3859227895736694e-01,
                      gt:1.4787498116493225e-01 }
                  - { var:5, quality:5.3836870193481445e-01,
                      gt:2.7604049444198608e-01 }
                  - { var:35, quality:5.3835803270339966e-01,
                      le:1.2897124886512756e-01 }
            -
               depth: 1
               sample_count: 14
               value: 5.6163901165846564e-01
               norm_class_idx: 1
               Tn: 0
               complexity: 0
               alpha: 0.
               node_risk: 0.
               tree_risk: 0.
               tree_error: 0.
            -
               depth: 1
               sample_count: 262
               value: -5.6163901165846564e-01
               norm_class_idx: 0
               Tn: 0
               complexity: 0
               alpha: 0.
               node_risk: 0.
               tree_risk: 0.
               tree_error: 0.
      -
         best_tree_idx: -1
         nodes:
            -
               depth: 0
               sample_count: 264
               value: 6.5521175333442805e-01
               norm_class_idx: 1
               Tn: 0
               complexity: 0
               alpha: 0.
               node_risk: 0.
               tree_risk: 0.
               tree_error: 0.
               splits:
                  - { var:16, quality:6.2961661815643311e-01,
                      le:6.8608665466308594e-01 }
                  - { var:21, quality:5.8807456493377686e-01,
                      le:7.0188868045806885e-01 }
                  - { var:20, quality:5.6980085372924805e-01,
                      le:7.7044922113418579e-01 }
                  - { var:22, quality:5.6815153360366821e-01,
                      le:7.8077268600463867e-01 }
                  - { var:17, quality:5.6503778696060181e-01,
                      le:7.6682162284851074e-01 }
                  - { var:30, quality:5.2983051538467407e-01,
                      gt:6.3016735948622227e-03 }
                  - { var:34, quality:5.2934610843658447e-01,
                      le:5.6572234630584717e-01 }
                  - { var:33, quality:5.2900254726409912e-01,
                      gt:4.2582269757986069e-02 }
                  - { var:35, quality:5.2800416946411133e-01,
                      le:6.2621235847473145e-01 }
                  - { var:38, quality:5.2628135681152344e-01,
                      gt:6.1013188678771257e-04 }
                  - { var:39, quality:5.2547568082809448e-01,
                      gt:8.6144293891265988e-04 }
                  - { var:36, quality:5.2433443069458008e-01,
                      gt:2.2902447730302811e-02 }
                  - { var:24, quality:5.2350020408630371e-01,
                      le:8.5660004615783691e-01 }
                  - { var:37, quality:5.2166575193405151e-01,
                      gt:2.8629988431930542e-02 }
                  - { var:0, quality:5.2158188819885254e-01,
                      le:2.1087688207626343e-01 }
                  - { var:18, quality:5.2133750915527344e-01,
                      le:9.2507398128509521e-01 }
                  - { var:15, quality:5.2129346132278442e-01,
                      le:9.4064038991928101e-01 }
                  - { var:31, quality:5.2101218700408936e-01,
                      gt:6.7322470247745514e-02 }
                  - { var:32, quality:5.2092611789703369e-01,
                      gt:4.3993629515171051e-02 }
                  - { var:3, quality:5.2028352022171021e-01,
                      gt:1.8891589716076851e-02 }
                  - { var:8, quality:5.1857554912567139e-01,
                      gt:1.2019608169794083e-02 }
                  - { var:10, quality:5.1691734790802002e-01,
                      gt:8.7880063802003860e-03 }
                  - { var:2, quality:5.1594495773315430e-01,
                      gt:2.0459767431020737e-02 }
                  - { var:9, quality:5.1593285799026489e-01,
                      gt:2.5819741189479828e-02 }
                  - { var:5, quality:5.1580035686492920e-01,
                      le:2.5292104482650757e-01 }
                  - { var:4, quality:5.1562911272048950e-01,
                      gt:2.1139647811651230e-02 }
                  - { var:7, quality:5.1486974954605103e-01,
                      gt:9.9182166159152985e-03 }
                  - { var:11, quality:5.1430648565292358e-01,
                      le:1.9968874752521515e-01 }
                  - { var:23, quality:5.1421719789505005e-01,
                      le:9.5086699724197388e-01 }
                  - { var:1, quality:5.1412141323089600e-01,
                      gt:2.0306315273046494e-02 }
                  - { var:6, quality:5.1376879215240479e-01,
                      le:2.4193337559700012e-01 }
            -
               depth: 1
               sample_count: 180
               value: 6.5521175333442805e-01
               norm_class_idx: 1
               Tn: 0
               complexity: 0
               alpha: 0.
               node_risk: 0.
               tree_risk: 0.
               tree_error: 0.
            -
               depth: 1
               sample_count: 84
               value: -6.5521175333442805e-01
               norm_class_idx: 0
               Tn: 0
               complexity: 0
               alpha: 0.
               node_risk: 0.
               tree_risk: 0.
               tree_error: 0.
      -
         best_tree_idx: -1
         nodes:
            -
               depth: 0
               sample_count: 265
               value: -4.2378149810038318e-01
               norm_class_idx: 0
               Tn: 0
               complexity: 0
               alpha: 0.
               node_risk: 0.
               tree_risk: 0.
               tree_error: 0.
               splits:
                  - { var:18, quality:5.8874982595443726e-01,
                      le:8.2777029275894165e-01 }
                  - { var:23, quality:5.6296545267105103e-01,
                      le:8.1546401977539062e-01 }
                  - { var:19, quality:5.4501861333847046e-01,
                      le:8.0918598175048828e-01 }
                  - { var:15, quality:5.3125387430191040e-01,
                      le:7.1546733379364014e-01 }
                  - { var:24, quality:5.2397435903549194e-01,
                      le:7.6754152774810791e-01 }
                  - { var:22, quality:4.9436205625534058e-01,
                      le:6.9261848926544189e-01 }
                  - { var:20, quality:4.8271009325981140e-01,
                      le:7.2365260124206543e-01 }
                  - { var:17, quality:4.6715030074119568e-01,
                      le:7.4552166461944580e-01 }
                  - { var:30, quality:4.6116143465042114e-01,
                      gt:1.1223142966628075e-02 }
                  - { var:21, quality:4.5641979575157166e-01,
                      le:7.3454171419143677e-01 }
                  - { var:39, quality:4.4912075996398926e-01,
                      gt:1.3467097887769341e-03 }
                  - { var:38, quality:4.4902709126472473e-01,
                      gt:8.0963684013113379e-04 }
                  - { var:16, quality:4.4781202077865601e-01,
                      le:7.4278855323791504e-01 }
                  - { var:29, quality:4.4539308547973633e-01,
                      le:9.4999998807907104e-01 }
                  - { var:7, quality:4.4503286480903625e-01,
                      gt:2.5175753980875015e-02 }
                  - { var:0, quality:4.4167205691337585e-01,
                      le:1.9429792463779449e-01 }
                  - { var:5, quality:4.3959879875183105e-01,
                      gt:2.9145363718271255e-02 }
                  - { var:33, quality:4.3882146477699280e-01,
                      gt:4.2582269757986069e-02 }
                  - { var:10, quality:4.3629890680313110e-01,
                      gt:1.8193665891885757e-02 }
                  - { var:13, quality:4.3518528342247009e-01,
                      le:8.1445419788360596e-01 }
                  - { var:2, quality:4.3412148952484131e-01,
                      le:3.2416695356369019e-01 }
                  - { var:9, quality:4.3133768439292908e-01,
                      le:2.1432776749134064e-01 }
                  - { var:32, quality:4.3007844686508179e-01,
                      gt:3.0784737318754196e-02 }
                  - { var:25, quality:4.2928037047386169e-01,
                      le:9.4999998807907104e-01 }
                  - { var:36, quality:4.2920783162117004e-01,
                      gt:6.7432828247547150e-02 }
                  - { var:3, quality:4.2844146490097046e-01,
                      le:2.5129911303520203e-01 }
                  - { var:11, quality:4.2835390567779541e-01,
                      gt:7.1960482746362686e-03 }
                  - { var:1, quality:4.2802983522415161e-01,
                      gt:1.6147747635841370e-02 }
                  - { var:4, quality:4.2785978317260742e-01,
                      gt:2.1139647811651230e-02 }
                  - { var:8, quality:4.2763242125511169e-01,
                      le:1.8475237488746643e-01 }
            -
               depth: 1
               sample_count: 189
               value: -4.2378149810038318e-01
               norm_class_idx: 0
               Tn: 0
               complexity: 0
               alpha: 0.
               node_risk: 0.
               tree_risk: 0.
               tree_error: 0.
            -
               depth: 1
               sample_count: 76
               value: 4.2378149810038318e-01
               norm_class_idx: 1
               Tn: 0
               complexity: 0
               alpha: 0.
               node_risk: 0.
               tree_risk: 0.
               tree_error: 0.
      -
         best_tree_idx: -1
         nodes:
            -
               depth: 0
               sample_count: 270
               value: -6.1981819405516714e-01
               norm_class_idx: 0
               Tn: 0
               complexity: 0
               alpha: 0.
               node_risk: 0.
               tree_risk: 0.
               tree_error: 0.
               splits:
                  - { var:23, quality:6.0592317581176758e-01,
                      le:7.0199829339981079e-01 }
                  - { var:19, quality:5.8673858642578125e-01,
                      le:6.8690323829650879e-01 }
                  - { var:24, quality:5.6571489572525024e-01,
                      le:6.7022681236267090e-01 }
                  - { var:18, quality:5.6391930580139160e-01,
                      le:7.1617019176483154e-01 }
                  - { var:15, quality:5.4661035537719727e-01,
                      le:6.3139605522155762e-01 }
                  - { var:22, quality:5.4604542255401611e-01,
                      le:4.7975307703018188e-01 }
                  - { var:20, quality:5.1470702886581421e-01,
                      le:5.1947212219238281e-01 }
                  - { var:17, quality:5.0670623779296875e-01,
                      le:4.3072992563247681e-01 }
                  - { var:13, quality:5.0305026769638062e-01,
                      le:3.0848860740661621e-01 }
                  - { var:14, quality:5.0143188238143921e-01,
                      le:8.3373922109603882e-01 }
                  - { var:21, quality:5.0051862001419067e-01,
                      le:3.8609999418258667e-01 }
                  - { var:12, quality:4.8985689878463745e-01,
                      gt:4.7752889804542065e-03 }
                  - { var:16, quality:4.8498257994651794e-01,
                      le:3.6770993471145630e-01 }
                  - { var:38, quality:4.7147065401077271e-01,
                      gt:2.1434403024613857e-03 }
                  - { var:39, quality:4.6840721368789673e-01,
                      gt:1.8629261758178473e-03 }
                  - { var:30, quality:4.6010181307792664e-01,
                      gt:2.0472478121519089e-02 }
                  - { var:37, quality:4.1675209999084473e-01,
                      gt:1.2816032767295837e-01 }
                  - { var:36, quality:4.1176596283912659e-01,
                      gt:1.0928519815206528e-01 }
                  - { var:35, quality:4.0728449821472168e-01,
                      gt:4.0590381622314453e-01 }
                  - { var:10, quality:3.9653003215789795e-01,
                      gt:2.8371792286634445e-02 }
                  - { var:34, quality:3.9290770888328552e-01,
                      gt:3.9470034837722778e-01 }
                  - { var:31, quality:3.8425594568252563e-01,
                      gt:1.3788428902626038e-01 }
                  - { var:32, quality:3.7822335958480835e-01,
                      gt:1.0127495229244232e-01 }
                  - { var:8, quality:3.7736809253692627e-01,
                      gt:9.3731835484504700e-02 }
                  - { var:3, quality:3.6838689446449280e-01,
                      gt:4.1687555611133575e-02 }
                  - { var:33, quality:3.6458086967468262e-01,
                      gt:7.5242400169372559e-02 }
                  - { var:2, quality:3.6439710855484009e-01,
                      le:6.5557628870010376e-02 }
                  - { var:5, quality:3.5861849784851074e-01,
                      gt:4.5511338859796524e-02 }
                  - { var:0, quality:3.5679399967193604e-01,
                      gt:7.4200585484504700e-02 }
                  - { var:26, quality:3.5518461465835571e-01,
                      le:4.4999998807907104e-01 }
                  - { var:9, quality:3.5014447569847107e-01,
                      le:1.1924664676189423e-01 }
                  - { var:6, quality:3.4946951270103455e-01,
                      le:5.4272219538688660e-02 }
                  - { var:11, quality:3.4884545207023621e-01,
                      gt:5.2787259221076965e-02 }
                  - { var:7, quality:3.4785997867584229e-01,
                      le:1.0784952342510223e-01 }
                  - { var:29, quality:3.4738644957542419e-01,
                      gt:2.5000000000000000e-01 }
                  - { var:4, quality:3.4407272934913635e-01,
                      le:9.9144756793975830e-02 }
                  - { var:1, quality:3.4202140569686890e-01,
                      gt:5.6607469916343689e-02 }
                  - { var:25, quality:3.2656583189964294e-01,
                      le:5.5000001192092896e-01 }
                  - { var:27, quality:3.2464960217475891e-01,
                      gt:8.5000002384185791e-01 }
                  - { var:28, quality:3.1964880228042603e-01,
                      gt:9.4999998807907104e-01 }
            -
               depth: 1
               sample_count: 99
               value: 6.1981819405516714e-01
               norm_class_idx: 1
               Tn: 0
               complexity: 0
               alpha: 0.
               node_risk: 0.
               tree_risk: 0.
               tree_error: 0.
            -
               depth: 1
               sample_count: 171
               value: -6.1981819405516714e-01
               norm_class_idx: 0
               Tn: 0
               complexity: 0
               alpha: 0.
               node_risk: 0.
               tree_risk: 0.
               tree_error: 0.
      -
         best_tree_idx: -1
         nodes:
            -
               depth: 0
               sample_count: 249
               value: 5.0953214955774462e-01
               norm_class_idx: 1
               Tn: 0
               complexity: 0
               alpha: 0.
               node_risk: 0.
               tree_risk: 0.
               tree_error: 0.
               splits:
                  - { var:11, quality:6.0868096351623535e-01,
                      le:6.7637786269187927e-02 }
                  - { var:15, quality:4.6422353386878967e-01,
                      gt:2.3380419611930847e-01 }
                  - { var:14, quality:4.6027660369873047e-01,
                      gt:3.2681214809417725e-01 }
                  - { var:22, quality:4.5495492219924927e-01,
                      gt:2.4530859291553497e-01 }
                  - { var:24, quality:4.5134660601615906e-01,
                      gt:3.1461298465728760e-01 }
                  - { var:23, quality:4.4923797249794006e-01,
                      gt:2.9445236921310425e-01 }
                  - { var:30, quality:4.4829946756362915e-01,
                      le:5.8453399688005447e-02 }
                  - { var:18, quality:4.4812405109405518e-01,
                      gt:1.4352583885192871e-01 }
                  - { var:8, quality:4.4425278902053833e-01,
                      le:9.9683150649070740e-02 }
                  - { var:20, quality:4.4404184818267822e-01,
                      gt:2.1814794838428497e-01 }
                  - { var:39, quality:4.4235661625862122e-01,
                      le:3.2905749976634979e-03 }
                  - { var:19, quality:4.4160079956054688e-01,
                      gt:1.0720683634281158e-01 }
                  - { var:38, quality:4.3639573454856873e-01,
                      le:2.5794815737754107e-03 }
                  - { var:17, quality:4.3550163507461548e-01,
                      gt:9.1341793537139893e-02 }
                  - { var:2, quality:4.3329083919525146e-01,
                      gt:4.6809047460556030e-02 }
                  - { var:21, quality:4.3102413415908813e-01,
                      gt:7.6097503304481506e-02 }
                  - { var:35, quality:4.3056097626686096e-01,
                      le:6.1523890495300293e-01 }
                  - { var:32, quality:4.2699256539344788e-01,
                      le:1.6196855902671814e-01 }
                  - { var:34, quality:4.2695176601409912e-01,
                      le:7.3943674564361572e-01 }
                  - { var:13, quality:4.2432516813278198e-01,
                      le:9.8972803354263306e-01 }
                  - { var:31, quality:4.2365220189094543e-01,
                      le:1.9841980934143066e-01 }
                  - { var:7, quality:4.2300584912300110e-01,
                      le:2.7216443419456482e-01 }
                  - { var:36, quality:4.2271819710731506e-01,
                      gt:3.2321624457836151e-02 }
                  - { var:33, quality:4.2233341932296753e-01,
                      le:1.6030940413475037e-01 }
                  - { var:3, quality:4.2149928212165833e-01,
                      gt:2.6802139356732368e-02 }
                  - { var:1, quality:4.2099279165267944e-01,
                      gt:2.0306315273046494e-02 }
                  - { var:6, quality:4.2073220014572144e-01,
                      le:2.2078180313110352e-01 }
                  - { var:0, quality:4.2058274149894714e-01,
                      le:2.7513316273689270e-01 }
                  - { var:5, quality:4.2055988311767578e-01,
                      le:2.6635885238647461e-01 }
                  - { var:9, quality:4.2030695080757141e-01,
                      gt:1.7079424113035202e-02 }
                  - { var:4, quality:4.2023542523384094e-01,
                      gt:1.8014121800661087e-02 }
                  - { var:10, quality:4.1991436481475830e-01,
                      le:2.1339696645736694e-01 }
            -
               depth: 1
               sample_count: 153
               value: 5.0953214955774462e-01
               norm_class_idx: 1
               Tn: 0
               complexity: 0
               alpha: 0.
               node_risk: 0.
               tree_risk: 0.
               tree_error: 0.
            -
               depth: 1
               sample_count: 96
               value: -5.0953214955774462e-01
               norm_class_idx: 0
               Tn: 0
               complexity: 0
               alpha: 0.
               node_risk: 0.
               tree_risk: 0.
               tree_error: 0.
      -
         best_tree_idx: -1
         nodes:
            -
               depth: 0
               sample_count: 259
               value: -4.3812789725935264e-01
               norm_class_idx: 0
               Tn: 0
               complexity: 0
               alpha: 0.
               node_risk: 0.
               tree_risk: 0.
               tree_error: 0.
               splits:
                  - { var:23, quality:5.8893793821334839e-01,
                      le:8.1325745582580566e-01 }
                  - { var:18, quality:5.5680966377258301e-01,
                      le:8.1080162525177002e-01 }
                  - { var:19, quality:5.3518074750900269e-01,
                      le:7.7189743518829346e-01 }
                  - { var:24, quality:5.2789539098739624e-01,
                      le:7.2288560867309570e-01 }
                  - { var:15, quality:5.2404910326004028e-01,
                      le:7.1546733379364014e-01 }
                  - { var:22, quality:4.9673789739608765e-01,
                      le:6.9261848926544189e-01 }
                  - { var:20, quality:4.8334532976150513e-01,
                      le:7.2365260124206543e-01 }
                  - { var:30, quality:4.6665003895759583e-01,
                      gt:1.1223142966628075e-02 }
                  - { var:39, quality:4.6306428313255310e-01,
                      gt:1.3467097887769341e-03 }
                  - { var:21, quality:4.6305403113365173e-01,
                      le:6.7788624763488770e-01 }
                  - { var:17, quality:4.5639437437057495e-01,
                      le:6.7799365520477295e-01 }
                  - { var:13, quality:4.4816648960113525e-01,
                      le:6.6953051090240479e-01 }
                  - { var:38, quality:4.4797277450561523e-01,
                      gt:1.2400895357131958e-03 }
                  - { var:16, quality:4.3927383422851562e-01,
                      le:7.2680413722991943e-01 }
                  - { var:0, quality:4.3913143873214722e-01,
                      gt:4.6618502587080002e-02 }
                  - { var:35, quality:4.3524006009101868e-01,
                      gt:4.0590381622314453e-01 }
                  - { var:29, quality:4.3064433336257935e-01,
                      le:9.4999998807907104e-01 }
                  - { var:10, quality:4.2932257056236267e-01,
                      gt:1.8193665891885757e-02 }
                  - { var:7, quality:4.2827129364013672e-01,
                      gt:1.8509371206164360e-02 }
                  - { var:5, quality:4.2775520682334900e-01,
                      gt:2.9145363718271255e-02 }
                  - { var:33, quality:4.2705589532852173e-01,
                      gt:4.1090250015258789e-02 }
                  - { var:1, quality:4.2700731754302979e-01,
                      gt:2.3798067122697830e-02 }
                  - { var:3, quality:4.2624953389167786e-01,
                      le:2.0401027798652649e-01 }
                  - { var:36, quality:4.2604264616966248e-01,
                      gt:6.7695461213588715e-02 }
                  - { var:2, quality:4.2294469475746155e-01,
                      le:3.2416695356369019e-01 }
                  - { var:32, quality:4.2007529735565186e-01,
                      gt:3.5219267010688782e-02 }
                  - { var:37, quality:4.1863778233528137e-01,
                      gt:1.0346075892448425e-01 }
                  - { var:34, quality:4.1780132055282593e-01,
                      gt:3.8781511783599854e-01 }
                  - { var:31, quality:4.1773059964179993e-01,
                      gt:8.9854240417480469e-02 }
                  - { var:4, quality:4.1747033596038818e-01,
                      gt:2.0645979791879654e-02 }
                  - { var:9, quality:4.1712665557861328e-01,
                      gt:1.6101837158203125e-02 }
                  - { var:6, quality:4.1706302762031555e-01,
                      le:2.4106082320213318e-01 }
                  - { var:8, quality:4.1669580340385437e-01,
                      le:1.8475237488746643e-01 }
            -
               depth: 1
               sample_count: 176
               value: -4.3812789725935264e-01
               norm_class_idx: 0
               Tn: 0
               complexity: 0
               alpha: 0.
               node_risk: 0.
               tree_risk: 0.
               tree_error: 0.
            -
               depth: 1
               sample_count: 83
               value: 4.3812789725935264e-01
               norm_class_idx: 1
               Tn: 0
               complexity: 0
               alpha: 0.
               node_risk: 0.
               tree_risk: 0.
               tree_error: 0.
      -
         best_tree_idx: -1
         nodes:
            -
               depth: 0
               sample_count: 262
               value: -4.7710089755570767e-01
               norm_class_idx: 0
               Tn: 0
               complexity: 0
               alpha: 0.
               node_risk: 0.
               tree_risk: 0.
               tree_error: 0.
               splits:
                  - { var:4, quality:5.8791315555572510e-01,
                      le:9.2942893505096436e-02 }
                  - { var:10, quality:4.3921178579330444e-01,
                      gt:6.0506522655487061e-02 }
                  - { var:5, quality:3.7799847126007080e-01,
                      gt:8.6707189679145813e-02 }
                  - { var:26, quality:3.7790170311927795e-01,
                      le:1.5000000596046448e-01 }
                  - { var:3, quality:3.6995685100555420e-01,
                      gt:8.1324264407157898e-02 }
                  - { var:32, quality:3.6417773365974426e-01,
                      gt:1.0116467624902725e-01 }
                  - { var:9, quality:3.6381983757019043e-01,
                      le:4.4111970812082291e-02 }
                  - { var:11, quality:3.6274135112762451e-01,
                      le:4.1042856872081757e-02 }
                  - { var:38, quality:3.6178770661354065e-01,
                      gt:2.4855376686900854e-03 }
                  - { var:39, quality:3.5560578107833862e-01,
                      gt:2.3218286223709583e-03 }
                  - { var:18, quality:3.5538825392723083e-01,
                      le:2.6761284470558167e-01 }
                  - { var:22, quality:3.5470825433731079e-01,
                      le:5.0250983238220215e-01 }
                  - { var:0, quality:3.5439473390579224e-01,
                      gt:1.1391869187355042e-01 }
                  - { var:7, quality:3.5408648848533630e-01,
                      gt:9.1837100684642792e-02 }
                  - { var:17, quality:3.5333237051963806e-01,
                      le:3.3182710409164429e-01 }
                  - { var:36, quality:3.5302910208702087e-01,
                      gt:1.9684028625488281e-01 }
                  - { var:20, quality:3.5227534174919128e-01,
                      le:3.9486432075500488e-01 }
                  - { var:14, quality:3.5070440173149109e-01,
                      le:3.0599808692932129e-01 }
                  - { var:6, quality:3.4958136081695557e-01,
                      le:4.6362124383449554e-02 }
                  - { var:1, quality:3.4624400734901428e-01,
                      le:7.1884512901306152e-02 }
                  - { var:2, quality:3.4507617354393005e-01,
                      gt:1.2773364782333374e-01 }
                  - { var:16, quality:3.4389507770538330e-01,
                      le:5.8048367500305176e-01 }
                  - { var:30, quality:3.4335809946060181e-01,
                      gt:3.7303082644939423e-02 }
                  - { var:8, quality:3.4327453374862671e-01,
                      gt:9.6793517470359802e-02 }
                  - { var:15, quality:3.4138825535774231e-01,
                      le:3.2706397771835327e-01 }
                  - { var:24, quality:3.4107875823974609e-01,
                      le:6.2202310562133789e-01 }
                  - { var:19, quality:3.4048908948898315e-01,
                      le:7.4993956089019775e-01 }
                  - { var:21, quality:3.4029862284660339e-01,
                      le:5.9549772739410400e-01 }
                  - { var:23, quality:3.3880287408828735e-01,
                      le:6.7163008451461792e-01 }
                  - { var:37, quality:3.3868265151977539e-01,
                      gt:1.8090721964836121e-01 }
                  - { var:13, quality:3.3833113312721252e-01,
                      le:8.5417705774307251e-01 }
                  - { var:12, quality:3.3500796556472778e-01,
                      gt:7.1286237239837646e-01 }
                  - { var:33, quality:3.3168905973434448e-01,
                      gt:8.6473569273948669e-02 }
                  - { var:25, quality:3.3084225654602051e-01,
                      gt:5.5000001192092896e-01 }
                  - { var:34, quality:3.2818347215652466e-01,
                      le:4.1430512070655823e-01 }
                  - { var:35, quality:3.2721883058547974e-01,
                      gt:5.1559948921203613e-01 }
                  - { var:31, quality:3.2576921582221985e-01,
                      gt:1.2137705087661743e-01 }
                  - { var:28, quality:3.2534328103065491e-01,
                      gt:2.5000000000000000e-01 }
                  - { var:27, quality:3.1911903619766235e-01,
                      gt:7.5000000000000000e-01 }
                  - { var:29, quality:3.0417549610137939e-01,
                      gt:4.4999998807907104e-01 }
            -
               depth: 1
               sample_count: 156
               value: -4.7710089755570767e-01
               norm_class_idx: 0
               Tn: 0
               complexity: 0
               alpha: 0.
               node_risk: 0.
               tree_risk: 0.
               tree_error: 0.
            -
               depth: 1
               sample_count: 106
               value: 4.7710089755570767e-01
               norm_class_idx: 1
               Tn: 0
               complexity: 0
               alpha: 0.
               node_risk: 0.
               tree_risk: 0.
               tree_error: 0.
      -
         best_tree_idx: -1
         nodes:
            -
               depth: 0
               sample_count: 264
               value: -5.8743759321734446e-01
               norm_class_idx: 0
               Tn: 0
               complexity: 0
               alpha: 0.
               node_risk: 0.
               tree_risk: 0.
               tree_error: 0.
               splits:
                  - { var:24, quality:5.9556698799133301e-01,
                      le:3.4496450424194336e-01 }
                  - { var:19, quality:5.7876253128051758e-01,
                      le:3.9345338940620422e-01 }
                  - { var:18, quality:5.7382023334503174e-01,
                      le:3.3075430989265442e-01 }
                  - { var:22, quality:5.7252490520477295e-01,
                      le:3.0234563350677490e-01 }
                  - { var:23, quality:5.6955099105834961e-01,
                      le:3.7980031967163086e-01 }
                  - { var:15, quality:5.5088561773300171e-01,
                      le:3.6191350221633911e-01 }
                  - { var:14, quality:5.4827535152435303e-01,
                      le:4.6368885040283203e-01 }
                  - { var:12, quality:5.2618366479873657e-01,
                      gt:9.7538912296295166e-01 }
                  - { var:30, quality:5.1672035455703735e-01,
                      gt:4.2492918670177460e-02 }
                  - { var:20, quality:5.1275259256362915e-01,
                      le:2.9038500785827637e-01 }
                  - { var:38, quality:5.1099532842636108e-01,
                      gt:2.6254034601151943e-03 }
                  - { var:39, quality:4.9133563041687012e-01,
                      gt:2.6162755675613880e-03 }
                  - { var:8, quality:4.8563995957374573e-01,
                      gt:9.3731835484504700e-02 }
                  - { var:36, quality:4.8367509245872498e-01,
                      gt:2.1960204839706421e-01 }
                  - { var:13, quality:4.7972121834754944e-01,
                      le:7.6618343591690063e-02 }
                  - { var:11, quality:4.7943031787872314e-01,
                      gt:9.3418031930923462e-02 }
                  - { var:17, quality:4.6913877129554749e-01,
                      le:1.2753564119338989e-01 }
                  - { var:2, quality:4.6601513028144836e-01,
                      le:4.6809047460556030e-02 }
                  - { var:32, quality:4.6418431401252747e-01,
                      gt:1.5393976867198944e-01 }
                  - { var:33, quality:4.6131414175033569e-01,
                      gt:1.5497468411922455e-01 }
                  - { var:31, quality:4.5962476730346680e-01,
                      gt:1.9916002452373505e-01 }
                  - { var:21, quality:4.5924925804138184e-01,
                      le:4.4224254786968231e-02 }
                  - { var:6, quality:4.5630747079849243e-01,
                      gt:2.1206545829772949e-01 }
                  - { var:4, quality:4.5542624592781067e-01,
                      le:3.0411936342716217e-02 }
                  - { var:37, quality:4.5422440767288208e-01,
                      gt:2.1391415596008301e-01 }
                  - { var:34, quality:4.5393055677413940e-01,
                      gt:5.7846921682357788e-01 }
                  - { var:0, quality:4.5314672589302063e-01,
                      gt:2.7898955345153809e-01 }
                  - { var:7, quality:4.5255795121192932e-01,
                      gt:2.5316068530082703e-01 }
                  - { var:28, quality:4.5219179987907410e-01,
                      gt:9.4999998807907104e-01 }
                  - { var:35, quality:4.5160296559333801e-01,
                      gt:7.5492060184478760e-01 }
            -
               depth: 1
               sample_count: 38
               value: 5.8743759321734446e-01
               norm_class_idx: 1
               Tn: 0
               complexity: 0
               alpha: 0.
               node_risk: 0.
               tree_risk: 0.
               tree_error: 0.
            -
               depth: 1
               sample_count: 226
               value: -5.8743759321734446e-01
               norm_class_idx: 0
               Tn: 0
               complexity: 0
               alpha: 0.
               node_risk: 0.
               tree_risk: 0.
               tree_error: 0.
      -
         best_tree_idx: -1
         nodes:
            -
               depth: 0
               sample_count: 238
               value: 4.8923389738817219e-01
               norm_class_idx: 1
               Tn: 0
               complexity: 0
               alpha: 0.
               node_risk: 0.
               tree_risk: 0.
               tree_error: 0.
               splits:
                  - { var:30, quality:6.1711245775222778e-01,
                      le:5.2438519895076752e-02 }
                  - { var:38, quality:5.8231580257415771e-01,
                      le:2.8864112682640553e-03 }
                  - { var:39, quality:5.7983481884002686e-01,
                      le:3.0821557156741619e-03 }
                  - { var:24, quality:5.5223423242568970e-01,
                      gt:1.4393258094787598e-01 }
                  - { var:17, quality:5.5213940143585205e-01,
                      gt:1.0004946589469910e-01 }
                  - { var:19, quality:5.5057448148727417e-01,
                      gt:9.1517433524131775e-02 }
                  - { var:18, quality:5.4955512285232544e-01,
                      gt:9.5767259597778320e-02 }
                  - { var:23, quality:5.4948705434799194e-01,
                      gt:1.3151368498802185e-01 }
                  - { var:20, quality:5.4927355051040649e-01,
                      gt:1.6440743207931519e-01 }
                  - { var:22, quality:5.4864650964736938e-01,
                      gt:9.7125403583049774e-02 }
                  - { var:15, quality:5.4423367977142334e-01,
                      gt:9.2952281236648560e-02 }
                  - { var:11, quality:5.4138129949569702e-01,
                      le:1.6691246628761292e-01 }
                  - { var:21, quality:5.3940379619598389e-01,
                      gt:4.4224254786968231e-02 }
                  - { var:4, quality:5.3767156600952148e-01,
                      gt:3.1760245561599731e-02 }
                  - { var:36, quality:5.3603667020797729e-01,
                      le:2.5335559248924255e-01 }
                  - { var:6, quality:5.3584718704223633e-01,
                      le:2.1206545829772949e-01 }
                  - { var:1, quality:5.3551906347274780e-01,
                      le:1.9718271493911743e-01 }
                  - { var:2, quality:5.3501439094543457e-01,
                      gt:3.6051571369171143e-02 }
                  - { var:31, quality:5.3460174798965454e-01,
                      le:2.1980416774749756e-01 }
                  - { var:33, quality:5.3454917669296265e-01,
                      gt:2.9741302132606506e-02 }
                  - { var:34, quality:5.3439807891845703e-01,
                      le:7.5806272029876709e-01 }
                  - { var:8, quality:5.3439545631408691e-01,
                      le:2.6683622598648071e-01 }
                  - { var:35, quality:5.3411751985549927e-01,
                      le:7.2470617294311523e-01 }
                  - { var:32, quality:5.3399014472961426e-01,
                      gt:2.9324032366275787e-02 }
                  - { var:7, quality:5.3382766246795654e-01,
                      le:2.5316068530082703e-01 }
            -
               depth: 1
               sample_count: 196
               value: 4.8923389738817219e-01
               norm_class_idx: 1
               Tn: 0
               complexity: 0
               alpha: 0.
               node_risk: 0.
               tree_risk: 0.
               tree_error: 0.
            -
               depth: 1
               sample_count: 42
               value: -4.8923389738817219e-01
               norm_class_idx: 0
               Tn: 0
               complexity: 0
               alpha: 0.
               node_risk: 0.
               tree_risk: 0.
               tree_error: 0.
      -
         best_tree_idx: -1
         nodes:
            -
               depth: 0
               sample_count: 258
               value: -4.8447876199464007e-01
               norm_class_idx: 0
               Tn: 0
               complexity: 0
               alpha: 0.
               node_risk: 0.
               tree_risk: 0.
               tree_error: 0.
               splits:
                  - { var:33, quality:5.7855743169784546e-01,
                      le:8.9238688349723816e-02 }
                  - { var:31, quality:5.1475787162780762e-01,
                      le:1.2861141562461853e-01 }
                  - { var:32, quality:5.0118553638458252e-01,
                      le:8.5917115211486816e-02 }
                  - { var:37, quality:4.9048492312431335e-01,
                      le:1.5485391020774841e-01 }
                  - { var:36, quality:4.6446046233177185e-01,
                      le:1.1776205152273178e-01 }
                  - { var:13, quality:4.1924569010734558e-01,
                      gt:8.6303156614303589e-01 }
                  - { var:35, quality:4.1273027658462524e-01,
                      le:4.2676538228988647e-01 }
                  - { var:3, quality:4.0014037489891052e-01,
                      le:5.1601737737655640e-02 }
                  - { var:34, quality:3.9195466041564941e-01,
                      le:3.9529475569725037e-01 }
                  - { var:10, quality:3.8454735279083252e-01,
                      le:2.5156119838356972e-02 }
                  - { var:8, quality:3.8265755772590637e-01,
                      le:3.9533160626888275e-02 }
                  - { var:7, quality:3.7026178836822510e-01,
                      gt:9.5191530883312225e-02 }
                  - { var:17, quality:3.6748328804969788e-01,
                      gt:6.2279188632965088e-01 }
                  - { var:9, quality:3.6746454238891602e-01,
                      gt:1.1224779486656189e-01 }
                  - { var:21, quality:3.6576282978057861e-01,
                      gt:6.4930284023284912e-01 }
                  - { var:4, quality:3.6142051219940186e-01,
                      gt:1.6927537322044373e-01 }
                  - { var:30, quality:3.6060115694999695e-01,
                      gt:3.5137802362442017e-02 }
                  - { var:5, quality:3.5772249102592468e-01,
                      le:5.8583170175552368e-02 }
                  - { var:39, quality:3.5612753033638000e-01,
                      le:1.2412125943228602e-03 }
                  - { var:29, quality:3.5237202048301697e-01,
                      le:1.5000000596046448e-01 }
                  - { var:12, quality:3.5224166512489319e-01,
                      le:6.3127323985099792e-02 }
                  - { var:16, quality:3.5109674930572510e-01,
                      gt:5.8455228805541992e-01 }
                  - { var:22, quality:3.5068997740745544e-01,
                      gt:5.3210026025772095e-01 }
                  - { var:1, quality:3.4943366050720215e-01,
                      le:3.1901873648166656e-02 }
                  - { var:20, quality:3.4654986858367920e-01,
                      gt:5.0589287281036377e-01 }
                  - { var:24, quality:3.4541243314743042e-01,
                      le:2.8707438707351685e-01 }
                  - { var:28, quality:3.4391269087791443e-01,
                      gt:3.5000002384185791e-01 }
                  - { var:38, quality:3.4223189949989319e-01,
                      le:1.0107983835041523e-03 }
                  - { var:27, quality:3.3927139639854431e-01,
                      gt:7.5000000000000000e-01 }
                  - { var:19, quality:3.3620253205299377e-01,
                      le:2.7649807929992676e-01 }
                  - { var:6, quality:3.3379966020584106e-01,
                      gt:1.2197345495223999e-01 }
                  - { var:11, quality:3.3331516385078430e-01,
                      le:3.3161606639623642e-02 }
                  - { var:2, quality:3.3290463685989380e-01,
                      le:4.3595131486654282e-02 }
                  - { var:15, quality:3.3286967873573303e-01,
                      gt:5.3996640443801880e-01 }
                  - { var:23, quality:3.3253431320190430e-01,
                      gt:7.3576068878173828e-01 }
                  - { var:0, quality:3.2752642035484314e-01,
                      le:4.5049700886011124e-02 }
                  - { var:18, quality:3.2613581418991089e-01,
                      gt:7.9815369844436646e-01 }
                  - { var:14, quality:3.2295256853103638e-01,
                      le:9.8776382207870483e-01 }
            -
               depth: 1
               sample_count: 149
               value: -4.8447876199464007e-01
               norm_class_idx: 0
               Tn: 0
               complexity: 0
               alpha: 0.
               node_risk: 0.
               tree_risk: 0.
               tree_error: 0.
            -
               depth: 1
               sample_count: 109
               value: 4.8447876199464007e-01
               norm_class_idx: 1
               Tn: 0
               complexity: 0
               alpha: 0.
               node_risk: 0.
               tree_risk: 0.
               tree_error: 0.
      -
         best_tree_idx: -1
         nodes:
            -
               depth: 0
               sample_count: 245
               value: -5.3697147637119602e-01
               norm_class_idx: 0
               Tn: 0
               complexity: 0
               alpha: 0.
               node_risk: 0.
               tree_risk: 0.
               tree_error: 0.
               splits:
                  - { var:35, quality:6.1975944042205811e-01,
                      le:4.4432836771011353e-01 }
                  - { var:34, quality:5.2852070331573486e-01,
                      le:4.3625956773757935e-01 }
                  - { var:37, quality:4.9682977795600891e-01,
                      le:1.0346075892448425e-01 }
                  - { var:31, quality:4.7102794051170349e-01,
                      le:1.1870273947715759e-01 }
                  - { var:36, quality:4.6999663114547729e-01,
                      le:9.6289493143558502e-02 }
                  - { var:33, quality:4.5249691605567932e-01,
                      le:8.1882551312446594e-02 }
                  - { var:13, quality:4.4004571437835693e-01,
                      gt:7.1348297595977783e-01 }
                  - { var:32, quality:4.3807995319366455e-01,
                      le:6.3872978091239929e-02 }
                  - { var:39, quality:4.2825973033905029e-01,
                      le:1.4033671468496323e-03 }
                  - { var:18, quality:4.1945311427116394e-01,
                      gt:6.4566546678543091e-01 }
                  - { var:21, quality:4.1827073693275452e-01,
                      le:1.4253234863281250e-01 }
                  - { var:23, quality:4.1616511344909668e-01,
                      gt:6.4007985591888428e-01 }
                  - { var:16, quality:4.1109836101531982e-01,
                      le:9.9474921822547913e-02 }
                  - { var:1, quality:4.1070207953453064e-01,
                      le:4.1233807802200317e-02 }
                  - { var:17, quality:4.1000664234161377e-01,
                      gt:6.4682322740554810e-01 }
                  - { var:38, quality:4.0998512506484985e-01,
                      le:1.6161254607141018e-03 }
                  - { var:6, quality:4.0475919842720032e-01,
                      le:4.6845372766256332e-02 }
                  - { var:10, quality:4.0312084555625916e-01,
                      le:2.5325346738100052e-02 }
                  - { var:12, quality:4.0022018551826477e-01,
                      le:1.4248181879520416e-01 }
                  - { var:14, quality:3.9893513917922974e-01,
                      gt:6.8166029453277588e-01 }
                  - { var:24, quality:3.9835259318351746e-01,
                      gt:4.4170683622360229e-01 }
                  - { var:19, quality:3.9733907580375671e-01,
                      gt:5.9353047609329224e-01 }
                  - { var:5, quality:3.9499703049659729e-01,
                      le:3.8811743259429932e-02 }
                  - { var:9, quality:3.9403510093688965e-01,
                      gt:1.1224779486656189e-01 }
                  - { var:3, quality:3.9401334524154663e-01,
                      le:5.4703723639249802e-02 }
                  - { var:7, quality:3.9016178250312805e-01,
                      le:2.9127100482583046e-02 }
                  - { var:22, quality:3.8966992497444153e-01,
                      gt:6.3796532154083252e-01 }
                  - { var:0, quality:3.8765618205070496e-01,
                      le:5.4450042545795441e-02 }
                  - { var:2, quality:3.8663926720619202e-01,
                      gt:1.6824266314506531e-01 }
                  - { var:4, quality:3.8655510544776917e-01,
                      gt:1.8519589304924011e-01 }
                  - { var:8, quality:3.8258308172225952e-01,
                      le:2.6587227359414101e-02 }
                  - { var:20, quality:3.8225820660591125e-01,
                      gt:6.3970112800598145e-01 }
                  - { var:11, quality:3.8062050938606262e-01,
                      le:1.9352827221155167e-02 }
                  - { var:30, quality:3.7935876846313477e-01,
                      le:7.2554210200905800e-03 }
                  - { var:15, quality:3.7663844227790833e-01,
                      gt:6.2826919555664062e-01 }
                  - { var:27, quality:3.6162146925926208e-01,
                      gt:7.5000000000000000e-01 }
                  - { var:28, quality:3.5990184545516968e-01,
                      gt:7.5000000000000000e-01 }
            -
               depth: 1
               sample_count: 95
               value: 5.3697147637119602e-01
               norm_class_idx: 1
               Tn: 0
               complexity: 0
               alpha: 0.
               node_risk: 0.
               tree_risk: 0.
               tree_error: 0.
            -
               depth: 1
               sample_count: 150
               value: -5.3697147637119602e-01
               norm_class_idx: 0
               Tn: 0
               complexity: 0
               alpha: 0.
               node_risk: 0.
               tree_risk: 0.
               tree_error: 0.
      -
         best_tree_idx: -1
         nodes:
            -
               depth: 0
               sample_count: 260
               value: -4.7653696192329004e-01
               norm_class_idx: 0
               Tn: 0
               complexity: 0
               alpha: 0.
               node_risk: 0.
               tree_risk: 0.
               tree_error: 0.
               splits:
                  - { var:6, quality:5.8179187774658203e-01,
                      le:8.6803182959556580e-02 }
                  - { var:34, quality:4.2353996634483337e-01,
                      le:5.3996020555496216e-01 }
                  - { var:27, quality:4.1513508558273315e-01,
                      le:9.4999998807907104e-01 }
                  - { var:22, quality:4.0748518705368042e-01,
                      le:7.9091846942901611e-01 }
                  - { var:38, quality:4.0661540627479553e-01,
                      le:2.8076884336769581e-03 }
                  - { var:2, quality:4.0346610546112061e-01,
                      le:1.9781833887100220e-01 }
                  - { var:18, quality:4.0237981081008911e-01,
                      gt:2.5212562084197998e-01 }
                  - { var:5, quality:4.0197184681892395e-01,
                      gt:3.1807042658329010e-02 }
                  - { var:16, quality:4.0176916122436523e-01,
                      le:6.8370151519775391e-01 }
                  - { var:37, quality:4.0115481615066528e-01,
                      le:2.1391415596008301e-01 }
                  - { var:14, quality:3.9952224493026733e-01,
                      gt:3.0599808692932129e-01 }
                  - { var:24, quality:3.9945530891418457e-01,
                      le:8.0535334348678589e-01 }
                  - { var:0, quality:3.9752393960952759e-01,
                      gt:3.8356516510248184e-02 }
                  - { var:12, quality:3.9439782500267029e-01,
                      le:1.9582086801528931e-01 }
                  - { var:39, quality:3.9386391639709473e-01,
                      le:2.6060170494019985e-03 }
                  - { var:32, quality:3.9370852708816528e-01,
                      le:1.5393976867198944e-01 }
                  - { var:1, quality:3.9318433403968811e-01,
                      le:1.4153692126274109e-01 }
                  - { var:31, quality:3.9306378364562988e-01,
                      le:1.8869784474372864e-01 }
                  - { var:33, quality:3.9288848638534546e-01,
                      le:1.5497468411922455e-01 }
                  - { var:4, quality:3.9284631609916687e-01,
                      gt:2.8295062482357025e-02 }
                  - { var:15, quality:3.9265936613082886e-01,
                      gt:2.3313628137111664e-01 }
                  - { var:19, quality:3.9194431900978088e-01,
                      gt:3.2997673749923706e-01 }
                  - { var:23, quality:3.9106473326683044e-01,
                      gt:4.3881231546401978e-01 }
                  - { var:36, quality:3.9097183942794800e-01,
                      le:2.8577306866645813e-01 }
                  - { var:35, quality:3.9001652598381042e-01,
                      le:6.9946813583374023e-01 }
                  - { var:11, quality:3.8962146639823914e-01,
                      le:1.0839381068944931e-01 }
                  - { var:7, quality:3.8887947797775269e-01,
                      le:2.5316068530082703e-01 }
                  - { var:20, quality:3.8864186406135559e-01,
                      gt:1.5513935685157776e-01 }
                  - { var:21, quality:3.8807022571563721e-01,
                      le:7.5330054759979248e-01 }
                  - { var:8, quality:3.8738733530044556e-01,
                      gt:2.5739647448062897e-02 }
                  - { var:30, quality:3.8620278239250183e-01,
                      le:4.8516575247049332e-02 }
                  - { var:29, quality:3.8572824001312256e-01,
                      le:9.4999998807907104e-01 }
                  - { var:9, quality:3.8560935854911804e-01,
                      gt:1.9273908808827400e-02 }
                  - { var:10, quality:3.8489916920661926e-01,
                      gt:9.9153574556112289e-03 }
            -
               depth: 1
               sample_count: 193
               value: -4.7653696192329004e-01
               norm_class_idx: 0
               Tn: 0
               complexity: 0
               alpha: 0.
               node_risk: 0.
               tree_risk: 0.
               tree_error: 0.
            -
               depth: 1
               sample_count: 67
               value: 4.7653696192329004e-01
               norm_class_idx: 1
               Tn: 0
               complexity: 0
               alpha: 0.
               node_risk: 0.
               tree_risk: 0.
               tree_error: 0.
      -
         best_tree_idx: -1
         nodes:
            -
               depth: 0
               sample_count: 252
               value: 4.2423178103164932e-01
               norm_class_idx: 1
               Tn: 0
               complexity: 0
               alpha: 0.
               node_risk: 0.
               tree_risk: 0.
               tree_error: 0.
               splits:
                  - { var:1, quality:5.9282165765762329e-01,
                      le:9.7379624843597412e-02 }
                  - { var:7, quality:5.0606983900070190e-01,
                      gt:4.2956203222274780e-02 }
                  - { var:4, quality:4.6028310060501099e-01,
                      le:2.4176304042339325e-01 }
                  - { var:6, quality:4.5892980694770813e-01,
                      gt:1.6524035483598709e-02 }
                  - { var:10, quality:4.5873957872390747e-01,
                      le:2.0242545008659363e-01 }
                  - { var:2, quality:4.5817402005195618e-01,
                      gt:4.4564530253410339e-02 }
                  - { var:8, quality:4.5600813627243042e-01,
                      le:1.2842726707458496e-01 }
                  - { var:24, quality:4.5419821143150330e-01,
                      le:8.2907509803771973e-01 }
                  - { var:18, quality:4.5390573143959045e-01,
                      le:8.9802229404449463e-01 }
                  - { var:22, quality:4.5316892862319946e-01,
                      le:8.1056112051010132e-01 }
                  - { var:35, quality:4.5150959491729736e-01,
                      le:7.0738196372985840e-01 }
                  - { var:30, quality:4.5027169585227966e-01,
                      gt:6.5710097551345825e-03 }
                  - { var:38, quality:4.4984173774719238e-01,
                      gt:6.4251513686031103e-04 }
                  - { var:9, quality:4.4966027140617371e-01,
                      le:2.1432776749134064e-01 }
                  - { var:34, quality:4.4939032196998596e-01,
                      le:7.3107981681823730e-01 }
                  - { var:15, quality:4.4912651181221008e-01,
                      le:9.9940937757492065e-01 }
                  - { var:39, quality:4.4652459025382996e-01,
                      gt:1.8357519002165645e-04 }
                  - { var:33, quality:4.4631394743919373e-01,
                      le:1.6231614351272583e-01 }
                  - { var:37, quality:4.4607755541801453e-01,
                      le:2.9191699624061584e-01 }
                  - { var:11, quality:4.4597402215003967e-01,
                      gt:7.1960482746362686e-03 }
                  - { var:23, quality:4.4528296589851379e-01,
                      le:9.6917587518692017e-01 }
                  - { var:31, quality:4.4525814056396484e-01,
                      le:2.1980416774749756e-01 }
                  - { var:14, quality:4.4522738456726074e-01,
                      gt:8.4473058581352234e-02 }
                  - { var:0, quality:4.4517117738723755e-01,
                      gt:2.0270500332117081e-02 }
                  - { var:3, quality:4.4512379169464111e-01,
                      gt:7.7239284291863441e-03 }
                  - { var:32, quality:4.4495382905006409e-01,
                      gt:2.4471782147884369e-02 }
            -
               depth: 1
               sample_count: 178
               value: 4.2423178103164932e-01
               norm_class_idx: 1
               Tn: 0
               complexity: 0
               alpha: 0.
               node_risk: 0.
               tree_risk: 0.
               tree_error: 0.
            -
               depth: 1
               sample_count: 74
               value: -4.2423178103164932e-01
               norm_class_idx: 0
               Tn: 0
               complexity: 0
               alpha: 0.
               node_risk: 0.
               tree_risk: 0.
               tree_error: 0.
      -
         best_tree_idx: -1
         nodes:
            -
               depth: 0
               sample_count: 257
               value: -4.5222860147730626e-01
               norm_class_idx: 0
               Tn: 0
               complexity: 0
               alpha: 0.
               node_risk: 0.
               tree_risk: 0.
               tree_error: 0.
               splits:
                  - { var:0, quality:5.6719756126403809e-01,
                      le:7.2091527283191681e-02 }
                  - { var:3, quality:4.6184194087982178e-01,
                      gt:1.6436395049095154e-01 }
                  - { var:9, quality:4.5810365676879883e-01,
                      gt:1.3465815782546997e-01 }
                  - { var:38, quality:4.5124414563179016e-01,
                      le:7.1323732845485210e-04 }
                  - { var:30, quality:4.5069244503974915e-01,
                      le:6.8275863304734230e-03 }
                  - { var:1, quality:4.5000347495079041e-01,
                      le:2.9767211526632309e-02 }
                  - { var:4, quality:4.4772422313690186e-01,
                      gt:2.3211714625358582e-01 }
                  - { var:7, quality:4.4528204202651978e-01,
                      le:1.7948994413018227e-02 }
                  - { var:39, quality:4.4523644447326660e-01,
                      le:1.1253708507865667e-03 }
                  - { var:24, quality:4.4451126456260681e-01,
                      gt:8.2416749000549316e-01 }
                  - { var:2, quality:4.4362467527389526e-01,
                      gt:2.0980885624885559e-01 }
                  - { var:32, quality:4.4023159146308899e-01,
                      gt:1.5393976867198944e-01 }
                  - { var:33, quality:4.3865844607353210e-01,
                      gt:1.5141056478023529e-01 }
                  - { var:34, quality:4.3836069107055664e-01,
                      gt:6.8433225154876709e-01 }
                  - { var:6, quality:4.3773996829986572e-01,
                      gt:2.1206545829772949e-01 }
                  - { var:35, quality:4.3745043873786926e-01,
                      gt:6.9485747814178467e-01 }
                  - { var:5, quality:4.3743434548377991e-01,
                      le:2.2571653127670288e-02 }
                  - { var:17, quality:4.3725460767745972e-01,
                      gt:8.6498928070068359e-01 }
                  - { var:20, quality:4.3724146485328674e-01,
                      gt:9.0509200096130371e-01 }
